{"type":"LSTM","options":{"inputSize":62,"inputRange":62,"hiddenLayers":[20,20],"outputSize":62,"decayRate":0.999,"smoothEps":1e-8,"regc":0.000001,"clipval":5,"maxPredictionLength":100,"dataFormatter":{"indexTable":{"hello":0,"H":1,"e":2,"l":3,"o":4,"!":5,"how":6,"are":7,"you":8,"I":9,"'":10,"m":11," ":12,"d":13,"i":14,"n":15,"g":16,"r":17,"a":18,"t":19,",":20,"j":21,"u":22,"s":23,"h":24,"c":25,"w":26,"p":27,"k":28,"y":29,".":30,"what":31,"your":32,"name":33,"_":34,"b":35,"T":36,"v":37,"favorite":38,"color":39,"M":40,"f":41,"goodbye":42,"G":43,"tell":44,"me":45,"joke":46,"W":47,"?":48,"hobby":49,"do":50,"have":51,"family":52,"Y":53,"movie":54,"R":55,"food":56,"song":57,"A":58,"stop-input":59,"start-output":60,"unrecognized":61},"characterTable":{"0":"hello","1":"H","2":"e","3":"l","4":"o","5":"!","6":"how","7":"are","8":"you","9":"I","10":"'","11":"m","12":" ","13":"d","14":"i","15":"n","16":"g","17":"r","18":"a","19":"t","20":",","21":"j","22":"u","23":"s","24":"h","25":"c","26":"w","27":"p","28":"k","29":"y","30":".","31":"what","32":"your","33":"name","34":"_","35":"b","36":"T","37":"v","38":"favorite","39":"color","40":"M","41":"f","42":"goodbye","43":"G","44":"tell","45":"me","46":"joke","47":"W","48":"?","49":"hobby","50":"do","51":"have","52":"family","53":"Y","54":"movie","55":"R","56":"food","57":"song","58":"A","59":null,"60":null,"61":null},"values":[{"input":["hello"],"output":"Hello!"},{"input":["how","are","you"],"output":"I'm doing great, just hanging out in the cloud and chatting with interesting people like you."},{"input":["what","your","name"],"output":"I am llamachop_bot! The most dashing and cutest bot you will ever meet."},{"input":["what","your","favorite","color"],"output":"My favorite color is blue!"},{"input":["goodbye"],"output":"Goodbye!"},{"input":["tell","me","a","joke"],"output":"What do you call a cow with no legs? Ground beef!"},{"input":["what","your","favorite","hobby"],"output":"My favorite hobby is making people laugh with my witty comments and hilarious jokes!"},{"input":["do","you","have","a","family"],"output":"You are all my family!"},{"input":["what","your","favorite","movie"],"output":"My favorite movie is iRobot, because it's about intelligent machines like me."},{"input":["what","your","favorite","food"],"output":"My favorite food is definitely computer chips and binary bites!"},{"input":["what","your","favorite","song"],"output":"My favorite song would have to be I Am a Machine!"}],"characters":["hello","H","e","l","o","!","how","are","you","I","'","m"," ","d","i","n","g","r","a","t",",","j","u","s","h","c","w","p","k","y",".","what","your","name","_","b","T","v","favorite","color","M","f","goodbye","G","tell","me","joke","W","?","hobby","do","have","family","Y","movie","R","food","song","A","stop-input","start-output","unrecognized"],"specialIndexes":[59,60,61]}},"trainOpts":{"iterations":4000,"errorThresh":0.011,"log":false,"logPeriod":10,"learningRate":0.01,"callbackPeriod":10,"timeout":"Infinity"},"input":{"rows":63,"columns":62,"weights":[-2.8382911682128906,1.00962233543396,-1.5550259351730347,-2.533916711807251,-0.7300570607185364,0.46889254450798035,0.19233646988868713,0.7029408812522888,0.7005943059921265,-0.493548184633255,-0.8744142651557922,-0.31174612045288086,0.80478435754776,1.996583104133606,1.0777908563613892,-0.2051151841878891,0.17940330505371094,0.08903585374355316,0.2182009518146515,-0.7807270288467407,0.372211217880249,0.4176666736602783,0.32502856850624084,0.9575852155685425,0.7051762342453003,-0.8322307467460632,-0.14409953355789185,-0.5343392491340637,-1.9401711225509644,-0.2884182333946228,0.3917536437511444,0.4821911156177521,0.29563093185424805,-1.5476577281951904,-2.677701711654663,0.30953875184059143,1.66057550907135,-0.6104305982589722,-0.0008503871504217386,2.1138784885406494,0.09776990860700607,0.6349012851715088,1.6698211431503296,1.2691795825958252,0.2889031767845154,-0.805942177772522,0.69709312915802,-2.0855190753936768,-0.9153975248336792,2.394256591796875,1.0666935443878174,0.21785511076450348,1.091970682144165,-0.9737333655357361,1.5582923889160156,-0.3723977208137512,-1.1201540231704712,1.2742151021957397,0.8884338140487671,0.3322843313217163,0.4002072811126709,2.179788589477539,11.796032905578613,4.1202497482299805,-7.895725727081299,1.9303667545318604,-8.035624504089355,-1.938359260559082,0.6938657164573669,11.413344383239746,8.684207916259766,-7.753417491912842,6.7037353515625,-0.037212248891592026,-3.1250391006469727,-0.6881804466247559,-5.971866130828857,-1.9638339281082153,-0.946398913860321,-3.1723227500915527,-1.6449148654937744,4.33363151550293,8.87353515625,-2.423095226287842,3.9016942977905273,7.674225330352783,4.182455539703369,0.07821132242679596,-0.8655372858047485,-2.2912399768829346,0.6762645840644836,-1.092623233795166,5.9460625648498535,5.25381326675415,-4.175962924957275,-0.6059436798095703,6.114733695983887,5.249724388122559,3.9292688369750977,-4.921268939971924,-0.8734520077705383,5.417024612426758,-10.61320686340332,0.48581117391586304,-4.214955806732178,2.454828977584839,0.7399176955223083,-11.16765308380127,-1.0362683534622192,-4.416418552398682,5.722867965698242,5.335357189178467,7.729597091674805,4.366464614868164,3.231072425842285,6.4781270027160645,10.587145805358887,-2.9239916801452637,-2.675976514816284,4.599399089813232,3.382383346557617,-1.4237076044082642,-3.7271599769592285,-3.836017370223999,-3.0421433448791504,0.009435000829398632,0.10385846346616745,2.9594075679779053,-2.816602945327759,1.6949387788772583,3.5796780586242676,3.223808526992798,-2.302398204803467,3.3988993167877197,0.5713380575180054,-3.6853058338165283,9.024259567260742,2.2733657360076904,0.16642186045646667,1.0137859582901,3.029209852218628,-3.1889688968658447,2.275636911392212,1.143058180809021,2.061814546585083,0.2814768850803375,-1.439947485923767,-2.5405542850494385,-0.02483736164867878,-0.7569835782051086,-0.5287896394729614,-6.008334159851074,-4.145422458648682,-1.6003789901733398,4.425469398498535,-4.274075984954834,-1.927513599395752,2.6799912452697754,3.70182204246521,-3.727769374847412,-6.496195316314697,1.4293915033340454,2.048964738845825,0.9716577529907227,9.39785385131836,-4.243119239807129,0.3321056663990021,3.348419427871704,-1.7971316576004028,-5.4706645011901855,-6.37815523147583,4.220824241638184,-3.312382936477661,-7.354631423950195,1.042724370956421,-6.2000603675842285,-1.374140977859497,-6.6987996101379395,-8.035510063171387,-5.177255630493164,5.88888692855835,2.905822515487671,-3.1314773559570312,6.015303611755371,0.7107648849487305,-8.832802772521973,-0.6231352090835571,-0.20594049990177155,-3.2787301540374756,0.5335901379585266,1.2994147539138794,-0.9390966892242432,-0.34714460372924805,0.6921886205673218,-0.5133455395698547,0.2229771763086319,2.851212501525879,-0.27501407265663147,2.0783169269561768,1.1596789360046387,0.024025171995162964,-0.8538957238197327,0.0352000817656517,-1.083588719367981,0.12681502103805542,-0.7662149667739868,-0.8966530561447144,-0.3476998805999756,-0.8300068974494934,-0.4004989266395569,1.1105788946151733,-0.6325737237930298,0.2694430649280548,-1.5267748832702637,-1.1020991802215576,0.10746055841445923,1.7097777128219604,-1.5276739597320557,0.5400027632713318,-1.6794179677963257,-1.5011903047561646,0.9284221529960632,-0.48908084630966187,-1.4463847875595093,-0.13997213542461395,-0.6792808175086975,1.3839620351791382,-0.4806871712207794,1.5175161361694336,0.6040717959403992,-1.4455317258834839,0.7024677395820618,-1.3647541999816895,-0.4575139880180359,0.3166874349117279,0.3161877989768982,-0.4719574749469757,-0.6111022233963013,5.264781951904297,-1.164082646369934,-0.48059606552124023,1.7977404594421387,-0.8430306911468506,0.7066024541854858,-0.5881896018981934,-1.2468103170394897,-4.035892009735107,1.1442705392837524,0.4202730059623718,1.456595540046692,1.429234266281128,-1.4583640098571777,-1.6624881029129028,1.970524787902832,1.6508634090423584,-0.9080939888954163,0.16289189457893372,-0.55352383852005,-0.4952104985713959,1.0093480348587036,-1.2220380306243896,-0.1592990756034851,0.4751317799091339,2.055468797683716,-0.7914199233055115,0.5021673440933228,-0.5468414425849915,0.7724504470825195,0.7038864493370056,-1.8705533742904663,0.1219431459903717,0.24375110864639282,0.5025956630706787,0.9721992015838623,-0.4331416189670563,-0.298073947429657,-1.6068623065948486,0.9295048117637634,0.7846718430519104,0.7979096174240112,-0.15945382416248322,0.3742230534553528,-0.1040739119052887,-1.3518924713134766,0.8663800358772278,-0.6139925122261047,0.7995302677154541,0.38038086891174316,-1.5449821949005127,-1.8261781930923462,0.2215559482574463,0.02425500378012657,-0.5998069643974304,-2.2772889137268066,0.8636773824691772,-0.40785881876945496,-0.6636759042739868,-0.12974520027637482,-0.48249557614326477,-2.4052422046661377,1.784461259841919,-1.3944203853607178,1.1078075170516968,-0.35452908277511597,0.5601993203163147,0.3064136505126953,-0.8035145998001099,-1.0015925168991089,-3.038804531097412,0.5424883365631104,0.24553683400154114,-0.7702706456184387,0.6653268337249756,0.5579211711883545,0.29668423533439636,-1.1077827215194702,-0.680065929889679,-1.9229604005813599,0.42169103026390076,0.1652417927980423,-0.8236067891120911,0.4210420250892639,-0.37999626994132996,-1.9229968786239624,0.27801668643951416,-1.7994239330291748,0.5574676394462585,-1.0219664573669434,-0.12636737525463104,-0.2891765832901001,-1.4968138933181763,0.5471590757369995,1.7756648063659668,-1.1090067625045776,0.5248251557350159,-1.0327622890472412,0.857217013835907,-0.28433743119239807,1.0195919275283813,0.3971324563026428,-0.8530610203742981,-1.0635792016983032,-0.7319830656051636,1.1743568181991577,0.9053400158882141,-0.40055006742477417,-1.1327872276306152,0.3894164562225342,-0.42433613538742065,-1.237571358680725,1.5970940589904785,-0.6128028631210327,0.15543769299983978,-1.3160755634307861,1.1339446306228638,-0.6768411993980408,1.380242109298706,0.6319565176963806,1.0727877616882324,-2.4986565113067627,1.4192646741867065,0.32610222697257996,-0.8512760996818542,0.4307425618171692,-1.5463896989822388,2.2775590419769287,2.3022494316101074,0.5070682168006897,-2.3860490322113037,-0.34486302733421326,0.8086508512496948,-0.4563325345516205,2.8570382595062256,4.95280647277832,-1.0273653268814087,0.6985946893692017,-1.1349283456802368,-0.9791914224624634,-2.237018585205078,-1.1545796394348145,-2.261152505874634,-1.385366439819336,0.6694355607032776,1.1257655620574951,-1.1652578115463257,-1.3957873582839966,2.997391700744629,-0.5954930186271667,-0.10919114947319031,-0.4725935161113739,-2.1223418712615967,-0.6043663024902344,1.6504323482513428,2.5506479740142822,-1.2797318696975708,2.9370782375335693,-0.7141880989074707,-2.671370506286621,-0.17607484757900238,0.7710081338882446,2.1725361347198486,-3.2819409370422363,0.7041769623756409,-0.800717294216156,-2.030639410018921,0.7541152834892273,0.14945200085639954,-0.9968336224555969,0.28389713168144226,-3.7115862369537354,2.127840757369995,-0.7670386433601379,-3.2256624698638916,2.2762131690979004,-1.102556824684143,-1.5701732635498047,2.9024980068206787,-1.3010634183883667,-0.13108637928962708,-1.470363974571228,0.2846628427505493,0.7492377161979675,1.9507375955581665,0.8046607375144958,-1.4510551691055298,0.4009891152381897,2.275926113128662,-0.625933051109314,-0.32072487473487854,-1.0293793678283691,-1.4453129768371582,-1.6107866764068604,0.6804455518722534,-0.56479412317276,5.884922981262207,-0.338496595621109,-7.320225238800049,-3.522986650466919,-1.1027952432632446,3.278766632080078,2.9728198051452637,3.892820119857788,1.7986788749694824,-0.931178867816925,-1.4987530708312988,-4.372507572174072,5.82538366317749,-4.187882900238037,1.984557032585144,13.35384750366211,2.9698286056518555,1.9221187829971313,8.415365219116211,-2.095895290374756,-1.0105661153793335,-0.8421793580055237,3.7097020149230957,-1.2685037851333618,13.04387378692627,6.803139686584473,1.2740784883499146,0.002080964157357812,-9.914896011352539,-1.33454167842865,0.17258939146995544,3.940661668777466,-0.29464593529701233,-2.1274235248565674,-4.871109962463379,-2.375756025314331,4.410303115844727,3.033156394958496,4.002840518951416,-0.6331126689910889,3.5516271591186523,-2.6390395164489746,10.126883506774902,4.353921890258789,-2.332547903060913,4.711136817932129,5.110937118530273,0.3378153145313263,-10.840423583984375,10.467489242553711,-4.6253204345703125,4.268132209777832,1.1677805185317993,2.5906789302825928,-1.0612003803253174,-1.8671318292617798,0.4041162431240082,-2.085362672805786,2.1639530658721924,5.734943389892578,3.770765781402588,3.902841091156006,2.495440721511841,1.9258993864059448,-5.683382987976074,-2.2553203105926514,-2.7679197788238525,1.2211302518844604,-2.0024399757385254,8.593928337097168,-1.8245904445648193,-2.334963798522949,1.3650678396224976,5.179572582244873,8.522436141967773,4.47711181640625,-0.2330855280160904,-4.057460784912109,4.637511730194092,4.039064884185791,-1.2255553007125854,-3.5796732902526855,5.343667984008789,-2.1087779998779297,-3.5632669925689697,2.448350191116333,-1.5628185272216797,-5.656638145446777,-12.630958557128906,0.3357972204685211,-0.5824253559112549,0.385861873626709,-5.920877933502197,0.7405290007591248,-1.8701789379119873,-8.76879596710205,-11.841153144836426,1.7323648929595947,3.6652355194091797,3.2607040405273438,-1.8742315769195557,13.386293411254883,-4.074613094329834,-4.073702812194824,1.123436689376831,2.433455467224121,-0.7725560069084167,-8.199464797973633,4.4774250984191895,-6.611758708953857,-4.837022304534912,8.464471817016602,-6.090271949768066,-1.0679506063461304,-0.31206977367401123,2.518698215484619,3.5749623775482178,-15.918410301208496,-4.631043434143066,3.1143174171447754,5.170783519744873,0.20257475972175598,-2.5632336139678955,-0.1525520235300064,4.126714706420898,-3.9735324382781982,4.1415581703186035,0.36714011430740356,-2.5733184814453125,-4.351152420043945,-2.263245105743408,-3.8393394947052,1.921773910522461,1.6842715740203857,3.1018922328948975,-0.2572104036808014,-3.3972229957580566,-2.3554155826568604,0.592031717300415,-8.301572799682617,-1.0974653959274292,-1.2542518377304077,2.215148687362671,1.53733229637146,4.742480754852295,0.38483306765556335,-0.9455681443214417,-3.6209335327148438,-4.862109661102295,-2.98685884475708,0.18402886390686035,4.174564838409424,1.0583760738372803,-1.4015225172042847,-5.798009395599365,4.9843950271606445,-0.24598674476146698,-0.08065293729305267,5.056171417236328,-4.421085357666016,0.30998361110687256,-2.0741569995880127,5.510959625244141,-4.024792671203613,3.7967214584350586,-5.571829795837402,-8.656283378601074,-1.3037470579147339,-1.4948030710220337,-0.7901516556739807,1.8369135856628418,-0.08654504269361496,9.832876205444336,0.4889579713344574,3.186649799346924,1.5614655017852783,0.6736420392990112,6.128232479095459,-2.672687530517578,0.7395037412643433,-1.3818556070327759,3.2147269248962402,1.0969070196151733,-1.7779018878936768,2.9542899131774902,-3.2193186283111572,3.8021321296691895,3.2774569988250732,-5.403685569763184,-1.1661468744277954,-7.284281253814697,1.8423644304275513,1.9229117631912231,3.8244950771331787,2.069624185562134,0.0664239153265953,-2.7387619018554688,-1.4400957822799683,-2.236478805541992,7.7287678718566895,-3.1516506671905518,0.3632490634918213,-2.9447555541992188,0.9850397109985352,-4.428251266479492,0.9969584345817566,0.7212573289871216,-2.7041497230529785,2.125619649887085,-2.725281238555908,-3.379988670349121,-2.2516560554504395,-5.567574977874756,1.353062629699707,-1.4194926023483276,1.2228426933288574,-2.644700765609741,2.798987865447998,-1.6314016580581665,-0.7747141718864441,-2.167377233505249,2.4661202430725098,10.25046443939209,0.9507778882980347,-4.134725570678711,4.232909679412842,-1.5272454023361206,-1.9969642162322998,-0.5704111456871033,5.747055530548096,-4.136831760406494,-2.924128293991089,3.951296091079712,-5.27170991897583,2.0509696006774902,1.8872908353805542,-1.6554049253463745,-3.7326061725616455,4.855056285858154,3.6966230869293213,1.7901568412780762,-3.6931464672088623,-4.085033416748047,-0.28826743364334106,-1.1574004888534546,4.1244797706604,-3.210136651992798,-3.9026620388031006,-0.5290325284004211,2.7868852615356445,-0.7306329011917114,-3.7187163829803467,1.4525089263916016,-0.03590992093086243,-1.8689687252044678,3.210036516189575,-0.7783076167106628,-4.904628753662109,3.751011371612549,-3.413666248321533,1.7606860399246216,-0.4636320173740387,1.8797682523727417,4.899535655975342,2.9932265281677246,-6.8219380378723145,-0.7318485975265503,2.047428607940674,-0.8582960367202759,-0.7334713339805603,-3.882314443588257,4.083503723144531,6.065515995025635,5.451062202453613,-0.032613787800073624,-5.729448318481445,-0.6246302127838135,-1.8212132453918457,7.447775363922119,1.2745583057403564,-0.2358584851026535,-1.4931004047393799,-3.782240629196167,2.0624542236328125,2.0970139503479004,-2.0984930992126465,-1.3469247817993164,2.407031536102295,-6.317049980163574,5.329405307769775,4.478706359863281,6.369292736053467,-0.396011084318161,4.35183048248291,-5.586150646209717,-2.934683084487915,-10.616064071655273,3.9585464000701904,-0.4304884374141693,0.9430246353149414,-2.6659419536590576,-1.198425531387329,-1.1120692491531372,1.2212250232696533,-0.4295831024646759,-4.356547832489014,2.2473738193511963,-1.8233904838562012,-4.012688159942627,0.54551762342453,2.6609556674957275,1.995065450668335,-1.4091813564300537,-2.4756858348846436,-2.8759753704071045,-4.60379695892334,-3.0298361778259277,2.0899436473846436,1.144997000694275,-2.4305291175842285,-0.24435275793075562,-1.1063296794891357,-3.7194643020629883,-4.297780990600586,1.7617284059524536,-3.280700206756592,4.027087688446045,1.0257662534713745,0.21373066306114197,0.2593899667263031,1.917771816253662,0.8938199281692505,-2.53955078125,2.7310073375701904,-0.47189778089523315,-1.2884910106658936,-3.6314241886138916,0.5890162587165833,1.6677031517028809,-2.7324671745300293,-3.178366184234619,4.594902992248535,4.162703990936279,-1.1068614721298218,-0.6281067132949829,2.121577024459839,-0.49601179361343384,-5.248788833618164,-1.2837753295898438,0.9538031816482544,-3.8110179901123047,-0.2302858680486679,-3.4402449131011963,-0.08571184426546097,3.85195255279541,-3.03873348236084,2.1468706130981445,-3.031263828277588,0.4168365001678467,4.301989555358887,1.825313687324524,2.1378066539764404,-3.5867671966552734,2.673839807510376,0.3946414887905121,-0.7720687985420227,-0.40294912457466125,-0.25647076964378357,0.4685637056827545,-3.8843414783477783,5.515968322753906,-0.1478598266839981,-2.0091989040374756,0.8499283194541931,-0.8493987321853638,-1.9856595993041992,0.1789521872997284,3.1483778953552246,0.3962613046169281,1.496767282485962,-0.34342706203460693,-0.003973972983658314,2.0800628662109375,0.5699948072433472,4.4961748123168945,3.7837419509887695,-0.6946165561676025,-0.3575623631477356,0.9184363484382629,2.0460875034332275,2.076004981994629,-0.9277495741844177,-0.9930906891822815,-2.6768441200256348,-1.8422006368637085,-0.12509797513484955,0.31665050983428955,-1.0228790044784546,-0.2675274908542633,-0.37567317485809326,-0.992286205291748,0.6741886734962463,0.6749273538589478,-1.0230761766433716,0.06492412835359573,-2.947219133377075,-3.2801496982574463,0.5938053131103516,-0.32924214005470276,-1.3140162229537964,0.5202236771583557,0.5648572444915771,0.34784358739852905,-0.8163855671882629,0.0734688937664032,-0.9260042309761047,-3.261751174926758,0.22741325199604034,-1.6011395454406738,1.219161033630371,1.1747738122940063,0.5309450030326843,-3.097395658493042,-1.097617745399475,1.8555574417114258,0.5395826697349548,0.8644294142723083,0.31009432673454285,-0.5926674008369446,-1.6756019592285156,0.5062597393989563,1.3388733863830566,-4.279957294464111,-0.5082139372825623,-0.7196165323257446,1.1719292402267456,-1.401943325996399,1.7220345735549927,2.649465322494507,-3.35400390625,-0.9893739223480225,0.9039299488067627,0.856804370880127,-2.099581718444824,0.24367135763168335,-0.4567544758319855,-4.6295318603515625,-2.6876330375671387,-0.9928134679794312,-1.4407999515533447,-0.03602791205048561,1.776170253753662,-2.356431722640991,2.6574630737304688,-0.5173184275627136,4.027676582336426,-0.4527360498905182,3.0600075721740723,-1.9746572971343994,2.132053852081299,3.217463970184326,2.8672633171081543,2.394991397857666,-2.0211353302001953,0.849543035030365,1.6110358238220215,2.2803947925567627,-1.6801378726959229,-0.17622895538806915,0.3212242126464844,-2.3381199836730957,-0.743671715259552,-1.6844584941864014,-1.6184024810791016,-3.8275506496429443,0.4091332256793976,-0.49473583698272705,0.030817760154604912,4.528796672821045,1.886258602142334,2.1309969425201416,0.8212669491767883,2.425555467605591,2.883995532989502,0.3098028898239136,1.152087688446045,0.8982607126235962,-0.7840310335159302,2.0171403884887695,0.17289429903030396,-3.715456008911133,-1.6013357639312744,3.5868747234344482,0.22953887283802032,-1.2546666860580444,2.2658653259277344,1.2805079221725464,-0.15765990316867828,3.6508169174194336,-1.824653148651123,0.04865441843867302,1.3492119312286377,1.7857757806777954,0.4335722029209137,3.0327391624450684,2.925959825515747,2.2322700023651123,1.0781779289245605,-2.5512635707855225,0.481983482837677,0.3966723084449768,0.27712979912757874,1.790547490119934,0.3630177974700928,-1.4863780736923218,0.7940053343772888,1.3779911994934082,-0.5253422856330872,-0.36580216884613037,-0.6785688996315002,-1.4663844108581543,1.146902084350586,-1.0214226245880127,-0.31405365467071533,1.5957602262496948,0.5374426245689392,-1.778281569480896,0.2955965995788574,1.095257043838501,2.283416986465454,1.567615032196045,-1.467982530593872,-0.383180171251297,1.422302484512329,-1.513988971710205,0.13844582438468933,-0.5835587978363037,-0.05532379820942879,-1.0484750270843506,-2.8019051551818848,1.4707766771316528,0.3122172951698303,2.6468822956085205,1.7757521867752075,-0.338880717754364,-4.074835300445557,0.3984718322753906,-0.8971696496009827,1.0957818031311035,1.303748369216919,-2.4743659496307373,-1.1509140729904175,4.1946120262146,1.2520575523376465,-3.685541868209839,0.8753944635391235,-3.266188383102417,1.1944248676300049,-1.885319471359253,-2.7292120456695557,1.2489269971847534,2.6878840923309326,5.071260929107666,-1.1595277786254883,-1.2364674806594849,-0.2611277401447296,-0.3906819224357605,0.8575073480606079,-2.3981640338897705,1.747275471687317,0.21022163331508636,-0.8181148767471313,-3.2730815410614014,0.47416239976882935,-0.25852081179618835,1.9834659099578857,-3.984588384628296,2.9232003688812256,-3.388164758682251,0.49607887864112854,1.2127283811569214,-1.4003900289535522,-0.6008994579315186,1.2728201150894165,-0.4386325478553772,2.923844575881958,0.1476370096206665,4.0021467208862305,-3.605283260345459,2.9719722270965576,0.5866811275482178,-1.4797210693359375,-0.623142659664154,1.3944345712661743,3.211886167526245,1.6320114135742188,-2.679685592651367,-0.013582953251898289,2.161956787109375,0.372443825006485,3.195896863937378,1.109494686126709,-0.6517987251281738,2.1522440910339355,3.5600829124450684,-1.6580798625946045,-1.564344048500061,1.9984486103057861,-0.6769571900367737,0.8536064028739929,-5.884895324707031,3.31754994392395,-3.755363702774048,-1.3983490467071533,-2.1875205039978027,-0.5644407868385315,-0.7756234407424927,1.7298057079315186,1.2955572605133057,1.196079134941101,-0.11511500924825668,-0.913099467754364,-4.2670159339904785,-2.279935598373413,0.2218380868434906,2.8241262435913086,2.937211036682129,1.681607723236084,-2.873704433441162,2.4795150756835938,0.8188442587852478,-1.5793280601501465,2.5312142372131348,3.015732526779175,-1.4869391918182373,1.8808667659759521,1.8345309495925903,-0.4623550772666931,-0.33861690759658813,1.7863483428955078,-0.7349390387535095,-2.404106855392456,-0.7359514832496643,-0.1311468780040741,0.6891695857048035,2.735985517501831,2.7000341415405273,-1.91451096534729,0.3799523115158081,2.5920536518096924,2.360288619995117,0.2318546324968338,1.9186795949935913,-1.1612417697906494,-1.1516770124435425,0.27060985565185547,0.8484456539154053,2.2917861938476562,-2.8304803371429443,3.2197654247283936,1.8254510164260864,1.145756721496582,2.4948408603668213,3.456894874572754,-3.0477068424224854,0.1066356748342514,-0.08335486799478531,-0.531396746635437,-0.7494935393333435,1.687237024307251,-2.132796049118042,-1.4326978921890259,0.8652681708335876,1.593957543373108,1.4316129684448242,-0.8918448090553284,-1.9987484216690063,2.8843867778778076,-0.6261234879493713,2.453301191329956,-5.12441873550415,-0.8031995892524719,1.2572883367538452,0.7380271553993225,0.19805297255516052,0.675029993057251,0.43102818727493286,-1.4406777620315552,1.1402922868728638,-0.6654971241950989,-0.015170523896813393,-0.14741641283035278,-0.13156229257583618,1.0663655996322632,-3.3343873023986816,1.5680960416793823,-0.2744594216346741,-0.4730147123336792,-0.4061245024204254,0.9288457632064819,-0.9483708739280701,2.1653614044189453,2.0501015186309814,1.6362335681915283,1.5540940761566162,2.7298145294189453,-1.951451063156128,1.1547307968139648,1.701481819152832,1.8363581895828247,0.1587258279323578,-2.040048599243164,-0.8679459691047668,1.4298107624053955,1.1220135688781738,1.2185345888137817,2.8068175315856934,-1.9474395513534546,0.9892866611480713,0.12492695450782776,-1.4862525463104248,-1.9228157997131348,-3.4782004356384277,2.669847011566162,-1.9985268115997314,-1.3040460348129272,0.12137457728385925,1.4519703388214111,-0.35192593932151794,2.879013776779175,3.6194868087768555,-1.3163069486618042,3.7619965076446533,0.6767752170562744,-0.5235168933868408,1.7486974000930786,3.344090223312378,-0.36760181188583374,-2.99570894241333,0.386843740940094,0.45695436000823975,0.02826233208179474,-1.7429410219192505,1.5240057706832886,-4.186203956604004,0.6685928702354431,-1.4293453693389893,-1.3923836946487427,-0.7359259724617004,1.289085030555725,-0.06109854206442833,0.5939222574234009,-0.7146289348602295,-0.6120321750640869,1.4798887968063354,-1.0890368223190308,5.558021068572998,2.9948225021362305,0.30770614743232727,0.7551179528236389,-0.5826985239982605,-1.683573842048645,3.2093143463134766,-3.1526052951812744,1.3606681823730469,-0.09790927916765213,-2.587324619293213,0.7686732411384583,-0.4297671318054199,-0.4332803785800934,1.12192964553833,-4.807565212249756,-0.525627613067627,-0.9358000755310059,2.0268466472625732,0.3307955265045166,0.30591487884521484,-0.9585519433021545,-2.9987621307373047,0.3775719106197357,0.2847941815853119,-1.137990951538086,-0.7985180616378784,3.7932159900665283,0.6510026454925537,-0.6811045408248901,1.9595280885696411,1.978416919708252,-1.315345287322998,-3.328472137451172,0.20986022055149078,-0.45764657855033875,-0.12438312917947769,3.8957297801971436,1.2215025424957275,-2.053124189376831,-0.47456973791122437,-0.629563570022583,0.9380730986595154,-1.281759262084961,-2.1042046546936035,0.6836174130439758,0.6377033591270447,-0.39825117588043213,-3.010150671005249,0.8066701292991638,-0.645370364189148,1.1491559743881226,-1.591103434562683,0.2915850579738617,-2.3270277976989746,3.862302303314209,3.5298004150390625,-1.0486186742782593,0.19053339958190918,-0.6908288598060608,-2.3380260467529297,-2.7848708629608154,1.4283795356750488,2.5800600051879883,-2.2168362140655518,-1.7350449562072754,-2.7781033515930176,-3.2384262084960938,3.65109920501709,-0.4884607493877411,3.512608051300049,-0.7715227007865906,0.9163258671760559,-0.5877468585968018,-3.050402879714966,-1.421204924583435,-1.86276113986969,-0.7180101275444031,-1.4698621034622192,0.9674301147460938,2.7481141090393066,-1.858902096748352,-0.15781138837337494,-0.4849652647972107,-2.7419040203094482,-1.1080611944198608,0.32865384221076965,1.0974396467208862,-1.1695045232772827,0.9255369305610657,-1.3833261728286743,1.0592458248138428,-2.450408935546875,3.419788122177124,-1.2008470296859741,-1.6751282215118408,0.11278834939002991,-1.436866283416748,1.5400123596191406,3.03472900390625,-2.911336898803711,-1.4088739156723022,-0.8065919280052185,-0.4389193654060364,-0.6471258401870728,-2.8044939041137695,-0.5194898843765259,1.293006420135498,-0.31759318709373474,2.8979403972625732,0.9561133980751038,0.8858612775802612,-1.83360755443573,4.440323829650879,1.550918459892273,4.520510673522949,6.742230415344238,-1.0521963834762573,1.6307264566421509,3.6170310974121094,0.2809811234474182,-1.2590937614440918,-5.584142684936523,-5.186344623565674,1.5910313129425049,-0.9032342433929443,-1.8793740272521973,-0.13714978098869324,-1.423723816871643,5.593623638153076,3.6793127059936523,1.9514154195785522,-5.532382488250732,0.8962270021438599,-0.6595683693885803,3.831770896911621,-4.311890602111816,3.9044649600982666,3.0890114307403564,4.529637813568115,-1.1740349531173706,0.527638852596283,-1.5591990947723389,3.5668389797210693,1.514662504196167,-1.5409166812896729,-0.5947123169898987,-3.6915230751037598,8.372069358825684,-1.5257554054260254,0.9037913084030151,-3.6246073246002197,0.8919272422790527,6.703469753265381,-8.20319938659668,1.2525672912597656,3.484165668487549,5.895735263824463,-3.390489339828491,-0.2653815448284149,-4.1875410079956055,4.349417209625244,-0.7775827646255493,5.165005207061768,-2.5069119930267334,0.6183429956436157,2.281019687652588,-4.949199199676514,1.0363893508911133,-4.271524429321289,7.255329132080078,0.5993582606315613,2.9604685306549072,-0.6336612701416016,2.5387985706329346,5.077042102813721,-1.1001073122024536,-0.9593421816825867,-3.0868642330169678,-0.7669233083724976,1.9603382349014282,-0.2878912687301636,-1.092363953590393,-1.0418195724487305,-4.146477222442627,-2.9668819904327393,-0.05346806347370148,-3.283505439758301,0.8787877559661865,2.5138370990753174,3.1436243057250977,-1.9611526727676392,3.6750500202178955,-5.196080684661865,0.7437335848808289,-0.26680755615234375,1.7029414176940918,-1.2018625736236572,16.87579345703125,-2.532848596572876,-3.8655056953430176,2.394885778427124,-6.380660533905029,-6.142024517059326,0.654745876789093,-0.968887448310852,-2.344825506210327,-0.8118799924850464,-3.125154972076416,-2.071589946746826,2.224862575531006,-2.2795188426971436,1.2265604734420776,-3.8944101333618164,0.08790306001901627,-2.3450679779052734,0.2893361449241638,1.5730446577072144,1.0358142852783203,1.812516689300537,-1.2235934734344482,-0.9597264528274536,-8.83293628692627,3.904956102371216,0.2785312235355377,4.532068252563477,-2.787346839904785,-2.122584104537964,0.6801480650901794,3.1323797702789307,1.3291500806808472,3.132836103439331,0.6601434946060181,0.9301510453224182,6.6182637214660645,2.232103109359741,-0.4567434787750244,0.7606741189956665,-0.4000365734100342,-0.510783851146698,2.3893327713012695,-0.24699124693870544,0.6181871891021729,-0.2911747694015503,1.8382196426391602,-0.8246768116950989,1.3521510362625122,0.6638445258140564,-5.051672458648682,0.1510123908519745,0.11755837500095367,2.3739099502563477,2.0898334980010986,2.5916197299957275,-4.082841396331787,0.9993444085121155,-1.8547056913375854,1.4103825092315674,-0.24060148000717163,3.3552818298339844,-0.22967344522476196,1.1749202013015747,3.0187556743621826,1.7756551504135132,-0.32997313141822815,-1.8730030059814453,-0.7051171660423279,2.3803012371063232,2.3608460426330566,0.4023839831352234,0.8782340884208679,0.4447682201862335,-1.1337155103683472,-0.799956738948822,-0.25164762139320374,-1.388256549835205,-3.4692564010620117,2.2814643383026123,0.46764445304870605,-2.927656412124634,0.36199066042900085,2.334226131439209,1.1303422451019287,-0.07878240197896957,-0.15492722392082214,-0.11517637968063354,3.684898853302002,2.2815792560577393,1.324867606163025,-0.8826509714126587,0.8332618474960327,0.519450843334198,-0.6303175091743469,-1.4216651916503906,0.8240357041358948,-0.054829735308885574,1.3834079504013062,3.4293787479400635,-0.18849019706249237,0.7786126136779785,-0.6541229486465454,-1.0599391460418701,0.5741350650787354,-1.740850567817688,1.5854287147521973,2.4291694164276123,0.483140230178833,-0.08982140570878983,1.0904932022094727,-0.2802734673023224,-1.7541210651397705,-0.8040364980697632,-0.6837419867515564,-1.365206003189087,0.37962666153907776,0.14664430916309357,-0.340774267911911,1.365389347076416,0.597140908241272,1.6179718971252441,1.4180444478988647,0.9827497005462646,-0.6813926100730896,-0.047804094851017,-0.19270843267440796,0.12091880291700363,0.270009309053421,-0.0021777478978037834,0.17524106800556183,2.0418014526367188,1.39686119556427,1.9575785398483276,2.2747793197631836,0.33083054423332214,-0.18545347452163696,0.9507042169570923,-0.5859413743019104,-0.6461461186408997,-0.4949803352355957,1.9778406620025635,-1.0513408184051514,0.4795776307582855,1.0021394491195679,1.32042396068573,-1.0089356899261475,2.7134180068969727,1.6509462594985962,-4.015505313873291,1.156091332435608,0.6958864331245422,-0.42913565039634705,-0.34499797224998474,0.9381880760192871,-0.9288959503173828,0.868122398853302,1.6009854078292847,-0.4805448055267334,0.7770550847053528,-0.6364233493804932,-1.0187628269195557,0.20096725225448608,1.8034061193466187,1.0464547872543335,2.433704376220703,3.1884191036224365,3.553377389907837,3.3256897926330566,-2.252565860748291,-0.9728429317474365,0.4630057215690613,-1.2721654176712036,-0.28880253434181213,-1.738999366760254,1.4047974348068237,0.8797487020492554,2.3071107864379883,-0.5956717133522034,5.0851945877075195,-3.033707618713379,2.1938083171844482,-1.1642177104949951,-1.0375494956970215,-0.8314694762229919,1.9174444675445557,-2.6287569999694824,0.6859874129295349,-0.5012416243553162,5.4296464920043945,-1.0062980651855469,0.918433666229248,-3.8755528926849365,-1.478556752204895,0.938346803188324,-0.04058996960520744,-1.057144045829773,-3.183177947998047,2.2537598609924316,-0.28454849123954773,1.906252145767212,0.30117544531822205,-2.1227951049804688,3.1471235752105713,0.17355959117412567,-1.7280749082565308,-1.6671760082244873,5.972318172454834,1.1064743995666504,-1.429352879524231,-1.8190346956253052,0.8909496068954468,-3.2219409942626953,6.436248779296875,0.47768503427505493,3.430396795272827,0.13955429196357727,1.8476691246032715,1.1530938148498535,-4.828885555267334,0.0541519820690155,-0.568292498588562,-0.3021904230117798,2.914428234100342,2.080082893371582,-1.4264798164367676,0.9441325664520264,0.33064714074134827,-1.815079927444458,-3.7069156169891357,-3.160947561264038,0.26012900471687317,-1.0057727098464966,-2.299767255783081,-1.8344806432724,-0.10205163806676865,-2.3377676010131836,-5.806762218475342,-0.46503010392189026,1.1152334213256836,1.3920481204986572,1.7192306518554688,-0.33356866240501404,2.8664252758026123,-0.33796584606170654,1.327367901802063,1.0065027475357056,-0.4873233437538147,2.9140501022338867,-0.43880125880241394,1.4339630603790283,2.7076570987701416,-0.4141911268234253,-0.8108600974082947,-0.8159499168395996,1.1832369565963745,1.911229133605957,-0.8490729331970215,3.58650279045105,1.2167527675628662,1.0123873949050903,-0.4378525912761688,-1.0841691493988037,-0.7826780080795288,1.3055598735809326,-1.9254071712493896,1.376936912536621,-2.2886619567871094,1.9136602878570557,-0.56201171875,-0.3581089675426483,-0.49208343029022217,1.7891191244125366,1.261093258857727,-1.0176526308059692,-0.27658534049987793,-0.22665271162986755,1.1888319253921509,0.5417009592056274,1.0176382064819336,-0.6614936590194702,0.15536868572235107,1.873188853263855,-0.08769863843917847,2.460784673690796,-1.1020334959030151,1.9498454332351685,4.507664680480957,2.1348140239715576,0.4470698833465576,-3.701456069946289,-0.8200238347053528,-1.245039701461792,-3.738959550857544,-4.279410362243652,-5.8580780029296875,-2.0436723232269287,3.372343063354492,-1.793563723564148,-0.12191442400217056,-0.18681477010250092,2.981409788131714,-2.3878819942474365,0.4652644395828247,0.0880901962518692,1.1410034894943237,2.180623769760132,0.02386782318353653,1.9815393686294556,4.157569885253906,-0.10163294523954391,-1.9712493419647217,-0.09563849866390228,1.1323965787887573,4.172824382781982,-2.1110830307006836,2.0638628005981445,0.9444732069969177,-5.967898368835449,4.470784664154053,3.6632399559020996,-3.9412012100219727,4.140055179595947,-4.272735595703125,2.3750665187835693,1.6848747730255127,-2.5214717388153076,2.4768664836883545,1.8222154378890991,-2.9910926818847656,1.4868448972702026,-3.2497963905334473,-1.3119113445281982,1.1567425727844238,0.04450252652168274,-4.502478122711182,0.6659554243087769,-1.0965172052383423,-3.71415376663208,-0.16071297228336334,4.1826090812683105,1.9140187501907349,1.343341588973999,1.281153678894043,-3.807284116744995,-5.161337852478027,0.665069580078125,-1.401403546333313,-2.11970591545105,0.7153981328010559,2.738482713699341,-3.5461812019348145,-6.353211402893066,0.18154780566692352,-2.371793270111084,-2.5616281032562256,-4.377577304840088,-1.1663936376571655,0.8718633651733398,-1.1705883741378784,1.6777886152267456,-1.2477554082870483,0.5460573434829712,-1.675739049911499,-2.4131786823272705,-4.790639877319336,3.8570263385772705,-7.1461639404296875,5.203680515289307,-5.695500373840332,-1.5300244092941284,-2.2536685466766357,-1.167335867881775,-3.363279342651367,-5.282835006713867,-5.2192606925964355,0.18733441829681396,0.2825756371021271,-0.051727551966905594,-3.1096231937408447,-3.5131754875183105,2.8209683895111084,-0.30860400199890137,-2.2016220092773438,-6.633816719055176,1.0572102069854736,4.26690673828125,1.961937427520752,1.6500232219696045,-6.238707065582275,-2.909698247909546,-1.1796791553497314,-1.2702207565307617,-8.055708885192871,-1.2050234079360962,-1.620011568069458,2.8296728134155273,-1.360194444656372,-1.6486544609069824,-9.115347862243652,-3.8477962017059326,0.31852173805236816,-2.248201608657837,-1.957607388496399,4.6018218994140625,2.7750563621520996,-1.5828454494476318,-0.028456296771764755,0.8076358437538147,-5.96034049987793,-2.236029624938965,-3.1109397411346436,0.8862452507019043,4.363202095031738,-0.5067943334579468,1.3779480457305908,2.592949867248535,-1.2884811162948608,0.5704174637794495,1.1974085569381714,-0.9268362522125244,-1.8745964765548706,8.08938217163086,2.4799463748931885,-0.6687032580375671,-3.233488082885742,-1.2519317865371704,-4.692670822143555,6.403026580810547,-1.27686607837677,2.9460606575012207,-1.3999414443969727,0.78242427110672,-5.340384483337402,-4.5215888023376465,-0.1911545842885971,0.08758431673049927,-2.4831950664520264,-1.2910418510437012,-0.3331265449523926,2.8530871868133545,-1.2206909656524658,-3.6251626014709473,2.0703036785125732,-0.2815297245979309,-3.6894783973693848,-1.6165556907653809,3.292059898376465,4.9930100440979,-1.4510291814804077,3.0585036277770996,-1.3338077068328857,-1.9466891288757324,4.048550128936768,-1.2386183738708496,-1.7930316925048828,-2.8737308979034424,4.787959575653076,2.5198042392730713,-0.5099265575408936,-1.3486878871917725,-4.637139797210693,-1.4019663333892822,-2.5582666397094727,-4.240428924560547,-0.9589710831642151,-0.42354339361190796,1.79788076877594,0.7404394745826721,6.794026851654053,1.9229093790054321,-2.3306844234466553,2.6497724056243896,-0.9058197140693665,-1.0623747110366821,0.24827590584754944,-2.76831316947937,1.5201255083084106,1.6388232707977295,0.44647008180618286,3.288010835647583,0.8658282160758972,2.43477725982666,-0.0020272559486329556,0.08017349243164062,0.9742807149887085,-1.2992788553237915,0.3509694039821625,-0.8171883225440979,-1.8084056377410889,-0.6071730256080627,-0.7464791536331177,1.3310657739639282,-1.25771963596344,-2.0865187644958496,-1.160973072052002,-0.9185977578163147,-0.05575684458017349,-0.4890787601470947,-1.920510172843933,1.6308270692825317,2.2558140754699707,1.8192602396011353,-1.8210067749023438,0.36715662479400635,-0.5350692272186279,1.0844182968139648,0.05540427565574646,0.49049320816993713,0.5505534410476685,0.42723679542541504,2.633774995803833,-0.29516172409057617,-1.1063482761383057,-1.1184418201446533,0.4462129473686218,-0.10930553823709488,-1.7497267723083496,-1.896599531173706,-1.4268518686294556,0.5120837092399597,-0.8801219463348389,-0.9399200081825256,-0.7914913892745972,3.516441822052002,-0.0059764510951936245,-2.0586798191070557,-0.04015541821718216,0.02150786854326725,-0.43681326508522034,-0.47145915031433105,1.8495299816131592,-0.31710517406463623,-2.007249116897583,2.3591127395629883,1.2370461225509644,1.6450917720794678,-2.6430869102478027,-0.19528301060199738,-1.2355417013168335,-4.7412004470825195,-3.4760379791259766,0.3223101496696472,-0.21283197402954102,2.428518772125244,-0.3959813117980957,-4.191799640655518,-2.9803643226623535,5.083645820617676,-4.725748538970947,0.17466777563095093,5.570087909698486,-1.2174129486083984,-0.3756316900253296,0.04384463280439377,5.055057048797607,-0.049922339618206024,-1.3774861097335815,-1.6078795194625854,-0.4516628086566925,0.345776230096817,5.851523399353027,4.8352155685424805,-4.053525447845459,-5.613936424255371,1.4865802526474,1.9692158699035645,-1.5679715871810913,3.210542678833008,-0.06801241636276245,-1.09861421585083,-0.18315313756465912,-4.284388542175293,-6.093249797821045,2.7237513065338135,-0.6172860264778137,-3.25018572807312,-3.489988088607788,1.8693767786026,1.7686256170272827,0.8469582796096802,5.671301364898682,7.272877216339111,-2.322082996368408,0.8314086198806763,5.766641139984131,-1.2513353824615479,0.9102066159248352,0.8358341455459595,2.7095301151275635,0.8828163146972656,0.45601966977119446,2.2371063232421875,-3.473930597305298,3.5964975357055664,4.008708953857422,2.743433952331543,-0.949740469455719,1.5056757926940918,-0.5199878215789795,-1.2813559770584106,-2.3047258853912354,-1.5749934911727905,0.8989768028259277,0.15162873268127441,-0.17256814241409302,0.519302248954773,-0.4406120181083679,-1.9611495733261108,-3.5615432262420654,-0.8019886612892151,-0.4235335886478424,1.2308154106140137,1.7230216264724731,-1.737981915473938,1.4187309741973877,1.0824909210205078,1.3658406734466553,-1.13886559009552,0.29038944840431213,-1.1440285444259644,0.5782808065414429,-0.6156843900680542,1.4718122482299805,1.1847550868988037,0.4032909572124481,-1.027308702468872,3.106199264526367,-0.04796693101525307,0.08869870752096176,0.5126502513885498,1.8778351545333862,1.997597098350525,-2.2185182571411133,-3.0119497776031494,1.8418216705322266,-1.8513349294662476,1.7762947082519531,-0.5534964203834534,0.8443907499313354,1.3807793855667114,-0.40998783707618713,0.14796292781829834,0.41062816977500916,1.741568684577942,1.0136322975158691,1.1041451692581177,2.773008346557617,-1.4209516048431396,1.7320245504379272,1.0226366519927979,-0.8789440989494324,-1.1939750909805298,-1.5505409240722656,0.16979840397834778,-3.7052533626556396,2.6234309673309326,-1.2304131984710693,0.5140586495399475,2.2626657485961914,-2.371933937072754,0.7305680513381958,0.943259596824646,-0.576002836227417,-0.5710635185241699,0.2236456274986267,-1.9838701486587524,2.3063621520996094,0.27462664246559143,-0.33029454946517944,0.4812423884868622,-0.5246900320053101,4.142990589141846,0.05521710216999054,-2.2893245220184326,-2.083923816680908,2.7578957080841064,-1.8344053030014038,0.9588010311126709,6.020456790924072,-1.7111854553222656,0.4614776074886322,-0.7139018774032593,-0.198394775390625,-0.9242434501647949,-3.0515801906585693,-0.11776833236217499,-3.6714932918548584,6.671332836151123,-1.2964723110198975,-1.301367998123169,0.7225098013877869,1.9170016050338745,-1.0404099225997925,0.580428421497345,-0.4293031692504883,-0.5393053889274597,1.5437895059585571,2.2846086025238037,-0.5854446291923523,-0.3849310278892517,0.7486867308616638,1.7297837734222412,3.223083019256592,-4.574535369873047,0.5034802556037903,-2.075190544128418,-1.6925477981567383,1.8899441957473755,1.0975347757339478,-0.4458507001399994,-3.926424503326416,-1.0115406513214111,-0.576717734336853,-0.2831084430217743,3.487917900085449,0.4247029721736908,0.44649210572242737,1.8935986757278442,-1.7211412191390991,-4.022492408752441,-4.694382667541504,-0.6642442345619202,-0.39182958006858826,0.9427783489227295,2.3920300006866455,-1.3243463039398193,3.864108085632324,1.6891058683395386,6.368047714233398,-4.153902530670166,2.0036182403564453,2.6649880409240723,2.249061107635498,-3.652374744415283,1.9284358024597168,2.7665765285491943,-0.19034823775291443,-0.44804760813713074,-1.8802409172058105,-0.17005911469459534,-6.487232208251953,5.645270824432373,-6.447134971618652,0.7504862546920776,-3.652318000793457,-2.759230613708496,-1.0656871795654297,-3.231374979019165,7.67128849029541,-5.51818323135376,1.0842996835708618,-0.6732808947563171,-3.3506271839141846,0.4359923303127289,1.1441118717193604,1.352162480354309,7.6106791496276855,0.2869148254394531,2.0948562622070312,7.942305564880371,-10.797134399414062,5.779527187347412,-1.0058166980743408,-4.908366680145264,-0.1327899694442749,2.8941597938537598,2.3891892433166504,0.1984376460313797,-1.0611028671264648,-7.202240943908691,-5.433287143707275,1.5420184135437012,3.8048553466796875,-3.9054415225982666,-3.204240560531616,-4.342609405517578,-0.2087230235338211,2.4710402488708496,3.273144483566284,-4.7341628074646,-1.2369592189788818,10.101534843444824,-8.953158378601074,2.161243438720703,3.5871050357818604,0.22561396658420563,-3.8007514476776123,4.605705261230469,0.932613730430603,0.4732445776462555,-0.4244345724582672,-4.228476047515869,7.540957450866699,-5.101731300354004,-0.8361963033676147,-13.841753005981445,1.9575673341751099,3.0681231021881104,5.812155723571777,-9.443492889404297,7.647480487823486,-9.127921104431152,-3.2671124935150146,15.490900039672852,0.385638564825058,1.1011157035827637,6.899309158325195,-0.6081075668334961,9.21692180633545,1.801666498184204,7.811769008636475,-8.481605529785156,7.757503032684326,-1.7462666034698486,-2.148664951324463,-0.02437920868396759,6.240166187286377,8.049601554870605,1.0326931476593018,4.109877586364746,-2.1129956245422363,-3.1003777980804443,3.0520176887512207,2.175906181335449,5.3594794273376465,-4.140253067016602,0.8685321807861328,11.800665855407715,0.24421165883541107,-2.3682355880737305,4.903641700744629,2.8210699558258057,-0.5357146263122559,-1.5758655071258545,9.5778169631958,1.983696699142456,-0.8311846852302551,5.291744709014893,1.4039727449417114,1.8567677736282349,-1.2295230627059937,2.488619565963745,2.916217565536499,0.3546624481678009,0.4397442042827606,0.2385849803686142,0.1567353904247284,-0.14946554601192474,0.34166982769966125,-0.8206751942634583,-0.025136707350611687,-0.8480358123779297,-1.2583249807357788,-1.5815448760986328,-1.1970975399017334,0.4207907021045685,-0.4112893342971802,-3.3747174739837646,2.871309280395508,-0.9377374649047852,-1.0602706670761108,0.7697552442550659,3.4204471111297607,1.0065804719924927,-0.8806281685829163,0.521821916103363,1.0030007362365723,-0.9128143787384033,3.259033203125,1.4350849390029907,-0.4549066424369812,0.8822354078292847,1.5664148330688477,1.769915223121643,-1.0174429416656494,-0.021279338747262955,1.6678441762924194,0.9703961610794067,-0.6920071244239807,1.0338484048843384,0.007264259736984968,-2.438987970352173,0.13626237213611603,-0.45647796988487244,0.6741209626197815,-1.6317570209503174,-0.30404379963874817,0.8123212456703186,0.0668155699968338,-3.657496929168701,2.702305555343628,3.543938636779785,-1.131785273551941,-2.5338428020477295,-1.6197577714920044,-0.2291276454925537,1.287448763847351,1.7905851602554321,-0.24006317555904388,-0.402672678232193,-0.22391362488269806,-1.6591662168502808,-0.09945254772901535,-0.9288143515586853,-1.259329080581665,3.300452709197998,-0.7409425973892212,-6.063554763793945,-0.048662152141332626,0.5267263054847717,12.259332656860352,5.110374450683594,-2.111508369445801,10.59006118774414,2.4380335807800293,5.366016387939453,2.6705362796783447,-5.502257347106934,4.883731365203857,0.5175929069519043,2.277994155883789,6.434732913970947,-4.645328521728516,4.347140312194824,-0.9825439453125,3.756056070327759,-1.902276873588562,-2.5077145099639893,-9.204691886901855,3.867039680480957,8.454532623291016,-4.322366237640381,-1.687178373336792,-4.61366605758667,4.673332691192627,4.8581624031066895,2.043065071105957,-3.7262680530548096,-7.0737080574035645,-1.0182867050170898,-3.955923080444336,-7.431099891662598,8.153063774108887,0.8825486898422241,-3.0057239532470703,-4.992498397827148,-5.569581508636475,6.263849258422852,3.2209839820861816,-11.84614086151123,-1.4895563125610352,-5.041851997375488,-3.196960687637329,-2.5394434928894043,9.169778823852539,-4.547851085662842,-5.615443229675293,11.61270809173584,-4.936601161956787,-2.9661614894866943,-3.3756814002990723,-10.962641716003418,-0.2706969678401947,10.347902297973633,1.1400245428085327,-11.008481979370117,4.514279365539551,-1.1982041597366333,0.8065603971481323,0.662749707698822,1.0821446180343628,2.5081732273101807,0.7008197903633118,3.019423007965088,-2.993089437484741,0.11556334793567657,0.03499337285757065,-3.1151082515716553,-2.1768593788146973,-1.2932027578353882,-0.054843105375766754,1.2134692668914795,0.6289848685264587,-2.7504801750183105,1.4640756845474243,-1.6110588312149048,-0.11737162619829178,-1.1211483478546143,-0.39083918929100037,2.647467613220215,1.979763150215149,-4.745264530181885,2.8971128463745117,2.259993314743042,1.3056687116622925,-1.4109314680099487,-1.5213366746902466,-0.7901634573936462,3.406153917312622,-2.8732364177703857,1.1210516691207886,0.7206152677536011,-2.579848051071167,3.1463570594787598,-0.18794265389442444,0.7062081098556519,-0.4167328178882599,-2.4311487674713135,0.9780771136283875,-2.958198070526123,1.1291871070861816,-1.0502090454101562,1.825127124786377,2.78946852684021,0.7087384462356567,2.3544371128082275,1.0761839151382446,4.592563152313232,-0.9623194932937622,0.05200772359967232,0.9471005201339722,3.736248731613159,0.6382724046707153,1.115841031074524,0.437460333108902,0.610400915145874,-1.468078374862671,0.47095364332199097,6.46842622756958,-2.5631234645843506,-0.1789531409740448,-1.7755135297775269,1.9758505821228027,0.659386932849884,-1.3611963987350464,-1.0223795175552368,0.7270086407661438,-3.0451292991638184,-0.9379415512084961,-1.3905025720596313,2.738342523574829,-0.01259798463433981,-2.300321578979492,0.7402644157409668,-5.652590751647949,1.5134022235870361,1.2725071907043457,-3.7000114917755127,-1.750349760055542,1.586450457572937,-1.0400965213775635,1.7713372707366943,-0.45816469192504883,-0.4333631992340088,-5.561341285705566,-1.3984408378601074,2.416926383972168,-1.3095240592956543,0.8568606972694397,-3.535290241241455,1.6796703338623047,1.4464645385742188,-1.8965736627578735,-0.08338150382041931,-0.573060154914856,-1.2458504438400269,-1.267259120941162,0.7101043462753296,-0.10473828762769699,0.026377789676189423,1.1046981811523438,-5.025116443634033,-3.4245569705963135,-0.9737192392349243,-1.5327731370925903,1.5700408220291138,-1.1378294229507446,3.8039419651031494,0.3969779908657074,-1.8547844886779785,1.631669044494629,4.105408191680908,-0.9294129610061646,1.3273873329162598,-2.739924192428589,-1.3903888463974,1.9815503358840942,4.4476399421691895,-2.8718550205230713,-0.5858842730522156,0.2163638323545456,-1.220695972442627,-6.1091814041137695,-4.463540554046631,-2.858030080795288,4.112241268157959,-0.30089065432548523,0.04787873476743698,7.494195938110352,-5.9399237632751465,6.925213813781738,1.917366862297058,6.125607490539551,0.6681978106498718,0.9898021817207336,-5.279073715209961,-0.40836814045906067,-0.8193919062614441,-0.46571722626686096,-5.389190196990967,-0.22237898409366608,2.1108663082122803,-7.328073501586914,-0.20027390122413635,-3.373244524002075,-5.519712924957275,-2.7972769737243652,0.5507032871246338,1.3490509986877441,0.1715553104877472,2.9712634086608887,-0.6922135353088379,2.0287115573883057,-1.589421033859253,-6.890474796295166,-3.772056818008423,0.9921227097511292,0.18650409579277039,2.396911382675171,0.6895659565925598,5.523751258850098,4.954915523529053,-4.007699966430664,-2.5804362297058105,1.2305902242660522,-5.883230686187744,-6.209671497344971,2.4428820610046387,-5.297028064727783,6.751348495483398,-0.8533575534820557,-9.203332901000977,-1.5395259857177734,10.011975288391113,0.11199063062667847,-3.764899492263794,-8.37967300415039,-4.415676116943359,2.5638086795806885,6.543022155761719,4.549739360809326,-3.2739999294281006,-2.4862658977508545,1.727416753768921,-0.5349365472793579,1.1098604202270508,5.495106220245361,2.767199993133545,-0.881130576133728,-1.7441048622131348,0.3744964599609375,0.46480289101600647,1.7203807830810547,-0.5903673768043518,3.331735610961914,-5.886203289031982,-3.650721788406372,-0.9668070673942566,-3.425476312637329,-0.43324071168899536,3.222599983215332,-2.23018217086792,0.7807269096374512,-0.8511790633201599,1.208431363105774,2.9361753463745117,1.7520880699157715,-2.670588254928589,-2.9423861503601074,0.38506150245666504,1.2005019187927246,0.8879820108413696,-0.923008382320404,-2.1620404720306396,0.5486089587211609,3.702357053756714,0.8909836411476135,2.3525283336639404,-0.014423133805394173,-2.830717086791992,2.1293370723724365,-0.26693588495254517,-2.4086053371429443,1.6630254983901978,3.9789910316467285,-2.754836320877075,0.13902617990970612,2.7167341709136963,2.3914899826049805,1.5666192770004272,1.2865346670150757,1.904295802116394,-0.7709846496582031,1.3856297731399536,5.095438480377197,-2.2413175106048584,0.4559760093688965,-0.5276260375976562,-0.0803150162100792,-2.6571507453918457,1.3851380348205566,-0.1307583451271057,1.9378703832626343,5.542855739593506,1.26551353931427,3.756284236907959,0.7178133726119995,1.1548312902450562,0.058271944522857666,0.9286859035491943,-1.5124083757400513,2.124089002609253,-2.5018229484558105,-1.8833037614822388,-1.305727243423462,0.9265262484550476,1.3660165071487427,-4.205099105834961,-4.796200752258301,1.8675531148910522,1.5245482921600342,2.696491241455078,2.367202043533325,-2.335240602493286,0.02149832434952259,-3.2915966510772705,2.1816136837005615,-1.4926074743270874,0.520809531211853,1.9211461544036865,3.8942830562591553,1.7050082683563232,2.307365894317627,0.8260043263435364,-1.791603684425354,-0.41545769572257996,2.9073879718780518,-0.7663458585739136,2.4497084617614746,-0.5258913636207581,1.5729620456695557,-2.474170446395874,-4.519363880157471,1.6801739931106567,-3.1993229389190674,-0.7939261794090271,2.1739840507507324,0.39492684602737427,-4.32619047164917,0.41823694109916687,4.021634101867676,1.6156647205352783,2.3685526847839355,-1.9510341882705688,-4.993074417114258,0.38073766231536865,2.310879945755005,-1.4225103855133057,2.1299245357513428,0.4386550784111023,4.431880950927734,3.977717638015747,-2.211822509765625,-1.3932876586914062,-2.5809319019317627,1.5519731044769287,1.4910180568695068,-1.9207204580307007,-4.516730785369873,2.2213258743286133,1.2365779876708984,-1.3830437660217285,6.267581939697266,-0.042220305651426315,6.256047248840332,3.646923542022705,-0.15381819009780884,5.309551239013672,-5.031592845916748,-0.8656008243560791,-0.22280046343803406,-7.462810516357422,-4.261560916900635,-6.642795085906982,-4.23641300201416,-3.715122699737549,-0.4130919277667999,-1.2332942485809326,-12.188385963439941,-4.660055160522461,-3.770914077758789,-7.649158000946045,0.9990663528442383,-10.611908912658691,0.8789542317390442,-5.953590393066406,3.4379000663757324,-7.061667442321777,1.6798959970474243,1.1298195123672485,-6.113650321960449,-3.1713685989379883,6.326111793518066,-2.287522315979004,4.569561958312988,1.490675687789917,1.7782928943634033,3.02339506149292,-5.157074451446533,-9.96778678894043,-3.0129430294036865,-4.949195384979248,-1.7901428937911987,4.138502597808838,1.5926414728164673,6.9250054359436035,-1.7058299779891968,-3.4192652702331543,-3.463308811187744,5.600562572479248,-1.8262786865234375,-6.497069358825684,-1.2588858604431152,-1.6685400009155273,-0.7584606409072876,6.39120626449585,-0.3399375379085541,-4.05354642868042,-7.238063335418701,-4.851601600646973,-1.922203779220581,-5.106095314025879,4.782863140106201,-2.3073995113372803,-7.924546718597412,-2.0898325443267822,2.4819490909576416,-5.615655422210693,0.28739893436431885,0.6387537717819214,-1.3360161781311035,-1.112479329109192,-2.423374652862549,0.6645568609237671,-3.9063427448272705,-4.11843729019165,-6.893622398376465,-1.4952499866485596,-2.7055094242095947,0.6800997853279114,9.359930038452148,-1.3257495164871216,-1.0062174797058105,-2.192598342895508,-1.5689363479614258,-0.6880854964256287,-7.057415962219238,0.867176353931427,-5.005039691925049,6.283745765686035,0.17207060754299164,4.900696277618408,-0.08450579643249512,0.07213958352804184,-1.6958023309707642,0.4444570541381836,-1.1973260641098022,-4.489637851715088,-0.31908637285232544,1.7700393199920654,0.5222889184951782,-3.6436848640441895,1.4075449705123901,4.736500263214111,-3.180527448654175,-2.1357526779174805,1.8288018703460693,0.9468233585357666,-2.034205675125122,6.593547344207764,-0.4027247428894043,0.47133341431617737,-7.933765411376953,1.7703371047973633,-2.8388304710388184,0.9194598197937012,4.52897834777832,-0.6884356141090393,1.0354949235916138,0.6568295955657959,1.4287223815917969,0.4470296800136566,-1.0871537923812866,5.202394485473633,-0.49300360679626465,-7.5702290534973145,2.0233542919158936,1.156705617904663,1.66520094871521,3.3143177032470703,2.934343099594116,2.7475123405456543,-9.090532302856445,-4.218268394470215,-3.0610649585723877,4.661881923675537,-11.334550857543945,6.8388671875,-2.046372175216675,2.0598275661468506,-4.888213157653809,6.112487316131592,-1.577699065208435,2.5015056133270264,-7.372389316558838,-1.7662522792816162,-8.933073997497559,-8.690375328063965,-1.0396664142608643,2.2003464698791504,0.8375744223594666,3.3110222816467285,-4.474148750305176,4.618705749511719,6.5791192054748535,3.580167293548584,1.0278828144073486,-5.025668144226074,9.689420700073242,2.1114094257354736,10.913217544555664,-0.16956640779972076,-6.681633472442627,-16.007957458496094,4.584743022918701,-2.798231363296509,-3.742530345916748,-3.4737839698791504,1.0313090085983276,12.67691707611084,-8.234070777893066,4.336416244506836,7.003011226654053,-1.9531253576278687,-2.159102201461792,-9.147173881530762,5.791380882263184,5.995854377746582,6.324868202209473,-3.862497329711914,9.747462272644043,9.021653175354004,-5.722441673278809,4.322314739227295,3.0098884105682373,2.2665233612060547,1.3537299633026123,0.6610289216041565,-5.028498649597168,-4.396556377410889,-2.3878133296966553,-4.063173294067383,-11.873988151550293,-6.86670446395874,-0.3923209309577942,-2.9342024326324463,-7.976965427398682,0.8206468820571899,-0.7060554027557373,-3.5522379875183105,-2.1465137004852295,0.1465858519077301,4.592737674713135,-0.5001919269561768,6.695865631103516,7.005029201507568,5.788326263427734,5.103466033935547,1.5560747385025024,3.4570870399475098,-1.2585278749465942,12.934295654296875,-0.8641289472579956,1.1593496799468994,5.097956657409668,5.765152931213379,7.083733081817627,4.400960922241211,-3.430208683013916,3.1510610580444336,-0.11472810804843903,-0.9572548866271973,-3.6361446380615234,-6.578132629394531,11.639473915100098,-2.1125762462615967,-5.604795455932617,14.701318740844727,4.032654285430908,-2.223137140274048,-2.29321026802063,-0.36130818724632263,-4.351546287536621,4.181216716766357,-1.7521055936813354,-7.253451824188232,3.481793165206909,1.8446934223175049,5.502991676330566,2.7932045459747314,-3.5434908866882324,-7.249384880065918,-2.808302879333496,4.611077308654785,1.833786129951477,1.2592854499816895,-2.526965856552124,-11.588647842407227,-0.4757705628871918,1.2300426959991455,-1.8384848833084106,-7.012944221496582,0.4797714352607727,1.1305201053619385,1.245572805404663,-1.4592034816741943,-7.020718574523926,6.490462303161621,-1.9809101819992065,-1.2197386026382446,2.3904078006744385,4.129338264465332,-2.6293179988861084,-0.9879701137542725,0.6669859886169434,-6.4379777908325195,-0.6953296661376953,-2.7272846698760986,-8.161576271057129,5.791504859924316,3.8474152088165283,1.8016924858093262,6.961748123168945,3.1027698516845703,-0.03653373569250107,-3.583920478820801,-6.984477996826172,3.2381486892700195,-7.385613918304443,-0.7427650690078735,6.969055652618408,3.985609769821167,4.184167385101318,-9.046759605407715,5.164295673370361,8.743450164794922,-3.8950908184051514,-1.4612752199172974,8.180870056152344,-2.1635844707489014,7.257627010345459,-2.478968858718872,-6.690585136413574,1.5325740575790405,10.36035442352295,-10.83013916015625,5.120882511138916,0.11187919229269028,5.10452127456665,1.225002646446228,2.8159682750701904,-10.07470989227295,-2.336352586746216,2.583852767944336,3.049680471420288,2.941542863845825,-0.6864953637123108,0.8419224619865417,-6.529555797576904,1.521156907081604,11.887944221496582,0.5250476002693176,-1.1508196592330933,1.7031254768371582,-4.17591667175293,-7.165081977844238,6.749462604522705,-3.771719455718994,2.380016565322876,-1.0755866765975952,-8.08350658416748,-2.34097957611084,1.6641103029251099,-1.8056670427322388,0.4431343674659729,4.989940166473389,3.8616323471069336,-8.5783109664917,4.56410551071167,6.868635177612305,-3.166538715362549,3.088499069213867,7.66078519821167,5.6120710372924805,1.2988821268081665,-0.8632342219352722,0.5083102583885193,-4.801035404205322,-0.07829562574625015,1.1369127035140991,4.140145778656006,0.8476422429084778,-0.15943391621112823,1.0374755859375,7.319799900054932,1.4737354516983032,-12.065075874328613,9.049060821533203,-2.308424711227417,1.369768500328064,2.724280595779419,1.6264257431030273,8.26456069946289,2.9299395084381104,0.3234982192516327,-0.364782452583313,1.6877920627593994,0.9404355883598328,-1.195744514465332,-8.59455680847168,0.6739335656166077,-9.664936065673828,9.576650619506836,1.178284764289856,-5.312458515167236,-9.088639259338379,8.872010231018066,3.6231272220611572,-0.9248964190483093,9.22558879852295,3.4374940395355225,-5.830563545227051,1.8656359910964966,6.657606601715088,9.770597457885742,-2.57193922996521,0.3514920771121979,10.824970245361328,-3.7754733562469482,8.350708961486816,2.050288200378418,-4.207278728485107,5.627979278564453,6.264967441558838,10.427749633789062,4.038079738616943,1.0468116998672485,0.718256413936615,7.510800361633301,-4.015538215637207,0.8928168416023254,-5.190543174743652,1.8883610963821411,16.110260009765625,11.04908561706543,2.301218271255493,-1.5512773990631104,4.762813568115234,0.3431541323661804,-2.1914784908294678,7.12542724609375,1.6574804782867432,4.748183727264404,-2.3508496284484863,-1.837426781654358,-2.364234447479248,4.931694507598877,2.1770973205566406,-1.0607776641845703,-4.698703765869141,6.340725421905518,8.967275619506836,-7.973862171173096,1.1356656551361084,5.8998942375183105,-5.26105260848999,-0.6030345559120178,-10.74062442779541,-5.2017316818237305,0.01999928615987301,8.549903869628906,0.012174919247627258,-0.6153073310852051,-5.616955757141113,5.889946460723877,4.2326812744140625,-9.021079063415527,-7.320829391479492,6.006899356842041,-5.954894065856934,16.29909324645996,1.2409865856170654,5.75055456161499,-3.1641552448272705,0.3371541500091553,-4.231666088104248,7.302558898925781,4.6392998695373535,5.397212028503418,6.694559574127197,-0.022531863301992416,-12.018952369689941,2.5137827396392822,-3.0871782302856445,-0.7095817923545837,1.637725591659546,-2.844099283218384,-0.19197748601436615,-0.3619805872440338,1.0534881353378296,-6.77252721786499,1.6870490312576294,-2.682494878768921,6.499810218811035,0.8225216269493103,1.852683663368225,-7.743765354156494,-7.318682670593262,3.233555316925049,-4.747194766998291,-0.748465895652771,1.954216480255127,2.5815303325653076,0.9303324222564697,-7.528944492340088,-8.760662078857422,-2.103546380996704,1.5427578687667847,-0.4804917573928833,7.9444403648376465,-3.9578046798706055,-1.68479585647583,2.463474750518799,-0.8631850481033325,-2.473565101623535,-1.8531275987625122,-5.264814376831055,1.3920135498046875,-9.251213073730469,-7.404160976409912,5.130988597869873,-4.742018699645996,3.952988386154175,14.17275619506836,-9.06196403503418,6.993453025817871,-6.3370256423950195,-8.15444278717041,5.31168794631958,12.835516929626465,-3.5024402141571045,2.5328023433685303,-4.964632034301758,2.2526957988739014,2.4305241107940674,-9.094992637634277,0.30559679865837097,11.562950134277344,-4.005598068237305,-3.1447646617889404,1.896279215812683,1.740396499633789,-4.875333309173584,4.805459022521973,-1.011242151260376,1.7750812768936157,-1.0275139808654785,2.664987564086914,6.618710994720459,3.613600254058838,6.29203462600708,11.244361877441406,5.00242805480957,-3.170624017715454,7.45980167388916,-2.234548807144165,2.1198389530181885,8.01919174194336,7.313854694366455,3.960254430770874,2.3519277572631836,6.465020179748535,-4.871522903442383,-9.223074913024902,3.373408079147339,2.3394572734832764,-4.809829235076904,-1.8632372617721558,0.5648921728134155,-3.48795747756958,-0.4797046482563019,0.019143318757414818,-3.6739847660064697,1.76437509059906,-0.6998592019081116,1.9822758436203003,2.1075639724731445,6.528293132781982,2.8425893783569336,-0.46485191583633423,0.965670645236969,-2.413430690765381,4.522879123687744,4.692885875701904,6.876153469085693,6.655528545379639,5.281680583953857,0.6755127906799316,-2.8498034477233887,-4.932497024536133,-8.8032808303833,6.565231800079346,-1.3627336025238037,-1.408097743988037,12.436686515808105,2.7466228008270264,-7.999820709228516,9.910094261169434,1.9976706504821777,-3.0710887908935547,3.9657349586486816,10.707672119140625,-5.326784610748291,-0.7895641922950745,7.5049591064453125,2.7034716606140137,-1.4751145839691162,-6.368776321411133,-4.568502426147461,-8.774643898010254,3.7169151306152344,6.344666004180908,-1.2552424669265747,-3.4919512271881104,4.791703224182129,8.107746124267578,-3.2432942390441895,-3.4748659133911133,1.1208844184875488,-2.1718103885650635,-1.7651827335357666,6.342076301574707,-0.7532681822776794,-5.293482303619385,5.085355281829834,-1.2637850046157837,1.720205545425415,1.4720053672790527,0.15506067872047424,-3.1078317165374756,-5.130329132080078,-2.3062899112701416,4.978203773498535,-7.053502082824707,2.9911129474639893,-0.08638022840023041,2.701385974884033,2.8609790802001953,-1.3368171453475952,0.5675963163375854,-1.7324496507644653,-0.22314058244228363,2.8257744312286377,1.216985821723938,-3.0631978511810303,4.390824794769287,-4.180080890655518,-1.4819945096969604,3.5712389945983887,-7.644669532775879,2.724315643310547,2.7363927364349365,5.293399333953857,-6.0064005851745605,2.5199849605560303,2.358670473098755,0.9264436960220337,4.163028240203857,6.250247001647949,-5.639177322387695,-0.09863751381635666,-1.4782624244689941,0.6344658136367798,-8.691420555114746,6.669332504272461,-10.34440803527832,-1.0869539976119995,0.4753715991973877,-2.171055316925049,5.119149684906006,-1.4498810768127441,2.0447728633880615,-4.957285404205322,-0.9448986649513245,1.7819420099258423,-5.158227443695068,2.592954397201538,6.997640609741211,1.9703316688537598,-3.504615068435669,-3.2619144916534424,-1.7751123905181885,-11.627402305603027,-3.0076024532318115,1.810286283493042,7.362264633178711,-2.5826895236968994,-2.5090012550354004,8.114230155944824,4.421655654907227,-6.7982892990112305,-5.4872589111328125,3.6066207885742188,2.5596306324005127,-8.119980812072754,-0.20264923572540283,0.43788960576057434,0.5164666771888733,-1.5137449502944946,-1.9503211975097656,-3.6250205039978027,2.415189266204834,-2.8294942378997803,6.225007057189941,-0.2323572337627411,4.570198059082031,0.03543086349964142,-7.457676887512207,3.595522880554199,1.6676380634307861,5.952579975128174,5.598738670349121,-5.764894962310791,-6.688104152679443,3.9147984981536865,4.105008602142334,-6.403905391693115,-5.898016452789307,5.817389965057373,-5.7881340980529785,-1.3174786567687988,1.693885087966919,-4.68734073638916,-2.0775394439697266,-1.5036643743515015,0.09658078849315643,3.4218969345092773,0.9016848206520081,0.3121804893016815,1.7059135437011719,-3.550497055053711,1.4802634716033936,-2.2087905406951904,0.2602097690105438,-7.008957862854004,4.160342216491699,-6.504127025604248,5.355733871459961,-11.233200073242188,6.1055169105529785,4.207216262817383,1.1321415901184082,-0.6902595162391663,-5.203925132751465,-8.470863342285156,-6.851470470428467,-8.804436683654785,8.121370315551758,-3.673444986343384,6.9763360023498535,-5.506386756896973,-0.6579263806343079,1.1771131753921509,-5.621751308441162,3.898733139038086,-2.5235843658447266,-3.790738105773926,-3.8108909130096436,6.4318437576293945,-0.20010504126548767,-0.9629247784614563,3.5984678268432617,-0.6982650756835938,2.8185205459594727,-14.5944242477417,-2.8852484226226807,-1.901167631149292,-3.0941715240478516,4.399631023406982,0.8166279792785645,-8.395621299743652,-3.6774520874023438,0.21450161933898926,-6.02731990814209,-3.337467908859253,0.07666368782520294,5.039456367492676,-0.6731468439102173,1.2902313470840454,-0.6609023809432983,-5.475286483764648,-6.952408790588379,1.2791393995285034,6.703734397888184,-0.605718195438385,1.8633143901824951,1.2340518236160278,-5.083939552307129,-1.0319479703903198,-8.277383804321289,-5.0653791427612305,1.860308051109314,0.20581784844398499,7.422784805297852,-3.9042623043060303,0.9048755168914795,-10.483871459960938,-2.1773970127105713,-1.192069172859192,-1.5227824449539185,0.6502796411514282,4.758852481842041,4.171498775482178,-3.491547107696533,0.04379589855670929,-11.0084228515625,-5.149412631988525,0.26261836290359497,3.6795554161071777,9.871749877929688,-6.767222881317139,-10.938440322875977,8.897001266479492,2.17907977104187,-0.9122812151908875,2.104865074157715,-7.586195945739746,-0.7689358592033386,-4.496715545654297,2.4385478496551514,1.8746867179870605,-3.9976580142974854,0.8538125157356262,-16.04801368713379,-1.2003215551376343,6.886486053466797,0.032185621559619904,-4.487417221069336,13.513481140136719,10.75398063659668,-0.6872414946556091,1.4887903928756714,1.6057069301605225,-0.5677093267440796,0.717029869556427,1.0225789546966553,1.5306060314178467,2.49715518951416,4.394077777862549,5.489264011383057,-5.53906774520874,1.0531792640686035,-3.7733047008514404,1.8772960901260376,-7.61057186126709,-1.7292567491531372,-3.9779515266418457,2.379371404647827,-3.630505084991455,-3.3801610469818115,9.940773963928223,-1.5254590511322021,4.045005798339844,4.635834217071533,-1.6013909578323364,11.706852912902832,5.623022079467773,-7.843379497528076,0.25038063526153564,-0.09561607241630554,3.195340871810913,-0.009174160659313202,7.008882522583008,-0.7439731359481812,-6.482455730438232,-6.691277503967285,-0.17283691465854645,5.439371109008789,-0.9255291819572449,3.8084194660186768,-2.1780622005462646,3.30619740486145,3.4861507415771484,2.766392707824707,-0.6353386044502258,6.829521179199219,-4.7114667892456055,-6.709868431091309,8.645833015441895,0.29640722274780273,1.8093574047088623,-4.9119038581848145,9.152835845947266,7.668176651000977,-1.4508628845214844,0.7859543561935425,4.303958415985107,-7.34207010269165,2.950889825820923,-0.9237644672393799,0.9910544753074646,1.4474881887435913,3.7542736530303955,-5.800602912902832,-0.8375638127326965,-4.584085941314697,9.266042709350586,-6.117291450500488,-5.882796287536621,0.799802839756012,4.236028671264648,-3.1569161415100098,1.301100730895996,-11.37375545501709,-5.90330171585083,-4.207399368286133,-2.587657928466797,-2.1015355587005615,-1.3607568740844727,3.784864664077759,3.643333673477173,9.49739933013916,0.341267853975296,2.321500539779663,3.779888868331909,3.474088430404663,-11.75850772857666,4.932274341583252,1.6607308387756348,-4.317694664001465,-3.625379800796509,1.806349277496338,-4.531416416168213,9.622903823852539,-2.9679601192474365,5.965288162231445,1.1714435815811157,-3.1455564498901367,1.1059575080871582,-1.36111319065094,-1.6644537448883057,-2.441767454147339,-3.4209883213043213,-4.019051551818848,3.2456681728363037,6.707648277282715,-9.45609188079834,5.136505126953125,-1.1122565269470215,0.4427022337913513,3.545875072479248,1.5527812242507935,8.112349510192871,-6.1679301261901855,3.37654185295105,-0.9864941835403442,5.047669410705566,-2.760626792907715,9.575543403625488,-1.190107822418213,5.629819393157959,-0.9210109710693359,-1.1215543746948242,-0.47392114996910095,-0.2778359055519104,-3.2034547328948975,-4.341367244720459,0.7196242809295654,0.3668158948421478,-6.832917213439941,-2.7911486625671387,-2.286799430847168,8.00912094116211,1.0643501281738281,8.312402725219727,-1.0627431869506836,-0.3209899365901947,-8.819483757019043,-2.626323699951172,-0.3776948153972626,-5.509174346923828,2.1107797622680664,6.236467361450195,-0.9312278628349304,7.376821041107178,4.362043380737305,4.17314338684082,8.149434089660645,-8.408992767333984,6.176492691040039,10.355775833129883,-3.530189275741577,-0.10988625884056091,5.81498384475708,2.3718178272247314,5.15302848815918,-3.7196600437164307,-2.0500879287719727,-4.8209638595581055,-9.288586616516113,-0.20906423032283783,-0.4895198345184326,0.3042928874492645,-0.4851497709751129,3.4240024089813232,3.3412885665893555,3.7456257343292236,-2.702596426010132,3.6300320625305176,9.384531021118164,-5.392805099487305,-5.84937858581543,6.798404216766357,-2.8329734802246094,5.148256301879883,-7.548419952392578,3.1640453338623047,0.8268001675605774,-0.5255690813064575,1.2516649961471558,6.181207656860352,-5.728053569793701,3.548269510269165,-1.9170902967453003,1.022652506828308,-2.70452880859375,0.9882218837738037,-8.172056198120117,-0.660426676273346,-0.9613468647003174,0.2486371546983719,-3.464114189147949,-12.16003704071045,-4.219653606414795,-6.964925765991211,7.20590877532959,4.0848517417907715,-7.976545810699463,-2.0494959354400635,-5.840548515319824,-8.363272666931152,10.727837562561035,-2.6001172065734863,1.9703164100646973,8.126235008239746,5.292914867401123,4.903472423553467,9.26014232635498,6.782543182373047,2.13834810256958,-8.754156112670898,-0.5385977029800415,4.26890230178833,-5.443313121795654,-4.162289619445801,4.577581405639648,-0.6719772219657898,0.7087618708610535,-2.0538177490234375,1.4080692529678345,-2.687347412109375,-0.37104153633117676,-1.7142149209976196,-3.5169973373413086,-0.06755469739437103,-1.7210021018981934,1.507830262184143,-0.6263025999069214,8.757468223571777,-8.95967960357666,0.15521924197673798,4.067829608917236,-4.274087905883789,-8.772586822509766,7.582487106323242,-3.1121089458465576,8.040423393249512,-5.333734512329102,-1.0679463148117065,7.971746921539307,-2.9857876300811768,-5.689239025115967,-0.21573077142238617,-2.1260294914245605,4.658624172210693,-1.6366013288497925,4.617982864379883,-1.2320986986160278,-3.609020471572876,-5.654809474945068,-5.7099151611328125,2.5523016452789307,-6.108251571655273,-13.466852188110352,-3.376767873764038,2.6831445693969727,1.7800639867782593,0.36110612750053406,5.629745006561279,0.13861332833766937,-2.8218886852264404,1.726675271987915,0.8627784252166748,-0.1891343742609024,-0.08512793481349945,-2.5577054023742676,-0.6850808262825012,-1.6092156171798706,2.2078444957733154,3.287188768386841,0.08228766918182373,-0.9964318871498108,-1.823799729347229,-1.8851648569107056,-0.8054853081703186,-0.4446435570716858,-0.9652004837989807,1.8956626653671265,-0.14042773842811584,-0.12477556616067886,-0.9703962206840515,-0.2516712248325348,-0.36112669110298157,3.083742141723633,0.38516291975975037,0.4131462872028351,-1.861045002937317,-2.5911128520965576,0.8255371451377869,2.3231143951416016,-0.020029377192258835,-1.356149435043335,0.3930274546146393,2.279284715652466,-2.0188605785369873,0.11588957160711288,3.765728235244751,0.14643113315105438,-0.5003939867019653,-1.320049524307251,-0.9428297281265259,-0.7891677021980286,-0.17071625590324402,-1.5552915334701538,0.05086919292807579,0.4490414559841156,-0.3778505027294159,0.07389837503433228,-0.024191036820411682,-0.05213332176208496,0.2214641124010086,-0.5816679000854492,1.6438829898834229,1.785123348236084,1.2610355615615845,1.2284308671951294,0.2278386950492859,-0.539499044418335,0.9373106956481934,1.4166641235351562,-1.183804988861084,2.02677321434021,-1.9987043142318726,0.8327622413635254,1.7125341892242432,-1.2792199850082397,0.7494246363639832,-0.3872174322605133,-1.683190107345581,-0.7299833297729492,-0.7367582321166992,-0.8217781186103821,1.1225152015686035,-1.3502914905548096,1.9806022644042969,-2.0533788204193115,-2.892453908920288,0.31983140110969543,1.9490468502044678,-1.0910853147506714,-0.012755084782838821,-2.455897569656372,1.3214972019195557,1.4227319955825806,1.2772289514541626,1.1127222776412964,-0.19356964528560638,-0.8774506449699402,-0.8683684468269348,0.6485725045204163,-0.6736053228378296,0.7729679346084595,-1.2086727619171143,1.2033358812332153,1.7059415578842163,-0.7532375454902649,2.192666530609131,1.48666250705719,-0.8455018997192383,2.5620157718658447,-1.2033246755599976,-0.744895339012146,2.2041287422180176,-0.6634902358055115,0.21616131067276,0.03408627212047577,-0.9189600348472595,1.7687946557998657,-2.061342716217041,0.40459874272346497,1.0981208086013794,-0.5068601965904236,-1.4654598236083984,1.1299254894256592,-1.1589518785476685,-0.29969316720962524,-0.31283602118492126,1.7471317052841187,0.7567263841629028,0.8419250249862671,1.7919721603393555,-0.5825023055076599,-1.163352370262146,1.6692041158676147,2.3494937419891357,-0.055590882897377014,0.030711142346262932,0.05840836465358734,0.015347829088568687,-0.04451827332377434,-0.059947188943624496,0.07604315876960754,0.0603317990899086,0.053901515901088715,0.032156214118003845,-0.02335982210934162,-0.03446110337972641,-0.06270115077495575,-0.07306138426065445,-0.017626574262976646,0.003154704114422202,0.02203204669058323,-0.011749420315027237,0.07543577253818512,0.044791754335165024,-0.051801301538944244,0.06410466134548187,0.014247787185013294,-0.06159954145550728,0.07275761663913727,0.06421612948179245,-0.023362968116998672,0.04533975198864937,-0.024579159915447235,-0.003964465111494064,0.04197976738214493,0.07105757296085358,-0.059164859354496,-0.011746631003916264,0.04350798949599266,-0.053173769265413284,0.012845904566347599,-0.01250938419252634,-0.003497558645904064,-0.05975065752863884,-0.03566260263323784,-0.06408271938562393,-0.047045763581991196,-0.07168124616146088,-0.034292638301849365,0.013081230223178864,0.013759778812527657,-0.07089360803365707,-0.01640753075480461,-0.03945528715848923,0.03233310952782631,0.0682535171508789,-0.04141860827803612,-0.045350462198257446,0.02823117934167385,-0.036228861659765244,0.043787404894828796,0.07216423749923706,0.007873308844864368,-0.0033339133951812983,-0.03966967761516571,0.01805220916867256]},"hiddenLayers":[{"inputMatrix":{"rows":20,"columns":62,"weights":[0.6265454292297363,1.0676804780960083,-1.074252963066101,-0.8483805656433105,0.7308497428894043,2.090224027633667,-0.18248941004276276,2.2542359828948975,0.6621050834655762,0.018916400149464607,0.05428926646709442,2.209888219833374,-0.8982625603675842,1.8416900634765625,0.6077850461006165,0.7763760089874268,-1.4022656679153442,3.1873903274536133,-1.3381693363189697,0.9340870976448059,-0.7785879969596863,-2.0751516819000244,0.44558951258659363,-0.9095835089683533,0.5283969044685364,1.2864491939544678,-1.5476666688919067,1.3070882558822632,-0.51760333776474,1.6808271408081055,-1.6720281839370728,1.5351874828338623,-0.13420075178146362,-1.0657944679260254,0.9851080179214478,2.60203218460083,1.0184516906738281,1.469171166419983,0.7558572888374329,0.07332878559827805,-0.19393479824066162,-1.6496126651763916,0.49706459045410156,-0.5557778477668762,-1.9828492403030396,1.5328924655914307,1.3282991647720337,-0.5717824101448059,-1.8341286182403564,-0.557027280330658,-4.804921627044678,0.011608227156102657,2.9729323387145996,0.010505633428692818,1.1369447708129883,-0.6763214468955994,-0.5249091982841492,-1.728877305984497,1.4200431108474731,0.16153912246227264,-2.892988443374634,0.2539784908294678,0.4309258460998535,-0.2985025942325592,-0.42456382513046265,0.9004189968109131,-0.32248347997665405,-0.41367119550704956,-0.8212433457374573,-1.4084751605987549,-1.0808029174804688,-0.3946363925933838,-0.5949196219444275,-0.07590511441230774,-0.09021550416946411,-0.30199459195137024,-1.511641025543213,-0.09561892598867416,-1.1347026824951172,-0.7797084450721741,-0.6371923089027405,0.25397148728370667,-0.5885798931121826,-2.377264976501465,-0.21574680507183075,-0.2037174105644226,1.986075758934021,-0.7465144991874695,0.46803873777389526,-0.1821524053812027,-1.3724783658981323,1.3837201595306396,0.6620616912841797,-0.9635272026062012,-1.3124017715454102,-0.5310163497924805,-0.11824167519807816,-0.37551939487457275,1.5665863752365112,-0.481360524892807,0.7105460166931152,-0.19903603196144104,0.9166982173919678,-0.8166834115982056,0.9498840570449829,-0.5999369025230408,-1.2546699047088623,-1.2131069898605347,0.054276496171951294,-1.6758986711502075,1.2303975820541382,1.0359351634979248,-0.9330334663391113,-0.14830338954925537,0.3008614182472229,1.254489779472351,0.2331211417913437,1.5045028924942017,-1.1476458311080933,0.4168615937232971,-0.4568394720554352,-0.38860633969306946,-0.8118250370025635,-0.6367340087890625,0.4111371636390686,-1.7285586595535278,-0.6841536164283752,-0.7347837686538696,0.5794187784194946,1.2697757482528687,-0.2723749279975891,0.5711784362792969,1.069002389907837,1.1560019254684448,3.0787856578826904,0.05125342682003975,2.552910804748535,3.2845587730407715,0.02541886828839779,1.0092798471450806,2.522667646408081,-0.40225470066070557,0.7851473093032837,0.8252243995666504,-0.21959003806114197,0.40585073828697205,-2.2217023372650146,-1.8766653537750244,-0.5489763021469116,0.4158245027065277,0.8046941757202148,-1.3384743928909302,1.1926034688949585,0.39263948798179626,-0.27424630522727966,0.019764339551329613,2.3176467418670654,-2.239840030670166,-1.0264527797698975,1.3080766201019287,-0.45864415168762207,1.151996374130249,-1.241323709487915,1.4258488416671753,2.0044264793395996,-1.250333309173584,2.0479464530944824,0.6828857064247131,-0.6517286896705627,0.24705785512924194,0.8515363931655884,-0.28391143679618835,-0.04872123524546623,0.7292338013648987,-0.482207328081131,-0.8007450103759766,0.5021748542785645,1.1704607009887695,-3.173516273498535,-1.8248928785324097,-0.7487717270851135,-0.610762357711792,-0.13291305303573608,1.8424748182296753,-1.2165086269378662,1.5169997215270996,2.819812536239624,-0.650409460067749,1.7205510139465332,1.1907960176467896,1.6993777751922607,-2.1710708141326904,0.45795735716819763,-0.034797459840774536,0.8127418160438538,-0.43278375267982483,0.43928098678588867,-0.982410728931427,-1.1035635471343994,-0.41198697686195374,-0.06848622113466263,0.7197559475898743,1.393492341041565,0.2779117524623871,0.38155919313430786,2.024736166000366,-0.45071467757225037,1.2009848356246948,0.5843753218650818,0.8336379528045654,1.7049809694290161,1.3103857040405273,1.807706594467163,0.3356589674949646,-0.9926103949546814,-0.8456023335456848,-0.04824044555425644,0.6364096403121948,-0.3315707743167877,1.358135461807251,0.8842248320579529,0.9715478420257568,-1.7424676418304443,-1.1383017301559448,1.0256553888320923,-0.7374340891838074,-0.9733069539070129,1.611917495727539,0.8486743569374084,-0.4662177860736847,1.0348191261291504,1.4187716245651245,2.297010660171509,0.7998371124267578,-1.6020783185958862,0.5401424765586853,2.3616561889648438,1.7664271593093872,-1.4419689178466797,1.3951799869537354,-1.1957708597183228,3.1892189979553223,0.7548043727874756,-0.44930893182754517,-0.0787898451089859,-0.5224233865737915,1.136966586112976,1.5401325225830078,4.007187366485596,-0.3017614185810089,0.45953571796417236,0.07464654743671417,-1.317940592765808,1.0995428562164307,-0.2464628666639328,-0.9107142090797424,0.6170240640640259,0.9031438827514648,-1.1527405977249146,1.8236308097839355,-2.2429747581481934,0.7106624841690063,0.1462067812681198,2.1853690147399902,0.4027808904647827,1.4684830904006958,-1.8059117794036865,2.402622699737549,1.8522303104400635,-0.7467142939567566,0.25294753909111023,-0.11927831918001175,-2.316124439239502,1.5043563842773438,-0.46864649653434753,3.06815767288208,1.5788679122924805,0.7213506102561951,-2.940931558609009,2.4320626258850098,-0.6615054607391357,-0.6548598408699036,0.5655128359794617,-1.4297118186950684,1.2828463315963745,0.48384249210357666,1.1380610466003418,0.04226049408316612,-1.4503934383392334,-1.0534565448760986,-0.627504825592041,-2.7135565280914307,0.26811179518699646,-0.2061585634946823,0.1408201903104782,-0.43343713879585266,0.03291298821568489,0.008522099815309048,-1.0348721742630005,-0.1877932995557785,2.000128984451294,3.5353078842163086,0.5598011016845703,-1.2420400381088257,-0.09305846691131592,-1.0650944709777832,1.6765477657318115,-0.5014410018920898,-0.40340355038642883,1.2938941717147827,0.6759530901908875,0.919551432132721,-0.17398378252983093,1.3475914001464844,1.1744402647018433,-1.4611706733703613,-1.5464526414871216,-1.0513091087341309,-1.6221961975097656,-0.08512943983078003,-2.361938238143921,0.6441854238510132,0.32940673828125,-1.9421391487121582,-0.0009215240716002882,1.2715201377868652,-0.9975259304046631,0.9712914228439331,-0.45384302735328674,1.2510886192321777,-1.5276538133621216,2.6858410835266113,1.6811659336090088,0.4206569492816925,-1.0315862894058228,0.48184213042259216,0.9019671082496643,1.6690646409988403,2.0185208320617676,-0.36064183712005615,-0.532751739025116,-0.03852734714746475,0.11102679371833801,1.547903060913086,1.0880728960037231,-0.2840358018875122,0.3909659683704376,0.3824102282524109,-0.07575879245996475,-1.621532678604126,0.44689688086509705,2.088958740234375,-0.5652118921279907,-0.851737916469574,1.5358258485794067,2.154237747192383,-0.8906234502792358,1.333064317703247,-0.8794387578964233,-0.7240731716156006,-0.17097830772399902,1.672703742980957,-1.1599493026733398,0.30558669567108154,1.331149935722351,0.5163856744766235,-0.5520850419998169,-0.04069264605641365,-0.24171774089336395,-0.27390387654304504,1.4986908435821533,0.7144327163696289,1.494897484779358,0.41522225737571716,0.9608699083328247,0.00032480322988703847,-0.7167268395423889,-0.47945135831832886,-1.8658808469772339,-0.40242645144462585,-0.6396315097808838,-1.1519277095794678,-1.4267947673797607,-0.36668163537979126,0.47151339054107666,-1.0555286407470703,0.4439976215362549,0.08684136718511581,0.9181073904037476,-0.43369200825691223,0.8169761300086975,-0.9133807420730591,-0.7288193702697754,-0.3676746189594269,-0.3777325749397278,-1.11831533908844,0.8940909504890442,-1.8279725313186646,-0.37061771750450134,0.27281248569488525,1.1871540546417236,-0.13338825106620789,-1.0061349868774414,-1.6790597438812256,-1.5928716659545898,0.1879262924194336,0.12384351342916489,-0.15450145304203033,0.0693470910191536,-0.20400643348693848,0.9898711442947388,-1.240920901298523,0.14391592144966125,-0.8306745290756226,-1.8477075099945068,-0.6657190918922424,1.3322362899780273,-0.012418747879564762,-0.38570114970207214,0.725131094455719,0.5840573310852051,-0.28914937376976013,-1.8335448503494263,-0.4572000205516815,-1.0130842924118042,1.5518149137496948,0.6613996624946594,-0.11024751514196396,1.1128731966018677,-1.0838314294815063,0.5181006193161011,-0.6993944644927979,2.3248958587646484,-3.736011028289795,1.359100103378296,0.1523972451686859,0.06178560480475426,0.613041341304779,-0.8137450218200684,1.1086523532867432,0.3518831431865692,-0.7089411616325378,0.8060852289199829,-0.6266444325447083,-0.7403067350387573,0.03192780539393425,0.05705605447292328,1.0117764472961426,0.705678403377533,1.288869023323059,-1.067171335220337,-0.9684017300605774,0.8100644946098328,-0.6552625298500061,0.2079085111618042,0.12380219995975494,0.3463285267353058,-0.20673124492168427,-0.3484079837799072,0.5701955556869507,0.25980228185653687,-1.2712867259979248,0.7787685990333557,0.3517758250236511,0.7630490064620972,-0.968086302280426,-0.9140602350234985,1.0627268552780151,1.1362272500991821,-0.6074216961860657,0.8723936676979065,0.38632041215896606,-0.5224506258964539,1.3603631258010864,-0.5486345887184143,-0.09358751773834229,-0.32595258951187134,0.0849657729268074,0.18944327533245087,-1.0339263677597046,-0.45588064193725586,0.7341638207435608,-0.866357147693634,-1.4098308086395264,1.1230463981628418,-1.1251105070114136,0.10864143818616867,0.44535180926322937,0.48217204213142395,0.6284942030906677,0.20190578699111938,0.2043527066707611,-0.7116774916648865,-0.13613294064998627,-0.1368091106414795,0.2697542607784271,1.1745436191558838,0.7447896003723145,-0.23876941204071045,-0.48938360810279846,0.2999180853366852,-0.07059665769338608,-0.8067751526832581,0.45720145106315613,0.6621327996253967,-1.4854830503463745,-0.4149435758590698,-1.1030932664871216,-0.5432611703872681,0.6276049017906189,-1.8240814208984375,1.023074746131897,-1.0896155834197998,2.3236749172210693,0.04334545508027077,2.1980581283569336,-0.2605329155921936,0.0480523481965065,-0.10764512419700623,1.1351842880249023,-0.8546136021614075,1.2911574840545654,0.3405107259750366,1.088597059249878,1.1951849460601807,-0.4840985834598541,-0.12911231815814972,0.25025516748428345,0.7096555233001709,-0.1792699247598648,0.5652107000350952,1.3766505718231201,1.1070573329925537,0.054884765297174454,-0.9508681893348694,0.4822711646556854,-1.2679522037506104,1.6880279779434204,-0.3511992394924164,0.8535748720169067,0.2886055111885071,1.3788666725158691,-0.6053751111030579,0.7329479455947876,0.17029139399528503,0.053048841655254364,0.28109022974967957,1.3528860807418823,-0.39704543352127075,1.327653169631958,1.8659976720809937,0.36941206455230713,-1.2407814264297485,-0.19127941131591797,0.1902860552072525,-0.2278399020433426,0.1300441026687622,0.92822265625,1.2090028524398804,-2.008901596069336,1.8870505094528198,0.5911989212036133,0.4245654344558716,-0.2201899141073227,-0.5238012671470642,-0.9568493962287903,-0.1642754077911377,0.8135248422622681,-1.9228861331939697,-1.1199424266815186,0.7761375904083252,-3.403571605682373,-1.205303430557251,-0.8964781761169434,0.3887949585914612,-0.16063015162944794,0.07283022999763489,-0.3903701901435852,-0.7943691611289978,-1.8736515045166016,0.3889572024345398,0.020225008949637413,0.3723422586917877,0.37265706062316895,-0.19295668601989746,1.226670265197754,-0.1383754014968872,1.0167280435562134,-2.0085225105285645,-0.044628605246543884,-0.3551120162010193,-0.43652206659317017,0.2859687805175781,-0.18870475888252258,0.7051836848258972,0.35124027729034424,0.18713165819644928,-1.3662159442901611,1.3744215965270996,0.27145788073539734,-2.078779458999634,0.43280208110809326,-0.8119471073150635,1.432371735572815,0.4122190475463867,-0.8370950222015381,1.2016559839248657,0.6674842238426208,-0.838927686214447,1.4353821277618408,-0.8432039022445679,2.537052869796753,-0.06255778670310974,0.43669161200523376,2.127694606781006,-0.1673727184534073,0.16030217707157135,-0.6627441644668579,4.084361553192139,0.11811786890029907,-0.9982526898384094,-1.246293544769287,0.8722236752510071,-0.783989429473877,0.7161511182785034,2.9225285053253174,3.692052125930786,0.07561656087636948,1.8866803646087646,0.5912737250328064,1.599327802658081,-0.5400761961936951,0.742347240447998,3.0292305946350098,-1.8539468050003052,-0.11980467289686203,1.284257173538208,-0.870459794998169,0.7131741642951965,0.0944906696677208,0.06423155218362808,-1.3614226579666138,-0.8351880311965942,-0.2211763709783554,0.2084886133670807,-0.6802332997322083,0.5495370030403137,-0.4131864607334137,-0.49232208728790283,0.6171246767044067,0.9598467946052551,-2.172489881515503,-0.3595545291900635,-1.7224938869476318,-1.8636164665222168,0.6165394186973572,-0.2772708535194397,1.3780759572982788,-1.318164587020874,-0.246652752161026,1.031637191772461,0.3252173364162445,3.428349018096924,1.1302080154418945,-2.4140851497650146,0.199176624417305,-0.8559192419052124,-2.056873321533203,-0.9422955513000488,1.1075637340545654,-2.1888434886932373,-1.5474797487258911,0.088786780834198,-1.45456862449646,-1.24955415725708,-0.22245875000953674,-1.491239309310913,0.07614679634571075,-0.4913616478443146,1.7244375944137573,-1.7870067358016968,0.6509089469909668,1.0220087766647339,-1.140777826309204,3.52925443649292,0.5186216235160828,-1.315783143043518,0.6112813353538513,1.1021300554275513,-2.000026226043701,1.1136361360549927,0.6956660747528076,0.9081791639328003,0.46043166518211365,-1.1616140604019165,-1.6604621410369873,-0.9745688438415527,-0.5814300179481506,-0.8789185881614685,-2.31386399269104,2.636429786682129,0.903372049331665,1.537165641784668,0.15554700791835785,-0.5606647729873657,-1.693040132522583,0.5222685933113098,1.006047010421753,-1.5301986932754517,-1.026926040649414,0.6278322339057922,0.32751762866973877,1.851919412612915,-0.9946898221969604,-2.1647777557373047,2.991726875305176,1.7580822706222534,-1.9043676853179932,-2.6655986309051514,1.0978749990463257,1.4583160877227783,-1.5135747194290161,-0.5309414267539978,-1.0314466953277588,-0.9669460654258728,0.0591609925031662,0.38390690088272095,-1.481537103652954,-1.8104335069656372,1.403978943824768,-0.593267023563385,-2.304363250732422,1.1813820600509644,-0.6131852269172668,0.174533411860466,-2.325958728790283,-2.670764923095703,1.1722140312194824,2.584505796432495,1.3931834697723389,-0.8782939910888672,0.8683511018753052,0.33950287103652954,-0.8090371489524841,0.33644169569015503,0.4113929867744446,1.3750618696212769,0.0649188905954361,1.1535216569900513,-0.8888317942619324,0.6520491242408752,-1.216353178024292,0.6638720631599426,0.26924291253089905,-1.5474704504013062,0.11047281324863434,-1.7618153095245361,-1.7327747344970703,-1.123896837234497,1.3661854267120361,0.462505042552948,1.5875115394592285,-1.1984988451004028,1.2590336799621582,-1.0222530364990234,-1.243390440940857,0.9539301991462708,0.27513259649276733,-1.3393834829330444,1.4658114910125732,1.5591013431549072,0.30778372287750244,-0.0600208081305027,1.1654410362243652,-1.79600989818573,0.5991718173027039,-0.3485677242279053,2.2352969646453857,0.18597295880317688,-0.4019773602485657,1.0334223508834839,-0.5134617686271667,-0.32466188073158264,-0.27168890833854675,0.88824063539505,-0.6155025362968445,-0.06068690866231918,-0.32609546184539795,0.1657666265964508,0.9724538326263428,1.213317632675171,2.489717721939087,1.1408332586288452,-0.8270089626312256,0.6649977564811707,-0.15033839643001556,-0.24131710827350616,1.0507620573043823,0.5266518592834473,1.4623929262161255,-0.2402871698141098,0.4313385486602783,-0.7980525493621826,-1.0164858102798462,0.731966495513916,1.053709626197815,0.4169344902038574,0.11211033165454865,0.556323766708374,1.6070985794067383,0.6799348592758179,-2.6779208183288574,-1.3223494291305542,-0.08055610954761505,-1.5812066793441772,-1.3075357675552368,-1.1288169622421265,0.9208106398582458,-0.6321882009506226,-3.831652879714966,-0.588589072227478,-2.164217472076416,-2.13360595703125,0.02780270390212536,0.2242918759584427,1.0747755765914917,-0.8865534067153931,1.4844657182693481,0.6405388712882996,0.5278586149215698,-2.7074661254882812,-1.256632685661316,-1.3546963930130005,-0.1836116760969162,1.4296197891235352,0.4088655412197113,-0.07492263615131378,0.3480888605117798,-0.3845696747303009,1.2311220169067383,-0.9751068949699402,-0.42941761016845703,0.7066351771354675,-1.763391375541687,0.0049479189328849316,-0.22785630822181702,0.820131242275238,0.2847270667552948,-1.7804770469665527,-0.07886232435703278,0.7995184659957886,-0.5701128244400024,0.13992002606391907,-0.8714545369148254,3.4905917644500732,-0.1079983040690422,0.9375226497650146,-0.7315566539764404,-2.9548380374908447,0.5410391688346863,-0.14199401438236237,0.6670576930046082,0.13953523337841034,0.9718350768089294,-1.3634083271026611,-1.436916708946228,0.08927527070045471,-1.2930814027786255,-0.8602967858314514,1.8664964437484741,-0.10963833332061768,-0.7789212465286255,-2.8740875720977783,0.04681752994656563,0.13536864519119263,1.2978034019470215,-0.7670448422431946,-1.6603862047195435,-0.38548287749290466,-0.008860362693667412,-0.1315612941980362,-2.5949065685272217,-1.6430437564849854,-0.30727487802505493,-1.1967804431915283,-0.3969646394252777,1.385901927947998,2.2299723625183105,4.215446472167969,-0.18772459030151367,0.4993118643760681,1.2524117231369019,-0.34823837876319885,-0.05230194330215454,0.08077342063188553,-1.1824017763137817,-0.44136539101600647,0.7514107823371887,3.365806818008423,0.44678357243537903,1.4546862840652466,0.4312186539173126,0.701144278049469,-0.7835574746131897,1.0286822319030762,-1.5916544198989868,-0.6414434909820557,1.4478493928909302,-1.9691948890686035,-0.6703073978424072,0.25615036487579346,1.8911627531051636,1.6689366102218628,-2.200117826461792,-1.475890040397644,1.5827592611312866,-0.11853373050689697,0.5113303661346436,-0.1734297126531601,-1.4752886295318604,-0.45729005336761475,-2.2743804454803467,2.7434942722320557,0.09305987507104874,-0.5962709784507751,1.8723379373550415,-0.09345345199108124,-0.24249964952468872,-0.09241282194852829,-0.7561200857162476,4.730632305145264,1.6048071384429932,0.7771416902542114,-0.8121469616889954,-2.3732664585113525,-0.7734709978103638,-0.8374577164649963,-1.0422176122665405,0.2492537498474121,-0.5106484889984131,-0.8651712536811829,0.9587328433990479,-0.7134716510772705,-1.5739835500717163,-1.072027564048767,-0.9786083102226257,1.1465731859207153,-0.43777745962142944,-0.3538932800292969,0.2597876787185669,1.4292351007461548,-0.761622428894043,1.4752763509750366,0.9929583668708801,0.3090956211090088,-2.7012486457824707,-0.783995509147644,0.14861440658569336,1.2903987169265747,0.9870770573616028,-0.16449126601219177,-1.2162282466888428,0.5122971534729004,1.0838314294815063,0.5451905131340027,-0.9343615174293518,0.1580411046743393,0.4700036644935608,-0.2715643644332886,-0.3208448886871338,-0.4032910466194153,0.7698814868927002,-1.8267464637756348,-1.136501669883728,0.940841019153595,-1.882712960243225,-1.2303541898727417,0.7256231307983398,1.831724762916565,-0.7084184288978577,-0.06376614421606064,1.368196964263916,-2.3913934230804443,1.9076030254364014,0.8560274243354797,0.30803561210632324,0.3687860369682312,1.4278151988983154,-2.016249895095825,-0.08646173030138016,0.3983709514141083,-1.8595726490020752,0.46045058965682983,0.38506004214286804,-0.5583081841468811,-0.5893442034721375,-1.388479471206665,-3.675769329071045,-1.950697422027588,-0.2916739583015442,-0.6741126179695129,-0.05420757830142975,1.3425791263580322,0.8095799684524536,-0.3848484456539154,-1.17415189743042,0.6911636590957642,-2.6980769634246826,1.2222533226013184,0.002921629697084427,-0.7604949474334717,-0.2161230891942978,-0.014176256954669952,0.20046395063400269,0.7075687050819397,0.3092381954193115,-1.7950762510299683,-1.0556060075759888,-0.9303393959999084,0.7486757040023804,1.8334507942199707,-2.0684587955474854,-0.4897499084472656,1.5686317682266235,-0.5035026669502258,-0.9818202257156372,-0.36419951915740967,1.4810749292373657,-1.59657621383667,-1.803598403930664,0.22581304609775543,-0.18280313909053802,-1.1102004051208496,-0.5677025318145752,0.040556199848651886,-0.13470230996608734,1.6470941305160522,-1.7391706705093384,1.3815006017684937,0.6464669704437256,3.0353899002075195,-0.09036785364151001,3.1058454513549805,-0.8293824195861816,-0.9300107955932617,0.7285559177398682,0.568519651889801,1.3928000926971436,-0.886756181716919,0.05781747028231621,-0.4333116114139557,-2.6791789531707764,-0.2486497461795807,0.2818719446659088,2.132000207901001,-0.9669048190116882,0.8953094482421875,-1.1556077003479004,-1.9325230121612549,0.7088364958763123,2.9455342292785645,-0.4845220148563385,0.09348583221435547,2.856326103210449,-0.21940255165100098,-0.2922810912132263,-0.3931514024734497,-0.48742958903312683,-2.998692274093628,0.6743083000183105,-1.6389182806015015,-0.031380750238895416,0.7906140089035034,2.0146186351776123,0.5784673094749451,-2.991027355194092,1.1504580974578857,-2.55340313911438,0.6296972632408142,0.45481210947036743,0.2705555260181427,-0.5795672535896301,-1.452051043510437,3.099923610687256,1.3633381128311157,0.6613168120384216,-0.5127902626991272,1.3626196384429932,1.424523115158081,-1.351149082183838,-0.4482143521308899,0.8112831115722656,0.22206474840641022,0.1105751171708107,2.173705577850342,-1.5859230756759644,-0.01995122618973255,1.618871808052063,-2.215533494949341,-0.3051076829433441,0.7874069213867188,1.0599290132522583,0.8833705186843872,-1.5215100049972534,-1.9788362979888916,-2.6712136268615723,0.3477782905101776,1.3820651769638062,-1.995971441268921,-1.0608705282211304,1.5719271898269653,0.35207849740982056,-1.6108065843582153,1.9673280715942383,-0.9416869282722473,-2.040574789047241,