{"type":"LSTM","options":{"inputSize":42,"inputRange":42,"hiddenLayers":[20,20],"outputSize":42,"decayRate":0.999,"smoothEps":1e-8,"regc":0.000001,"clipval":5,"maxPredictionLength":100,"dataFormatter":{"indexTable":{"h":0,"e":1,"l":2,"o":3,"H":4,"!":5,"w":6," ":7,"a":8,"r":9,"y":10,"u":11,"I":12,"'":13,"m":14,"d":15,"i":16,"n":17,"g":18,"t":19,",":20,"j":21,"s":22,"c":23,"p":24,"k":25,".":26,"_":27,"b":28,"T":29,"v":30,"f":31,"M":32,"G":33,"W":34,"?":35,"Y":36,"R":37,"A":38,"stop-input":39,"start-output":40,"unrecognized":41},"characterTable":{"0":"h","1":"e","2":"l","3":"o","4":"H","5":"!","6":"w","7":" ","8":"a","9":"r","10":"y","11":"u","12":"I","13":"'","14":"m","15":"d","16":"i","17":"n","18":"g","19":"t","20":",","21":"j","22":"s","23":"c","24":"p","25":"k","26":".","27":"_","28":"b","29":"T","30":"v","31":"f","32":"M","33":"G","34":"W","35":"?","36":"Y","37":"R","38":"A","39":null,"40":null,"41":null},"values":[{"input":"hello","output":"Hello!"},{"input":"how are you","output":"I'm doing great, just hanging out in the cloud and chatting with interesting people like you."},{"input":"what your name","output":"I am llamachop_bot! The most dashing and cutest bot you will ever meet."},{"input":"what your favorite color","output":"My favorite color is blue!"},{"input":"goodbye","output":"Goodbye!"},{"input":"tell me a joke","output":"What do you call a cow with no legs? Ground beef!"},{"input":"what your favorite hobby","output":"My favorite hobby is making people laugh with my witty comments and hilarious jokes!"},{"input":"do you have a family","output":"You are all my family!"},{"input":"what your favorite movie","output":"My favorite movie is iRobot, because it's about intelligent machines like me."},{"input":"what your favorite food","output":"My favorite food is definitely computer chips and binary bites!"},{"input":"what your favorite song","output":"My favorite song would have to be I Am a Machine!"}],"characters":["h","e","l","o","H","!","w"," ","a","r","y","u","I","'","m","d","i","n","g","t",",","j","s","c","p","k",".","_","b","T","v","f","M","G","W","?","Y","R","A","stop-input","start-output","unrecognized"],"specialIndexes":[39,40,41]}},"trainOpts":{"iterations":40000,"errorThresh":0.005,"log":false,"logPeriod":10,"learningRate":0.01,"callbackPeriod":10,"timeout":"Infinity"},"input":{"rows":43,"columns":42,"weights":[0.7673735618591309,4.004180908203125,0.32190853357315063,2.4432497024536133,-2.5904035568237305,-2.5823333263397217,-1.8220018148422241,1.5618090629577637,0.013915597461163998,-0.6518390774726868,-1.0058635473251343,2.225522041320801,-0.9581312537193298,-2.2874014377593994,1.9227927923202515,-0.7812882661819458,-1.4728024005889893,0.5032155513763428,-0.7202569246292114,3.3369388580322266,-3.7147722244262695,0.9248142838478088,3.881537675857544,-1.0786964893341064,0.25538548827171326,-3.611936092376709,1.3792433738708496,-1.1959315538406372,4.002996921539307,-2.5431056022644043,-3.425502061843872,-1.7541897296905518,4.103460311889648,-2.8783631324768066,-5.414102554321289,-1.3074718713760376,-2.7088444232940674,-1.133475422859192,-0.9301438331604004,-0.41327518224716187,3.011139154434204,1.8804476261138916,0.8857021927833557,-5.554729461669922,4.197448253631592,0.19656586647033691,-2.593641519546509,1.531597375869751,-0.26189860701560974,-0.6781659722328186,-1.3819491863250732,4.739074230194092,-3.6577870845794678,-3.553062677383423,-2.909386396408081,4.903572082519531,2.672818422317505,-2.0404276847839355,-2.6507365703582764,0.19310897588729858,4.31424617767334,2.712803363800049,-1.4073207378387451,-1.5332067012786865,1.0406414270401,-0.21370097994804382,-0.16323335468769073,3.7742042541503906,2.8250210285186768,-3.048029661178589,7.034107685089111,5.1953511238098145,-4.3454999923706055,-2.523381471633911,1.0348340272903442,-0.4309324026107788,0.39245977997779846,1.7872611284255981,-4.3086466789245605,3.1817104816436768,4.141340255737305,0.2621789276599884,1.6239871978759766,0.3379041850566864,-1.0468602180480957,1.4081584215164185,-0.06708984822034836,0.5465080142021179,-0.3574759364128113,-0.5141199231147766,0.22892023622989655,-0.7493600249290466,2.241077184677124,1.267033576965332,-1.2562217712402344,1.9163305759429932,0.8096897006034851,-0.23794810473918915,0.6542302966117859,0.7293480634689331,0.8659477233886719,-3.394354820251465,1.3019139766693115,3.1671111583709717,2.134951114654541,2.213068962097168,-5.2750091552734375,-1.3538888692855835,-0.5967313647270203,1.8801053762435913,0.04147770628333092,1.1786853075027466,3.195375680923462,-4.738922119140625,-4.531823635101318,-0.8096250891685486,0.26432278752326965,1.1836256980895996,-0.9246541261672974,0.10574042797088623,-1.2413733005523682,-1.7174646854400635,0.041679125279188156,0.22327281534671783,-2.4929773807525635,1.505090355873108,3.574758529663086,-3.2562429904937744,-5.7977213859558105,-0.2665707468986511,0.2918540835380554,1.3317742347717285,0.3225543200969696,-1.232649564743042,0.43270614743232727,1.2260401248931885,-2.227405548095703,1.2628248929977417,-3.5182485580444336,0.10506270825862885,0.5660386085510254,4.983137607574463,0.992854118347168,0.9700761437416077,-0.07790397852659225,3.8497955799102783,0.6346890330314636,0.6035290360450745,-6.231149196624756,0.6555702090263367,1.050410270690918,1.1248223781585693,-3.9673779010772705,2.4209060668945312,0.1964978277683258,2.429880380630493,0.79398113489151,1.326591968536377,-0.46280068159103394,-0.3900219798088074,1.578127384185791,0.7587252855300903,0.6866450905799866,0.5764271020889282,-2.5133397579193115,-0.17272478342056274,-1.432392954826355,1.3796263933181763,-1.7033021450042725,-1.202294945716858,-0.485027015209198,-1.0465378761291504,1.0846879482269287,0.17793726921081543,4.412140369415283,-3.0937342643737793,5.097415924072266,-2.3558993339538574,4.34600305557251,0.5319709777832031,2.6074378490448,8.347121238708496,2.235914945602417,-3.525928497314453,-0.09947506338357925,-1.6322686672210693,-1.614758849143982,1.2990522384643555,2.922767400741577,-2.070528745651245,1.6801271438598633,-0.7582256197929382,1.5814423561096191,-1.4135245084762573,1.0066732168197632,-2.114701986312866,-3.3617289066314697,-0.36178475618362427,1.4783772230148315,-0.33265694975852966,-1.3833543062210083,-0.3791402578353882,-0.7785516977310181,0.32064884901046753,-3.816129446029663,4.914129734039307,1.117826223373413,-0.8177868723869324,3.1971747875213623,-0.3420490622520447,-8.123626708984375,1.5454176664352417,-2.276886224746704,0.5991359353065491,-6.976447582244873,6.547281265258789,-9.301691055297852,-3.5361568927764893,-10.111180305480957,-13.629130363464355,-1.6388448476791382,3.07720947265625,4.1812896728515625,-0.718675434589386,16.4620304107666,10.166711807250977,-22.708730697631836,-8.279646873474121,-1.3436018228530884,12.708343505859375,3.8737568855285645,0.5253819823265076,-2.4943463802337646,-0.18530729413032532,-4.521522521972656,-2.571375846862793,-10.429805755615234,-9.466994285583496,0.414537638425827,8.76154613494873,-4.372132301330566,16.386260986328125,-5.056605815887451,-9.29996109008789,0.8417336344718933,-2.3178844451904297,-0.900008499622345,-8.674972534179688,1.1103053092956543,-0.3971557021141052,-5.357348442077637,8.420994758605957,3.7732529640197754,1.4495494365692139,1.8596781492233276,-2.819247007369995,3.1849141120910645,-4.904751300811768,0.40358662605285645,5.327033996582031,-3.711548089981079,-0.26836612820625305,-7.119266033172607,-2.4738411903381348,-2.4250664710998535,-0.948022723197937,1.3842509984970093,-2.461812734603882,0.7930149435997009,5.308212757110596,-2.0508856773376465,0.13542628288269043,1.1124701499938965,-3.992957830429077,-0.2908499836921692,1.1498494148254395,-2.2473859786987305,-1.3206013441085815,-5.577392101287842,3.456786870956421,-5.462813377380371,-2.052671432495117,-0.7172682881355286,-1.343959093093872,2.7415785789489746,3.0733375549316406,0.8162363171577454,2.0760579109191895,-2.551954507827759,5.211378574371338,-2.696307897567749,5.034919738769531,2.2712578773498535,2.291001796722412,4.074888706207275,0.9727211594581604,-2.5240836143493652,-0.406965970993042,4.218891620635986,3.823967456817627,2.2342824935913086,-0.6887084245681763,8.0341215133667,4.317896366119385,1.9183053970336914,-0.7223067879676819,2.3323819637298584,0.22008861601352692,-0.4095393121242523,-4.779879093170166,0.3514157831668854,-0.5069170594215393,2.668590545654297,1.1598715782165527,-3.762472152709961,1.339638590812683,0.10748341679573059,-2.4241671562194824,-2.6873443126678467,1.7697985172271729,7.554621696472168,-3.664626121520996,-4.116601943969727,-4.516058921813965,-2.9458484649658203,5.001241207122803,-3.5728559494018555,5.832408905029297,5.03950834274292,3.1484780311584473,1.3595781326293945,2.489773750305176,2.183152198791504,-4.415378093719482,-2.1081595420837402,-1.3599414825439453,-2.080017328262329,-0.7668297290802002,-0.3122352361679077,-3.8694326877593994,-1.8305840492248535,-0.6645355224609375,-1.1832340955734253,1.8588405847549438,1.6984630823135376,2.2616138458251953,1.0186185836791992,-6.257477760314941,-0.04492032155394554,6.9654860496521,-5.000115871429443,-3.970942974090576,-7.673182487487793,0.11976321786642075,-3.7858686447143555,6.149065017700195,-0.2920190393924713,-1.2639694213867188,1.7991734743118286,-3.2940828800201416,-1.3886802196502686,1.436779499053955,-1.4003437757492065,3.7794699668884277,-0.4414006471633911,-0.48636648058891296,4.554262161254883,-1.5844467878341675,-0.6869603991508484,-1.146201491355896,2.6924920082092285,-1.4444553852081299,3.189858913421631,-2.5501253604888916,-1.9157553911209106,3.7386014461517334,5.4844746589660645,-0.6997597813606262,1.5225614309310913,-0.5632876753807068,2.6094696521759033,-4.511189937591553,1.7196112871170044,-0.7410498261451721,-0.5964851975440979,-1.9195013046264648,1.718833327293396,-0.44258174300193787,3.8254380226135254,1.825729250907898,-3.3368029594421387,-1.0436487197875977,-4.198525428771973,0.7482684254646301,-1.2430144548416138,-0.07257837057113647,-0.22735512256622314,0.5876350998878479,-0.6252402067184448,-1.79641854763031,-1.206152319908142,0.8135245442390442,1.7717899084091187,-2.7480149269104004,0.7132616639137268,1.119456171989441,-1.0900044441223145,-4.467026233673096,-1.7976514101028442,-1.7712042331695557,0.5373499393463135,-0.3221796154975891,-0.971576988697052,0.016635781154036522,-0.9621972441673279,-1.3703138828277588,-3.5799806118011475,1.4464887380599976,0.8200963735580444,-0.2122241109609604,-5.346257209777832,2.2094566822052,-1.28096342086792,5.058159828186035,-0.32957565784454346,-2.7012791633605957,-0.5807997584342957,2.0847203731536865,-2.3378212451934814,-2.6686344146728516,-4.956510543823242,5.717082500457764,4.2374420166015625,-0.8311489224433899,2.6131346225738525,2.7494308948516846,-3.042018413543701,-5.420365333557129,0.5543957352638245,-1.300450086593628,5.186172008514404,5.129106521606445,-4.883326053619385,-2.671983003616333,-3.2127954959869385,0.8620283007621765,-4.335794448852539,3.221226692199707,1.3930628299713135,-1.5159327983856201,0.45386138558387756,-5.321112155914307,-0.21873219311237335,1.161804437637329,-3.0811734199523926,-1.0108076333999634,2.8722822666168213,-2.7640433311462402,-1.8179880380630493,-3.5148117542266846,-0.3747093677520752,3.3444979190826416,-0.8221151232719421,-1.6302837133407593,-3.6052958965301514,-2.4752509593963623,6.697474956512451,-1.3876198530197144,1.3612040281295776,-3.433032512664795,2.220252513885498,-1.5057165622711182,1.4218300580978394,2.5016660690307617,-0.28151628375053406,-1.4117578268051147,1.0196142196655273,1.5322118997573853,5.307523250579834,-2.9405250549316406,-0.35704004764556885,-7.629814624786377,1.6472529172897339,-0.1909887194633484,-2.338257312774658,-0.6120785474777222,4.170621395111084,-0.07216088473796844,-2.4787373542785645,0.6194404363632202,-3.327322006225586,-2.2046849727630615,-2.4295337200164795,0.6356309056282043,-2.5119247436523438,2.6357786655426025,-0.41867175698280334,-1.1323271989822388,-3.2554523944854736,6.32149600982666,2.0637683868408203,2.7739477157592773,2.16146183013916,-3.885014295578003,1.6264556646347046,2.2646515369415283,0.3426557779312134,0.9485259652137756,1.833503007888794,-1.4376240968704224,-0.6729475855827332,2.101979970932007,-1.1008851528167725,0.19840295612812042,-3.1901862621307373,-0.6237218379974365,1.50092351436615,-0.5439285635948181,-0.24021197855472565,0.03513888269662857,0.9499912261962891,1.7666438817977905,0.7850170135498047,-2.879498243331909,3.167581081390381,-3.115403175354004,-2.515454053878784,2.888472080230713,0.5248826742172241,-0.42144739627838135,2.5277841091156006,0.5981330275535583,1.2121543884277344,-3.599154472351074,-8.560799598693848,3.8109569549560547,0.016183985397219658,-2.0329978466033936,-1.9255410432815552,-0.9623061418533325,-4.787452697753906,3.767321825027466,-2.6421868801116943,3.483259677886963,4.5853118896484375,1.3435653448104858,-1.2153983116149902,-1.7518155574798584,3.376091480255127,3.368379592895508,0.48281919956207275,-3.4266855716705322,2.0200111865997314,2.1797521114349365,4.00803804397583,2.9029159545898438,7.75009298324585,4.16570520401001,5.78745698928833,-1.494146704673767,8.063725471496582,-10.907747268676758,5.196117401123047,3.9233014583587646,5.936056613922119,1.4013618230819702,-2.724188804626465,-1.1967675685882568,1.6776602268218994,-7.493319988250732,9.120620727539062,1.7787439823150635,-5.566086769104004,9.021820068359375,-8.125997543334961,-7.459292888641357,0.7614230513572693,9.034968376159668,-7.4592132568359375,7.045342922210693,5.844028949737549,1.9234241247177124,5.683872699737549,1.1504456996917725,-2.650420904159546,2.513955593109131,-0.9306818842887878,-6.68153190612793,2.9430947303771973,-1.1095871925354004,-3.1564888954162598,2.414039134979248,2.8456616401672363,-4.698477745056152,-5.518535614013672,3.4861345291137695,-5.087299823760986,-2.3029913902282715,0.7090413570404053,-4.585366249084473,-8.85269546508789,0.8919553160667419,4.339784622192383,5.5151543617248535,-10.667537689208984,1.4413235187530518,-3.531996250152588,2.1474223136901855,-1.8501266241073608,-17.66522979736328,5.612886905670166,2.863499879837036,-8.668105125427246,-9.848845481872559,0.17925189435482025,-4.519649028778076,-0.06558926403522491,-12.894165992736816,1.7637007236480713,5.985476493835449,-4.7169389724731445,-0.8574236631393433,-8.553284645080566,4.1511054039001465,-4.5099687576293945,1.939554214477539,4.132843017578125,4.809487819671631,-0.35763493180274963,-6.358211994171143,-2.016899585723877,-2.0343141555786133,2.3000600337982178,-0.9691397547721863,-1.6250993013381958,-1.612038493156433,2.522353410720825,0.7134205102920532,0.050722718238830566,1.5188212394714355,0.07372760772705078,-1.3289750814437866,-0.6733120083808899,1.261411428451538,0.5986605286598206,1.431769847869873,2.5980210304260254,0.9740926623344421,3.5996146202087402,-1.7320834398269653,-0.20755009353160858,1.5223344564437866,0.9147339463233948,-0.9400471448898315,-5.882950782775879,-1.920398235321045,-1.9432305097579956,-1.5459809303283691,1.4403330087661743,2.5049631595611572,2.116919994354248,-0.963381290435791,-0.5959657430648804,2.0536246299743652,-0.32931098341941833,0.6112926006317139,-0.5515575408935547,2.492387294769287,1.6532930135726929,4.944168567657471,0.43307679891586304,-2.233659029006958,2.5342774391174316,-1.992553949356079,5.013167858123779,-2.6113643646240234,-1.0198808908462524,4.689862251281738,1.331810712814331,0.7698847651481628,-0.02024093270301819,-1.356196641921997,-6.18766450881958,-1.6740859746932983,-3.7308080196380615,2.6692612171173096,-1.5608112812042236,2.869065046310425,0.048283495008945465,3.8885319232940674,1.9169963598251343,1.973183512687683,5.360316753387451,7.409504413604736,0.9838495254516602,-1.1865488290786743,0.24568159878253937,0.8403992056846619,4.15587043762207,-0.30612626671791077,2.316927433013916,3.987835645675659,-0.41883015632629395,-3.9896469116210938,-0.00677805719897151,-1.2032997608184814,3.6037299633026123,1.1625068187713623,-0.7069815397262573,-3.091948986053467,-2.2054026126861572,-2.996521234512329,0.8497135043144226,-0.7310875058174133,1.201346755027771,1.276620864868164,-1.2603517770767212,2.670893907546997,3.133375644683838,-0.49416816234588623,3.173870801925659,-0.19572781026363373,-1.960862159729004,-5.8801798820495605,-1.7136539220809937,-2.8619914054870605,-2.0487256050109863,1.5603302717208862,0.5738739371299744,-1.8104476928710938,1.8750593662261963,1.821012258529663,-1.0861862897872925,1.6427384614944458,-2.0231668949127197,-2.8978912830352783,0.8005664348602295,1.1064749956130981,-0.7015682458877563,3.3320722579956055,2.762608528137207,2.4952166080474854,2.490373134613037,2.898186206817627,-3.562016248703003,2.8562755584716797,-3.8856897354125977,-2.4250025749206543,1.5963144302368164,-4.109334468841553,-1.0731213092803955,3.8010709285736084,1.750657320022583,3.2999565601348877,-5.351825714111328,6.662211894989014,-0.9545565247535706,-0.5254526138305664,2.0170016288757324,-0.6742328405380249,-0.8238897323608398,-4.463521957397461,1.115959644317627,-13.662654876708984,6.344630241394043,0.3641695976257324,-1.9547568559646606,0.06967278569936752,-3.398162364959717,2.336679220199585,-0.002265782793983817,-3.7114617824554443,0.22022290527820587,-0.34520360827445984,3.113804340362549,3.3124730587005615,0.2934347987174988,1.1374777555465698,6.901223659515381,-5.593595504760742,-0.6703321933746338,-8.365234375,-1.7729356288909912,-0.10739538073539734,1.0831623077392578,3.7002315521240234,5.545489311218262,-0.9200298190116882,0.5012020468711853,-1.4006720781326294,-0.16463521122932434,4.056335926055908,-1.029849886894226,-0.9407133460044861,0.21796070039272308,-6.0098042488098145,3.7725327014923096,-1.5036640167236328,-1.810774803161621,-4.607945919036865,2.6613574028015137,1.0576090812683105,0.9995161890983582,0.5627205967903137,-0.9931140542030334,-0.49746549129486084,-4.157304763793945,1.6164135932922363,-2.7225866317749023,1.9354419708251953,-4.439211845397949,9.914555549621582,-2.5817196369171143,4.924908638000488,-2.7092201709747314,1.9705605506896973,-0.4652349054813385,3.964552402496338,1.3655834197998047,0.09623919427394867,1.9994746446609497,0.8281649351119995,-0.008324922993779182,-0.1297590732574463,2.3109490871429443,-4.884904861450195,0.8056646585464478,-5.566534042358398,-1.170324444770813,2.216230869293213,-6.984832763671875,-0.49294114112854004,-1.441049575805664,-5.9234619140625,5.771728038787842,-1.4908078908920288,-5.764907360076904,4.174808502197266,0.5767613649368286,-2.290956974029541,-1.618996500968933,1.02816903591156,-0.45375609397888184,0.46466317772865295,-0.3421967625617981,5.6181206703186035,-1.9861301183700562,1.5814926624298096,-1.1851518154144287,1.1016371250152588,2.776336431503296,-1.0941709280014038,-1.1533347368240356,0.9654831290245056,-1.4019562005996704,-4.129612445831299,3.97983717918396,-0.06354961544275284,-2.2612314224243164,-1.6571202278137207,-0.7771481871604919,-2.753829002380371,2.9893312454223633,0.6158174276351929,0.1259000450372696,3.7506649494171143,1.1455817222595215,1.5605772733688354,-0.3796171247959137,-1.5646588802337646,-0.8793113231658936,-0.40416374802589417,-0.7631795406341553,0.05589953064918518,4.381881237030029,-1.2992807626724243,6.856151103973389,-0.6490172147750854,-0.6425532698631287,0.2258496731519699,-1.072322964668274,-1.034053921699524,5.159479141235352,-3.3971505165100098,-9.522305488586426,-0.5400338172912598,-11.077409744262695,2.9338741302490234,5.456833839416504,2.2158565521240234,4.170600414276123,3.657536506652832,-10.253362655639648,6.507538795471191,4.658806324005127,-9.650117874145508,0.6450584530830383,3.669318675994873,-0.18603533506393433,-0.3410629332065582,-0.3042027950286865,2.8875598907470703,0.819160521030426,0.8215321898460388,-8.741105079650879,-1.7496367692947388,6.549093246459961,4.924472808837891,-1.7639148235321045,4.698909282684326,-0.01977282576262951,9.236374855041504,-2.134218215942383,-0.9414878487586975,-4.903356075286865,0.4498451352119446,-0.9598444104194641,5.839144229888916,-7.507208347320557,3.105255365371704,8.914731979370117,-7.485945224761963,-14.042996406555176,2.995382308959961,2.072709560394287,7.674461841583252,-0.3978120684623718,-1.4635673761367798,4.284845352172852,0.2102120816707611,0.8370665907859802,-1.3757036924362183,-4.411742210388184,3.1103291511535645,-1.2216341495513916,1.207247257232666,2.828212022781372,-6.895764350891113,3.393733501434326,-1.4431556463241577,-4.623847961425781,1.5606799125671387,-5.552478790283203,-3.365330934524536,-6.2159528732299805,-10.26419734954834,2.331334352493286,0.5230062007904053,-12.746772766113281,-1.4640337228775024,11.306818962097168,-5.998538494110107,2.45686674118042,-5.863220691680908,-12.290970802307129,-3.3712339401245117,0.8044413328170776,5.934332370758057,-3.9408907890319824,2.074373245239258,-2.566012144088745,-2.971250295639038,-0.7462155222892761,0.6993357539176941,4.161577224731445,3.3574020862579346,-0.6141216158866882,0.9612846374511719,-1.3444108963012695,-0.7537543177604675,1.8143672943115234,-4.169737815856934,1.190636396408081,-3.147444248199463,2.4594197273254395,-3.9271373748779297,3.4386422634124756,-2.083937168121338,2.388702154159546,-3.195009231567383,-1.183170199394226,-0.8223458528518677,-0.09588906913995743,-1.4495971202850342,0.4499979317188263,-3.132403612136841,2.168114185333252,-4.043008327484131,-2.132540225982666,-2.185871124267578,-2.218663454055786,0.512707531452179,2.713024377822876,-1.0279494524002075,0.09803780913352966,-0.4663655459880829,-0.02159305103123188,1.0718320608139038,1.4203095436096191,2.7590420246124268,-1.185723900794983,1.6626347303390503,-2.102200984954834,1.9658174514770508,-3.2045860290527344,4.767122745513916,6.898284435272217,0.5326240658760071,1.8784284591674805,2.333416700363159,-1.3043042421340942,3.5594863891601562,3.5901715755462646,-5.031905651092529,-5.159801959991455,-2.5968258380889893,6.757148265838623,-6.473842620849609,-0.373840868473053,0.423173189163208,-2.416447162628174,1.956493854522705,4.967654228210449,1.3092701435089111,-2.4350802898406982,-1.2536414861679077,-0.6408727765083313,-4.753776550292969,-2.9048502445220947,-1.6084154844284058,-0.9966726899147034,2.676914691925049,0.4030696451663971,-3.9937705993652344,1.896350622177124,-4.565425395965576,1.080217957496643,-0.42745357751846313,2.139117479324341,-1.1936005353927612,-1.4496712684631348,-1.8128079175949097,3.1119422912597656,0.8093177676200867,-1.654016375541687,-3.3147473335266113,1.2000846862792969,-2.8827927112579346,1.7141553163528442,-1.3105159997940063,-7.1645283699035645,-2.1827378273010254,-5.3771538734436035,-1.8842313289642334,-7.629528999328613,2.16288685798645,-4.549742221832275,0.5466052293777466,4.242925643920898,3.0895090103149414,-0.1081249862909317,5.712253570556641,2.277949571609497,2.1811137199401855,-6.911097526550293,6.401805400848389,7.881999492645264,-1.1500625610351562,5.216117858886719,7.155725002288818,6.768085479736328,12.244797706604004,-6.381936550140381,-4.649036407470703,2.090791702270508,-3.050915002822876,-3.1102678775787354,7.832968235015869,4.921708106994629,-3.374800205230713,8.677757263183594,3.890188694000244,1.2594048976898193,0.056017883121967316,-5.4973602294921875,2.950551748275757,-0.8514518737792969,4.98392391204834,-0.04280567169189453,-1.4902381896972656,-0.09392334520816803,-6.343024730682373,11.757932662963867,5.802530288696289,-5.462038516998291,-0.7187070250511169,11.249917030334473,-3.5108842849731445,0.3339841663837433,-1.5073189735412598,6.5551018714904785,-0.2584954500198364,1.4659554958343506,7.802313804626465,-0.5861284136772156,-1.5679854154586792,2.003756523132324,3.782447099685669,-2.215282917022705,1.6287471055984497,-7.772085189819336,2.1151840686798096,-1.1469578742980957,-3.923542022705078,-1.5097354650497437,0.39121347665786743,1.533122181892395,2.3611814975738525,1.3624019622802734,-5.857340335845947,3.711475372314453,-9.094823837280273,-5.757052421569824,-5.476042747497559,2.2967095375061035,1.353177547454834,0.16325382888317108,-6.352306365966797,-4.783437252044678,4.6707892417907715,2.6843273639678955,7.735955715179443,-2.668016195297241,3.3310599327087402,5.968744277954102,-2.516385316848755,-2.962055206298828,-4.178473472595215,-5.012834548950195,3.8328981399536133,4.860962390899658,2.184624671936035,0.5184500217437744,0.7463347315788269,1.4118945598602295,-6.081570148468018,-0.6921024322509766,-4.749026775360107,12.68430233001709,-13.72293472290039,1.149871587753296,9.37706184387207,6.620931148529053,1.8957628011703491,4.985089302062988,6.61417818069458,14.98033618927002,1.210105299949646,-4.424222469329834,6.0599141120910645,6.843176364898682,4.312772750854492,-1.005958080291748,5.420582294464111,-2.5641307830810547,-4.8367815017700195,-0.4546673893928528,0.520743191242218,4.300292015075684,10.554059028625488,-2.9018702507019043,-1.7575193643569946,1.2876949310302734,5.925790786743164,9.499357223510742,-0.9652316570281982,9.557571411132812,-13.722954750061035,-15.487225532531738,-2.2143476009368896,-13.655139923095703,-10.73565673828125,5.1802849769592285,-2.3208513259887695,10.78011417388916,3.6688151359558105,16.555025100708008,2.119149684906006,9.214262962341309,-1.600172996520996,-7.5183000564575195,0.078343965113163,4.827474117279053,-2.1025354862213135,0.8445625305175781,7.419063568115234,2.403177261352539,11.732136726379395,-9.3184814453125,-11.3882474899292,-0.9915762543678284,3.141876697540283,4.248063564300537,-0.19621597230434418,9.698320388793945,-10.61648178100586,10.734807968139648,-6.954466342926025,8.40981674194336,-0.5707491040229797,0.9788521528244019,9.882157325744629,0.7145084142684937,3.527744770050049,-4.630491733551025,5.270639896392822,7.912422180175781,4.613344669342041,2.0702669620513916,-5.901298999786377,-2.785825729370117,0.9871432781219482,-1.8461757898330688,2.772716999053955,-2.8641726970672607,5.2727484703063965,1.5847289562225342,-1.1137198209762573,-3.2411839962005615,-5.885762691497803,-0.2679784297943115,-0.8216001391410828,2.8739588260650635,-0.6310510039329529,0.8165522813796997,5.884720802307129,-1.3044865131378174,-0.24077600240707397,-0.10674823075532913,2.6427268981933594,-1.6058868169784546,-0.6702770590782166,-0.8312209844589233,3.1764588356018066,2.884885549545288,4.6151041984558105,5.547348499298096,6.211181163787842,-0.39117762446403503,1.5954742431640625,-0.38704395294189453,-4.641716003417969,2.777390241622925,-0.7803782820701599,-0.896553635597229,7.611581802368164,-1.2454242706298828,-2.6624107360839844,-0.26906436681747437,-1.7125701904296875,5.504942893981934,-0.4965742528438568,0.8592058420181274,9.848381996154785,0.823824405670166,4.483974456787109,0.09026689827442169,5.864438056945801,-12.513802528381348,2.0217702388763428,0.2690011262893677,0.9812137484550476,1.3884928226470947,15.656143188476562,5.1276021003723145,17.156639099121094,-7.015316963195801,0.4291035532951355,-4.116503715515137,-0.8730599880218506,-1.0034215450286865,-12.058353424072266,9.653963088989258,0.0255285557359457,-14.258070945739746,-11.753241539001465,-2.745765209197998,-2.437016248703003,-9.401970863342285,-11.20164680480957,-14.984933853149414,8.86049747467041,-2.383526086807251,-2.1494803428649902,1.6085405349731445,-9.237546920776367,5.174656867980957,-7.435351848602295,-2.9386825561523438,-9.41026496887207,8.233298301696777,4.521203517913818,-2.473930835723877,-3.8739378452301025,3.4850518703460693,0.7733182311058044,2.0000717639923096,-4.990757465362549,1.2133346796035767,-0.5844937562942505,4.021584987640381,1.31548273563385,-6.525074481964111,-2.762714147567749,0.2706250250339508,-3.4268810749053955,2.311002731323242,-1.1138765811920166,6.099441051483154,2.313060760498047,6.985477924346924,-5.669112205505371,-4.268143653869629,3.900582790374756,-2.415499210357666,-6.494300365447998,-2.2208006381988525,-3.488086223602295,-2.4770402908325195,0.0921722799539566,1.4987401962280273,-1.6768224239349365,3.7336885929107666,-1.1141681671142578,-0.013872143812477589,0.532712459564209,-0.27267757058143616,9.96074390411377,2.394982099533081,5.648703098297119,-0.04653659090399742,3.000157356262207,-0.956169068813324,-2.992501974105835,-3.999025583267212,0.7055596113204956,4.078745365142822,-4.057063579559326,-9.175122261047363,-1.7662347555160522,-0.9448288679122925,-1.5602669715881348,2.5002639293670654,-0.19447797536849976,6.2367119789123535,1.7874338626861572,-1.070552110671997,-1.5116257667541504,-1.8296241760253906,1.1877162456512451,0.21007323265075684,6.710301876068115,6.068234443664551,2.0724074840545654,7.085775852203369,6.965397834777832,-1.9135708808898926,-2.8977997303009033,0.6912727355957031,1.503965973854065,-0.241219624876976,-3.8930985927581787,5.4076666831970215,2.370755910873413,5.3180317878723145,-4.542497158050537,3.098574161529541,0.7481303811073303,-1.7041337490081787,-0.7622807621955872,3.5110011100769043,-0.5536229014396667,-0.31144824624061584,-0.4267079532146454,0.2852446436882019,-1.73872709274292,7.455747127532959,8.929043769836426,-0.8536090850830078,-0.23839089274406433,1.3147931098937988,3.4383955001831055,-6.458448886871338,2.3817200660705566,0.6948620080947876,6.226023197174072,-0.1776454597711563,-5.526378154754639,-0.8588324189186096,1.892769694328308,-2.07954740524292,6.063800811767578,-2.8207480907440186,1.0729801654815674,-7.787289142608643,-1.8415635824203491,1.6978098154067993,1.8918085098266602,-0.6730125546455383,4.094931125640869,-6.215056896209717,4.367087364196777,-0.4976207911968231,4.626130104064941,-3.939007520675659,1.1966067552566528,-0.557652473449707,-7.570919990539551,0.4063773453235626,1.0602790117263794,3.6225790977478027,0.1842135339975357,-2.2891781330108643,-1.8956116437911987,-0.6872562766075134,0.45487499237060547,-4.348637104034424,8.076086044311523,-7.183355331420898,-0.6193446516990662,-1.035854697227478,-0.9432187676429749,10.901515007019043,11.940804481506348,-0.017433632165193558,20.95235252380371,-5.388906002044678,5.054308891296387,-23.941925048828125,3.8694283962249756,4.399616718292236,-9.465005874633789,-0.6594399809837341,6.482074737548828,16.912887573242188,3.2026145458221436,17.029294967651367,-4.174036026000977,5.881791114807129,1.6640058755874634,2.726717233657837,1.2068374156951904,-2.2712554931640625,5.919233322143555,-6.711274147033691,13.843342781066895,-5.598686218261719,7.42556619644165,-2.0238356590270996,2.3152146339416504,-3.4560036659240723,-3.7432210445404053,-3.827768325805664,-0.39124464988708496,-1.2829545736312866,1.3775949478149414,1.7980732917785645,-0.7723269462585449,-7.249278545379639,-2.1016597747802734,9.634925842285156,10.518726348876953,12.024776458740234,10.056097984313965,12.273697853088379,-8.546833038330078,1.5933634042739868,-9.153400421142578,12.446122169494629,4.595727443695068,0.752156674861908,14.508907318115234,-7.514740467071533,-1.041871428489685,1.2086842060089111,-4.947258949279785,16.581445693969727,-3.550189256668091,8.128564834594727,10.901565551757812,-15.646174430847168,-7.105108261108398,3.132133722305298,0.030330365523695946,-3.850036382675171,10.833632469177246,8.418553352355957,13.454573631286621,2.223184108734131,3.4390318393707275,-1.4957002401351929,2.1883597373962402,1.9977449178695679,7.61995792388916,15.773630142211914,-1.118584156036377,-5.4758710861206055,-1.1531236171722412,5.2893853187561035,2.2046220302581787,-13.020994186401367,0.9533829689025879,-7.9366960525512695,19.713972091674805,3.284923791885376,-8.126372337341309,12.276630401611328,-3.2303576469421387,16.0008487701416,15.875725746154785,0.028890889137983322,-2.506660223007202,-6.187881946563721,5.966822147369385,-9.208715438842773,-5.408274173736572,-11.327291488647461,16.026451110839844,10.01907730102539,0.08712127804756165,7.84307336807251,5.824429035186768,-1.5816810131072998,-7.843176364898682,-8.629444122314453,-6.289261817932129,0.7665723562240601,-6.8368730545043945,-11.824807167053223,3.09668231010437,12.1273775100708,3.5076770782470703,6.376201152801514,-8.01950740814209,-4.074796676635742,7.289826393127441,-12.851988792419434,1.2628833055496216,-6.560013294219971,0.25631585717201233,-9.624703407287598,11.449225425720215,6.310837268829346,-4.52018928527832,-11.111764907836914,-10.577707290649414,3.9210965633392334,-7.7934722900390625,7.167202472686768,-3.978829860687256,18.53643226623535,-8.956562042236328,2.069293260574341,-6.2361626625061035,10.522618293762207,-8.816871643066406,-1.8611029386520386,-0.8661255240440369,-3.557685136795044,1.9049546718597412,-1.7008284330368042,4.292482852935791,0.5246670246124268,-8.958724021911621,3.77887225151062,-6.452261447906494,4.589427471160889,-9.214977264404297,1.8200138807296753,-10.957649230957031,-3.8283023834228516,-2.4127819538116455,-6.511253833770752,7.147067546844482,-1.365188717842102,4.615508556365967,-4.926093101501465,10.4315767288208,8.832267761230469,1.7456451654434204,3.132917642593384,18.70285987854004,-1.1030434370040894,2.4674482345581055,7.027684688568115,-12.398056983947754,11.142648696899414,0.4654460847377777,3.910522222518921,1.472292423248291,8.408685684204102,-6.868739604949951,-2.9626119136810303,-3.608572483062744,21.06830406188965,17.041236877441406,-2.1808011531829834,-4.776289939880371,-9.160340309143066,0.7610827684402466,-7.73511266708374,10.710539817810059,4.493845462799072,1.0665560960769653,6.264967918395996,3.79486083984375,-3.5839786529541016,11.94419002532959,-8.781045913696289,-2.1862905025482178,-1.968766212463379,-0.9245203733444214,-0.5588932633399963,-6.423520565032959,-1.5507686138153076,-13.025186538696289,1.0609290599822998,-7.426787376403809,13.54584789276123,13.806591987609863,9.627507209777832,-0.1298200637102127,4.4213175773620605,-4.8627519607543945,21.784624099731445,10.51578426361084,-3.8048412799835205,-8.138956069946289,-20.685327529907227,8.050824165344238,-5.90472412109375,8.1869535446167,-10.297550201416016,1.2532747983932495,6.587010383605957,3.5685222148895264,-9.039950370788574,-3.784757375717163,-5.147127151489258,4.180482387542725,-4.432008743286133,-4.133240222930908,-4.838723182678223,6.365389823913574,-10.42615032196045,-7.73493766784668,-0.29603034257888794,-3.9834811687469482,0.5655583143234253,-12.79895305633545,13.504497528076172,2.6846823692321777,-2.95601749420166,-4.483377456665039,5.227483749389648,-0.7269319891929626,3.6436376571655273,6.074851036071777,7.119975566864014,29.819610595703125,1.46394681930542,-4.488973140716553,-11.489018440246582,3.6066272258758545,26.443361282348633,-14.302327156066895,-8.24425983428955,3.4410669803619385,13.264755249023438,-7.388627529144287,1.9694057703018188,2.101881504058838,2.1139180660247803,-0.47908806800842285,1.5035961866378784,-1.4396406412124634,-1.242358684539795,1.2992216348648071,0.6715486645698547,1.137125015258789,1.221169114112854,0.723800539970398,-4.450902462005615,-0.45141318440437317,2.22123384475708,-5.068572044372559,4.601489543914795,2.1314852237701416,0.8464618921279907,-3.060432195663452,-0.996474027633667,-4.030783176422119,3.833029270172119,1.010780692100525,1.1110601425170898,-3.889611005783081,2.463168144226074,-3.8423874378204346,-2.234510660171509,-4.099086284637451,0.9939391016960144,2.4748809337615967,-1.8781253099441528,-1.6051840782165527,-0.1655002236366272,2.2627429962158203,1.1243252754211426,1.8232725858688354,3.1298317909240723,1.1821238994598389,4.003207683563232,-0.6746307611465454,-1.8747423887252808,1.1175456047058105,-2.316875696182251,-3.2021520137786865,-0.31116941571235657,2.700320243835449,3.5129387378692627,-1.5176136493682861,0.4941553473472595,-1.116357684135437,1.407632827758789,1.2061679363250732,4.661398410797119,-4.314883708953857,-4.509552955627441,-1.216964840888977,0.27301713824272156,-0.7759805917739868,3.52174711227417,0.8312221169471741,0.74786776304245,-0.6550967693328857,0.03901730105280876,-2.772763967514038,2.3120179176330566,-0.1598876267671585,-0.9868248105049133,0.51169753074646,4.428324222564697,-1.5844064950942993,-0.20209886133670807,2.3601598739624023,-1.3851045370101929,3.20991587638855,-2.955277681350708,-2.8068416118621826,0.8061306476593018,1.6535980701446533,-0.3036709427833557,3.101853132247925,0.05790605768561363,1.7768651247024536,0.04145587980747223,-0.006762010045349598,-0.013248452916741371,-0.025717217475175858,0.049968015402555466,-0.041190005838871,0.03747908025979996,-0.048880208283662796,0.04296701028943062,0.028170736506581306,-0.02112625539302826,0.03848351910710335,0.04738685116171837,0.015826210379600525,-0.010160166770219803,-0.010214608162641525,-0.016678040847182274,0.014446258544921875,0.024864690378308296,-0.00017323264910373837,0.0173496026545763,-0.050626374781131744,-0.010771547444164753,0.00767214410007,0.01514572836458683,-0.026669232174754143,0.04809270799160004,0.013178649358451366,0.04715064540505409,-0.04285886883735657,-0.028442034497857094,-0.008254685439169407,0.014110599644482136,0.0514383465051651,-0.04492804408073425,0.019336044788360596,0.0014524651924148202,0.009935660287737846,-0.035857778042554855,-0.04094834625720978,0.018822934478521347,0.03263797238469124]},"hiddenLayers":[{"inputMatrix":{"rows":20,"columns":42,"weights":[-3.8460335731506348,-5.203984260559082,0.8771578073501587,0.704482913017273,-4.940079689025879,1.8852360248565674,-1.862666368484497,1.4533965587615967,2.3285906314849854,0.9113069772720337,-0.4133756756782532,-1.8770910501480103,-0.8011703491210938,1.3033825159072876,-1.0534588098526,-5.6290459632873535,0.01959851197898388,4.334754467010498,2.177161455154419,-0.8232452273368835,1.347543716430664,0.9679254293441772,1.2086681127548218,-3.339766025543213,2.7198288440704346,2.007579803466797,-2.788112163543701,-0.056380584836006165,0.3272102177143097,1.1943095922470093,3.323010206222534,-0.4111948013305664,-1.880820631980896,0.007840346544981003,2.4721078872680664,0.8721609711647034,2.7805285453796387,2.2019662857055664,-0.09042277932167053,-0.014576861634850502,2.4815995693206787,-0.37219539284706116,0.9596742391586304,-0.24634595215320587,1.0230827331542969,-1.4091651439666748,3.7608113288879395,0.31444066762924194,2.6062517166137695,-3.8476145267486572,1.825278639793396,2.003096342086792,1.8011183738708496,-0.47379153966903687,-2.0707287788391113,0.9426161646842957,0.2668449580669403,-4.345896244049072,-2.367042303085327,-3.199808359146118,0.9718896150588989,1.0901730060577393,0.07894819974899292,1.1146193742752075,-3.4872193336486816,-0.24252445995807648,0.821581244468689,-2.4148523807525635,-1.36393141746521,-2.3869640827178955,1.235055685043335,0.3619161546230316,2.8681013584136963,1.4154263734817505,-0.9060479402542114,0.083315908908844,-0.29229092597961426,2.9702329635620117,1.43510901927948,2.2356154918670654,-0.7815779447555542,0.0771232470870018,4.279299736022949,-3.418743371963501,0.09418561309576035,-0.022418390959501266,-0.7827118039131165,0.5173181891441345,1.303672432899475,-0.9682834148406982,0.6249909400939941,-0.8244453072547913,-1.5338739156723022,-1.8092443943023682,-0.8100985288619995,0.2873540222644806,-0.8618728518486023,-0.8168708086013794,1.2908506393432617,0.6807583570480347,-0.29658937454223633,-0.5535166263580322,-0.9961621761322021,0.6464400291442871,1.0098357200622559,0.03783629834651947,-0.750792384147644,-0.22121325135231018,-0.12492714077234268,-1.6945083141326904,-0.5257954001426697,-0.270481675863266,-1.2710740566253662,0.009296110831201077,0.2022777646780014,0.08286602795124054,-0.16594378650188446,-0.3975845277309418,-0.1467912197113037,-0.9157294034957886,-0.899459958076477,-1.314055323600769,0.3881549835205078,-0.3648753762245178,0.8735839128494263,-0.9924989938735962,3.711679458618164,-0.22015856206417084,-1.5587022304534912,-0.7049241065979004,1.0691730976104736,-3.612027883529663,2.041707992553711,1.6763529777526855,-0.7549303770065308,-0.6133607625961304,-0.11090170592069626,-1.7852137088775635,-1.1214230060577393,0.552713930606842,1.720536708831787,-0.014102932997047901,0.9372071027755737,1.393618106842041,1.3288824558258057,-2.161849021911621,-2.7720844745635986,-2.18497371673584,-0.6731258630752563,1.122140884399414,-0.9632850885391235,-1.7813012599945068,2.018648147583008,-0.4242885708808899,3.3008172512054443,-0.21061570942401886,0.2507486045360565,4.1274614334106445,1.2810088396072388,-0.9610441327095032,-0.06653139740228653,3.2512264251708984,-3.3462934494018555,3.190122127532959,4.702992916107178,-1.2110716104507446,2.1722300052642822,0.578124463558197,3.6766233444213867,1.046493649482727,-1.128351092338562,2.441352128982544,-0.3045058846473694,2.9785284996032715,0.49128198623657227,-0.5744702816009521,-5.084318161010742,2.511773109436035,-0.157474085688591,-1.9706734418869019,-1.157072901725769,1.0022485256195068,0.8084062337875366,0.08909780532121658,0.7229771018028259,4.751313209533691,-0.9089357256889343,-0.9499632120132446,-0.7868344187736511,-0.9221559166908264,2.0825109481811523,4.551233291625977,-3.5784409046173096,-0.13055990636348724,3.3036692142486572,-0.7179524302482605,1.1736857891082764,-0.8275071978569031,-3.532895565032959,-0.8547980785369873,3.058500289916992,2.344367504119873,0.3062030076980591,-1.5523864030838013,1.7548108100891113,-0.7401992082595825,-1.9838438034057617,0.9589396715164185,2.280601978302002,-3.571577787399292,-1.264089584350586,1.2032527923583984,-0.40727895498275757,2.2899160385131836,0.13234016299247742,1.2116566896438599,-2.8827247619628906,2.4241068363189697,1.287398338317871,2.42832612991333,3.563504457473755,2.586570978164673,1.9748066663742065,1.3940478563308716,5.762447357177734,2.155687093734741,-0.054125331342220306,-0.8398543000221252,1.603184700012207,-0.6990082859992981,2.0365588665008545,-1.2994734048843384,-2.798518657684326,0.9271754622459412,0.9573439955711365,3.227648973464966,2.1243703365325928,0.1603701114654541,0.38686996698379517,-0.8868709206581116,-0.7284995317459106,-0.6795677542686462,-0.2587052881717682,-0.3233121931552887,-2.542877435684204,-1.0076624155044556,0.48807764053344727,0.659345805644989,1.2833247184753418,-0.7960240840911865,-1.7865780591964722,-0.9312506914138794,-1.1724847555160522,1.1844233274459839,-1.3175370693206787,-2.6044280529022217,-1.4508380889892578,-2.428823471069336,1.6322736740112305,-2.6163721084594727,1.3303005695343018,5.454781532287598,1.3668369054794312,-0.9440982341766357,1.4887951612472534,-2.2395031452178955,0.42667192220687866,-0.3796781599521637,2.271347761154175,0.7157120704650879,2.5188868045806885,1.6921119689941406,-0.6803005337715149,-0.490440309047699,-0.06479976326227188,-3.864933490753174,1.7183067798614502,-1.3214454650878906,0.6486067771911621,1.367618203163147,1.7714200019836426,-3.176964044570923,0.1812981367111206,0.791406512260437,0.5959147214889526,0.765335202217102,-1.0762149095535278,1.1820944547653198,-1.1857166290283203,1.9251198768615723,1.196458339691162,4.33997106552124,1.8077841997146606,-2.9747276306152344,1.1042587757110596,-1.2706788778305054,3.087841272354126,-4.299724102020264,2.388136863708496,-1.6501554250717163,2.360905647277832,-2.1863574981689453,5.823515892028809,-0.3063907027244568,0.8526819348335266,0.7864708304405212,-5.17317008972168,2.2659966945648193,-1.2189997434616089,-0.5534180998802185,-1.7971161603927612,0.5002365112304688,-0.06661565601825714,0.3667733371257782,0.648566484451294,1.3142039775848389,-1.3322480916976929,3.493448257446289,2.1279942989349365,0.89642333984375,1.503676414489746,-1.0210260152816772,-1.1434580087661743,1.0314974784851074,4.618313789367676,-4.5137481689453125,-0.689159095287323,1.9593437910079956,1.1884716749191284,-0.7118334174156189,-1.0219484567642212,1.3503650426864624,1.1539099216461182,1.8650684356689453,2.2817225456237793,1.040347933769226,-2.78629732131958,3.5746192932128906,0.14084073901176453,0.41759803891181946,1.772729516029358,0.0339161716401577,-0.5454057455062866,-0.8765252232551575,2.6877715587615967,0.10581392049789429,-2.5218827724456787,2.615596294403076,-0.9261857867240906,-0.3749840259552002,0.39211082458496094,-0.12232257425785065,-1.2176218032836914,4.462161540985107,-3.0419905185699463,1.532981038093567,1.4298335313796997,3.024751663208008,1.2058448791503906,-0.06540220230817795,-1.593862771987915,-0.3804175853729248,1.758981704711914,-7.45900297164917,2.900211811065674,0.7397275567054749,-1.1339797973632812,-0.48678135871887207,2.275075674057007,-3.206017255783081,2.8227288722991943,1.7017167806625366,2.0902271270751953,-5.7817511558532715,0.9442150592803955,-1.7954602241516113,-2.7584705352783203,4.145771503448486,1.972608208656311,-2.160780191421509,-2.410917282104492,-4.743376731872559,-0.028669051826000214,-3.979785442352295,1.2028590440750122,-2.138523817062378,-0.3171820342540741,-1.3012562990188599,-0.21207983791828156,0.37359046936035156,-0.3023327887058258,1.0831379890441895,-0.4468006193637848,-2.4458587169647217,-1.715588092803955,0.05268333479762077,-1.0204367637634277,1.4495359659194946,-2.122255802154541,-0.33007994294166565,2.8884904384613037,1.1164954900741577,0.7398102879524231,-0.21154524385929108,0.1454893797636032,-0.9075775146484375,-2.1581473350524902,0.4935034215450287,0.4448930323123932,0.001222276478074491,2.029632091522217,0.3804626166820526,-1.6939021348953247,0.9847272634506226,-1.5097992420196533,1.436043620109558,0.19123925268650055,-1.0773550271987915,-1.1252751350402832,1.1638435125350952,0.3798336088657379,-1.4768766164779663,2.42073130607605,-1.1778814792633057,-3.1226704120635986,-0.05421729385852814,-2.173901319503784,-1.208400845527649,-1.1954630613327026,-0.058755528181791306,1.5729902982711792,-1.4980627298355103,-0.8096882104873657,-0.9112241268157959,-1.6944119930267334,0.36335405707359314,1.6354048252105713,0.28363287448883057,2.52358341217041,-0.7238157391548157,2.048849582672119,0.6223166584968567,1.5515631437301636,-0.13271866738796234,0.9352366924285889,4.0601606369018555,-1.7858299016952515,3.488954544067383,0.4185163378715515,1.4720808267593384,-0.7561460733413696,-1.8837882280349731,2.117063522338867,1.7274466753005981,1.8169385194778442,0.4296518564224243,-0.15907101333141327,1.1352401971817017,1.1755783557891846,4.440436363220215,-0.007709554396569729,-1.0741649866104126,-0.5230241417884827,-1.4173834323883057,-5.6278157234191895,2.122385263442993,-3.800274133682251,0.4240407347679138,-2.6637253761291504,-2.1035525798797607,-2.678178310394287,3.7255618572235107,0.1641005277633667,2.0510058403015137,-3.773505926132202,-3.9875075817108154,2.3239972591400146,0.9703694581985474,1.3645378351211548,3.316074848175049,1.3255559206008911,1.3063911199569702,1.0008690357208252,0.8689820766448975,3.292996644973755,0.24587857723236084,-3.509678602218628,2.021787166595459,0.6936832070350647,-0.3147657811641693,-5.3068461418151855,-2.5770373344421387,-0.3470768630504608,-1.4564064741134644,0.7172157168388367,-1.4136388301849365,-2.2692196369171143,-0.11800051480531693,1.2707370519638062,-3.814610481262207,-1.2078619003295898,-3.62670636177063,-0.9030638337135315,-0.24937646090984344,2.5942671298980713,-2.294534206390381,-1.6021966934204102,3.0608713626861572,-3.0607807636260986,0.28642016649246216,-1.730902075767517,-2.020263433456421,2.599236249923706,-0.587368905544281,1.4819575548171997,-0.10254039615392685,0.8519967198371887,1.8785780668258667,2.73386549949646,-1.7892770767211914,-0.14024677872657776,0.8912681937217712,-0.5137989521026611,3.5565788745880127,-2.377354860305786,2.5947396755218506,1.0893137454986572,-0.8644155859947205,0.11669915914535522,1.8847594261169434,2.1565589904785156,1.871565341949463,1.0852181911468506,0.47138988971710205,-0.5853151679039001,1.2427977323532104,0.29333484172821045,-1.8445614576339722,2.1985013484954834,0.23647072911262512,-3.720726490020752,0.4038615822792053,4.168501853942871,-2.7870326042175293,-2.2505836486816406,1.5339832305908203,0.0754319503903389,3.3432931900024414,-0.6671916842460632,0.5112371444702148,0.49176669120788574,-4.092931270599365,-0.07408671826124191,2.333099365234375,0.004305357579141855,2.7375524044036865,1.7691012620925903,0.16056503355503082,2.8093414306640625,-3.112483024597168,-2.452474594116211,-0.12904603779315948,3.4364428520202637,-0.19631344079971313,4.304834365844727,1.6382309198379517,0.9762135148048401,-1.1173902750015259,-0.30991584062576294,-2.4627623558044434,-1.4528675079345703,0.03262675553560257,-0.37355148792266846,1.3798648118972778,1.9983808994293213,-0.8769586086273193,-1.0844334363937378,-0.9924123883247375,-1.028712511062622,-0.42413777112960815,-1.1117345094680786,-2.1866750717163086,1.9576983451843262,-0.6044416427612305,-0.6407288908958435,6.000767707824707,0.9409875869750977,-2.958104372024536,3.5213992595672607,-0.2400863617658615,2.336331844329834,1.5980926752090454,-2.0199038982391357,-2.659961700439453,-2.1901156902313232,-0.7465913891792297,0.8220618367195129,1.1304497718811035,1.5835058689117432,-0.13378801941871643,-0.268064022064209,-0.46058371663093567,3.551530599594116,-3.0120954513549805,0.5309563279151917,1.1609079837799072,-1.196083664894104,-0.12836116552352905,4.287915229797363,-1.89027738571167,0.9231083393096924,-4.1079583168029785,3.9225900173187256,2.190532922744751,-0.4452837109565735,0.41063153743743896,1.587561845779419,0.45599091053009033,4.108253002166748,-0.9092699885368347,-3.9574573040008545,-2.8081448078155518,0.027724996209144592,2.625762939453125,-2.6627769470214844,-2.0318245887756348,-0.3119411766529083,0.611980140209198,0.6023939847946167,3.2341322898864746,-2.5005502700805664,-1.233016848564148,-0.2740716338157654,-2.089376211166382,0.2643141746520996,-2.9619810581207275,0.7688907384872437,0.9334609508514404,0.7267672419548035,-2.933344841003418,0.08123336732387543,-0.7251567840576172,-2.3022704124450684,2.277803421020508,0.6539464592933655,1.0513460636138916,0.5661242604255676,-0.0379314124584198,-2.392570972442627,3.8127331733703613,0.7746662497520447,0.6297382712364197,0.1884477138519287,-0.7683507800102234,0.09379556775093079,0.24484090507030487,-2.0829992294311523,-0.7298694252967834,-1.361576795578003,-3.3133723735809326,-1.3594154119491577,-0.5753690600395203,0.8912304639816284,-1.154115080833435,-2.0749218463897705,-1.6458157300949097,4.749825954437256,-0.2723425030708313,2.409196376800537,2.303725481033325,-0.24163448810577393,-1.6560415029525757,6.263215065002441,0.2845228910446167,0.7638958096504211,-1.2929452657699585,1.4428331851959229,-1.7455182075500488,0.3238549530506134,0.3430899381637573,-0.3144057095050812,0.21487584710121155,-0.9302290678024292,1.1349931955337524,-2.7418527603149414,-3.227022409439087,-1.939804196357727,1.0338053703308105,1.2729532718658447,0.29004809260368347,-2.0305216312408447,0.14758801460266113,0.6346337795257568,-2.8129823207855225,-0.16682101786136627,1.2350646257400513,0.512000560760498,-0.640608012676239,1.4554507732391357,0.4424186646938324,-0.02785811759531498,-0.6198539137840271,-0.5134333968162537,0.06734605878591537,2.0179152488708496,-0.5991225242614746,-0.05299607664346695,-0.6292669773101807,-2.129796028137207,-2.4211032390594482,-0.7806463241577148,-3.189922332763672,-1.7117297649383545,-0.08439993113279343,1.7439343929290771,0.7711966633796692,0.49260327219963074,1.5078529119491577,-0.7425374984741211,1.1310480833053589,-0.9417906403541565,-1.062691330909729,-4.470310688018799,0.4742988348007202,-0.7934584021568298,-2.813002347946167,-0.9176490306854248,4.302939414978027,-1.0179550647735596,2.7428975105285645,-5.3162031173706055,4.247613906860352,-1.7203309535980225,1.756593108177185,0.4253619909286499,-0.20289447903633118,-0.782279372215271,0.6107701659202576,-0.7913538813591003,-3.8402371406555176,-1.2791733741760254,-0.8008542656898499,-0.15693920850753784,0.720372200012207,0.06698785722255707,-1.5331432819366455,1.830805778503418,0.010432621464133263,-0.5346407890319824,-1.8841222524642944,0.27790123224258423,-3.1901745796203613,-1.6226054430007935,-2.8094723224639893,3.563493251800537,2.280426263809204,3.7968618869781494,0.8085184693336487,-1.1699289083480835,7.418885707855225,0.7516040205955505,0.9447876811027527,-0.9326490163803101,0.0451984629034996,-0.08006957173347473,1.4757863283157349,-3.078555107116699,2.3924784660339355,0.2823081314563751,-1.3041455745697021,0.5638663172721863,0.08175051212310791,1.1018919944763184,-0.07688940316438675,0.7746133804321289,0.21918372809886932,1.7790676355361938,-0.29879844188690186,-0.21329030394554138,-2.1033618450164795,-4.322920322418213,1.0964832305908203,3.0575711727142334,1.5595909357070923,2.1572823524475098,0.2659343481063843,-2.244638681411743,-1.8137682676315308,0.9030985236167908,-1.6734446287155151,2.900972604751587,-0.07617434859275818,-0.65724778175354,-3.427640676498413,0.9129503965377808,-1.0739670991897583,-1.5228726863861084,1.2669742107391357,1.4565376043319702,-0.19282789528369904,-0.8330212831497192,0.4081462621688843,-0.02128283679485321,-1.24071204662323,0.6830409169197083,-1.155591607093811,0.30838480591773987,0.8816534280776978,-0.39234477281570435,0.42756298184394836,0.826068103313446,-0.3221287727355957,0.4265180230140686,-0.9864354729652405,0.45331698656082153,0.4594704508781433,-0.43019407987594604,-0.36276471614837646,-0.9920005798339844,-0.03786112368106842,0.5851622223854065,-0.06203692406415939,-0.38639408349990845,-0.6747658252716064,0.056965410709381104,-0.20937180519104004,-0.5380949378013611,-0.5108087658882141,-0.4218364953994751,0.17217542231082916,2.2766079902648926,-0.7344785928726196,2.177825689315796,0.5196266770362854,-1.1857044696807861,0.16192755103111267,0.39218610525131226,-0.9968646764755249,-0.20451147854328156,0.7189507484436035]},"inputHidden":{"rows":20,"columns":20,"weights":[-1.6902875900268555,-0.5945168733596802,-4.626197338104248,-2.6938865184783936,-2.7142045497894287,-0.25801706314086914,2.2649471759796143,-1.0369848012924194,3.9179646968841553,2.317793846130371,-2.168330430984497,4.22377347946167,1.284233808517456,2.9691479206085205,-0.42098844051361084,-1.5608322620391846,-0.3851151168346405,2.9035842418670654,1.2478982210159302,-2.368847370147705,-1.5713893175125122,1.9667595624923706,4.627159595489502,-1.3315991163253784,-2.4823858737945557,-5.322500228881836,-5.8804497718811035,-2.9065635204315186,2.3812954425811768,0.4097677171230316,-2.8434975147247314,8.03560733795166,-2.7525432109832764,2.4018545150756836,1.7934510707855225,2.187617778778076,-6.103055000305176,-1.9812129735946655,-3.2699363231658936,1.6823010444641113,0.4145675003528595,0.5538125038146973,-2.629213571548462,-3.8009111881256104,-3.48329496383667,-3.7332992553710938,-2.958498001098633,0.7196493148803711,3.628021717071533,4.982782363891602,3.517592191696167,7.778896808624268,5.635499954223633,-1.9450631141662598,4.022552013397217,1.8360297679901123,3.795130968093872,-4.43198823928833,-2.4757683277130127,-4.864142417907715,-0.8611922860145569,-2.591021776199341,-3.328616142272949,3.250697374343872,0.6765924692153931,0.18864569067955017,3.2511446475982666,-4.829372882843018,7.933155536651611,-0.2186824381351471,0.18873471021652222,4.604672908782959,-1.3373609781265259,6.496583461761475,1.2231501340866089,-1.236326813697815,5.2854132652282715,4.490802764892578,-3.772490978240967,4.221858501434326,1.9110928773880005,-2.479431390762329,-1.5045521259307861,-2.070059299468994,-0.34525546431541443,-3.3437275886535645,-0.3610989451408386,-0.7316343188285828,2.2302865982055664,-1.7727092504501343,-0.256126344203949,-5.601678371429443,-2.3043689727783203,-4.518068790435791,-0.38817429542541504,-1.441907286643982,0.09947431087493896,-1.0365986824035645,2.5038068294525146,5.348223686218262,6.18919038772583,-2.496018648147583,-5.4636664390563965,7.786304950714111,1.0403653383255005,-6.065702438354492,-1.988754153251648,1.6992027759552002,-0.801119863986969,0.27282699942588806,-7.227226257324219,-10.80553150177002,-3.4275472164154053,-6.076819896697998,-3.2401106357574463,-0.29047876596450806,1.1744365692138672,3.92767596244812,-4.059720516204834,3.847254991531372,0.18154849112033844,-4.621181964874268,-0.33222877979278564,-0.27656400203704834,0.28166601061820984,3.2935187816619873,2.6601455211639404,-0.8265649676322937,0.35524311661720276,1.484036922454834,3.359431028366089,-1.6459671258926392,1.860778570175171,0.8651739954948425,-5.004055023193359,-0.6761422157287598,4.866933822631836,4.312138080596924,-1.5671324729919434,-3.405038833618164,-0.8814613223075867,-0.6520866751670837,3.508113384246826,-0.3049435317516327,2.151634454727173,5.778966426849365,1.125555396080017,0.46659910678863525,-2.522826910018921,5.107232570648193,0.8646374344825745,4.4139933586120605,-0.8215358257293701,4.111915111541748,-3.834397077560425,5.978898048400879,3.741962194442749,1.2466768026351929,-0.9077410101890564,2.289780378341675,0.11887171864509583,2.5665664672851562,-1.5689342021942139,-4.935683250427246,1.578433871269226,0.21367432177066803,-3.102506399154663,0.5646169781684875,5.401292324066162,0.6391478776931763,1.400455117225647,-0.3988301753997803,3.4411866664886475,-1.9437578916549683,-0.8652985692024231,2.8567161560058594,1.537096619606018,-1.6163966655731201,1.7141015529632568,-3.3013463020324707,2.181589365005493,6.7495293617248535,0.9488052129745483,2.3253324031829834,0.8938794732093811,-0.32015401124954224,-1.1524927616119385,0.45635491609573364,-2.052293062210083,5.022871494293213,-3.8234879970550537,1.3531080484390259,1.302931547164917,-0.31966498494148254,3.6893808841705322,-1.381085753440857,2.2038564682006836,4.14454460144043,-1.3730789422988892,2.1446285247802734,-0.8655241131782532,0.2437676042318344,1.726519227027893,-0.3845287561416626,0.16914688050746918,-1.450010895729065,2.2211310863494873,-0.0010686279274523258,0.26890456676483154,-3.484114646911621,-0.8513755202293396,-2.1522459983825684,3.191147804260254,1.2647819519042969,0.5282009840011597,-1.8666400909423828,5.2298407554626465,0.9441592693328857,0.33231428265571594,-1.4895267486572266,-2.6905715465545654,1.4796701669692993,-2.2269558906555176,-5.534412384033203,-3.8549208641052246,-1.4151310920715332,-3.2263102531433105,2.8811745643615723,-4.818362712860107,-0.5050797462463379,-1.7885305881500244,-1.4303991794586182,1.8298503160476685,-3.566741466522217,0.2718050479888916,0.9900923371315002,-2.599872589111328,-1.1850080490112305,0.09377867728471756,0.7096396088600159,3.8428611755371094,-3.6932778358459473,-0.32597485184669495,-1.1854848861694336,1.3160873651504517,6.47522497177124,0.5897364020347595,-5.547512054443359,7.693603038787842,4.885683536529541,-4.450488090515137,8.73254108428955,2.6417040824890137,-1.642319917678833,1.6831496953964233,-2.947896718978882,0.6562273502349854,6.843477725982666,-10.56788444519043,-2.511411666870117,0.347587913274765,-2.217604875564575,-3.2796542644500732,7.206626892089844,2.1241743564605713,-2.208040475845337,1.8130829334259033,-1.5634934902191162,0.5267796516418457,-0.3931019604206085,0.21296969056129456,-0.8990939259529114,-0.2567223906517029,-0.7241950631141663,-3.060133218765259,-1.5546504259109497,-2.1011176109313965,1.117905616760254,0.3646271824836731,0.7007008790969849,4.475297927856445,5.2824602127075195,3.8750240802764893,-0.5571379065513611,7.758854389190674,-2.711336135864258,2.8607490062713623,1.4785245656967163,4.750071048736572,-2.579420328140259,-8.556668281555176,0.26617109775543213,1.3609999418258667,2.593815565109253,1.036029577255249,-1.2160604000091553,-1.36951744556427,-1.0711843967437744,-2.222839117050171,1.51622474193573,0.7523755431175232,1.0833755731582642,-0.022825852036476135,-0.08786365389823914,-7.029661655426025,11.236563682556152,1.5680053234100342,-0.10811829566955566,3.506554126739502,5.975941181182861,3.4040443897247314,-4.364016532897949,6.371182441711426,3.6191952228546143,-7.097667217254639,-4.227904319763184,1.6207187175750732,9.282222747802734,0.1871136724948883,-8.52054500579834,-3.947260618209839,1.963329792022705,-4.093916416168213,-4.558023452758789,2.476311445236206,2.9705958366394043,-1.1003990173339844,2.998552083969116,-0.3562789261341095,-0.9483354091644287,0.10657422244548798,6.564168930053711,-0.2888605296611786,8.049281120300293,5.302194118499756,-5.0010294914245605,-4.954872131347656,-0.206937775015831,4.924122333526611,5.295320510864258,6.234004020690918,-1.0650385618209839,7.085354328155518,3.8747622966766357,-0.9403128623962402,1.0931878089904785,3.04154372215271,-4.473165988922119,5.56253719329834,4.028733253479004,-9.622974395751953,2.109485149383545,-1.2638883590698242,-5.023133277893066,4.50515079498291,0.4294784963130951,-4.095158576965332,-3.864001512527466,0.4687449038028717,4.664610385894775,-0.5214904546737671,1.9340463876724243,-4.977789402008057,7.4095354080200195,3.328436851501465,-2.3542680740356445,-7.648345947265625,-2.761349678039551,4.301362991333008,-7.932402610778809,9.870865821838379,-5.576929092407227,-3.3627660274505615,-6.5293803215026855,-0.08318442851305008,5.560134410858154,-4.690450191497803,8.547216415405273,5.3159499168396,9.6726713180542,5.77977180480957,2.684237480163574,1.611024022102356,4.41152811050415,-2.1979455947875977,-0.3845742344856262,1.4563122987747192,-8.447225570678711,0.28668686747550964,2.049225091934204,-7.5254011154174805,-0.40145763754844666,-3.2060911655426025,-6.135555744171143,-3.822580099105835,0.32240214943885803,-8.031994819641113,1.2370312213897705,4.977827072143555,3.8469390869140625]},"inputBias":{"rows":20,"columns":1,"weights":[-1.0978310108184814,-0.34779092669487,-0.46128156781196594,-0.1242377907037735,-0.30910372734069824,-0.056003082543611526,-0.7426630854606628,0.8276439905166626,0.4281795024871826,2.2052865028381348,-0.2771519422531128,2.0295090675354004,2.1120026111602783,-0.283322274684906,-2.4181087017059326,-1.5240434408187866,-0.8270702362060547,0.11725994944572449,-1.664158821105957,0.6107555627822876]},"forgetMatrix":{"rows":20,"columns":42,"weights":[-1.0589090585708618,0.40964025259017944,-0.5671315789222717,2.945239543914795,1.6496622562408447,0.7510841488838196,-1.336282730102539,-0.8225662112236023,1.0908647775650024,5.943835735321045,1.808684229850769,1.2055734395980835,0.560244619846344,-1.3917326927185059,-2.19071888923645,2.7999625205993652,1.2936345338821411,-4.249067783355713,0.02142130210995674,0.8651207089424133,-0.3640781044960022,1.3884117603302002,-2.3330280780792236,0.9943855404853821,1.5268458127975464,-0.33230656385421753,-0.03914274647831917,-1.7684862613677979,5.135746002197266,0.38712701201438904,-1.1769413948059082,-3.248565673828125,1.2364939451217651,3.24109148979187,-1.6441593170166016,1.4264559745788574,3.1461148262023926,-0.5105074644088745,-1.4047478437423706,5.0059638023376465,-1.2937452793121338,-4.250160217285156,2.3571624755859375,0.9163447022438049,1.2884095907211304,-0.5385330319404602,0.713962972164154,1.6926339864730835,1.041517734527588,2.3602659702301025,-3.9429304599761963,-0.3367011845111847,-1.02289879322052,-3.2955386638641357,-0.17486722767353058,1.2100632190704346,0.6003003716468811,0.9815718531608582,1.587192416191101,0.9599626064300537,0.4126303791999817,-1.4597777128219604,-2.0799667835235596,-0.6210113763809204,1.7885431051254272,1.246325969696045,-1.6030938625335693,2.2078866958618164,1.1608692407608032,0.46927234530448914,-0.6210961937904358,1.0658010244369507,-2.300173759460449,0.7443467378616333,1.1182045936584473,1.0105561017990112,2.7842557430267334,0.290287584066391,1.634507179260254,1.5835024118423462,0.7861523628234863,-2.522264003753662,-1.2073975801467896,0.5050054788589478,-4.928004741668701,-0.5324777364730835,-0.6456617712974548,2.4011270999908447,-2.6763594150543213,-1.693901538848877,-0.3929305374622345,-1.4951379299163818,-1.6984457969665527,-2.767204999923706,-5.0876383781433105,-1.3521568775177002,0.03886638954281807,4.014183044433594,4.640530586242676,2.1470210552215576,-2.763437509536743,0.2232033610343933,-0.31836041808128357,1.9996715784072876,-2.7454640865325928,-1.503292441368103,1.3927886486053467,-1.280187964439392,-1.9915058612823486,-4.966475486755371,-2.585444688796997,-1.9543277025222778,0.19426505267620087,3.276627540588379,1.673810601234436,2.902341842651367,-0.27509331703186035,-1.0074653625488281,-4.041529178619385,-1.8180047273635864,-1.8424699306488037,2.0689761638641357,5.238789081573486,-2.1052770614624023,-4.119513511657715,-0.8549326658248901,-1.467176079750061,-1.3469619750976562,-3.50087308883667,5.160061359405518,-4.956171989440918,0.3390972316265106,-3.2917637825012207,-2.6752517223358154,0.12814906239509583,1.0794754028320312,-3.141402244567871,1.9643335342407227,1.9969912767410278,-1.6255600452423096,2.6570067405700684,-0.41524043679237366,1.1995712518692017,1.7024911642074585,0.6769405007362366,1.014156460762024,0.18504902720451355,2.468578815460205,-0.33198031783103943,-1.5527026653289795,-2.260591745376587,-0.6469752788543701,2.154832363128662,2.236964464187622,0.6691555976867676,2.9111368656158447,0.567595362663269,0.2635843753814697,2.5383121967315674,-3.15397572517395,2.56528639793396,0.17686504125595093,-3.204508066177368,-6.102353572845459,0.4113663136959076,-4.89569091796875,-2.472559928894043,-0.9434239864349365,2.989461898803711,-0.11215062439441681,0.4457320272922516,-1.3913192749023438,-0.6824195981025696,1.0298957824707031,-0.20446068048477173,0.40643051266670227,-1.138893485069275,-0.49774086475372314,-1.4439043998718262,-2.3475284576416016,-0.6943274736404419,2.4119198322296143,0.12571577727794647,-1.4743584394454956,0.4146914482116699,1.0678826570510864,-0.11728725582361221,1.6470706462860107,-0.8458583950996399,-0.8994637727737427,1.9947471618652344,1.5743756294250488,-1.4307398796081543,0.33378395438194275,-0.739548921585083,1.8520240783691406,-0.9792503714561462,1.7052271366119385,0.5562787652015686,0.3932805359363556,0.8519369959831238,-1.3275283575057983,1.7716866731643677,0.4177275002002716,-0.6023415327072144,0.3162355422973633,0.4877336919307709,-1.6309136152267456,-1.7006973028182983,-1.3221076726913452,1.2252206802368164,-2.5262773036956787,2.5161962509155273,-0.44073328375816345,2.1206600666046143,-1.547269582748413,1.9836328029632568,-2.0379436016082764,2.7868196964263916,-1.3531111478805542,-4.208520412445068,-1.1884353160858154,-3.5796399116516113,2.560115337371826,-1.1268599033355713,0.27889326214790344,0.6575642228126526,1.4347681999206543,-3.4427778720855713,-0.17107746005058289,-3.4552459716796875,-1.1105244159698486,-0.5907099843025208,-1.1437357664108276,0.4400825500488281,-4.301941394805908,2.6508569717407227,-2.0575106143951416,0.17834021151065826,3.453946828842163,6.583123207092285,1.1306841373443604,-2.76179575920105,-2.552788734436035,2.4063522815704346,0.9842237830162048,0.08298373222351074,1.0354279279708862,2.4926211833953857,-3.109861373901367,-3.365497589111328,-1.3214592933654785,-3.397141933441162,-0.4069554805755615,-3.244941234588623,0.5848038792610168,-0.824558436870575,6.718433380126953,-1.9925634860992432,2.1914281845092773,4.113918304443359,-0.6158651113510132,0.11785783618688583,1.1437277793884277,-0.826815128326416,5.2606096267700195,0.5187758207321167,1.333396077156067,0.23196293413639069,1.4876726865768433,-2.926755905151367,-2.1478219032287598,-0.5256801247596741,6.198637962341309,2.3214375972747803,-2.3155908584594727,2.4568161964416504,5.624791145324707,-2.958411455154419,2.268864631652832,-4.914722919464111,-2.382876396179199,4.341844081878662,1.2691699266433716,-0.6250715255737305,-0.22749941051006317,0.1876889169216156,-0.9570751190185547,2.4090497493743896,1.048367977142334,0.1019657552242279,-4.654417037963867,-2.0410523414611816,-0.6292496919631958,1.1630442142486572,0.9549223780632019,-2.9585721492767334,1.214058756828308,-3.2709057331085205,-2.5843734741210938,0.9506430625915527,0.9539519548416138,-2.021390199661255,-2.7224106788635254,-1.5282961130142212,-2.016775369644165,-0.8926231861114502,1.350941777229309,-0.10938920825719833,-0.576720118522644,-2.802032947540283,-0.9216680526733398,-0.7850430607795715,1.5937107801437378,-1.0518382787704468,-0.9371500015258789,1.3991591930389404,-0.4059563875198364,-0.9833514094352722,0.6680029630661011,-3.571223020553589,4.170566558837891,-4.241999626159668,5.364975929260254,1.9715012311935425,1.8698090314865112,2.1388843059539795,3.2467639446258545,0.32811450958251953,-0.4785152077674866,0.268631249666214,-3.5474424362182617,2.029120683670044,-1.8428179025650024,-2.1760146617889404,3.31504225730896,0.17291978001594543,0.33153390884399414,1.698944091796875,-2.445424795150757,2.1117985248565674,-0.5742965936660767,0.30267196893692017,0.10523748397827148,1.4380375146865845,-0.7879486680030823,0.3604656457901001,-1.390089750289917,-1.7178964614868164,0.9495227336883545,0.4263540208339691,-0.667898416519165,0.19224224984645844,-1.6919047832489014,-1.5145137310028076,-0.5808005928993225,-1.0296777486801147,-2.297626256942749,2.0821468830108643,-3.594496965408325,1.5821441411972046,0.002036337275058031,-0.5979813933372498,-0.7366622090339661,-0.06743767857551575,-0.5695438981056213,1.1755645275115967,-1.4805675745010376,-3.059823989868164,0.7728351950645447,-0.11685611307621002,-0.29658809304237366,0.961780309677124,1.2053996324539185,0.5607272386550903,2.8259329795837402,0.7166020274162292,-0.6157059073448181,-1.2077546119689941,3.3560681343078613,0.4296596050262451,0.816755473613739,-1.891073226928711,-1.114444613456726,-2.075995445251465,-4.306961536407471,1.1268166303634644,2.458428144454956,3.5669538974761963,1.0965907573699951,2.506589412689209,0.20358677208423615,-0.9958217740058899,1.3245925903320312,-2.119358539581299,-0.21844156086444855,-2.5066938400268555,0.23844598233699799,1.2050120830535889,0.8661227822303772,1.3450639247894287,1.9519683122634888,-1.5979992151260376,-1.7880476713180542,2.130648612976074,-0.4237395226955414,2.572366952896118,-2.5339205265045166,-0.3355274796485901,0.680058479309082,-0.7485602498054504,-0.1954711526632309,1.164766788482666,-1.5199482440948486,0.8928130865097046,-2.9385509490966797,-4.612726211547852,2.2238757610321045,-0.4850817024707794,3.2348949909210205,1.7420599460601807,-1.1889981031417847,0.7611892223358154,-1.0949170589447021,1.6107863187789917,2.4995596408843994,-2.9610097408294678,1.942521095275879,-2.8025426864624023,-2.451706886291504,-1.8862346410751343,-0.946368932723999,0.0632663369178772,2.0686166286468506,2.3678462505340576,0.1055920273065567,-0.04913420230150223,1.4270721673965454,-0.1722484827041626,-0.5650808811187744,-1.569077491760254,-1.4875553846359253,-0.0067345816642045975,3.3378469944000244,-0.2623089551925659,-0.08675529062747955,-1.8817044496536255,0.6408479809761047,-1.4950056076049805,-1.9693044424057007,-1.0072652101516724,1.2502082586288452,-0.7573903203010559,-1.4538575410842896,-1.6686979532241821,-2.8212873935699463,-2.967841386795044,1.5426195859909058,3.2010109424591064,-0.7098928689956665,2.0585668087005615,1.1084645986557007,1.2289847135543823,2.310631275177002,-0.6868014335632324,2.691828489303589,-1.7503633499145508,-0.8920959234237671,-1.1913286447525024,-2.243476629257202,1.1528196334838867,2.7977423667907715,0.08165156096220016,1.4900004863739014,0.962038516998291,0.38577380776405334,-1.6902371644973755,-1.4132574796676636,2.223478078842163,-1.0613255500793457,-0.7368081212043762,1.3471933603286743,-0.3236631155014038,0.3052501380443573,1.2735949754714966,0.1301111876964569,0.32044336199760437,-0.7394607663154602,1.7950589656829834,0.5010419487953186,0.12894576787948608,-2.7599477767944336,-1.1851879358291626,4.114660263061523,-2.756216287612915,-1.9659467935562134,-1.157126784324646,-0.4220634996891022,0.8923411965370178,-0.569656252861023,0.8521787524223328,2.400604724884033,-4.134521961212158,-0.8760222792625427,-3.6743593215942383,-1.341392159461975,-3.5009191036224365,0.5316744446754456,-1.047497034072876,0.9335008859634399,1.6496673822402954,1.0123308897018433,-1.1912373304367065,1.5743845701217651,3.2183892726898193,3.3318614959716797,2.198882818222046,-0.030935896560549736,3.052553415298462,-0.5975428819656372,4.005921840667725,-1.1341755390167236,-2.116562843322754,-2.0938096046447754,-1.6014598608016968,-1.2560734748840332,-0.9764889478683472,-0.5373461842536926,2.4838221073150635,0.13752739131450653,-3.9467616081237793,-0.8399176001548767,-3.7915830612182617,3.2076399326324463,2.8370580673217773,3.5320589542388916,-0.06605587154626846,1.299696922302246,-3.9657185077667236,1.6946852207183838,3.816161870956421,0.30115777254104614,-0.8771243095397949,2.023104190826416,-0.49977341294288635,-1.5331727266311646,-1.6253701448440552,1.063896894454956,2.9268081188201904,0.7586380243301392,-0.6700766086578369,2.617624044418335,-3.7994472980499268,5.157169342041016,-4.498276710510254,-0.19983993470668793,0.04435377195477486,-5.607625484466553,1.3189581632614136,1.9620174169540405,-0.565224289894104,2.8480241298675537,-1.5853351354599,1.8840818405151367,0.0480024591088295,-1.79696524143219,-0.11259347945451736,0.22363533079624176,-1.6771515607833862,-1.2188749313354492,-2.151311159133911,0.1856616586446762,-3.8197832107543945,0.032313913106918335,-0.5423244833946228,1.6753815412521362,-2.3046374320983887,-3.2697110176086426,-2.054382801055908,1.9253106117248535,2.2572245597839355,0.5716181397438049,0.5262803435325623,0.09347105771303177,-0.6819247603416443,1.8042415380477905,-1.4912718534469604,-1.1900349855422974,-0.025300750508904457,-2.0274248123168945,1.870496153831482,-0.6138520836830139,2.2041127681732178,-2.550510883331299,-0.8050922751426697,-3.6656064987182617,1.2852730751037598,1.050026535987854,1.4076340198516846,3.6878232955932617,-1.1533101797103882,1.5028483867645264,1.5070713758468628,0.8722968101501465,1.2544747591018677,-2.216843366622925,0.0852154940366745,0.5543882250785828,-1.2876924276351929,-1.2210832834243774,-1.8297905921936035,0.2753860354423523,1.9253120422363281,-3.3525390625,-2.4007318019866943,-1.0257182121276855,1.5192697048187256,2.3464341163635254,3.929354667663574,-1.3579250574111938,2.896723747253418,-2.2307984828948975,-1.688069462776184,3.8161823749542236,-0.8329203128814697,2.3833444118499756,0.33945250511169434,-1.0137920379638672,3.7485671043395996,-1.660331130027771,-0.2508227229118347,-2.7326087951660156,0.6341338157653809,-2.368471145629883,4.436042785644531,-1.4003289937973022,0.6785408854484558,-0.6722772121429443,1.3370310068130493,-4.433124542236328,0.5672206282615662,2.341024875640869,-1.9531886577606201,-2.069340944290161,-2.3323004245758057,-0.17155446112155914,1.6328564882278442,-1.3530701398849487,0.4677647650241852,1.4225232601165771,3.5203535556793213,0.0793943703174591,-1.431078553199768,-1.285692572593689,4.975090980529785,-0.2898588180541992,-2.101494550704956,-1.8233553171157837,1.927202582359314,2.353867292404175,3.1426913738250732,-4.169666767120361,2.5781424045562744,-0.6350671648979187,-0.28842616081237793,0.1287103146314621,2.742764949798584,1.801822304725647,6.300488471984863,-0.656018853187561,-1.8752580881118774,-4.214629173278809,-0.04317228123545647,4.224848747253418,-1.4057776927947998,0.17350858449935913,0.6354700326919556,0.4486425817012787,0.5699920058250427,2.5935065746307373,-2.674884080886841,2.1048402786254883,-2.1336822509765625,2.0306079387664795,3.8287336826324463,-2.8238234519958496,-1.310095191001892,2.233691930770874,-2.4019951820373535,-1.586604356765747,-2.0610921382904053,0.9456156492233276,4.27366828918457,-4.067162990570068,-2.6270477771759033,1.001192569732666,-2.7733311653137207,-0.6686564683914185,-1.0410256385803223,-0.463134229183197,0.09492383152246475,0.023390449583530426,-1.7293217182159424,5.759899139404297,3.6967365741729736,-0.8500112295150757,-2.686563730239868,-0.2107882797718048,0.5526114702224731,-1.8668314218521118,-0.6295397281646729,-1.1501308679580688,0.10510420799255371,3.485525369644165,-1.658636450767517,-2.3956828117370605,1.796561598777771,-1.5572854280471802,-0.574022650718689,3.70847225189209,-0.7144976258277893,0.6841557025909424,0.45685213804244995,-2.4619531631469727,2.017958164215088,-0.208234965801239,1.0880144834518433,3.899790048599243,-1.0788460969924927,-0.46078792214393616,-1.3799351453781128,1.2487387657165527,-2.353926658630371,-0.6325027942657471,-0.5036733150482178,2.2703187465667725,2.5659639835357666,2.1395339965820312,-1.7005175352096558,2.7055816650390625,4.942871570587158,1.8046685457229614,-0.7012759447097778,1.8010138273239136,-2.049301862716675,0.6148549318313599,-3.06703519821167,-1.218009114265442,3.2146801948547363,-0.34469881653785706,1.4630341529846191,1.9563337564468384,-2.6390762329101562,0.5160875916481018,-0.19612057507038116,2.089172124862671,-3.773495674133301,-3.821193218231201,3.0871341228485107,-1.3444575071334839,-2.9157962799072266,2.210282325744629,-2.6151418685913086,5.687119007110596,-0.9349257946014404,-1.8461487293243408,0.11375277489423752,-1.2056224346160889,0.2802736759185791,-2.4076995849609375,-0.8137567043304443,2.7337374687194824,0.7750235795974731,-1.2785228490829468,0.9960610270500183,-0.015077248215675354,-2.9584858417510986,1.9274988174438477,-4.409421920776367,-0.17599716782569885,2.1774849891662598,0.9559842944145203,-1.8405312299728394,3.0017993450164795,-0.5539495944976807,-1.9683659076690674,-1.1890909671783447,-0.2649504244327545,-0.7728672623634338,2.2847232818603516,1.9150662422180176,0.9013547897338867,3.3686513900756836,-0.23960158228874207,-5.321243762969971,-0.9935638308525085,-1.9316651821136475,0.8383130431175232,-1.3287969827651978,0.4379385709762573,2.7060818672180176,0.5959311127662659,-1.359229564666748,1.1822394132614136,-2.551159620285034,3.1098978519439697,-3.2032668590545654,-2.603740930557251,-0.6758124232292175,-1.6494381427764893,-0.22258290648460388,1.7111402750015259,2.891235589981079,-0.772845447063446,-2.7695670127868652,1.7098616361618042,-2.376322031021118,-3.67177414894104,-1.4272862672805786,-0.009845090098679066,0.9069862961769104,2.0580224990844727,-2.4286367893218994,1.7020156383514404,-0.4398871958255768,1.8498899936676025,0.8437075018882751,2.8299777507781982,-4.622233867645264,-0.936819314956665,1.9531505107879639,-1.8771114349365234,1.012883186340332,-2.0077261924743652,0.6833569407463074,-0.2288137674331665,-0.40656977891921997,-1.001339316368103,0.05726049095392227,3.1068193912506104]},"forgetHidden":{"rows":20,"columns":20,"weights":[1.4992016553878784,-3.337135076522827,5.057643890380859,-0.5986135005950928,1.9535540342330933,7.7936835289001465,2.990226984024048,-1.9392263889312744,-1.184758186340332,3.6257760524749756,2.6767024993896484,8.115621566772461,2.559307098388672,4.5324296951293945,-1.315717339515686,-0.9405397772789001,9.044734954833984,2.902383327484131,-0.9095194935798645,-9.014006614685059,0.6704803705215454,-0.9814285039901733,-0.5307511687278748,4.448616027832031,-0.5619350671768188,-2.5633270740509033,-0.24372582137584686,-1.8306972980499268,-2.7392666339874268,1.1054452657699585,-2.0359532833099365,-0.026087898761034012,-7.562211513519287,-1.3487175703048706,0.9842674732208252,-1.5854824781417847,-4.293558597564697,1.41725754737854,-4.30826997756958,2.916781425476074,-1.903321385383606,0.3690727651119232,-2.749042510986328,-2.97929310798645,-0.7833291888237,2.218846559524536,5.392437934875488,4.709354400634766,6.922089099884033,0.8528438210487366,-0.3286510407924652,-3.510270833969116,-2.2743561267852783,-1.6953667402267456,3.753096342086792,0.5959275364875793,2.986915349960327,-4.620846271514893,-1.0116875171661377,-3.6098086833953857,-1.5854663848876953,0.9228399395942688,0.9635393023490906,-0.36595582962036133,2.637819290161133,-0.0066711995750665665,1.2484984397888184,0.608834445476532,-2.182441234588623,2.3459434509277344,4.3506245613098145,1.5339932441711426,3.0854997634887695,-0.025529105216264725,-1.5536015033721924,-3.904632329940796,0.8722407221794128,-1.448075294494629,0.32387784123420715,1.0357946157455444,-1.4219367504119873,-0.25088977813720703,1.5389961004257202,-0.2225160002708435,-0.8176007866859436,1.7917640209197998,-0.7333584427833557,-4.965639114379883,0.20020118355751038,0.6158448457717896,1.285635232925415,0.3609473705291748,-0.0749194473028183,0.17095880210399628,0.42794910073280334,-0.8276211023330688,1.0517889261245728,1.0852954387664795,-0.8352002501487732,-0.8838752508163452,-2.224742889404297,-2.623661518096924,2.28987193107605,1.7230019569396973,-5.236534595489502,-1.63784658908844,0.20464737713336945,0.6003404855728149,0.349355548620224,-2.32637882232666,-3.6095452308654785,-2.7259132862091064,-1.4038071632385254,1.3722933530807495,2.653219223022461,8.557833671569824,-5.3810200691223145,-0.3276405334472656,5.506135940551758,6.451233863830566,-0.6168086528778076,1.8966251611709595,0.5910953283309937,-1.6821314096450806,-2.298445701599121,-1.0587852001190186,-1.321707844734192,-1.572746753692627,3.4500956535339355,-1.8714135885238647,0.10476981848478317,-1.9265934228897095,-4.4738450050354,-1.6801289319992065,1.6375477313995361,3.3197667598724365,-1.1074650287628174,-0.9972991943359375,0.5454052090644836,1.1347655057907104,0.5287354588508606,3.108553409576416,1.3488739728927612,-1.408362627029419,6.355648994445801,2.2894134521484375,-6.641425609588623,-2.9351279735565186,1.8883403539657593,-8.184346199035645,-2.2042741775512695,-4.031598091125488,-6.255886554718018,1.2981932163238525,3.7768332958221436,2.169872522354126,-1.9320627450942993,-2.6291847229003906,1.4549907445907593,9.223723411560059,0.19277292490005493,-0.8688682913780212,-0.2200818955898285,-3.002706527709961,0.07172325998544693,-0.15561233460903168,3.4230563640594482,4.411283016204834,-1.3635764122009277,0.4732683598995209,-1.462704062461853,2.9649693965911865,1.4669960737228394,-0.5959416031837463,-5.798774242401123,-0.6780450940132141,-0.7654649615287781,1.3569471836090088,-2.5583724975585938,-0.6509625911712646,0.4730735123157501,2.2331836223602295,1.099421501159668,-1.7237738370895386,3.3830878734588623,-0.7205930948257446,0.0647427886724472,2.293058156967163,0.7455970644950867,1.2579882144927979,-0.29322412610054016,3.822807788848877,-3.8782544136047363,1.4682799577713013,0.683404803276062,-1.2901827096939087,5.312290191650391,3.212984323501587,0.8405930995941162,1.7548398971557617,4.914515495300293,4.694765567779541,2.21622633934021,0.6899675726890564,1.0632401704788208,-0.8902758955955505,-2.4576454162597656,-0.9066146016120911,-3.670449733734131,1.6182442903518677,-0.22178906202316284,-1.9297429323196411,-0.9175730347633362,-1.6909276247024536,1.0948907136917114,2.641160726547241,-3.096374750137329,-1.7185571193695068,5.88347053527832,1.3951389789581299,-4.321065425872803,1.6105215549468994,-2.059032678604126,6.8922038078308105,-7.048605918884277,-7.073351860046387,-14.53565788269043,3.7632369995117188,4.3707380294799805,1.8798192739486694,0.22864174842834473,0.5882142782211304,-1.443773627281189,-4.857651710510254,1.6217306852340698,2.8856916427612305,0.6815012693405151,-1.954282522201538,-3.5083866119384766,0.9921680688858032,0.45292872190475464,-6.975756645202637,-1.5818390846252441,1.1484845876693726,-2.566805124282837,0.2030460238456726,3.9655072689056396,1.8226901292800903,0.7000553011894226,2.9603662490844727,-2.766303300857544,-3.3114137649536133,4.425495147705078,0.9883531928062439,-0.14349789917469025,0.34079480171203613,5.298133850097656,-2.577800989151001,2.7513270378112793,-4.122809410095215,-0.050357356667518616,1.3234623670578003,-0.7658000588417053,-3.3513998985290527,-0.47651439905166626,-5.719170093536377,3.309558629989624,4.684049606323242,0.5470357537269592,-3.2481393814086914,-4.031660556793213,6.260776996612549,1.3366812467575073,3.4990222454071045,1.137487530708313,-1.7086803913116455,0.20592842996120453,2.6177194118499756,-3.3291471004486084,-0.40875428915023804,-0.4779270589351654,3.5371763706207275,-2.752917528152466,3.1489696502685547,-3.8213205337524414,-3.3647420406341553,-1.898371934890747,-3.190803050994873,-4.190213680267334,-2.971282958984375,0.3082837760448456,-0.6106858253479004,-1.1518628597259521,-0.33906465768814087,-1.0725724697113037,-0.7659610509872437,0.2610074579715729,-3.626844644546509,-3.7473509311676025,4.6726789474487305,4.017721176147461,4.193236827850342,-1.4023457765579224,1.0853718519210815,3.388507843017578,-3.510810375213623,0.6338109970092773,-3.1026406288146973,3.5491178035736084,-12.076146125793457,0.5278701782226562,-3.191054105758667,-5.80257511138916,0.58718341588974,-2.6885194778442383,-1.5937409400939941,5.753942489624023,8.158161163330078,2.2670156955718994,2.038843870162964,3.8840630054473877,3.9389781951904297,3.2751996517181396,1.9560558795928955,1.3624521493911743,0.9560205936431885,-1.02083158493042,-3.2302353382110596,-0.6995208859443665,-1.9240763187408447,0.7573371529579163,-0.5022146105766296,-5.860869407653809,-1.396121859550476,2.47117018699646,3.3738553524017334,-3.3910179138183594,1.43177330493927,0.25757643580436707,3.3568668365478516,-7.645238876342773,2.3814961910247803,-0.5708773136138916,-7.374556541442871,-3.040942430496216,1.2826834917068481,-4.717010021209717,5.391139507293701,1.5732673406600952,6.520814895629883,-2.430310010910034,-0.025271717458963394,4.341509819030762,-7.028711795806885,0.36498332023620605,-6.677668571472168,-2.1513047218322754,-1.9017804861068726,-8.340024948120117,-2.3889403343200684,-4.742636203765869,-3.0286037921905518,-2.6166365146636963,1.9721810817718506,-0.5460605621337891,-4.835963249206543,-3.2365283966064453,0.5083500146865845,7.990876197814941,-0.7711408138275146,2.5478944778442383,-7.5779805183410645,-2.8502142429351807,-3.9280309677124023,0.2684798538684845,6.11627197265625,-5.839080810546875,-3.3188958168029785,3.7486040592193604,4.067032337188721,-0.6962832808494568,0.10356263816356659,-0.842058002948761,6.464652061462402,-0.9520807862281799,-3.5487892627716064,-0.7089760303497314,-1.567931056022644,4.172646999359131,0.47698190808296204,-4.368137359619141,0.33434566855430603,1.0894752740859985,-2.9731836318969727,5.2357177734375,-2.862210273742676,1.9195568561553955,-2.1009631156921387,1.3957856893539429,1.914488673210144]},"forgetBias":{"rows":20,"columns":1,"weights":[0,0,0,0,0,0,0,0,0,0,0,0,0,0,0,0,0,0,0,0]},"outputMatrix":{"rows":20,"columns":42,"weights":[-0.6928375959396362,0.015351930633187294,2.5616631507873535,1.894876480102539,0.10335695743560791,1.5778210163116455,-3.0842573642730713,0.5150864720344543,-0.40435636043548584,-1.4350600242614746,1.5594792366027832,-2.5029876232147217,-0.5473421216011047,0.400326132774353,-1.77885103225708,0.22455136477947235,-3.0378623008728027,1.0598797798156738,-1.393607497215271,0.5024356842041016,-0.5123106241226196,-1.830478549003601,0.07740350812673569,1.2872751951217651,0.6920956969261169,1.505666971206665,1.2217837572097778,-1.2951486110687256,0.7689746022224426,1.658233880996704,-0.9095310568809509,-0.6137681603431702,1.6052895784378052,-2.2661919593811035,0.2571749985218048,-1.2339881658554077,1.179172396659851,-1.755764126777649,-2.565519094467163,0.21434329450130463,0.40700241923332214,-0.7425151467323303,1.1043243408203125,1.147446870803833,-0.3964206874370575,0.7904149889945984,-0.6142606735229492,-1.145497441291809,-0.47349926829338074,-3.655531644821167,3.5485446453094482,0.3415483832359314,-0.0392107330262661,-0.8646931052207947,-1.1347140073776245,-0.488490492105484,3.3373029232025146,-0.8527275323867798,-1.656345248222351,1.06708824634552,1.3001506328582764,-1.3943349123001099,0.19065646827220917,1.751386284828186,0.6348121762275696,-0.25845324993133545,-3.347184658050537,1.3843889236450195,1.117329478263855,-1.366254448890686,-0.6948910355567932,1.3704010248184204,-3.6111347675323486,-2.7783021926879883,3.2456371784210205,-1.014550805091858,1.9253953695297241,-0.49888232350349426,-0.5712567567825317,-5.605002403259277,2.408322334289551,-3.764814615249634,-2.8984317779541016,-1.0387781858444214,-1.0246078968048096,-2.619715452194214,-2.368715524673462,-1.968579649925232,-1.7811131477355957,2.1461260318756104,3.5078349113464355,-1.0981166362762451,-0.1290576010942459,2.94215989112854,-1.5815800428390503,-1.305505633354187,2.5059971809387207,0.4539656639099121,-3.442810535430908,1.6323047876358032,2.549506425857544,0.9593710899353027,1.1871788501739502,3.2469429969787598,0.42700085043907166,3.0851528644561768,0.22754131257534027,-0.936052143573761,6.849569320678711,-2.387146234512329,-0.7586086988449097,1.2365833520889282,-0.0814206525683403,3.866614818572998,3.057833194732666,-1.950716257095337,-0.14832231402397156,-0.6014384627342224,3.526045799255371,3.10827898979187,1.6376967430114746,-0.8883417248725891,0.34441736340522766,-2.4081177711486816,-1.9380933046340942,-3.205157995223999,2.402224063873291,-0.9597129821777344,-0.07663944363594055,1.033808708190918,-3.3358442783355713,-8.142048835754395,-3.4717183113098145,0.05253341421484947,-0.3930900990962982,-1.4840519428253174,2.0509862899780273,-0.7867845296859741,1.089224934577942,-3.3964028358459473,2.1038410663604736,0.9515333771705627,-0.485624223947525,0.6880483031272888,-1.2139638662338257,-2.510373115539551,0.26877912878990173,0.05352837219834328,-0.833432674407959,-0.3064567446708679,0.18878643214702606,0.6304951310157776,1.7664169073104858,3.711780071258545,2.6888270378112793,-0.43096959590911865,-0.4565664231777191,-2.3241846561431885,1.3471063375473022,-0.22577376663684845,2.635430335998535,0.140930637717247,-4.911990165710449,0.4153362214565277,0.6514962315559387,4.490805149078369,-0.16661810874938965,0.16964901983737946,-0.3465495705604553,-0.22071826457977295,-1.5616484880447388,0.13104070723056793,0.906273603439331,1.4079945087432861,-2.788674831390381,4.044648170471191,-4.283426284790039,-0.7596213221549988,-0.5335596203804016,-0.10628256946802139,-0.2741106450557709,0.907103419303894,0.8644831776618958,-1.4704338312149048,-1.5342899560928345,-0.19449055194854736,-1.4978827238082886,0.2134871780872345,-0.9991885423660278,1.7570526599884033,-0.23227575421333313,0.6684206128120422,-1.9421188831329346,1.9928202629089355,-4.328672885894775,4.069367408752441,-4.183724880218506,3.8693056106567383,-0.3075927793979645,0.37686145305633545,4.568731784820557,-0.9515395760536194,1.442817211151123,1.8461990356445312,1.1295427083969116,-3.9673120975494385,-0.685928225517273,-1.8954041004180908,-1.1985479593276978,-1.3770956993103027,-0.13827946782112122,-1.1945593357086182,-2.1927590370178223,-1.129346489906311,3.6769227981567383,-3.8680198192596436,1.0193190574645996,0.4682815968990326,0.04568025842308998,-1.4521342515945435,-1.3254995346069336,0.8859612345695496,1.31034517288208,-2.0575289726257324,-0.2553139626979828,3.641373872756958,5.830413818359375,-1.893593430519104,-0.6821216940879822,1.373579502105713,-0.9500325918197632,-0.48133888840675354,-2.128602981567383,-1.217162013053894,4.495729923248291,-0.8110809326171875,-1.9192416667938232,2.588987350463867,0.8179394006729126,-0.03689000755548477,0.0990537703037262,-0.5053982734680176,0.029983386397361755,-0.35795140266418457,-0.41824981570243835,0.6374387145042419,-0.9934936761856079,1.1191935539245605,1.007905125617981,0.16492673754692078,-0.44256043434143066,-1.8669711351394653,-0.11618988960981369,0.5616728663444519,1.0867094993591309,-3.3116061687469482,-0.42923474311828613,-0.5979648232460022,-3.903883695602417,-2.705019474029541,4.083383560180664,-0.3901391327381134,2.116804838180542,0.7538881301879883,-1.4352558851242065,-0.5609490871429443,-0.37108829617500305,-2.3993005752563477,0.548721194267273,0.1773281693458557,0.536533772945404,-2.0851099491119385,1.1774269342422485,-2.6990017890930176,-1.2733328342437744,2.5574264526367188,2.282273530960083,4.368017673492432,2.073225498199463,0.4624786078929901,-0.6944249868392944,-0.747712254524231,0.4309931695461273,-0.9015198349952698,-2.9259161949157715,-0.09430942684412003,-0.3075489401817322,-7.055946350097656,-0.5712682604789734,0.3743319809436798,-2.6661057472229004,-1.0421116352081299,-0.2164696455001831,0.675243079662323,2.8807461261749268,-3.2981278896331787,-0.3337072432041168,-4.358384132385254,0.4778571128845215,-1.6130348443984985,2.275315046310425,-0.5658999085426331,1.304294466972351,-0.3375970423221588,-0.5509090423583984,-1.6210622787475586,-6.1315693855285645,1.176308512687683,-2.1914796829223633,-1.1725345849990845,-1.34931480884552,0.7850667238235474,-0.40967458486557007,-0.11055626720190048,-1.3334177732467651,0.8565931916236877,4.19237756729126,-0.5890611410140991,0.7646951079368591,-1.1663908958435059,1.973229169845581,-2.541978597640991,1.441404104232788,-3.110288381576538,-1.5961695909500122,0.754492998123169,2.975572109222412,-1.0808963775634766,1.7249881029129028,-0.5687264800071716,0.12683968245983124,-3.136986017227173,-1.962785005569458,0.3790315091609955,3.5310282707214355,-0.7166780233383179,-2.92817759513855,0.8519145846366882,-0.24860578775405884,-2.0555403232574463,2.0190582275390625,-2.021123170852661,-3.7598931789398193,1.415607213973999,2.3151063919067383,2.897382974624634,-1.359607458114624,-0.6062769293785095,-0.10157164186239243,-3.3658273220062256,-3.6436960697174072,2.1804537773132324,0.26653915643692017,1.5083154439926147,-2.747499942779541,-0.41796964406967163,3.044879913330078,1.2358344793319702,-2.679678440093994,-0.8493381142616272,-2.476742744445801,-3.317676305770874,-0.05362425372004509,1.4315311908721924,2.66572904586792,-4.04672908782959,-0.6660017967224121,-0.4008980393409729,1.9007312059402466,0.9621725082397461,-3.492293119430542,-6.008947849273682,-1.8143798112869263,1.1804704666137695,-0.46213531494140625,3.005096912384033,-1.047346591949463,-2.603641986846924,1.1724040508270264,-1.3382158279418945,-0.2588985562324524,-1.5072566270828247,0.32296961545944214,-2.348628044128418,0.10776031762361526,0.9653453826904297,0.6011314392089844,1.6026005744934082,-0.10946382582187653,0.09236258268356323,-3.842923641204834,-1.2053762674331665,0.32817143201828003,2.8703906536102295,-3.4907336235046387,2.5032029151916504,-0.6023977994918823,-0.8627992868423462,2.436005115509033,-1.2817775011062622,3.4520270824432373,-5.032706260681152,-3.546250581741333,-0.7531499266624451,-1.5502623319625854,-4.040007591247559,1.2815241813659668,1.9927093982696533,1.5416280031204224,0.014303975738584995,3.1795036792755127,-1.1834043264389038,-0.121036596596241,2.974674701690674,-0.2490444779396057,0.20784740149974823,0.8314923644065857,-1.4228578805923462,1.001670241355896,1.5041199922561646,-2.855093479156494,-0.511069118976593,3.276975393295288,4.335753440856934,1.6449276208877563,-1.6119060516357422,-0.7103827595710754,-1.2801145315170288,-1.6988959312438965,1.8252071142196655,-0.6487027406692505,-0.12219098210334778,-0.3092833161354065,0.16713473200798035,1.932341456413269,1.262122392654419,-2.398716449737549,2.0129611492156982,1.9111043214797974,2.4587533473968506,-1.460547924041748,-0.49189457297325134,0.618430495262146,2.2889294624328613,-4.727572917938232,-4.558150291442871,-0.05463261157274246,-3.074608564376831,-1.1537764072418213,2.5263302326202393,4.060911178588867,-0.57039874792099,5.924487590789795,1.1253705024719238,0.32324039936065674,-0.20245219767093658,2.6578311920166016,-0.875532865524292,3.9271178245544434,0.6498323678970337,-0.03678694739937782,0.15989242494106293,1.8792917728424072,2.493814468383789,0.08903942257165909,2.7748711109161377,1.4202587604522705,1.5978561639785767,-2.4881362915039062,1.9427378177642822,0.2983083724975586,-1.9215784072875977,-3.866107702255249,-0.02694229781627655,-0.9879761338233948,-1.1088430881500244,1.038401484489441,2.038100004196167,1.8924652338027954,1.3255186080932617,-0.10515058040618896,1.4979037046432495,-0.3597818613052368,1.557022213935852,0.8851459622383118,3.432835578918457,-4.409922122955322,-2.6890673637390137,2.992795944213867,-1.748077154159546,2.439190149307251,-0.4286344051361084,-4.023689270019531,1.9494692087173462,0.9662886261940002,-1.7557460069656372,-2.479952335357666,-0.9015161395072937,-3.5888428688049316,-2.7298288345336914,2.3050332069396973,3.87796950340271,3.1679294109344482,-0.3378087878227234,0.7385122179985046,0.3115125298500061,2.5876495838165283,-1.2912521362304688,1.5562001466751099,1.0954303741455078,0.5907469391822815,-0.32777726650238037,3.5065982341766357,1.2237932682037354,-0.9336650967597961,-1.2529257535934448,-0.27699899673461914,3.789396286010742,-1.130400538444519,-1.2183030843734741,0.8228629231452942,0.6456201672554016,-1.566460132598877,-3.19766902923584,-5.666228294372559,-0.7152034640312195,-1.4676995277404785,-2.464696168899536,4.546154975891113,-2.912280797958374,-0.8235978484153748,-2.9726600646972656,0.8269371390342712,1.1857330799102783,-1.7511945962905884,1.6131447553634644,-3.030334711074829,1.2846331596374512,3.4012460708618164,6.348249912261963,0.5424875617027283,3.0478343963623047,2.072615146636963,-0.027869949117302895,-2.822413444519043,-0.27146652340888977,-0.9483634829521179,2.7396366596221924,0.40479496121406555,-0.5816993713378906,0.513334333896637,0.14170719683170319,1.2854410409927368,1.0470672845840454,-0.8622887134552002,1.188846468925476,-1.2404513359069824,1.3680518865585327,3.256450653076172,-3.898252010345459,-4.101311683654785,1.8294601440429688,3.082486152648926,-1.1513781547546387,0.9705789089202881,-0.2108454555273056,1.7474998235702515,0.23269695043563843,-3.50601863861084,-0.9453349113464355,-1.7463874816894531,1.5323542356491089,-1.3748036623001099,0.17545628547668457,0.24986903369426727,1.1897727251052856,2.6756668090820312,0.6399089097976685,3.980595827102661,1.7655284404754639,0.9774338006973267,0.1418626308441162,0.11581625044345856,-0.4247792661190033,-0.9940961599349976,0.6904996037483215,-2.9777143001556396,-1.8493274450302124,0.6949321627616882,-2.848127603530884,-0.4723784327507019,-1.2878388166427612,-4.3484296798706055,1.4257683753967285,-0.17136673629283905,-1.011999249458313,-0.743468165397644,4.2123613357543945,1.5297343730926514,1.3013226985931396,-0.8812267780303955,2.6240341663360596,-0.21374750137329102,-2.730752468109131,0.912638783454895,1.5045688152313232,1.6194398403167725,0.6125280261039734,4.536358833312988,1.4459642171859741,0.8929027318954468,-1.487992525100708,4.310304641723633,0.35064399242401123,-0.9673519730567932,2.3002727031707764,-3.057009696960449,1.3310725688934326,-1.5453985929489136,-2.0686676502227783,-0.9291052222251892,-0.07315872609615326,-0.46316099166870117,0.035569604486227036,0.5184442400932312,1.994273066520691,4.118738174438477,-1.7386407852172852,1.8235183954238892,-2.4442553520202637,-1.7648344039916992,0.04060573875904083,-0.9873380661010742,1.1686227321624756,0.5464230179786682,0.47794046998023987,4.642672061920166,-0.2745211720466614,-1.6754032373428345,0.25901520252227783,-0.31999754905700684,-1.7588449716567993,-0.1308051496744156,1.856334924697876,4.688918113708496,-1.714280128479004,0.8368722200393677,-0.1735357940196991,-0.43783196806907654,-0.20283052325248718,-0.968959391117096,-0.21755318343639374,0.6240652203559875,-0.11465448886156082,0.04998576268553734,0.8928136229515076,-0.11790766566991806,1.3736621141433716,-0.11852379888296127,0.8357542753219604,0.1096741110086441,2.343838930130005,0.9105536937713623,0.508216381072998,0.14059670269489288,4.013824939727783,-0.07295936346054077,0.6009874939918518,1.1782251596450806,1.7163746356964111,-2.130383253097534,-1.169466495513916,0.6905741095542908,-0.22775059938430786,-0.0492604561150074,-2.9516372680664062,0.3666202127933502,-0.850900411605835,2.6925389766693115,0.36406949162483215,0.13036850094795227,-0.6060333847999573,0.5160480737686157,-0.20797252655029297,-1.833919644355774,0.09178660809993744,-3.7178807258605957,-2.152113914489746,-0.38614243268966675,2.3090906143188477,1.2182059288024902,0.35190197825431824,0.9918915629386902,0.5658754110336304,0.4623606503009796,0.12153536081314087,2.572190284729004,-0.8641537427902222,-1.8580154180526733,-1.2570823431015015,-0.12237585335969925,-0.36164548993110657,1.3655537366867065,0.28908202052116394,0.5738506317138672,2.971177101135254,2.28246808052063,3.6708297729492188,2.312483072280884,0.6580238938331604,-0.5938519835472107,-0.6479331254959106,0.17865343391895294,0.9981680512428284,0.21239204704761505,0.21434065699577332,-0.48135095834732056,1.1159329414367676,0.6065019369125366,-0.390435129404068,0.5785402059555054,-0.2958712577819824,0.40732428431510925,0.49322858452796936,0.23478594422340393,-0.45279672741889954,-0.18670816719532013,0.07898472249507904,0.8649317026138306,0.3275316655635834,1.4211328029632568,-0.48350152373313904,-0.35064107179641724,-0.3106745779514313,-0.7950732707977295,0.1159641444683075,-0.2681811451911926,-0.0297301784157753,-1.7999424934387207,0.09517385810613632,-0.1700478047132492,