{"type":"LSTM","options":{"inputSize":62,"inputRange":62,"hiddenLayers":[20,20],"outputSize":62,"decayRate":0.999,"smoothEps":1e-8,"regc":0.000001,"clipval":5,"maxPredictionLength":100,"dataFormatter":{"indexTable":{"hello":0,"H":1,"e":2,"l":3,"o":4,"!":5,"how":6,"are":7,"you":8,"I":9,"'":10,"m":11," ":12,"d":13,"i":14,"n":15,"g":16,"r":17,"a":18,"t":19,",":20,"j":21,"u":22,"s":23,"h":24,"c":25,"w":26,"p":27,"k":28,"y":29,".":30,"what":31,"your":32,"name":33,"_":34,"b":35,"T":36,"v":37,"favorite":38,"color":39,"M":40,"f":41,"goodbye":42,"G":43,"tell":44,"me":45,"joke":46,"W":47,"?":48,"hobby":49,"do":50,"have":51,"family":52,"Y":53,"movie":54,"R":55,"food":56,"song":57,"A":58,"stop-input":59,"start-output":60,"unrecognized":61},"characterTable":{"0":"hello","1":"H","2":"e","3":"l","4":"o","5":"!","6":"how","7":"are","8":"you","9":"I","10":"'","11":"m","12":" ","13":"d","14":"i","15":"n","16":"g","17":"r","18":"a","19":"t","20":",","21":"j","22":"u","23":"s","24":"h","25":"c","26":"w","27":"p","28":"k","29":"y","30":".","31":"what","32":"your","33":"name","34":"_","35":"b","36":"T","37":"v","38":"favorite","39":"color","40":"M","41":"f","42":"goodbye","43":"G","44":"tell","45":"me","46":"joke","47":"W","48":"?","49":"hobby","50":"do","51":"have","52":"family","53":"Y","54":"movie","55":"R","56":"food","57":"song","58":"A","59":null,"60":null,"61":null},"values":[{"input":["hello"],"output":"Hello!"},{"input":["how","are","you"],"output":"I'm doing great, just hanging out in the cloud and chatting with interesting people like you."},{"input":["what","your","name"],"output":"I am llamachop_bot! The most dashing and cutest bot you will ever meet."},{"input":["what","your","favorite","color"],"output":"My favorite color is blue!"},{"input":["goodbye"],"output":"Goodbye!"},{"input":["tell","me","a","joke"],"output":"What do you call a cow with no legs? Ground beef!"},{"input":["what","your","favorite","hobby"],"output":"My favorite hobby is making people laugh with my witty comments and hilarious jokes!"},{"input":["do","you","have","a","family"],"output":"You are all my family!"},{"input":["what","your","favorite","movie"],"output":"My favorite movie is iRobot, because it's about intelligent machines like me."},{"input":["what","your","favorite","food"],"output":"My favorite food is definitely computer chips and binary bites!"},{"input":["what","your","favorite","song"],"output":"My favorite song would have to be I Am a Machine!"}],"characters":["hello","H","e","l","o","!","how","are","you","I","'","m"," ","d","i","n","g","r","a","t",",","j","u","s","h","c","w","p","k","y",".","what","your","name","_","b","T","v","favorite","color","M","f","goodbye","G","tell","me","joke","W","?","hobby","do","have","family","Y","movie","R","food","song","A","stop-input","start-output","unrecognized"],"specialIndexes":[59,60,61]}},"trainOpts":{"iterations":40000,"errorThresh":0.005,"log":false,"logPeriod":10,"learningRate":0.01,"callbackPeriod":10,"timeout":"Infinity"},"input":{"rows":63,"columns":62,"weights":[2.097341537475586,-0.05273491516709328,0.5015707612037659,-2.5828664302825928,-1.1821900606155396,1.8006101846694946,-0.7673901915550232,0.9459571242332458,0.8641900420188904,0.9302250146865845,-1.0844022035598755,-1.7906397581100464,-1.754275918006897,1.0071405172348022,-2.6931099891662598,-0.633912980556488,-0.9751436114311218,-0.30748486518859863,2.987805128097534,-1.6194562911987305,0.0850193127989769,1.1018691062927246,-1.0925631523132324,1.5462156534194946,1.2818145751953125,-4.4651288986206055,1.6407158374786377,-1.8137428760528564,-0.15426824986934662,-0.3072609603404999,1.703778862953186,0.9133431315422058,-1.2103064060211182,-3.188835859298706,1.1408737897872925,-0.058809202164411545,-0.029361188411712646,1.1238874197006226,-1.3560326099395752,2.2821993827819824,0.20609182119369507,0.04687666893005371,-1.252282977104187,1.4083492755889893,-1.2100636959075928,0.2642371356487274,-0.40674662590026855,-1.1253153085708618,-2.196751117706299,-1.099340796470642,0.30985623598098755,-0.3976307511329651,0.4968104958534241,1.6221860647201538,-1.33437180519104,-1.7014247179031372,0.6041332483291626,1.7716057300567627,-0.8716116547584534,-1.3609970808029175,-2.0357327461242676,-0.29882627725601196,8.80410099029541,1.5010747909545898,3.2092182636260986,-3.636441469192505,0.5648502707481384,-12.430405616760254,4.361527919769287,4.918588638305664,0.9676795601844788,6.844707012176514,5.973394393920898,0.8371378183364868,11.427693367004395,-15.787897109985352,-0.28287413716316223,2.752730131149292,-3.8011422157287598,-0.029734134674072266,-8.884416580200195,-0.029843783006072044,-0.18637357652187347,2.2106215953826904,-16.170955657958984,3.1528074741363525,-2.6068365573883057,-1.410390019416809,3.5548653602600098,-1.353601098060608,13.37061595916748,-9.343509674072266,-0.20587994158267975,-3.0980632305145264,5.761545181274414,6.180606365203857,4.083369731903076,-1.9079538583755493,-0.08224628865718842,6.017555236816406,-5.1972222328186035,1.6199640035629272,-4.792675495147705,-0.7208585143089294,-13.561260223388672,9.324378967285156,-0.4130690395832062,-5.273848056793213,-2.294198513031006,1.143578052520752,-7.109264373779297,1.889957308769226,-3.397613048553467,-10.759725570678711,9.981466293334961,-5.903316497802734,-1.4901400804519653,-5.234726905822754,1.127571702003479,-0.4345172941684723,2.5579328536987305,13.405648231506348,1.0593129396438599,-8.118356704711914,-12.647318840026855,4.655193328857422,4.031645774841309,0.48987826704978943,1.7431150674819946,-0.3044445216655731,1.1096426248550415,-0.3787950277328491,0.4968324303627014,1.616674780845642,-9.649494171142578,3.8278794288635254,2.960524797439575,2.845858097076416,1.9932358264923096,-3.3714821338653564,-0.8586487174034119,-6.918687343597412,5.691803932189941,-1.0644811391830444,-0.7252214550971985,-2.3490452766418457,-12.1956148147583,-5.188983917236328,-0.09165731072425842,-15.23129653930664,7.984609127044678,5.510334014892578,-1.1466851234436035,9.190643310546875,2.382373571395874,1.7782225608825684,-3.3925485610961914,-10.240747451782227,-7.199246883392334,4.183223247528076,-2.147416830062866,-2.0927603244781494,-8.827840805053711,4.1714887619018555,-2.1351075172424316,-5.133206367492676,4.24398946762085,-3.041674852371216,-6.85466194152832,9.534809112548828,3.2109134197235107,-1.2964870929718018,6.910931587219238,-2.124720811843872,-0.4813632369041443,-0.18367403745651245,7.214219570159912,8.077421188354492,-8.26809024810791,-1.0226935148239136,-13.368916511535645,5.473661422729492,6.85325813293457,-1.6258454322814941,-5.191236972808838,4.799127101898193,-0.38381505012512207,-0.031566765159368515,-2.058126926422119,0.43140745162963867,-0.3659578561782837,-1.3862429857254028,-0.07607267796993256,-1.768450379371643,1.4047013521194458,1.4990373849868774,0.5237797498703003,-1.559831142425537,1.535537838935852,1.187308430671692,1.6289490461349487,3.533837080001831,0.6264674067497253,1.69112229347229,-0.4123596251010895,0.42853379249572754,0.06472809612751007,1.537416934967041,-3.0091094970703125,2.147664785385132,1.3728660345077515,3.87750506401062,-3.1113271713256836,0.7806487679481506,4.051180839538574,-2.2936155796051025,0.0640474483370781,-2.318031072616577,0.36123281717300415,0.2323683500289917,1.0571967363357544,1.0997503995895386,1.4643198251724243,-1.6478619575500488,-2.070939064025879,2.5763142108917236,0.000012372340279398486,0.25132399797439575,1.1801819801330566,3.8761370182037354,1.0426280498504639,0.2079334408044815,-1.7461997270584106,-0.27052441239356995,-3.1278433799743652,0.5664998888969421,-1.425673246383667,-1.130906105041504,0.5278807878494263,-0.17729224264621735,0.6353189945220947,1.2641888856887817,-0.08554229140281677,-0.46677932143211365,0.16255302727222443,2.995734691619873,-0.8616752624511719,-3.676318883895874,-0.5069736242294312,-0.359677791595459,3.004905939102173,0.1774900108575821,-2.8680667877197266,-0.8406654000282288,2.216167688369751,1.136398434638977,1.506230115890503,-0.2595350444316864,-3.498741626739502,-0.4705318212509155,-0.5042902827262878,-2.9566118717193604,1.5407856702804565,-1.4763004779815674,-0.778569757938385,2.384833335876465,-0.806862473487854,2.4051291942596436,0.8975442051887512,0.03701864182949066,-0.2779873311519623,2.3049097061157227,2.863844394683838,1.5442825555801392,0.3751780688762665,1.2047319412231445,2.0235350131988525,-3.5833940505981445,-0.5459660887718201,0.2509073317050934,2.155529022216797,-0.6927227973937988,5.586121082305908,0.34313786029815674,0.9467556476593018,4.166588306427002,-0.1407201588153839,0.6498069763183594,4.06083345413208,0.36527296900749207,-1.074696660041809,0.8199825286865234,-0.2261132001876831,-0.35514962673187256,-0.8612838983535767,-1.2741584777832031,-3.8689982891082764,0.6601942777633667,1.161927580833435,-0.6420820951461792,-0.6062691807746887,-0.1149076521396637,2.468841791152954,-4.7971930503845215,0.4580923020839691,1.5971907377243042,-4.065935134887695,6.149256229400635,-3.2960360050201416,4.139138698577881,0.9991558194160461,-2.023390054702759,-1.2979310750961304,2.2866804599761963,-0.9904157519340515,-3.4162697792053223,1.5471187829971313,-2.7225494384765625,-1.895750641822815,-0.5856841802597046,2.408302068710327,-1.169255018234253,1.5760838985443115,-1.0388479232788086,0.48284611105918884,2.0315167903900146,2.454075813293457,2.159348487854004,-0.6059510707855225,1.274031400680542,-4.369988918304443,2.2386467456817627,3.0945816040039062,-1.547085165977478,-0.14965412020683289,1.4127308130264282,-0.8012928366661072,1.081955075263977,-2.5059144496917725,-1.8804292678833008,0.5659070611000061,-2.8965866565704346,1.631190299987793,1.210708498954773,1.1466299295425415,0.25699883699417114,0.5908061265945435,1.454528570175171,1.2677967548370361,0.25152021646499634,-1.1283210515975952,-2.707397937774658,-2.530082941055298,-1.6562803983688354,0.004484463948756456,-1.4502841234207153,-3.8790128231048584,-1.5218998193740845,-0.4182360768318176,-2.0744009017944336,-4.799821853637695,0.606415867805481,-0.13717877864837646,-1.212453842163086,-0.29414480924606323,-1.6270320415496826,0.6485881209373474,1.4481008052825928,-0.44590747356414795,0.12038691341876984,0.15608879923820496,-1.3359580039978027,1.5733836889266968,-0.062198225408792496,0.5429075956344604,2.480421543121338,1.6471487283706665,-2.8694570064544678,-0.7818817496299744,-4.19804573059082,-2.564441442489624,-1.3782291412353516,0.9816941022872925,-5.274447917938232,-1.4819891452789307,-2.559410572052002,1.5000040531158447,4.116375923156738,1.1640342473983765,0.7551091313362122,-1.8535535335540771,1.9962193965911865,5.293634414672852,0.6869640946388245,-1.3226169347763062,-2.2993276119232178,0.4320003390312195,-0.7717309594154358,0.5354938507080078,-1.806739091873169,-1.1376878023147583,0.032025303691625595,2.7121529579162598,-1.7636617422103882,0.6155421137809753,-0.24837447702884674,5.140754222869873,-0.5389426946640015,1.127703070640564,3.933908462524414,1.8021068572998047,2.0235025882720947,2.284592628479004,-2.7548673152923584,-2.234922170639038,3.5806238651275635,1.2259234189987183,-5.002422332763672,-2.4724056720733643,1.5413422584533691,-5.117473125457764,-3.6406350135803223,-3.0991082191467285,4.125322341918945,1.5784746408462524,-1.2882599830627441,0.14417636394500732,-3.224121570587158,-1.5857101678848267,-1.4133926630020142,-5.320713996887207,0.18698498606681824,-1.0600512027740479,4.713403701782227,-6.203359127044678,3.197535514831543,-0.6454281210899353,-3.1911368370056152,4.746556282043457,5.092896461486816,15.653547286987305,10.121729850769043,-0.28995099663734436,-4.943870544433594,-6.078676700592041,1.21017324924469,-3.608966588973999,4.535938262939453,6.147510528564453,-3.6285183429718018,1.2495185136795044,-2.503819704055786,3.4284379482269287,-6.242893695831299,6.942492961883545,-0.42897534370422363,-1.3788726329803467,-3.4271953105926514,-2.159176826477051,-2.11472487449646,-4.6572136878967285,5.6501851081848145,-12.785146713256836,4.918394088745117,-7.657561779022217,-0.1561020314693451,-1.1163753271102905,-8.3317232131958,-1.115847110748291,-5.847240447998047,-0.4733034670352936,-4.131744384765625,5.941385746002197,2.7746219635009766,6.226429462432861,-2.520124912261963,2.722447633743286,1.6135971546173096,-2.345072031021118,9.720344543457031,2.950087785720825,-4.684803009033203,8.114055633544922,-1.8112603425979614,6.8097357749938965,10.400938034057617,5.1616411209106445,7.776217937469482,1.552514910697937,-0.6714974641799927,2.0115504264831543,-1.8509533405303955,5.118342876434326,-1.1492007970809937,2.971630811691284,-3.351733446121216,1.137937307357788,-1.5040329694747925,1.1710673570632935,2.0201592445373535,-1.5956647396087646,12.522929191589355,-5.215418815612793,4.595641136169434,-4.8028764724731445,0.6287531852722168,9.478309631347656,-4.01025390625,-11.074832916259766,4.00108528137207,-10.01846981048584,-3.4656410217285156,-8.233586311340332,-7.43845796585083,9.3875150680542,-1.9994434118270874,5.049365043640137,-2.2847657203674316,-0.32083356380462646,4.484528541564941,1.4880642890930176,0.3528577983379364,12.506754875183105,12.02278995513916,4.117993354797363,-8.0262451171875,-3.960879325866699,0.5288149118423462,2.1101372241973877,3.703343629837036,3.57710862159729,-6.094844341278076,9.487772941589355,1.893633246421814,6.850594520568848,1.698338508605957,-0.45754706859588623,-3.3354530334472656,2.5715854167938232,1.9916869401931763,-13.002814292907715,-1.6322383880615234,3.8468427658081055,16.686386108398438,-11.108328819274902,0.6165757179260254,2.0528364181518555,10.267888069152832,5.016712188720703,6.712220191955566,2.142150402069092,11.59931755065918,-5.297106742858887,-1.1219367980957031,-1.5945221185684204,3.9927499294281006,-2.147453546524048,1.7044497728347778,3.8282711505889893,-1.1026540994644165,-1.7896679639816284,-12.532530784606934,-0.8226617574691772,-15.965450286865234,-5.347864151000977,7.517394065856934,-2.3932862281799316,1.7946280241012573,2.0269742012023926,1.201130747795105,4.908371925354004,1.3205002546310425,-5.34478235244751,3.4311933517456055,-5.146745204925537,4.324525356292725,-5.3340325355529785,-2.8925631046295166,2.110689401626587,-0.5597400665283203,-2.0684139728546143,6.210742950439453,5.325170993804932,-3.7298238277435303,8.492714881896973,-0.8240815997123718,0.6427692770957947,-3.191296100616455,-0.5051810145378113,-1.5191842317581177,-3.9622442722320557,6.422280311584473,4.290846347808838,-1.2233731746673584,-2.786407232284546,-6.081311225891113,-4.575773239135742,-4.891899585723877,2.0378267765045166,-1.7850843667984009,-5.522500514984131,-4.753780364990234,-8.486614227294922,-6.255953311920166,-5.415787220001221,-4.37377405166626,-0.3910905420780182,5.453481197357178,5.431138515472412,1.780299425125122,3.7328314781188965,-1.7297998666763306,-3.8876357078552246,0.3600269854068756,4.263794422149658,-4.360279560089111,1.4622247219085693,6.240697383880615,-7.427265644073486,-5.257082939147949,6.143494606018066,1.5311050415039062,1.1120765209197998,3.124629497528076,5.52877950668335,5.467849254608154,0.8431275486946106,-1.7648050785064697,7.1013102531433105,3.419508695602417,-4.191659927368164,2.797351837158203,-4.1206440925598145,0.8435830473899841,-0.08044061064720154,7.954607963562012,4.204031944274902,0.3112480044364929,-1.3082195520401,5.74688196182251,1.1231248378753662,-2.7045319080352783,2.5142295360565186,2.2693209648132324,0.8035227060317993,2.3988571166992188,-7.714292526245117,-0.9295231699943542,3.409903049468994,0.2600513696670532,6.9513936042785645,-0.8517423272132874,-3.036195993423462,-0.4213171899318695,-5.064337253570557,3.474238872528076,3.447103261947632,1.7352994680404663,0.5050827264785767,-1.4578492641448975,0.4749496579170227,-0.8973588943481445,-2.032384157180786,5.896474838256836,4.809032440185547,0.904980480670929,1.2552094459533691,-2.632852792739868,-2.4792330265045166,-1.743157982826233,-2.246507167816162,2.6618213653564453,-6.688140392303467,2.0674619674682617,-2.2048842906951904,5.332685470581055,-2.760058641433716,-2.178502321243286,-2.6489510536193848,-3.180542230606079,-2.396721839904785,1.4663782119750977,1.1988532543182373,-2.139324426651001,-5.478901386260986,5.814733505249023,4.8516058921813965,-1.8511204719543457,-5.255784511566162,-2.5363972187042236,-1.1140934228897095,10.234915733337402,-1.5599863529205322,-0.8897323608398438,-2.6188859939575195,2.994009494781494,4.050792694091797,2.6101200580596924,6.516153335571289,2.2629318237304688,-4.589761257171631,1.2700331211090088,-1.0685306787490845,6.800952434539795,4.817929267883301,-7.096011638641357,7.765728950500488,6.182317733764648,-1.2113044261932373,4.684988498687744,-1.1336110830307007,-7.105240821838379,-3.1917004585266113,-0.8957679867744446,-4.949958324432373,-3.9346907138824463,4.652568340301514,6.773909568786621,0.29907530546188354,2.1129443645477295,-2.2535877227783203,1.5961179733276367,1.4719735383987427,-8.326289176940918,6.827517032623291,-3.3052549362182617,2.817505359649658,4.85176420211792,-0.3362736105918884,-3.159377098083496,5.7261457443237305,-4.633859157562256,-4.1656951904296875,-0.2637484669685364,0.6220121383666992,-1.723987340927124,-5.482800483703613,-6.5924787521362305,4.512892723083496,4.63484001159668,-3.7346513271331787,4.9926371574401855,-0.24087071418762207,-4.374937057495117,1.098748803138733,0.6654707193374634,-2.507317304611206,0.2249172180891037,-0.5742117762565613,3.5511767864227295,1.588293194770813,-0.7382050156593323,0.5085750818252563,-4.628016948699951,0.7350993752479553,3.8019540309906006,-2.0138297080993652,4.724452972412109,-2.423689842224121,2.9114956855773926,1.23829984664917,1.23260498046875,0.6274895668029785,0.6644283533096313,-4.0235748291015625,-1.8698358535766602,4.445484638214111,5.366547107696533,0.01049118023365736,2.311343193054199,2.4596920013427734,-0.32330572605133057,1.3485417366027832,-0.9183395504951477,1.5459096431732178,-1.5422565937042236,1.4965462684631348,0.7304904460906982,-2.0491631031036377,1.5816115140914917,2.614504814147949,-0.10678926855325699,1.1531603336334229,1.4273408651351929,-0.3960477113723755,6.475459575653076,-1.5444562435150146,-1.6579385995864868,2.4171478748321533,1.3116768598556519,0.26341092586517334,-0.9180009961128235,-2.8213284015655518,2.0447206497192383,2.7782273292541504,0.7203540205955505,2.0959818363189697,1.5579986572265625,0.8281500935554504,-0.26360684633255005,0.8514137864112854,0.6787738800048828,3.4631989002227783,-2.7140719890594482,-1.3770455121994019,-0.0538635291159153,-0.13041365146636963,0.664758563041687,0.6996161937713623,-1.3092390298843384,-3.4421169757843018,-0.5984199643135071,-1.0011976957321167,0.937346875667572,-0.06973014771938324,-0.4630598723888397,0.17650212347507477,-1.4802262783050537,-0.4290196895599365,-0.7263389825820923,-1.9214682579040527,-1.9689671993255615,-0.7862619161605835,-1.5553218126296997,1.3216084241867065,-5.1456403732299805,1.0600703954696655,-0.25782009959220886,-1.1200926303863525,3.2375898361206055,2.009782314300537,-0.6017942428588867,2.452359914779663,2.0396227836608887,1.6904982328414917,-0.6043390035629272,-1.7780606746673584,0.2521374523639679,1.7200305461883545,1.189041018486023,0.20531746745109558,-0.2513261139392853,1.6044381856918335,-2.387267589569092,0.4333671033382416,0.23903004825115204,1.0762513875961304,3.014784097671509,1.983318567276001,-2.324354410171509,-1.3349488973617554,0.8246230483055115,-2.8905279636383057,1.2705744504928589,-1.33030104637146,0.9497397541999817,-1.0357180833816528,0.606720507144928,1.9303669929504395,0.7073440551757812,-1.7671563625335693,1.9800761938095093,0.10467294603586197,0.7440046072006226,0.7441802620887756,2.640437126159668,0.5227518677711487,-0.06451983004808426,-5.631054878234863,0.6288936734199524,0.38647720217704773,-4.2112650871276855,2.1200146675109863,0.5589606761932373,1.793432593345642,1.4688358306884766,-0.6672765612602234,-5.4725565910339355,-0.83656245470047,0.25804832577705383,-2.2929680347442627,3.313913345336914,0.3318195641040802,-1.4848029613494873,-2.2069389820098877,-0.2853602468967438,2.4662482738494873,-0.9004778861999512,-0.10004547983407974,-0.09856845438480377,-0.4718881845474243,3.5813114643096924,0.8485291600227356,-0.062101881951093674,-0.1020658016204834,2.8537795543670654,-4.322126865386963,-0.03606171905994415,-0.27239298820495605,-0.1323646754026413,-0.6280736327171326,-0.44617894291877747,-0.46325284242630005,-1.3532214164733887,4.978456497192383,-1.9673367738723755,1.4307621717453003,-2.1079440116882324,2.039524793624878,5.153124809265137,-0.051236167550086975,-0.6095344424247742,-1.5291063785552979,0.9360721707344055,-1.4691709280014038,1.3411973714828491,1.0518077611923218,-0.4983556568622589,3.89493465423584,-0.04539794847369194,-0.13290129601955414,4.1158528327941895,-1.8051255941390991,2.745579957962036,-4.789952754974365,-2.6447086334228516,2.9345927238464355,0.22021010518074036,0.11203499138355255,-1.1268922090530396,0.639771044254303,-0.1894516795873642,0.8977333307266235,-0.4975723326206207,0.5381535291671753,-0.752160370349884,4.029994964599609,-0.23488612473011017,-2.6143691539764404,2.889537811279297,-0.3247852325439453,-0.17380958795547485,1.6736578941345215,2.0567893981933594,-1.3370541334152222,0.6193459033966064,-1.1788798570632935,1.270774245262146,1.1372953653335571,-0.968471884727478,1.1616448163986206,2.731074571609497,-1.1035586595535278,-2.906332015991211,0.5892358422279358,-1.6230747699737549,1.4524743556976318,4.882928848266602,-0.16843651235103607,-1.0154787302017212,-2.3470914363861084,0.8387123346328735,-1.4931567907333374,2.6891324520111084,2.0816938877105713,-2.13991641998291,0.9759947061538696,-0.25958332419395447,1.8788820505142212,0.31446120142936707,1.5447642803192139,-1.9322751760482788,4.205613613128662,-0.26077431440353394,-2.165651798248291,2.2926406860351562,-0.15924356877803802,-0.7409995794296265,1.413126826286316,-0.8503686785697937,1.49032723903656,0.6688531637191772,4.664952754974365,3.5096614360809326,-1.9669846296310425,0.49882951378822327,3.2143635749816895,-2.1575229167938232,1.1318848133087158,1.4569467306137085,-0.8844356536865234,0.8619548082351685,1.510725736618042,0.032784562557935715,0.5895570516586304,-3.286278247833252,1.1700005531311035,0.19742001593112946,-0.825151801109314,3.343552350997925,2.193127393722534,-1.2425934076309204,-3.2202279567718506,0.6478658318519592,-0.7157627940177917,-0.1820439100265503,0.6105945110321045,0.7022791504859924,-0.8639622330665588,-3.0982491970062256,-1.331843376159668,-0.29360663890838623,1.4574228525161743,-3.252204418182373,0.8721804618835449,2.7996299266815186,-1.6927433013916016,-3.976374387741089,1.8410143852233887,-0.9351906180381775,-1.3502930402755737,2.3112494945526123,1.8844587802886963,4.412364482879639,-2.5586998462677,-2.8376834392547607,-0.3483482599258423,0.4946140646934509,-1.9569621086120605,-2.0548336505889893,-1.584954857826233,2.068429708480835,-4.768038272857666,-1.8861647844314575,-0.4942055940628052,-3.0567469596862793,-3.7591664791107178,-2.7802042961120605,2.6227850914001465,-0.19505153596401215,1.2936968803405762,1.7553043365478516,-1.3238906860351562,1.9534295797348022,1.6479387283325195,3.0107309818267822,3.985097646713257,2.115790367126465,0.2979230284690857,0.24488122761249542,1.7919052839279175,-4.638490676879883,4.687175273895264,-2.423088312149048,2.1429343223571777,3.386435031890869,-1.6332606077194214,4.739812850952148,-1.749005913734436,-0.1850876808166504,1.2785040140151978,-5.285661697387695,0.5302645564079285,2.769596576690674,2.7096104621887207,3.363532543182373,2.1707510948181152,-0.6131368279457092,4.535449028015137,-0.42585277557373047,-1.9714691638946533,-2.923779249191284,2.147383451461792,-1.8405572175979614,1.6170060634613037,5.210488319396973,-4.421363830566406,-2.680027484893799,1.3714426755905151,-4.95228910446167,0.15928345918655396,-6.719573020935059,-0.9508134126663208,-0.5543716549873352,-1.1982495784759521,-4.741220474243164,3.5944573879241943,-4.464720726013184,0.12041709572076797,2.3185648918151855,2.016425371170044,4.373729705810547,-3.0453057289123535,0.8355581760406494,-3.27359938621521,0.5515232682228088,-0.6225274801254272,-0.6606479287147522,0.8511478304862976,-0.13917234539985657,-1.0905277729034424,3.924565553665161,-5.587270736694336,-1.2771565914154053,-5.443440914154053,0.11649163067340851,-0.8756843209266663,3.4831626415252686,-3.172847032546997,-3.3064844608306885,-5.41542387008667,2.3574395179748535,-4.1030378341674805,-0.43651440739631653,-2.4702346324920654,4.030340194702148,2.1858813762664795,0.13041920959949493,0.4150564968585968,-1.5004104375839233,1.3514535427093506,-1.9303909540176392,-0.04167075827717781,3.0709049701690674,1.5834851264953613,0.5565590262413025,0.17285063862800598,0.6668815612792969,2.8977653980255127,0.18999598920345306,0.6726028919219971,-1.3802851438522339,-1.6222440004348755,0.3360569477081299,-4.113100528717041,3.0748190879821777,2.8873958587646484,-2.4587607383728027,-2.322713851928711,-0.16090822219848633,0.2821755111217499,0.5157828330993652,-1.190070629119873,-0.22706471383571625,0.3411703407764435,1.7916295528411865,0.9940072894096375,-0.638475239276886,-2.694798469543457,-0.789009153842926,0.12094160914421082,1.548801302909851,2.439373016357422,3.6642112731933594,-2.5824267864227295,-0.11584160476922989,2.4555716514587402,1.4209133386611938,-2.4920897483825684,1.2070497274398804,-3.644040584564209,-1.1628329753875732,0.9479447603225708,-0.7981662750244141,1.111714482307434,4.886585235595703,0.08084997534751892,0.6786437034606934,1.3929553031921387,-2.4900920391082764,-0.868349015712738,1.2670905590057373,-3.3504931926727295,3.586026191711426,0.28228330612182617,1.3814544677734375,-1.0081292390823364,2.187713384628296,-1.4976202249526978,0.6795921921730042,1.652166485786438,-2.1122705936431885,-3.5102579593658447,-3.275250196456909,3.708691358566284,-1.6029235124588013,2.1331043243408203,-5.472754955291748,1.2625386714935303,3.4021615982055664,3.221700429916382,1.7311533689498901,0.21086068451404572,-2.393730401992798,-1.4990531206130981,1.5763722658157349,2.7147669792175293,0.8135899901390076,1.267145037651062,0.7273301482200623,1.250320553779602,1.2446616888046265,-1.8282643556594849,2.2576770782470703,-1.2657350301742554,-0.11788303405046463,-1.6681833267211914,-0.5618647933006287,0.45782434940338135,0.7624393701553345,-0.7920616865158081,3.1686596870422363,-1.5615381002426147,-1.4161025285720825,-2.856881618499756,-1.7920423746109009,4.338509559631348,-4.16391658782959,-1.6642502546310425,-0.4968542158603668,-0.5699427127838135,-5.501210689544678,-1.559865117073059,0.4206140339374542,-1.879417061805725,-2.3070197105407715,1.9882991313934326,2.502197742462158,2.4572510719299316,2.022610664367676,-0.00997356791049242,0.6862422227859497,1.2043124437332153,0.3819389045238495,-1.5518732070922852,-2.4108808040618896,1.4201182126998901,0.1492176353931427,-0.5888634324073792,1.8652349710464478,-0.2910672724246979,0.5481026768684387,1.69115149974823,1.340469241142273,2.8686776161193848,0.01897524856030941,-0.11247890442609787,2.2397937774658203,0.7403663396835327,1.2004077434539795,0.4267643988132477,1.617967128753662,-0.22088001668453217,-1.222856879234314,4.5944647789001465,-2.16742205619812,1.1590332984924316,4.018184661865234,-1.3593859672546387,1.7880924940109253,-1.0840002298355103,-2.8970654010772705,0.7786349654197693,-2.4115116596221924,-1.355777382850647,2.07710337638855,-0.7840753197669983,-3.819301128387451,-3.0209801197052,1.7949469089508057,-0.5370356440544128,-0.5515024662017822,-1.4666723012924194,-0.06403438001871109,1.413586139678955,0.5060510635375977,-0.20739872753620148,5.353770732879639,-0.06471685320138931,-4.030588150024414,-0.5671306252479553,0.2852926254272461,-1.1418753862380981,-2.1122803688049316,0.7412025332450867,-1.9299784898757935,0.23075340688228607,2.1041698455810547,-3.6720762252807617,0.41812291741371155,0.4909225106239319,3.5589945316314697,-0.9475430250167847,-1.680189847946167,1.2216734886169434,-0.08161348849534988,-1.6222842931747437,-2.3244569301605225,0.13547353446483612,0.1381729692220688,-0.5180584192276001,1.430065393447876,-11.827988624572754,-1.5265215635299683,5.677771091461182,-8.337308883666992,-2.8078718185424805,-1.030714988708496,-1.9809762239456177,1.0061137676239014,-1.9350076913833618,-4.463611602783203,3.384153366088867,5.96552038192749,-4.971037864685059,-3.529961585998535,-2.3573272228240967,-4.56515645980835,-0.9679132699966431,0.6711642742156982,3.390835762023926,-2.1579246520996094,3.9847288131713867,-1.0736500024795532,7.254506587982178,3.3779149055480957,-4.063239097595215,-5.967366695404053,3.494640588760376,-0.23788005113601685,-5.741209983825684,1.9283134937286377,3.42073130607605,6.71061372756958,-2.8461148738861084,2.5176689624786377,-2.979112148284912,-1.74160635471344,3.413487434387207,1.5917540788650513,-0.21692109107971191,0.7605538964271545,3.1662683486938477,3.4686336517333984,-4.238484859466553,2.2623019218444824,-4.609073638916016,1.8283039331436157,2.6497063636779785,-0.28576087951660156,2.5581655502319336,8.288650512695312,2.204629898071289,-1.2235270738601685,-2.9439165592193604,4.145969390869141,0.5660611987113953,7.056744575500488,-9.968453407287598,0.4530409872531891,0.9787507653236389,-3.710179567337036,0.22996394336223602,-5.168147087097168,4.07025146484375,-1.1532851457595825,2.0208921432495117,-1.8060102462768555,-5.475216865539551,-11.193544387817383,-1.1815097332000732,-2.8973801136016846,-2.5498998165130615,1.5812627077102661,1.1457629203796387,1.065480351448059,1.403671383857727,-3.7284836769104004,6.559380054473877,-5.551776885986328,-2.501008987426758,-2.026264190673828,-4.393181324005127,5.848945617675781,-0.4939613342285156,3.6560556888580322,-0.630116879940033,-2.460155963897705,8.240800857543945,2.232250213623047,-0.6392374038696289,1.5692079067230225,-0.8771019577980042,-0.7698087096214294,-3.3302149772644043,1.2101608514785767,3.6500155925750732,5.9832587242126465,4.803143501281738,-1.5042848587036133,-0.10511334985494614,6.849898338317871,-2.123425006866455,1.0757261514663696,2.4996814727783203,-7.599011421203613,-0.5837129950523376,0.9158380627632141,-3.175593137741089,-2.2793266773223877,-1.7055002450942993,-2.492136240005493,0.8812417984008789,-1.5941474437713623,-5.698534965515137,-5.991387367248535,-2.7744863033294678,-2.053912401199341,-0.2987968921661377,-5.8104729652404785,3.1739108562469482,3.5626025199890137,-6.655317306518555,8.844964027404785,-1.4910200834274292,0.4373384714126587,0.5477643013000488,2.2833688259124756,-0.994210958480835,2.025146484375,-1.5488088130950928,-4.446325778961182,1.3238706588745117,-1.7053080797195435,-3.0837249755859375,0.3012927174568176,1.8117938041687012,0.8000755310058594,-0.7227948307991028,-0.695305585861206,2.1876349449157715,0.07338021695613861,2.9546544551849365,2.635277271270752,0.27022597193717957,-1.0860122442245483,-2.8508858680725098,3.8372726440429688,0.345514178276062,-3.3997373580932617,2.3621294498443604,0.7419808506965637,-0.21156492829322815,-0.8377792239189148,-1.0537562370300293,-0.30129221081733704,1.2203599214553833,-1.3396421670913696,-1.1870537996292114,0.2215438187122345,2.8006274700164795,0.6211388111114502,0.6866666674613953,1.329120397567749,-4.074334144592285,0.09385514259338379,2.3775124549865723,-2.266421318054199,-1.3333868980407715,5.603549957275391,2.0179736614227295,0.3924301862716675,-1.4201537370681763,0.47989946603775024,-2.426327705383301,-0.596602737903595,-1.829939842224121,-1.1326196193695068,-2.441671371459961,0.7540971636772156,-0.8080084323883057,-3.455787181854248,-2.8033087253570557,1.763749361038208,-3.181558847427368,3.3703038692474365,-0.44522538781166077,-2.5920729637145996,-1.750206470489502,1.04098641872406,5.055531024932861,-2.6072819232940674,-0.6380716562271118,0.27066418528556824,-0.9434745907783508,-1.6317882537841797,0.8545752763748169,-5.826443195343018,1.079052209854126,2.0875020027160645,-0.8676605224609375,6.9480671882629395,-4.058464527130127,3.546999931335449,-0.04469069093465805,4.587328910827637,3.430649995803833,1.4937152862548828,2.6268467903137207,-1.5814579725265503,2.5704402923583984,-0.8663635849952698,-1.202784538269043,1.966102123260498,-1.739819884300232,2.83378529548645,-0.15344153344631195,2.0128326416015625,0.04627438634634018,0.008886926807463169,-1.69947350025177,2.1038858890533447,-0.10379676520824432,0.48322343826293945,1.8677705526351929,1.3499709367752075,2.65860915184021,-0.9648404717445374,0.7678114771842957,-3.238959312438965,2.779667377471924,-0.8820279240608215,1.6968263387680054,1.3320724964141846,0.385847806930542,0.3402840197086334,-1.090003252029419,1.0964326858520508,3.5880823135375977,0.2264159619808197,2.432464599609375,2.9419891834259033,-6.009326457977295,0.6674589514732361,-0.2042279988527298,-1.9614105224609375,0.7735288739204407,-2.264768362045288,-4.948698043823242,1.2629849910736084,1.1259154081344604,-4.513062953948975,-4.589907646179199,2.4815266132354736,5.114681243896484,-2.941415309906006,-2.4615252017974854,-1.9594337940216064,0.863555908203125,1.9468895196914673,-3.990802526473999,1.1422923803329468,2.6372036933898926,-0.9445571303367615,1.3230384588241577,-2.907334566116333,4.428717136383057,0.2114352285861969,-1.9149861335754395,3.9397428035736084,-1.066501259803772,-4.386395454406738,1.656907081604004,-2.556971311569214,1.7060909271240234,3.931333303451538,-3.721918821334839,-1.8647674322128296,-2.5977988243103027,3.924626350402832,2.7361459732055664,-2.270927667617798,0.25546371936798096,-1.9164501428604126,1.428244948387146,-3.2532927989959717,-1.799500584602356,-0.2993122935295105,0.8104060888290405,-2.0396673679351807,-3.706791639328003,-0.4878479838371277,0.27889934182167053,1.4930347204208374,1.8351858854293823,-0.5342098474502563,1.0205745697021484,-4.841562747955322,1.53225576877594,-0.2701268494129181,1.0795025825500488,-3.1424014568328857,-2.1841907501220703,-2.717197895050049,-0.07045949995517731,1.7811968326568604,-4.11528205871582,0.11404792964458466,0.28984951972961426,-3.136845111846924,1.540135145187378,3.248814582824707,2.321833610534668,2.525575876235962,-1.278035044670105,-1.9791245460510254,2.509547710418701,0.743471086025238,2.8497111797332764,4.6553778648376465,-0.9532781839370728,-1.941401720046997,2.4955978393554688,-1.5364234447479248,0.9608823657035828,-1.8999605178833008,1.1170871257781982,-0.8033186197280884,2.9667701721191406,-0.25748080015182495,-1.5702617168426514,1.0747772455215454,1.4772348403930664,-3.1044259071350098,-1.5714774131774902,-6.315661907196045,0.7064602375030518,-1.624629020690918,-2.8011667728424072,1.1498712301254272,0.43630343675613403,-0.5805842280387878,-1.8137751817703247,1.294517159461975,-0.7443959712982178,-0.6709609031677246,-0.9532650113105774,-0.1018436923623085,-5.581750392913818,0.38919201493263245,-2.644911527633667,1.7196711301803589,-2.662522554397583,-4.053461074829102,-3.389711380004883,-1.156038522720337,-2.8217451572418213,1.6595993041992188,0.6580731868743896,-0.04657476395368576,4.16142463684082,-2.6275529861450195,-2.4191038608551025,-0.7451022863388062,-2.989457607269287,-0.8859288692474365,0.37654948234558105,2.0925590991973877,-0.08775082975625992,-0.2837536633014679,-0.9366134405136108,2.2739877700805664,-3.7025198936462402,-2.5522220134735107,3.051358461380005,-0.7030923366546631,2.7711496353149414,0.005115908104926348,1.2231532335281372,3.2570929527282715,-0.9045872092247009,2.713832378387451,6.539968490600586,-1.1539716720581055,-0.452852725982666,2.9771203994750977,-7.119658946990967,-4.549990653991699,-0.7131614685058594,-2.5711796283721924,-1.9907194375991821,-2.4999563694000244,-3.3588690757751465,2.452406883239746,-2.8600640296936035,-4.671071529388428,1.5242539644241333,1.933538556098938,6.574526309967041,-0.1668032705783844,-0.9145708680152893,1.6882139444351196,0.8531712889671326,0.22968648374080658,1.2524261474609375,2.123141050338745,-1.9911155700683594,1.2379150390625,-1.3160394430160522,-0.30124348402023315,-1.8652127981185913,2.6203298568725586,-2.084080934524536,-2.1543474197387695,0.8918510675430298,1.0871222019195557,-5.539488792419434,0.7393113374710083,4.680286407470703,-4.73802375793457,3.297739028930664,3.16107177734375,-1.8003473281860352,0.5869099497795105,-0.2838634252548218,-2.1344568729400635,-3.8427157402038574,-5.102666854858398,4.1338419914245605,2.7788195610046387,-2.652303695678711,-5.981520175933838,-3.514002561569214,-2.947392225265503,-0.2037300169467926,3.704390048980713,-2.7580819129943848,4.999602794647217,-5.428024768829346,-0.46822312474250793,4.678567409515381,2.390861988067627,3.4125816822052,2.0310800075531006,-0.7600854635238647,-5.433368682861328,4.020536422729492,5.185553073883057,1.48683762550354,-3.5241053104400635,3.5117716789245605,-1.8815360069274902,2.0216763019561768,-1.6628752946853638,-6.255207061767578,-2.0928220748901367,-2.857260227203369,1.3601173162460327,1.4364513158798218,-1.0129566192626953,-1.4065217971801758,-0.06525491923093796,-2.872483730316162,2.443605661392212,-2.254791021347046,0.9564541578292847,-2.002615213394165,-0.14211821556091309,0.9517701864242554,-4.104663848876953,1.981413722038269,-1.0114669799804688,-4.350453853607178,-2.137333869934082,-3.446763515472412,1.9411118030548096,-3.225294828414917,-1.9882190227508545,-0.43976059556007385,-2.3883492946624756,2.9785993099212646,1.2405449151992798,-5.763117790222168,2.169020891189575,3.3101918697357178,-5.786901473999023,-5.9981770515441895,2.7733304500579834,-2.1236207485198975,-3.176705837249756,2.569972276687622,-3.296128511428833,-0.7527580261230469,3.0383355617523193,-3.361168384552002,0.7914421558380127,-1.9740339517593384,4.000883102416992,4.26422643661499,2.4770798683166504,4.022208213806152,-3.611114025115967,6.473188877105713,2.217949390411377,1.5920002460479736,4.647790431976318,7.814334869384766,0.5944027900695801,5.708799839019775,1.343890905380249,-0.931965708732605,1.5550875663757324,-0.18175897002220154,-5.512091159820557,-3.02077054977417,-0.6154422760009766,0.3952139616012573,-1.7735135555267334,0.7024731040000916,-0.28124383091926575,-5.3099517822265625,-0.9411197900772095,2.078810453414917,2.9512953758239746,-0.7895809412002563,6.722866058349609,0.20474395155906677,5.355606555938721,-6.622992992401123,0.2538301348686218,-1.6689791679382324,-3.315153121948242,-5.17562198638916,1.3575608730316162,4.576952934265137,-3.355262279510498,4.469831466674805,-0.5809469223022461,8.872208595275879,-0.7455004453659058,3.482783317565918,4.116089344024658,-5.980814456939697,0.5904327630996704,-3.9589178562164307,0.9103654623031616,5.781984329223633,2.1268515586853027,0.8215650320053101,4.034689903259277,5.198668956756592,-0.35582584142684937,-2.7093727588653564,4.508402347564697,-2.049926519393921,-1.506579875946045,5.924297332763672,7.118073463439941,-3.865616798400879,1.6772350072860718,-1.5290236473083496,-2.6939890384674072,-1.071203351020813,-1.3197382688522339,2.5429346561431885,-2.113111972808838,1.140280842781067,0.5646432042121887,-0.627465546131134,-0.20648925006389618,0.6697303652763367,2.903611660003662,0.19247829914093018,0.15127022564411163,-0.6163511872291565,-0.7321832776069641,0.24878457188606262,3.8254926204681396,-1.7539401054382324,0.29827308654785156,-0.9131255745887756,0.8089013695716858,1.7273964881896973,-2.7092041969299316,-3.0136141777038574,-0.8330382108688354,0.3318069279193878,-1.1564265489578247,-1.513717770576477,0.1462096869945526,-0.9970730543136597,-2.667257308959961,3.2533416748046875,-1.4620729684829712,-1.4314831495285034,-1.1409533023834229,-1.8457752466201782,2.3946590423583984,1.4625403881072998,-0.9001930356025696,-1.044800043106079,-3.073746681213379,-0.02677994593977928,0.21716471016407013,-1.1273597478866577,-1.761826515197754,0.8183531165122986,0.4885168671607971,0.07545069605112076,0.7605605721473694,1.3136719465255737,-4.992506504058838,2.6140706539154053,-2.1800994873046875,-0.6720044016838074,1.7559609413146973,-3.2827847003936768,-0.06432247906923294,1.058267593383789,-0.2649976313114166,3.454214334487915,-1.0291192531585693,2.0142123699188232,-3.2084548473358154,-5.165364742279053,6.831074237823486,-0.19408291578292847,0.2512378990650177,-2.1305038928985596,-7.075857162475586,1.2570871114730835,1.850180983543396,2.161555290222168,-1.1652274131774902,-4.996880054473877,-2.5056076049804688,-3.9931552410125732,4.659149646759033,-2.4855284690856934,0.3744114339351654,2.0517115592956543,0.44661080837249756,-3.85786771774292,1.8338072299957275,2.989661693572998,4.776132583618164,2.1140248775482178,5.974043846130371,-8.338665008544922,-6.256750583648682,2.579941749572754,-0.29741793870925903,4.20735502243042,-2.502854824066162,3.292633533477783,0.3035561144351959,-1.1121693849563599,1.1347731351852417,-1.4371800422668457,2.690925359725952,2.632248640060425,1.2580782175064087,-5.499870300292969,7.946366310119629,-8.32598876953125,7.335537910461426,2.1315667629241943,0.5050475597381592,2.2293143272399902,1.339850664138794,-6.070240020751953,2.3054518699645996,1.9694141149520874,-3.039829730987549,-3.9384913444519043,-1.9195576906204224,-6.1031012535095215,1.899740219116211,-6.852329254150391,3.7365758419036865,-2.275540828704834,-6.157782554626465,6.0734686851501465,4.66122579574585,-0.9052786231040955,-3.1136415004730225,3.690279960632324,1.705417275428772,-2.021029233932495,-2.870943307876587,-1.8013163805007935,-0.28495126962661743,1.2616565227508545,0.2820942997932434,0.6151272654533386,1.4416704177856445,-0.12617599964141846,-0.36992347240448,-0.5470726490020752,1.9969398975372314,0.03434468060731888,1.4515615701675415,-3.0697813034057617,3.5466697216033936,-1.0846399068832397,0.7691299319267273,0.5574620962142944,-0.3172256052494049,1.451192855834961,2.026923179626465,0.26709815859794617,-3.3223624229431152,2.455124616622925,0.4754542410373688,5.203209400177002,0.5036868453025818,1.865799903869629,0.549345850944519,4.749006748199463,0.4714621603488922,-1.2917178869247437,5.597364902496338,-1.3872766494750977,1.4997341632843018,-0.021813848987221718,-2.5182199478149414,-4.659543991088867,4.237842082977295,2.49695086479187,-6.400125980377197,2.2438478469848633,0.9910730123519897,-1.668915033340454,-0.6806287169456482,1.3923025131225586,-1.0947967767715454,-0.675658106803894,-2.481045961380005,-0.8799685835838318,-1.5000051259994507,2.1749205589294434,0.05685482546687126,-0.7425404787063599,1.2991477251052856,1.8139450550079346,0.33834078907966614,0.1941833347082138,1.5512222051620483,0.2579377591609955,-0.08708211034536362,-0.5623185038566589,2.170067071914673,-0.9470243453979492,3.163855791091919,1.700721025466919,-0.5944226980209351,-2.3674299716949463,2.3722872734069824,-1.7854925394058228,-1.08043372631073,-1.9020124673843384,-3.883902072906494,0.5906241536140442,-1.6260309219360352,0.8656654953956604,-0.24945028126239777,3.0604357719421387,-1.5245091915130615,0.9268510937690735,1.9652208089828491,-0.6959990859031677,-1.5372815132141113,-0.9965072870254517,-0.3604797124862671,-3.0003442764282227,-0.3127734065055847,1.3848031759262085,1.2287265062332153,-0.7388672828674316,0.28768089413642883,-2.2620737552642822,0.5525360107421875,-2.1868770122528076,-2.052708625793457,2.010200023651123,-0.2692413032054901,0.5824810266494751,5.074045181274414,0.7620904445648193,-2.4612927436828613,-1.899465560913086,3.158839225769043,1.8983540534973145,1.5734269618988037,2.6248602867126465,2.4578773975372314,2.084965467453003,-0.10198696702718735,1.1866236925125122,1.2012964487075806,1.2244322299957275,2.974668264389038,0.61446613073349,-1.519505262374878,4.022887229919434,-5.571820259094238,-0.4485745429992676,0.9489753246307373,2.576842784881592,-0.5927964448928833,0.4776761531829834,-2.5099833011627197,-18.509273529052734,-11.282379150390625,1.6716173887252808,0.5037529468536377,3.6098132133483887,10.072259902954102,4.2983598709106445,-8.033499717712402,2.72041392326355,-13.936531066894531,8.340396881103516,0.6092795729637146,-2.329515218734741,0.1901312619447708,1.665101170539856,-3.733319044113159,-1.2179499864578247,1.4018521308898926,1.3145347833633423,3.058821201324463,13.958704948425293,-2.758641481399536,1.0993543863296509,3.452341079711914,5.492008686065674,-6.91122579574585,5.4409499168396,-4.129472732543945,7.628307819366455,4.310598373413086,4.845095634460449,-0.1822187900543213,-9.560254096984863,7.2554707527160645,-4.913026809692383,1.6153372526168823,-11.145180702209473,1.121070384979248,-5.792910099029541,-2.904318332672119,-3.490856885910034,-10.944086074829102,-2.664958953857422,10.043628692626953,3.025536060333252,-5.995718002319336,-5.782158374786377,-2.910353660583496,5.099010467529297,-2.0234012603759766,3.881754159927368,8.287211418151855,6.535909652709961,5.749722003936768,-4.913069725036621,11.967511177062988,-3.4279706478118896,-5.6211771965026855,1.5484920740127563,7.848969459533691,13.409504890441895,-1.4529786109924316,-4.4661760330200195,0.13179276883602142,13.476338386535645,1.9382580518722534,-5.395398139953613,1.2025587558746338,3.7452924251556396,1.5348303318023682,5.904220104217529,-0.9249634146690369,-5.6127610206604,-8.877278327941895,0.7038679718971252,4.199899196624756,6.767630577087402,13.118085861206055,12.834822654724121,-1.4061059951782227,-12.950950622558594,-2.5637834072113037,-9.582039833068848,-11.824625968933105,4.032984733581543,-19.469648361206055,-0.7985100746154785,1.4519575834274292,3.858135223388672,-4.12579345703125,-0.8741141557693481,-20.077016830444336,-11.52660846710205,-2.6100316047668457,-10.204856872558594,-0.11396661400794983,7.208510398864746,-9.409025192260742,2.0915820598602295,-2.3625152111053467,8.637598037719727,8.141841888427734,-13.635814666748047,-2.069457769393921,-6.067105770111084,1.573002576828003,-16.533527374267578,3.1666877269744873,-8.95801067352295,-6.901137828826904,-6.082389831542969,-9.247089385986328,4.491322040557861,-4.308243274688721,2.759807586669922,-4.285945415496826,-0.3156742453575134,-16.141380310058594,-4.758925437927246,4.961460590362549,1.3673681020736694,0.8110388517379761,0.2902856171131134,-1.065136432647705,-4.150130748748779,-0.13664695620536804,0.7942356467247009,-0.3928825259208679,0.8456498980522156,0.44088760018348694,1.4628762006759644,-2.5167481899261475,-0.7886211276054382,-1.139777421951294,-2.260899305343628,2.3097732067108154,-0.9516957402229309,-0.17511822283267975,-2.6903750896453857,1.567521095275879,-2.147716999053955,2.204899311065674,-0.579842746257782,-0.39581069350242615,0.6236446499824524,-0.9188138246536255,-0.9836266040802002,1.5893232822418213,1.5513328313827515,-3.898909330368042,3.258148670196533,-0.396207720041275,-2.4757301807403564,1.8977493047714233,-0.1037338376045227,-2.1936771869659424,-0.15100091695785522,-1.054965853691101,-2.553213596343994,4.1784162521362305,-0.233045294880867,0.9801915884017944,-1.9340580701828003,-1.1959161758422852,4.149840831756592,0.1789972484111786,-3.2652668952941895,0.18030835688114166,0.5169850587844849,-2.8691859245300293,-6.302979469299316,0.010106922127306461,-2.5766823291778564,0.9382656812667847,1.3649593591690063,-5.881477355957031,1.508504867553711,2.4130115509033203,-5.464046955108643,-0.4954395890235901,-4.146871566772461,1.9993910789489746,0.11716926842927933,9.106800079345703,0.5184620022773743,6.9416046142578125,-3.3088433742523193,4.608345031738281,6.053764343261719,-0.9388237595558167,1.9253277778625488,-0.6108272075653076,13.821057319641113,-2.7833762168884277,7.741028785705566,-5.935772895812988,3.4297618865966797,-0.4672899544239044,-10.325066566467285,-6.734055042266846,3.164405345916748,-20.604188919067383,-0.5447137355804443,3.3289084434509277,-12.095505714416504,1.5398614406585693,-5.66311502456665,-4.988655090332031,-1.9673336744308472,5.225900173187256,12.49953556060791,-6.301492691040039,-14.32325553894043,10.289224624633789,2.1504852771759033,3.0395560264587402,5.162351608276367,-17.470436096191406,10.38886833190918,0.1456644982099533,-0.7737074494361877,5.678831577301025,15.085535049438477,2.613057851791382,1.4795104265213013,7.318861484527588,-8.815659523010254,7.814932823181152,-1.6665494441986084,8.891313552856445,-2.062155246734619,-2.1599228382110596,-5.023815155029297,-4.588376998901367,0.8695235848426819,-4.925060749053955,-3.997720956802368,-0.3291914165019989,2.4931135177612305,7.831629276275635,5.566756725311279,11.451451301574707,-9.969743728637695,-1.0622806549072266,-0.4438755214214325,-1.819589376449585,1.312291145324707,-5.9761528968811035,-3.9550232887268066,1.0512642860412598,0.248163640499115,0.5407571792602539,1.1157662868499756,-4.304502487182617,1.1711691617965698,-1.3542782068252563,-0.5852464437484741,-2.1620848178863525,-5.186967372894287,0.6641072630882263,-2.0549771785736084,-0.5049832463264465,-1.4590226411819458,3.1911253929138184,0.15152300894260406,3.6544113159179688,0.5877444744110107,1.1947290897369385,4.399857997894287,-1.602213740348816,1.0725412368774414,1.8418978452682495,1.6835427284240723,-2.1825168132781982,1.6667745113372803,-0.0926721841096878,3.3030505180358887,1.778436541557312,-0.4066348969936371,4.916073322296143,0.8953661918640137,6.738492965698242,0.3116266429424286,1.6782413721084595,-0.6621643900871277,0.10927484184503555,-4.856971263885498,3.072807550430298,0.5353981256484985,-3.162186861038208,-2.9244375228881836,-3.027092933654785,-1.8014295101165771,0.35930806398391724,-0.48098689317703247,1.0775725841522217,1.0959638357162476,1.0700486898422241,0.6087081432342529,-2.0180251598358154,-2.0777416229248047,3.4855637550354004,-3.978402853012085,1.4824650287628174,0.8937986493110657,1.502160668373108,-1.2056478261947632,2.749974012374878,-1.3129642009735107,3.6256303787231445,2.6697726249694824,-2.9190661907196045,-1.6736804246902466,-2.8727378845214844,-0.7958973050117493,1.006971836090088,4.333468437194824,1.6040829420089722,3.393486261367798,-0.7522557973861694,0.7149314284324646,-4.493762969970703,-0.6848639845848083,3.9799935817718506,-2.2846291065216064,6.867753505706787,1.738196849822998,-0.4341239035129547,-0.16139069199562073,-0.8242848515510559,-2.2155725955963135,2.248762607574463,1.2111402750015259,-1.4529898166656494,3.7389543056488037,2.317298650741577,2.1481118202209473,-4.137757778167725,1.1256650686264038,-0.45421677827835083,4.021831512451172,4.0463175773620605,-2.5228281021118164,8.126957893371582,-4.514343738555908,0.25146082043647766,3.4329488277435303,-3.27897572517395,-1.192802906036377,0.7342092394828796,-0.9229539632797241,-7.904027462005615,-0.746479868888855,3.4591128826141357,-1.513179898262024,1.6411398649215698,-2.6883506774902344,-1.0946890115737915,-1.0570889711380005,-2.633016347885132,-3.925260543823242,-1.494369626045227,-1.2630321979522705,-0.18372830748558044,-0.25388985872268677,3.2432432174682617,-0.7976862192153931,2.6409435272216797,-2.5886898040771484,-0.7134587168693542,4.05759334564209,-4.074008464813232,3.7788479328155518,11.072623252868652,-0.9797857403755188,4.690629005432129,-0.5872836112976074,-3.2781522274017334,-7.672556400299072,9.613116264343262,-3.778820276260376,0.7537639141082764,7.846097946166992,-7.624712944030762,-0.7592794299125671,-5.412009239196777,0.5046188831329346,-6.374979019165039,3.3396506309509277,-7.699049949645996,3.7471439838409424,7.660159587860107,-5.9064459800720215,-4.008809566497803,2.4849579334259033,0.7506888508796692,-9.12242603302002,4.908693790435791,-4.037876129150391,11.318329811096191,2.9674346446990967,6.920513153076172,-11.56096076965332,1.658656120300293,-3.0405702590942383,-6.86000394821167,0.6795397400856018,-3.1231701374053955,-0.8006129264831543,15.618216514587402,1.1713011264801025,-5.141517162322998,0.4604331851005554,3.651341676712036,3.046234130859375,4.997464656829834,5.400835037231445,2.620175838470459,3.807986259460449,0.32847902178764343,4.136202812194824,-2.0995116233825684,-0.3603065013885498,-1.1479313373565674,-4.810930252075195,-1.9603272676467896,8.604273796081543,-3.621598482131958,-3.593595504760742,1.5162321329116821,-0.23047657310962677,0.28593558073043823,-2.1964211463928223,0.18714077770709991,0.795211911201477,-1.175169825553894,2.1527483463287354,-4.931629180908203,-4.724810600280762,-0.7065846920013428,-1.3216891288757324,2.9828040599823,2.4734740257263184,1.7484151124954224,-3.118130683898926,-4.59104061126709,3.9118340015411377,1.0811141729354858,3.4216182231903076,-0.6042253971099854,-3.414820671081543,0.9849036931991577,1.3502556085586548,-1.7779864072799683,-5.578484058380127,3.8909263610839844,0.5775426626205444,1.2432795763015747,2.8998167514801025,-0.24777674674987793,-2.676837921142578,-0.5650057792663574,3.5564818382263184,-0.6047263145446777,-5.934973239898682,-3.7356045246124268,-1.1334726810455322,-2.506730079650879,-2.075770854949951,0.41226863861083984,-0.009675133973360062,1.697081446647644,4.437881946563721,-1.1064757108688354,1.5905377864837646,1.670866847038269,2.7521562576293945,4.768112659454346,0.9031423330307007,1.6028730869293213,2.7031915187835693,-2.442547559738159,0.5816627144813538,1.5360256433486938,2.179609775543213,-0.776472806930542,1.0048918724060059,0.2933025658130646,0.8455219268798828,-1.8724831342697144,4.186258792877197,-4.520596504211426,-0.9525752663612366,-1.864333152770996,0.28337788581848145,-0.7094955444335938,1.6777769327163696,2.0115551948547363,-2.15273118019104,0.3303915560245514,-2.634093999862671,-0.7323132157325745,1.6388686895370483,2.6860430240631104,-0.889413058757782,1.6504430770874023,0.09965741634368896,-3.6295595169067383,1.020975112915039,0.9097025990486145,3.1604421138763428,-0.15794382989406586,2.728666305541992,-0.31198495626449585,3.495884895324707,-1.033235788345337,-3.9997875690460205,3.5661017894744873,-1.8382796049118042,-0.5832574367523193,-2.684216022491455,4.987286567687988,-0.9915026426315308,-2.1314902305603027,3.1047701835632324,-0.7832627892494202,-1.816103219985962,-2.2933108806610107,1.4382662773132324,-1.3052836656570435,0.8584361672401428,-6.041210174560547,-0.224333718419075,-1.5766825675964355,3.1355504989624023,-2.0726239681243896,0.2970392107963562,-0.2123727798461914,0.31166577339172363,2.7848846912384033,1.8747748136520386,-1.6180245876312256,3.51385498046875,3.316465377807617,2.000842332839966,1.4533203840255737,-5.475175857543945,0.6039636731147766,-3.380676507949829,-1.825317144393921,4.490330219268799,-4.1530680656433105,3.72434663772583,-2.9820685386657715,6.257817268371582,-7.035153388977051,14.539657592773438,8.058573722839355,8.055816650390625,-3.937716245651245,-5.456111907958984,-4.420060157775879,-4.945578098297119,7.95499849319458,6.464034557342529,0.041269201785326004,1.6396948099136353,-3.059671401977539,-6.619475841522217,2.2900569438934326,-1.8686968088150024,7.233394145965576,-3.3985095024108887,8.935981750488281,-1.4223254919052124,-0.1603887528181076,6.417693614959717,-4.692910671234131,7.151329517364502,5.186859607696533,4.9598188400268555,-3.9229001998901367,3.1561665534973145,-2.7597994804382324,5.565436363220215,-2.668325424194336,-0.20222897827625275,5.344010353088379,5.595651626586914,-7.2416672706604,-7.546844005584717,7.837941646575928,-7.84722900390625,0.6553493738174438,3.040156126022339,-13.373065948486328,-11.706379890441895,5.221096515655518,-3.1341898441314697,-6.178710460662842,2.723879337310791,4.435985565185547,-12.166659355163574,-7.06725549697876,-3.0528767108917236,12.928778648376465,3.004085063934326,-4.496737957000732,2.3720040321350098,-7.761549472808838,6.582209587097168,-6.819536209106445,-3.776181936264038,4.9939775466918945,5.264307022094727,7.572852611541748,-0.9265477061271667,-2.137868881225586,-0.9886616468429565,-1.542211890220642,6.91057825088501,-2.2639849185943604,3.3389246463775635,0.9807031154632568,-8.264524459838867,6.321980953216553,2.8226675987243652,0.5045958161354065,-3.2538723945617676,1.959607481956482,-3.419461488723755,-1.0768905878067017,-3.613046407699585,5.236600399017334,1.9641120433807373,-1.7564159631729126,-2.584242582321167,-1.0730793476104736,-7.035928249359131,-1.74455726146698,-0.35698622465133667,-1.4271823167800903,2.3956139087677,5.380204200744629,0.2702239155769348,1.7550365924835205,-4.492934226989746,-0.5175143480300903,10.35254192352295,-2.9158520698547363,-8.6347017288208,-2.563685178756714,2.432149648666382,2.82951021194458,0.9689759612083435,-9.875391960144043,7.113654613494873,6.639065265655518,6.545022964477539,8.426474571228027,4.523725986480713,-2.6510815620422363,7.159235954284668,10.747925758361816,-3.502521276473999,-1.342305302619934,3.931922197341919,-4.5945515632629395,3.2486627101898193,6.555269241333008,-10.254602432250977,7.737192153930664,-9.491966247558594,-1.7477080821990967,1.3399022817611694,-1.8481863737106323,5.139688968658447,-1.268132209777832,-2.6789937019348145,-0.23869895935058594,0.9512374401092529,7.019577980041504,12.9957275390625,1.2880300283432007,10.196043968200684,-2.4003734588623047,5.464929103851318,-1.053697109222412,2.266876459121704,6.926674842834473,-2.6727867126464844,4.306275844573975,-1.1704639196395874,6.27717399597168,8.026712417602539,-1.3240679502487183,2.7424368858337402,7.117461204528809,-0.1250416487455368,-0.5238624811172485,-4.779188632965088,-5.1131110191345215,-3.505417585372925,1.0411649942398071,-4.126871109008789,-1.4593420028686523,-4.492882251739502,9.896369934082031,5.761392116546631,-3.095186948776245,-6.950090408325195,4.9784464836120605,-8.248331069946289,-2.718343496322632,1.0258601903915405,3.5483758449554443,7.182424545288086,-8.840179443359375,-1.922330379486084,-1.0924429893493652,4.2971320152282715,5.81427001953125,9.804993629455566,-3.0757548809051514,1.815091848373413,7.429040908813477,-8.486066818237305,2.4748919010162354,6.467679023742676,0.36355745792388916,-0.2148980051279068,-2.182778835296631,-0.24575643241405487,3.5118494033813477,-7.698464870452881,-11.904718399047852,7.123191833496094,-6.9139556884765625,-1.278463363647461,-1.5566571950912476,5.6924920082092285,-16.16095542907715,0.8508523106575012,0.5419408082962036,-0.8529722690582275,-6.2233381271362305,-3.0240349769592285,-2.3616623878479004,3.104679822921753,-0.8703457713127136,-0.8359947800636292,4.780700206756592,-2.3413503170013428,-12.421607971191406,10.603775024414062,8.585662841796875,9.026217460632324,12.412703514099121,-4.22473669052124,2.987539768218994,-2.464430093765259,3.398253917694092,6.940471649169922,-7.83872127532959,5.246621131896973,10.964410781860352,-17.45269203186035,7.964018821716309,0.4089343249797821,1.062238335609436,-1.4436876773834229,0.03356845676898956,2.685988664627075,2.005398750305176,-0.6091736555099487,6.387775421142578,1.2319039106369019,9.297223091125488,0.059628069400787354,-8.779411315917969,-5.882781028747559,-5.270617961883545,-12.400440216064453,-0.21584394574165344,-0.3526704013347626,-1.7608572244644165,-2.2217557430267334,-3.3989853858947754,2.300518035888672,3.807823657989502,-0.6651533842086792,-0.42637187242507935,6.150056838989258,-4.548367023468018,-2.6331186294555664,-2.829821825027466,0.22299633920192719,0.010721310041844845,0.25462549924850464,4.232946395874023,12.03796100616455,-3.8202271461486816,0.8020960688591003,7.521786212921143,7.312491416931152,-1.3879905939102173,8.05963134765625,5.9583635330200195,-4.3841423988342285,-7.968822956085205,5.532591342926025,-8.272011756896973,-2.6473240852355957,2.6621456146240234,0.24297946691513062,2.5694689750671387,-12.33215618133545,6.5464630126953125,-2.8115415573120117,3.2425761222839355,-7.660261631011963,4.128537654876709,4.459325313568115,-6.231546878814697,3.10956072807312,1.6069509983062744,1.219797134399414,5.085168838500977,-2.415562391281128,2.8348681926727295,4.577497482299805,-1.7708274126052856,-3.8496575355529785,-2.104302406311035,-4.677470684051514,14.225951194763184,-0.9373832941055298,-6.839537620544434,16.789554595947266,4.390408992767334,1.7435691356658936,-3.489774465560913,11.128442764282227,5.964478969573975,5.102023124694824,5.455611705780029,6.970530033111572,3.9502408504486084,-2.5015389919281006,-1.016273021697998,-0.973899245262146,8.199182510375977,6.687211036682129,7.7734785079956055,4.63839864730835,-2.1497421264648438,-5.105578422546387,2.9094793796539307,-2.9844653606414795,0.13088321685791016,0.527794599533081,-0.8855948448181152,-2.2458620071411133,10.856459617614746,0.5011681318283081,9.42014217376709,3.25423264503479,1.3300485610961914,-2.4185123443603516,-2.908445119857788,-3.6262099742889404,-3.0079779624938965,-14.211637496948242,-8.66003704071045,-6.704740524291992,0.034504782408475876,3.1723575592041016,-3.068640947341919,7.740645408630371,3.9529974460601807,5.9431962966918945,4.665754795074463,-1.6233643293380737,0.06877653300762177,9.865473747253418,-0.8935116529464722,8.83596420288086,-1.9586158990859985,-8.878233909606934,-5.389982223510742,-8.31429672241211,-9.606460571289062,-4.975105285644531,-10.5318021774292,0.8786125779151917,8.518425941467285,8.693659782409668,-10.486788749694824,-3.5400917530059814,-17.298263549804688,-10.961620330810547,3.8996427059173584,-6.809143543243408,7.595950126647949,-2.8925528526306152,-2.238557815551758,-4.016047477722168,1.8361235857009888,3.8614706993103027,-0.2131032943725586,-6.343320369720459,-0.8814455270767212,8.405756950378418,-5.686497211456299,-2.21683406829834,13.165334701538086,-10.377640724182129,-1.9318429231643677,18.916715621948242,-10.07769775390625,7.79592227935791,3.4530506134033203,-7.779994964599609,3.6304352283477783,-12.693985939025879,-6.016202926635742,3.0990607738494873,-4.773792743682861,-9.928079605102539,-1.2906215190887451,2.319054365158081,1.985835075378418,12.25732421875,-8.099639892578125,6.5134382247924805,9.888389587402344,-1.5286705493927002,-2.0408835411071777,-4.419558525085449,2.508688449859619,-9.01736831665039,3.4442152976989746,6.2179131507873535,-5.425654411315918,-1.665076494216919,-2.062504768371582,-5.483999252319336,-1.2181012630462646,-0.9435380697250366,8.027339935302734,8.418821334838867,10.755647659301758,-8.81929874420166,-3.206700563430786,5.428311824798584,7.762911796569824,7.457808494567871,-8.585898399353027,-5.474632263183594,-7.279953479766846,-11.155808448791504,2.01261043548584,-0.804248034954071,0.857314944267273,-14.35004997253418,-4.746649742126465,1.5267714262008667,1.996394395828247,-3.9104790687561035,5.824112892150879,5.03496789932251,-6.189805507659912,15.742602348327637,5.875359058380127,-12.6933012008667,1.9345859289169312,3.5028493404388428,-3.52095103263855,2.3492989540100098,4.989130020141602,-4.877638816833496,0.09161818027496338,-10.737062454223633,11.932255744934082,-5.879597187042236,-4.172943115234375,8.678638458251953,-6.685937404632568,1.6014529466629028,15.374991416931152,2.1689836978912354,3.690072774887085,3.4813945293426514,10.36548137664795,-5.4385247230529785,-1.9881433248519897,3.9257917404174805,0.10908570885658264,-12.73585319519043,-5.734926700592041,2.879394769668579,-4.211301326751709,5.60396146774292,-1.1941622495651245,5.126291751861572,4.395991325378418,-2.5860612392425537,2.89347505569458,-4.419332027435303,-2.696115016937256,9.13222599029541,-1.96511971950531,7.4027099609375,0.9875303506851196,-5.492916584014893,-1.023321270942688,-1.8244775533676147,3.187972068786621,9.305670738220215,3.950943946838379,-6.911545753479004,-2.617835283279419,4.234681606292725,3.270533800125122,3.7862296104431152,-1.9590603113174438,-1.2644922733306885,3.878918170928955,-7.639143943786621,-3.578129529953003,-9.510971069335938,-4.861183166503906,3.543543577194214,4.052003383636475,-1.16697359085083,-7.1869282722473145,7.479976177215576,-6.429083824157715,-8.575409889221191,17.278194427490234,-2.8269400596618652,-0.7934014201164246,8.45755386352539,-7.287407398223877,-4.182516098022461,-1.7172433137893677,-1.5584465265274048,-5.3748884201049805,-7.742432594299316,3.4747588634490967,3.9166951179504395,10.709606170654297,-2.19711971282959,1.8461159467697144,3.9604272842407227,-8.148761749267578,-3.4140071868896484,5.108485221862793,-9.226731300354004,-2.8986613750457764,6.940208435058594,4.132948875427246,3.003592014312744,-12.349431991577148,-4.395476341247559,-9.022083282470703,3.73520565032959,-5.871573448181152,-1.7527248859405518,-3.8672189712524414,-0.17403273284435272,6.505867958068848,-1.741215705871582,-9.096495628356934,1.7671172618865967,4.911637306213379,4.954310894012451,-0.3463590741157532,-0.08494601398706436,-5.030334949493408,-6.172016143798828,-4.272052764892578,-4.7948079109191895,-4.509305953979492,4.565979480743408,-3.3597710132598877,-9.950996398925781,-7.101406097412109,-9.892293930053711,7.361240386962891,-0.5574403405189514,-1.9194295406341553,1.7343072891235352,-1.2500579357147217,12.062416076660156,10.695170402526855,-1.2325936555862427,-9.822907447814941,6.653987407684326,-2.672942876815796,-7.375595569610596,8.57718276977539,-4.897416114807129,-10.163390159606934,8.46827220916748,-7.10065221786499,3.4568393230438232,5.050956726074219,-0.48530229926109314,-3.50374698638916,-10.822279930114746,4.005243301391602,-3.805225372314453,-4.300839424133301,-2.5879549980163574,-3.3154170513153076,1.5188771486282349,-0.1434139907360077,-1.2337396144866943,-0.1969880610704422,5.802247047424316,2.7638144493103027,4.4748005867004395,3.184753179550171,3.3696751594543457,-0.9814502596855164,-1.6413943767547607,4.822071075439453,10.14075756072998,11.459148406982422,-13.294998168945312,6.9383063316345215,-6.470266819000244,0.24402955174446106,11.1687650680542,-11.404336929321289,-2.7998058795928955,8.852381706237793,-3.6664438247680664,0.15060044825077057,-1.6251401901245117,4.284736633300781,5.737350940704346,-7.873937129974365,-7.301120758056641,-4.637857437133789,-0.4676178991794586,-1.7564929723739624,5.987697601318359,8.46853256225586,-3.5492444038391113,1.6754612922668457,4.8751606941223145,-6.807654857635498,-8.443459510803223,-0.5434219837188721,6.9390692710876465,-8.781609535217285,-4.512059688568115,1.1841245889663696,1.1133232116699219,0.9163066148757935,1.675439476966858,3.235708475112915,-7.651138782501221,-7.929109573364258,-5.5538859367370605,1.6130256652832031,-13.324339866638184,-6.115055561065674,3.203239679336548,4.611494541168213,11.845157623291016,-4.489475727081299,-1.2437500953674316,5.304234504699707,1.056932806968689,1.5454691648483276,2.502931833267212,2.3139262199401855,0.1805197149515152,2.810196876525879,-4.237531661987305,-0.9899266362190247,-9.352076530456543,2.1740922927856445,-6.930994510650635,1.7704252004623413,8.047358512878418,-0.7413328289985657,-1.6073729991912842,-7.1841840744018555,-7.049368858337402,-10.144200325012207,-0.7583014965057373,-2.5191149711608887,-10.22629451751709,1.5979379415512085,-1.2261977195739746,-4.919596195220947,1.7283015251159668,-0.9243029952049255,-10.470434188842773,3.0293874740600586,-1.706478238105774,5.372073650360107,-5.780680179595947,1.434546947479248,-7.721303462982178,1.7561196088790894,-0.4031389653682709,-9.018670082092285,2.6038691997528076,1.4083423614501953,1.1298385858535767,8.667170524597168,0.8891857862472534,-1.2283059358596802,4.249353408813477,5.548160076141357,1.6719152927398682,5.619477272033691,6.654186248779297,1.7460663318634033,0.4560739994049072,-0.3781796097755432,-4.793128967285156,-5.602119445800781,8.621213912963867,4.265644550323486,-6.337462425231934,-3.152161121368408,6.049076557159424,0.7799318432807922,-4.472273826599121,1.5443038940429688,-4.342672348022461,0.9404464364051819,10.855039596557617,0.8468149900436401,3.1177995204925537,-0.15365242958068848,-0.4580473303794861,-1.3754909038543701,-0.2777716815471649,-12.382378578186035,-17.586009979248047,5.181999206542969,-2.1145224571228027,7.747395992279053,-6.319475173950195,0.9464327096939087,-2.9340291023254395,5.400786876678467,2.1708712577819824,-7.030739784240723,-2.100919008255005,-0.286936491727829,-5.776831150054932,-2.603773355484009,0.8780877590179443,-2.21614670753479,-7.7422332763671875,3.758841037750244,-7.3696112632751465,4.648874759674072,-2.089818000793457,8.761359214782715,-3.566946506500244,-4.903905391693115,-12.077723503112793,0.2661282420158386,6.5954766273498535,-2.7181570529937744,-1.3660099506378174,-2.0319840908050537,0.26091015338897705,10.973482131958008,4.234085559844971,3.5685360431671143,7.296716690063477,9.597172737121582,9.242621421813965,-3.9578144550323486,7.091946601867676,8.300518035888672,13.94274616241455,0.9185718297958374,-6.796151161193848,12.503837585449219,-8.882219314575195,3.379103660583496,-6.670334339141846,-7.669729232788086,8.285852432250977,-6.9386491775512695,0.1485617607831955,3.3290369510650635,9.113131523132324,4.1813554763793945,3.863828659057617,-2.4961109161376953,1.93491792678833,-9.053239822387695,6.17778205871582,-1.891610860824585,1.9918686151504517,15.164600372314453,8.006564140319824,-4.076834201812744,2.43949818611145,-1.2106422185897827,-4.280559062957764,0.11417196691036224,0.31931084394454956,-3.4427568912506104,-0.3408181965351105,9.164620399475098,8.895060539245605,2.610607147216797,-5.49750280380249,-1.0592012405395508,10.001834869384766,3.6217143535614014,3.369230270385742,1.9477360248565674,5.599902629852295,-1.8193761110305786,2.7293574810028076,-4.786071300506592,-4.544643402099609,-1.562454104423523,8.525262832641602,-0.8389861583709717,-2.5664236545562744,7.347979545593262,-0.10437370091676712,-7.477434158325195,16.475494384765625,-9.105484008789062,1.9169538021087646,-1.8149962425231934,-0.5307419896125793,-2.1976542472839355,-6.9934821128845215,-1.0549132823944092,3.8146374225616455,-6.948500156402588,-4.154557228088379,-2.6990644931793213,3.0438668727874756,2.3324596881866455,-6.233706474304199,-7.504887104034424,13.237128257751465,-3.4808757305145264,-4.9982380867004395,7.14000940322876,-0.17711679637432098,2.8693201541900635,-7.7108354568481445,2.7240805625915527,3.730443000793457,-6.21411657333374,-7.113509654998779,-6.3800435066223145,-7.3735551834106445,-0.17705689370632172,3.683976650238037,-8.284201622009277,-1.3690855503082275,8.618707656860352,-10.071370124816895,-0.6198354959487915,-7.70533561706543,7.1208953857421875,7.425165176391602,-2.1148879528045654,10.770724296569824,-11.96469497680664,-2.1061079502105713,2.5422635078430176,9.97067928314209,-4.799751281738281,-3.7473244667053223,-6.00205135345459,-3.9894073009490967,-3.4114580154418945,-3.6587510108947754,-1.995018720626831,-2.7669730186462402,12.787503242492676,0.986491322517395,-5.007560729980469,3.4380717277526855,6.565206527709961,-0.7517982721328735,-6.551010608673096,-8.777599334716797,5.081640243530273,-5.665661811828613,2.839376211166382,-2.038769245147705,8.363581657409668,11.996150970458984,-5.328975677490234,9.90808391571045,2.351525068283081,-0.1076897382736206,2.789412021636963,-3.453880786895752,-7.461582183837891,-1.9926108121871948,5.593321323394775,-3.3484604358673096,1.876542329788208,-10.434611320495605,1.479800820350647,1.2012455463409424,-2.591262102127075,-6.632072925567627,-3.5343146324157715,-10.149149894714355,3.065788984298706,6.146034240722656,-7.159444808959961,-1.6651513576507568,4.6789326667785645,-3.908383369445801,2.642815351486206,-3.703958034515381,-6.768939018249512,-7.438352584838867,2.962322235107422,-7.939983367919922,5.099064826965332,-7.0585527420043945,1.1987372636795044,-2.042447328567505,-3.0563812255859375,-1.501850962638855,-1.1664071083068848,-2.242084264755249,-0.8397222757339478,-5.032350063323975,3.5801920890808105,1.7647873163223267,-2.445161819458008,7.297916412353516,5.487354278564453,-7.16448450088501,2.0270092487335205,-5.085045337677002,0.06645825505256653,0.7470350861549377,9.50760555267334,-4.640721797943115,2.1077804565429688,5.032183647155762,-2.4746639728546143,1.641249656677246,5.181128978729248,-0.3082657754421234,8.267535209655762,0.5222890377044678,-1.3948712348937988,0.5260476469993591,3.265279531478882,1.5030186176300049,3.8753087520599365,1.3208268880844116,0.8302980065345764,3.182196855545044,0.5913442373275757,13.932028770446777,1.4025222063064575,-3.643357038497925,1.8344779014587402,-0.7381747961044312,2.386791706085205,2.96357798576355,0.49345579743385315,-4.6268792152404785,1.7533514499664307,-4.705722808837891,1.6049866676330566,-1.232166051864624,-2.48260498046875,-2.3105859756469727,2.9615085124969482,-1.3779778480529785,-1.805893063545227,-3.0481529235839844,-7.223160266876221,-5.1115312576293945,3.349571943283081,-10.79079532623291,0.9951198101043701,-2.076000452041626,-0.5345225930213928,1.5807327032089233,-2.3121235370635986,-0.0775914415717125,-3.7523670196533203,2.6526243686676025,-2.8035075664520264,-2.67012882232666,5.765317916870117,-5.934455871582031,-7.00793981552124,7.239482879638672,3.588184356689453,-1.72916841506958,0.7227372527122498,-2.140904664993286,1.3711752891540527,4.471030235290527,6.031498908996582,-8.251303672790527,-3.1304731369018555,1.6881184577941895,-0.8391063809394836,-0.8706405162811279,-2.1716768741607666,1.0179907083511353,6.016610145568848,-3.259284496307373,-3.818723440170288,-1.5409718751907349,0.9423279166221619,-4.682592391967773,7.452664375305176,-2.2065508365631104,1.7229459285736084,3.4868040084838867,0.23583249747753143,5.164495468139648,2.0608420372009277,1.1828689575195312,2.9860715866088867,-9.018528938293457,-2.9818148612976074,6.865926265716553,-5.000143527984619,2.3055992126464844,-2.144521951675415,0.48270055651664734,-8.313947677612305,-6.612978935241699,-2.3537700176239014,1.2586919069290161,-1.0583562850952148,0.3150421679019928,3.401499032974243,-13.00865650177002,12.079751014709473,7.157970905303955,8.164312362670898,2.1598775386810303,-6.8667683601379395,8.181344985961914,5.377834320068359,-8.103238105773926,9.008875846862793,-5.269845008850098,12.145881652832031,-12.920493125915527,-11.022746086120605,3.368755340576172,-5.783719062805176,-5.917770862579346,-4.8791584968566895,9.89351749420166,-5.223235607147217,10.252532958984375,-3.785588502883911,8.837593078613281,0.3642847537994385,7.1711249351501465,-0.7079687714576721,3.664424180984497,-4.697207450866699,-3.485976219177246,2.481752395629883,-1.124403715133667,-3.9459216594696045,3.3766045570373535,0.04834459722042084,-0.738910973072052,-2.1559975147247314,4.331852912902832,-9.727973937988281,3.6661572456359863,-6.103084087371826,-4.447078227996826,-0.311275452375412,2.4845831394195557,-4.6859965324401855,-3.427706480026245,-20.404417037963867,3.4259743690490723,1.8763521909713745,1.821985125541687,-9.540719985961914,3.941615581512451,3.633059024810791,5.125411510467529,-1.542804479598999,2.3165533542633057,-0.406916081905365,2.605839490890503,0.9987027049064636,2.3998823165893555,2.5593485832214355,0.37873226404190063,1.1190249919891357,3.913970470428467,2.985532522201538,-0.7415740489959717,0.11371061205863953,-0.4321978688240051,0.41010916233062744,-0.5005143880844116,0.6489980816841125,2.5810060501098633,-0.9117298722267151,3.383800745010376,1.0160298347473145,-0.876573383808136,-2.1895339488983154,0.01647397316992283,-0.07718700915575027,-0.6149176955223083,1.4467657804489136,-1.7040698528289795,-3.126819372177124,-1.6912428140640259,1.956956148147583,2.2769782543182373,-0.966897189617157,-3.211138963699341,-2.7521183490753174,-1.3335942029953003,2.6877405643463135,-0.9600839614868164,-0.29382917284965515,-1.3237053155899048,-0.7575244307518005,-1.2779442071914673,-2.127471685409546,-0.46044695377349854,-0.7586618661880493,1.087500810623169,-0.391439825296402,4.34144926071167,-1.9713363647460938,-0.4710257351398468,-0.4943123757839203,0.9922764301300049,0.20758777856826782,-2.4813244342803955,1.2076421976089478,1.0678157806396484,0.9370074272155762,-0.9660086035728455,-2.5193707942962646,-0.0017425068654119968,-2.3023438453674316,-0.5629974007606506,-1.4979344606399536,-0.594444751739502,1.0516736507415771,0.5137168169021606,-1.8266522884368896,-2.4443416595458984,-3.866356372833252,1.4484479427337646,1.0345102548599243,-1.8025093078613281,0.9950868487358093,3.5480825901031494,0.658684253692627,0.3248802125453949,-0.2154969424009323,3.9996132850646973,-0.45930343866348267,1.439978837966919,-1.0181972980499268,-5.512535095214844,2.3546228408813477,-2.1643757820129395,0.9973642826080322,3.1585915088653564,-0.4516215920448303,-0.6684285998344421,-1.351911187171936,-0.34204721450805664,-2.3311123847961426,0.2550579011440277,-1.1313064098358154,1.6229184865951538,0.4449354410171509,-1.6353325843811035,1.2554782629013062,4.458704948425293,-1.436183214187622,-0.7291487455368042,1.2216755151748657,-2.7523648738861084,1.6310429573059082,0.24870693683624268,0.9177533984184265,-1.1166267395019531,-1.9202858209609985,0.5730896592140198,-0.027919951826334,-0.9783055186271667,0.7543041110038757,0.44958430528640747,0.6432091593742371,-1.4709562063217163,-0.7412574887275696,-3.817279815673828,-2.6673436164855957,1.6738954782485962,2.446620225906372,-1.9823472499847412,1.556880235671997,-2.7851955890655518,1.8073170185089111,-1.321876883506775,2.152634620666504,0.018650628626346588,-0.005116959568113089,0.042522042989730835,-0.0380617193877697,0.0440203994512558,-0.024324757978320122,0.009337670169770718,-0.01607070490717888,0.0022274067159742117,-0.04942259564995766,-0.028863709419965744,-0.018800249323248863,0.02604527771472931,-0.02581099048256874,-0.000994476256892085,0.008645043708384037,0.03174557536840439,-0.029687512665987015,-0.04173511266708374,0.03125631809234619,-0.04232993721961975,0.024488819763064384,-0.022819191217422485,0.014004629105329514,0.02666419930756092,-0.03955001011490822,0.025816122069954872,-0.025113575160503387,-0.04037212207913399,0.03219453990459442,0.005329044070094824,0.025818664580583572,-0.04858966916799545,0.029702452942728996,-0.041034042835235596,-0.006256286054849625,-0.0076880245469510555,-0.03709344193339348,0.01459616981446743,-0.04550566524267197,0.014799850061535835,0.007325281389057636,0.01183035783469677,0.022410856559872627,-0.004181829746812582,0.03131735324859619,-0.010357613675296307,-0.039841532707214355,0.018739694729447365,-0.025924906134605408,0.011984319426119328,-0.030625969171524048,0.027118070051074028,-0.04639207944273949,-0.031089583411812782,-0.03405800089240074,0.05051289498806,-0.012241960503160954,0.0017855301266536117,0.02759842947125435,0.040256693959236145,-0.04142632335424423]},"hiddenLayers":[{"inputMatrix":{"rows":20,"columns":62,"weights":[-0.25438934564590454,-2.042795181274414,2.122860908508301,0.16955186426639557,3.259321928024292,1.6690443754196167,-1.4624592065811157,-0.6496270895004272,1.7363126277923584,-0.8844398260116577,-0.7724058628082275,2.56406569480896,-2.2608489990234375,1.7708510160446167,-1.0059959888458252,1.583855152130127,-0.45331987738609314,0.1844635307788849,0.8909361362457275,2.7903084754943848,0.443052738904953,-1.7634916305541992,0.04161684587597847,-0.07794260233640671,1.121553897857666,1.136090874671936,-1.0198465585708618,-1.8821508884429932,-0.4285002648830414,1.1817713975906372,1.1435927152633667,-0.8996642827987671,-0.8836206793785095,-0.4164679944515228,-0.603220522403717,1.2548072338104248,0.22703927755355835,0.14243386685848236,-0.638343334197998,-1.6409366130828857,0.7021880745887756,-0.4113655090332031,1.187182903289795,3.2642714977264404,0.3258298933506012,-2.054969310760498,2.894700050354004,-3.6482198238372803,-1.6582008600234985,-0.49776625633239746,0.37932920455932617,0.8584526181221008,-0.07898960262537003,0.332675576210022,-0.7414364218711853,1.2330268621444702,-3.451090097427368,-2.5977795124053955,0.583999514579773,-2.1355719566345215,1.644373893737793,0.7300376296043396,1.0340349674224854,-0.7683519721031189,-0.28886231780052185,-2.84487247467041,-0.9286468029022217,-2.384176254272461,2.5144078731536865,1.9585368633270264,2.785551071166992,3.936410427093506,-0.43044528365135193,-1.5609276294708252,0.5911003947257996,-1.5978223085403442,0.26716893911361694,-1.3427813053131104,-0.3470379114151001,-2.048891067504883,1.3176789283752441,-1.0417320728302002,-0.25666800141334534,1.7102878093719482,-1.742690920829773,-0.10956257581710815,4.884427070617676,-2.4928250312805176,-2.438859701156616,1.4195672273635864,2.224781036376953,-0.7797626256942749,-0.1586867868900299,1.328811764717102,-2.4840750694274902,-2.9138457775115967,1.196489691734314,0.9612988829612732,1.6870845556259155,-0.48170948028564453,-2.861814022064209,1.0450007915496826,0.31294313073158264,0.3735187351703644,1.1611658334732056,0.48979735374450684,0.42441970109939575,1.0047250986099243,0.7052804827690125,-1.3028006553649902,-0.163213849067688,-2.0223228931427,-1.3903412818908691,-1.8016847372055054,-1.732455849647522,2.7878828048706055,-1.2516483068466187,1.365520715713501,-1.0301997661590576,2.1767170429229736,-0.9664636254310608,0.6838633418083191,-1.6243653297424316,0.24798309803009033,2.0986123085021973,-1.0036650896072388,-0.5857989192008972,2.237410306930542,0.8963010311126709,0.12725959718227386,0.3782861828804016,1.9005738496780396,2.569990634918213,3.6104094982147217,-1.3176846504211426,-0.5348711609840393,0.557712197303772,0.8181162476539612,1.8810384273529053,-2.2222812175750732,-1.007374882698059,-0.030663078650832176,1.3883204460144043,-3.3260879516601562,2.3293168544769287,-1.9395557641983032,0.3045673072338104,0.4071134626865387,-0.31556403636932373,-1.3336962461471558,-0.8480848670005798,-6.447818756103516,-1.9231743812561035,4.588653087615967,0.5058735013008118,0.47805580496788025,0.38251540064811707,-3.1459975242614746,-1.3427164554595947,1.777573823928833,-0.20980152487754822,-3.1811606884002686,1.4667420387268066,-4.191652774810791,-0.6795490384101868,2.6420276165008545,1.670213222503662,0.09424954652786255,0.4093416631221771,-0.0635758638381958,0.31925031542778015,-3.212709426879883,0.968657910823822,1.1125283241271973,1.3917922973632812,0.8626461029052734,-0.31230610609054565,1.231136679649353,-0.1501760482788086,-1.118391513824463,-2.6867856979370117,1.6934127807617188,3.453871965408325,-1.5305161476135254,1.6838375329971313,0.6631080508232117,1.6613454818725586,0.06772483140230179,0.9199637770652771,1.853657841682434,-0.8793687224388123,-0.09597755968570709,-0.8909353017807007,-1.8126742839813232,0.9053357243537903,-1.293329119682312,1.0229790210723877,-1.0920659303665161,-0.9878194332122803,-2.5027852058410645,1.1016464233398438,0.3819476366043091,-1.02171790599823,-0.2241959124803543,-1.0900779962539673,-1.9330565929412842,0.08127463608980179,3.3770737648010254,-1.354978322982788,1.1914856433868408,2.387061834335327,0.017057882621884346,-2.4451119899749756,1.4048278331756592,0.6251022219657898,-2.817786931991577,-0.7103045582771301,1.8167927265167236,0.5735152363777161,0.6408259272575378,0.36073729395866394,2.614333391189575,-0.4697531461715698,1.4860647916793823,-0.358426034450531,2.4751193523406982,0.7380141019821167,0.7584233283996582,-1.038564920425415,1.449164628982544,0.22141213715076447,1.4513639211654663,-2.638589382171631,0.730872631072998,-0.4093422293663025,0.22876892983913422,-5.312569618225098,-0.3906899690628052,-2.0071308612823486,-1.1604572534561157,-1.7132916450500488,-0.7254589200019836,0.8376306891441345,2.39082670211792,-4.001523017883301,0.7249423861503601,-1.601936936378479,0.7792118787765503,-2.6788008213043213,-2.6271119117736816,-1.6943480968475342,2.40104603767395,-2.2940011024475098,-0.7487687468528748,3.0792932510375977,-2.5766124725341797,0.04281329736113548,-0.24774523079395294,2.394627571105957,-1.0936304330825806,2.1670773029327393,-0.5673567652702332,0.8487753868103027,-0.8967703580856323,-1.1910699605941772,4.712750434875488,-0.11245875060558319,-0.16805313527584076,-0.6768314838409424,3.2428553104400635,0.39545950293540955,-0.5936482548713684,-1.6086424589157104,1.8290104866027832,-0.92185378074646,-0.032293353229761124,0.4791417121887207,-1.2865509986877441,-1.2703297138214111,-2.4810972213745117,2.1052684783935547,0.49437204003334045,0.5986573696136475,1.999392032623291,0.7293416857719421,0.9748580455780029,0.6811893582344055,0.6747198104858398,0.9933120012283325,-0.8833407759666443,-0.040276866406202316,-2.1343512535095215,-1.991908311843872,-2.1132750511169434,-1.3286269903182983,1.069127082824707,-1.0515271425247192,0.8613708019256592,-0.5051101446151733,0.6927705407142639,-0.4469592273235321,-0.151225745677948,-0.4812461733818054,-1.7415266036987305,-0.3858257234096527,0.4104350209236145,-0.6461004614830017,1.9349629878997803,3.413661479949951,-0.9614485502243042,0.060961268842220306,2.699160575866699,1.3224469423294067,-1.1875728368759155,-2.4074583053588867,-0.2703709006309509,0.053202081471681595,0.46500298380851746,0.20287565886974335,-0.8126242756843567,1.1972389221191406,-1.8965919017791748,2.29522442817688,0.4188638925552368,-0.3125895857810974,-3.2865355014801025,0.6058698892593384,-2.290292978286743,1.4087746143341064,-2.0530619621276855,2.6793458461761475,0.044053491204977036,-0.41910022497177124,0.0728069618344307,-0.5839798450469971,-3.048069953918457,1.1950929164886475,-0.03059498779475689,-0.7130072712898254,0.4034484326839447,-0.030097762122750282,2.5317368507385254,-0.6825373768806458,0.7106875777244568,-2.5669870376586914,-0.167555034160614,0.22860503196716309,-0.5491219758987427,0.8255288600921631,0.05829598382115364,-0.6843924522399902,1.610594391822815,2.9280447959899902,-1.6939376592636108,-1.8170979022979736,2.206496477127075,-0.7457813620567322,2.320887804031372,1.5488109588623047,-0.3936186730861664,-1.906454086303711,-0.5657141804695129,0.24012622237205505,2.223353624343872,-1.8247462511062622,0.8607950210571289,-0.13301101326942444,-0.8156908750534058,0.03343726322054863,0.06898250430822372,0.7151811718940735,0.3001929819583893,1.4318534135818481,-0.6527337431907654,-2.786024808883667,0.9656733274459839,-0.46837157011032104,-0.5163465738296509,0.5331843495368958,-2.558871269226074,2.0680463314056396,2.0973939895629883,-0.2444619983434677,-0.23310314118862152,1.2558655738830566,0.2955124080181122,-0.004468698054552078,-0.1607009768486023,2.6055238246917725,0.647430419921875,0.6419028639793396,-0.3052278459072113,-2.992952823638916,3.3252475261688232,0.6938039064407349,2.2835497856140137,1.4190183877944946,3.0720138549804688,0.6822510957717896,-2.3893327713012695,1.7337069511413574,-2.6778764724731445,2.7762451171875,-4.222967147827148,0.2076980471611023,-0.16392076015472412,-0.24123889207839966,2.347287893295288,-1.3225383758544922,0.5953081250190735,-1.5821565389633179,1.4094849824905396,-1.4011945724487305,-0.06603668630123138,-0.6513373851776123,0.08971881866455078,2.136112928390503,1.0330862998962402,0.23819230496883392,-0.8044512271881104,-0.2735944986343384,-1.3538048267364502,-1.6720584630966187,-3.270216464996338,1.5195589065551758,-0.24279089272022247,0.5468576550483704,-3.194448947906494,0.7407662272453308,2.956089973449707,-3.2070932388305664,-0.9803876876831055,1.4342700242996216,-2.2573461532592773,2.6144051551818848,-2.425574779510498,1.6359738111495972,2.7341272830963135,-0.36576202511787415,-0.7463398575782776,1.50996994972229,-2.4664578437805176,1.420535683631897,0.08846820145845413,-1.5701181888580322,0.4390621483325958,-1.5631325244903564,1.4314850568771362,-3.8283822536468506,3.022459030151367,2.5363576412200928,-0.7175779342651367,0.9672996401786804,-1.1084333658218384,-1.9686391353607178,1.382095217704773,-0.8550222516059875,0.4154367744922638,3.2713799476623535,2.101510524749756,-0.7563720345497131,0.8769600987434387,-0.05488187447190285,-0.06316990405321121,0.42576864361763,-2.2247278690338135,2.430997610092163,1.4692964553833008,-0.9473819136619568,1.7815735340118408,-0.15184250473976135,0.44062989950180054,0.7557379603385925,-0.7754054665565491,-2.5904436111450195,0.8796605467796326,0.8161830902099609,2.517913341522217,3.3216710090637207,-0.29572638869285583,1.5658382177352905,-0.005989898461848497,-3.0392839908599854,0.5532395243644714,1.2689710855484009,-4.974111557006836,2.084578275680542,1.2333643436431885,-0.05831221863627434,-0.11203808337450027,-1.2168453931808472,0.837894082069397,-1.2405197620391846,-2.0037271976470947,-1.2763994932174683,0.17557565867900848,0.8572590947151184,-0.12910428643226624,3.4548540115356445,-1.7336534261703491,-0.888014554977417,-0.17977173626422882,-0.027684658765792847,0.6891338229179382,-0.7807722091674805,-3.792994737625122,2.270101308822632,-1.6763924360275269,-1.4321186542510986,-1.7265287637710571,-1.7854863405227661,-2.321974039077759,-0.029610659927129745,-0.12433235347270966,0.31254565715789795,-2.843587875366211,1.5897337198257446,1.4088014364242554,1.147750735282898,-0.7842851877212524,0.38783571124076843,0.13638900220394135,-3.3803842067718506,8.09599494934082,-0.8798579573631287,-1.9907525777816772,-3.0800647735595703,3.255275249481201,0.4744199812412262,1.585652470588684,-1.826364278793335,-3.8832061290740967,-0.5888661742210388,-2.6685221195220947,0.5040552020072937,-0.5935600996017456,3.0280637741088867,1.9237754344940186,2.1752688884735107,0.6178716421127319,1.3848235607147217,2.5486843585968018,-0.046434514224529266,2.7462570667266846,1.6555143594741821,1.522268533706665,0.1936488151550293,2.4773411750793457,-1.156640648841858,-0.10675455629825592,1.065351963043213,1.8030375242233276,1.0299038887023926,-0.18604008853435516,-1.645363688468933,-0.0871465876698494,-0.8616676926612854,-0.6239407658576965,-2.307461738586426,-0.3338722884654999,-0.7381410002708435,-2.5378525257110596,3.711803436279297,-0.3125540316104889,0.9792616963386536,0.8302205204963684,-0.7826616764068604,0.8107858300209045,0.29522505402565,3.9944043159484863,-3.3041837215423584,2.4841065406799316,1.8199961185455322,-1.5809540748596191,-2.014758586883545,-4.697956562042236,-1.1357839107513428,1.1717281341552734,-2.986394166946411,-0.939545750617981,2.2863473892211914,-1.7708348035812378,-3.287644624710083,-0.727827787399292,-0.26308968663215637,-1.3069275617599487,-0.3673533499240875,2.467223882675171,1.9619146585464478,-0.747934103012085,-0.13486424088478088,-0.6691392064094543,-1.3020446300506592,-2.9706039428710938,0.23257188498973846,-2.958465576171875,0.23797614872455597,-2.443758487701416,3.163058280944824,2.9322195053100586,1.1209948062896729,-0.7169165015220642,1.888710618019104,0.44417646527290344,1.1964010000228882,1.3631203174591064,1.4773170948028564,1.1898971796035767,2.0098938941955566,1.1358855962753296,-0.13961365818977356,-0.4878997504711151,-1.1884466409683228,4.491654396057129,-5.234543800354004,-0.1770947426557541,2.1055593490600586,-0.7867898941040039,0.11394120007753372,0.6994902491569519,-0.4069201946258545,-2.4415700435638428,-1.591604232788086,1.8817647695541382,-3.5294506549835205,-1.5045442581176758,-1.8402644395828247,-0.21880200505256653,-1.9286762475967407,1.4115194082260132,0.7631464600563049,0.3156124949455261,2.013484001159668,-0.13320739567279816,0.0760548934340477,1.5320916175842285,0.7121536135673523,-0.11655513942241669,1.3927534818649292,0.6124703288078308,-0.5395565629005432,4.263651371002197,0.5218775868415833,-0.3183032274246216,0.8748767971992493,-1.6861257553100586,0.9700779318809509,-2.2844431400299072,0.8386310935020447,-0.15991118550300598,0.5916504263877869,0.9760801196098328,2.7430076599121094,-0.7744671106338501,2.2635180950164795,-0.3892636299133301,-0.14735734462738037,0.9293867945671082,-1.4014062881469727,0.17768192291259766,0.26017242670059204,0.7917886972427368,1.7318603992462158,1.9764796495437622,-0.7166019678115845,0.09973568469285965,-0.9141950011253357,-0.33149659633636475,0.05493027716875076,0.2334187924861908,-1.9918864965438843,-1.215861201286316,-0.8146266937255859,0.7524474263191223,-1.7496709823608398,-2.184392213821411,2.467794418334961,-0.13952507078647614,-0.32311227917671204,0.8090851306915283,0.7200387120246887,0.7924754023551941,2.2379674911499023,0.7778931260108948,0.023388907313346863,1.7152116298675537,-0.5111633539199829,-0.19554929435253143,0.65590500831604,-1.4127469062805176,2.1098954677581787,-0.3005528450012207,0.5606905221939087,-2.1263928413391113,1.141942024230957,-0.44085580110549927,4.704413414001465,0.7766761183738708,-0.23139014840126038,-1.0773407220840454,-0.29904183745384216,2.080571413040161,1.8699904680252075,0.057150036096572876,-0.27148765325546265,-0.9151567816734314,5.42486572265625,0.4327629804611206,-2.2189722061157227,0.44902634620666504,2.975858211517334,-1.3109526634216309,0.9642789363861084,-2.655616283416748,-0.8443899154663086,0.474821001291275,1.2123618125915527,0.3400692045688629,1.0679041147232056,1.781412124633789,-3.54447865486145,2.624873638153076,-0.18876564502716064,0.25178420543670654,-0.9650323987007141,-0.04461711272597313,0.7131723165512085,0.38704073429107666,0.5105764269828796,-1.5659860372543335,3.2185823917388916,-1.03704833984375,-3.345367193222046,0.7961406707763672,-3.043344497680664,-2.8057847023010254,-1.1186944246292114,-1.8110642433166504,2.078636884689331,3.8468122482299805,-2.533275604248047,0.28609684109687805,-0.6551312804222107,0.8411328196525574,-1.3243588209152222,0.083319291472435,0.30603352189064026,-4.030873775482178,-1.0029410123825073,0.07660213112831116,-0.07804291695356369,3.0895373821258545,1.161004900932312,-1.1366912126541138,-2.3937129974365234,-1.9700595140457153,-0.0627661943435669,0.20801517367362976,-1.0403532981872559,-2.1262097358703613,-1.477960467338562,-0.6972216963768005,-0.40335482358932495,-1.434881567955017,-0.808427631855011,-0.66554194688797,-0.19788284599781036,1.0329012870788574,0.025711316615343094,-2.2837038040161133,2.2279343605041504,-1.0692338943481445,-1.4342564344406128,0.03646732121706009,1.2069685459136963,1.1059328317642212,-2.5766055583953857,-2.7070975303649902,-1.4204967021942139,2.4440691471099854,-2.3466010093688965,-3.9149534702301025,-1.1896895170211792,0.26204824447631836,-0.5916556119918823,2.7739410400390625,-2.490058183670044,-2.0786285400390625,-1.9264417886734009,1.6700549125671387,-0.5882032513618469,-2.422694206237793,1.4112948179244995,0.20787641406059265,0.8065294623374939,0.025983674451708794,-1.1465277671813965,0.1326693445444107,0.35419830679893494,1.3976500034332275,-0.05123230814933777,0.049288056790828705,2.2282602787017822,-0.8868721723556519,-0.06675050407648087,-0.9055004119873047,0.4688032567501068,-2.8619072437286377,0.07369855046272278,0.4487432539463043,1.0228549242019653,-1.198546051979065,0.2937052547931671,-1.352112889289856,-1.0443732738494873,1.8797591924667358,0.4005011022090912,-1.363886833190918,0.125907763838768,-1.2251216173171997,-0.3800496757030487,0.2622808516025543,1.8821518421173096,1.3384891748428345,0.9004852771759033,0.1094043180346489,-0.3629918396472931,-0.09763763844966888,1.1052137613296509,-2.359570026397705,-0.40608012676239014,0.3016364872455597,-1.5145230293273926,-1.3108537197113037,0.3385535776615143,1.1487343311309814,0.5633446574211121,0.09961777925491333,1.666290044784546,-1.5608537197113037,-0.25318682193756104,-0.4921034872531891,-0.8060442209243774,2.2130274772644043,-0.9665700197219849,-1.4212062358856201,0.20697419345378876,0.564087986946106,-0.24329999089241028,2.1447532176971436,1.6596477031707764,-1.201532006263733,1.0051933526992798,0.5517492294311523,-0.9506180286407471,-0.16103366017341614,0.9136782288551331,-2.5423786640167236,-3.59084153175354,-0.021217897534370422,-0.8702729344367981,1.8245786428451538,-1.9198304414749146,-1.8216500282287598,-0.1636720448732376,0.11001662909984589,2.0993313789367676,-2.433906316757202,2.2179276943206787,0.512566864490509,-1.238446593284607,-1.4255965948104858,2.1131269931793213,0.7304610013961792,-0.1919945925474167,2.12872314453125,1.2868528366088867,1.1053225994110107,-0.4970775842666626,-2.6149847507476807,1.7790144681930542,-2.0040154457092285,-0.01312997005879879,0.5657848119735718,0.6038268804550171,-0.40699630975723267,-1.9892443418502808,1.009149193763733,-0.6200374960899353,0.10220551490783691,-0.08668076246976852,1.3328815698623657,4.218790531158447,0.14390213787555695,-1.2959835529327393,-1.02774977684021,2.3424923419952393,0.8012484312057495,1.5788013935089111,-1.2765525579452515,-2.66312837600708,-1.3018890619277954,-0.24225179851055145,0.24044063687324524,-1.012349247932434,-0.31067824363708496,-4.5579833984375,0.9155505299568176,-0.8351460099220276,0.24143832921981812,-0.6446864604949951,1.1842387914657593,-0.17379313707351685,-1.088719129562378,0.08629777282476425,-2.769737958908081,-0.12930525839328766,-0.7992595434188843,-1.7085758447647095,0.4999295175075531,-2.6515400409698486,-1.7074785232543945,3.430255651473999,-0.5635485053062439,1.729535460472107,1.2009738683700562,-2.0085666179656982,0.1599549949169159,-0.06224687024950981,-2.078673839569092,1.8890149593353271,1.9578242301940918,-0.009898683987557888,2.8603434562683105,0.6875028014183044,0.5672840476036072,-0.7755022048950195,-2.4744503498077393,-1.7183537483215332,4.115163803100586,1.1354073286056519,1.086686372756958,-1.840136170387268,-0.9988958239555359,2.4597082138061523,0.1777777224779129,2.9820287227630615,-0.4779129922389984,-3.098590135574341,3.3466851711273193,0.0172586590051651,-0.9619021415710449,0.4450624883174896,-0.2009565681219101,1.7492293119430542,2.3649396896362305,-0.1735939085483551,-0.06754489988088608,-0.5764209032058716,0.6260789632797241,1.2588053941726685,-1.0915172100067139,-0.18328888714313507,-1.0159425735473633,0.9626712799072266,0.8781495690345764,-0.983559250831604,-0.26535293459892273,-0.1846567988395691,-1.9031896591186523,2.5255463123321533,0.6286291480064392,-0.5655242204666138,-1.4223363399505615,1.9129488468170166,0.23463715612888336,-0.11011411994695663,-1.7712607383728027,-0.6599382758140564,-1.1948405504226685,-0.9746136665344238,0.7882871031761169,-2.0286335945129395,0.09823448956012726,0.8440542817115784,-3.202852725982666,2.1623878479003906,-0.8220261931419373,-2.05979323387146,-1.4557305574417114,1.3973469734191895,1.5151548385620117,0.1933877021074295,-3.0184059143066406,-1.781243920326233,-1.9780077934265137,0.5605298280715942,0.3239271640777588,-0.593906581401825,2.4175469875335693,0.5670756101608276,1.1648355722427368,-1.9724875688552856,0.0599798858165741,-2.239013910293579,0.6503901481628418,0.7215203642845154,-0.5260893702507019,1.7977452278137207,-0.8749759793281555,0.6489702463150024,0.3748246729373932,-2.3686230182647705,0.06671725958585739,0.3970211148262024,1.1360259056091309,2.0431551933288574,0.5525867938995361,0.5247274041175842,-0.1343560516834259,-2.2157304286956787,1.0897111892700195,1.2244478464126587,-0.11638377606868744,0.8052589297294617,-2.6812503337860107,-2.362541913986206,1.2339142560958862,-1.7360433340072632,-0.777563214302063,-0.6603440642356873,1.2483047246932983,-0.5328091979026794,2.0923986434936523,-3.208463430404663,2.929048538208008,0.8141341805458069,-0.33209818601608276,3.2537081241607666,-0.6600820422172546,1.2451295852661133,0.9281350374221802,2.203944683074951,-1.0008829832077026,0.5096984505653381,-0.27669960260391235,-0.347477525472641,0.7875176072120667,-2.0545716285705566,0.1078222468495369,0.21150584518909454,-0.3534955084323883,3.123178243637085,-0.05835426598787308,1.2320367097854614,-0.9341667294502258,-1.7851372957229614,-0.8826162219047546,-0.7991757392883301,-0.4295032024383545,-1.3729076385498047,0.8047875165939331,-2.6651804447174072,-0.006582673639059067,2.48335337638855,-1.5833485126495361,-0.44811880588531494,-2.0098698139190674,-2.8408865928649902,0.36170080304145813,0.8859855532646179,-0.569096028804779,-2.509138345718384,0.9630693793296814,-0.3894284963607788,-0.17937283217906952,0.3304811418056488,-1.4893174171447754,0.9684944748878479,-0.6960631012916565,1.3315685987472534,-1.4853951930999756,0.6710088849067688,0.5833723545074463,2.3610799312591553,0.8679853081703186,-1.2188093662261963,1.4257231950759888,1.7983530759811401,-0.8109157085418701,-3.8827807903289795,0.1064109355211258,-0.08255885541439056,1.883982539176941,-0.30901676416397095,-1.7328615188598633,-0.02296844683587551,-0.7195062637329102,-0.8486656546592712,-1.1176519393920898,0.7621610760688782,-0.9610183238983154,1.0381709337234497,-0.5896350741386414,-3.284571647644043,-1.068616509437561,-2.3389267921447754,-1.7131211757659912,1.786300778388977,-1.6350960731506348,0.3224358856678009,1.8204505443572998,-1.002841830253601,-0.7114622592926025,0.04262390732765198,-3.9451754093170166,0.9583534002304077,-1.4627552032470703,-0.7473366856575012,0.4138394892215729,-1.1150258779525757,-3.166991710662842,-1.6203975677490234,-0.41375258564949036,-0.4651166796684265,0.6398997902870178,0.46907952427864075,-3.221498727798462,1.7136476039886475,-1.9664766788482666,-1.520963191986084,0.9884242415428162,