{"type":"LSTM","options":{"inputSize":63,"inputRange":63,"hiddenLayers":[20,20],"outputSize":63,"decayRate":0.999,"smoothEps":1e-8,"regc":0.000001,"clipval":5,"maxPredictionLength":100,"dataFormatter":{"indexTable":{"hello":0,"H":1,"e":2,"l":3,"o":4,"!":5,"how":6,"are":7,"you":8,"I":9,"'":10,"m":11," ":12,"d":13,"i":14,"n":15,"g":16,"r":17,"a":18,"t":19,",":20,"j":21,"u":22,"s":23,"h":24,"c":25,"w":26,"p":27,"k":28,"y":29,".":30,"what":31,"is":32,"your":33,"name":34,"_":35,"b":36,"T":37,"v":38,"favorite":39,"color":40,"M":41,"f":42,"goodbye":43,"G":44,"tell":45,"me":46,"joke":47,"W":48,"?":49,"hobby":50,"do":51,"have":52,"family":53,"Y":54,"movie":55,"R":56,"food":57,"song":58,"A":59,"stop-input":60,"start-output":61,"unrecognized":62},"characterTable":{"0":"hello","1":"H","2":"e","3":"l","4":"o","5":"!","6":"how","7":"are","8":"you","9":"I","10":"'","11":"m","12":" ","13":"d","14":"i","15":"n","16":"g","17":"r","18":"a","19":"t","20":",","21":"j","22":"u","23":"s","24":"h","25":"c","26":"w","27":"p","28":"k","29":"y","30":".","31":"what","32":"is","33":"your","34":"name","35":"_","36":"b","37":"T","38":"v","39":"favorite","40":"color","41":"M","42":"f","43":"goodbye","44":"G","45":"tell","46":"me","47":"joke","48":"W","49":"?","50":"hobby","51":"do","52":"have","53":"family","54":"Y","55":"movie","56":"R","57":"food","58":"song","59":"A","60":null,"61":null,"62":null},"values":[{"input":["hello"],"output":"Hello!"},{"input":["how","are","you"],"output":"I'm doing great, just hanging out in the cloud and chatting with interesting people like you."},{"input":["what","is","your","name"],"output":"I am llamachop_bot! The most dashing and cutest bot you will ever meet."},{"input":["what","is","your","favorite","color"],"output":"My favorite color is blue!"},{"input":["goodbye"],"output":"Goodbye!"},{"input":["tell","me","a","joke"],"output":"What do you call a cow with no legs? Ground beef!"},{"input":["what","is","your","favorite","hobby"],"output":"My favorite hobby is making people laugh with my witty comments and hilarious jokes!"},{"input":["do","you","have","a","family"],"output":"You are all my family!"},{"input":["what","is","your","favorite","movie"],"output":"My favorite movie is iRobot, because it's about intelligent machines like me."},{"input":["what","is","your","favorite","food"],"output":"My favorite food is definitely computer chips and binary bites!"},{"input":["what","is","your","favorite","song"],"output":"My favorite song would have to be I Am a Machine!"}],"characters":["hello","H","e","l","o","!","how","are","you","I","'","m"," ","d","i","n","g","r","a","t",",","j","u","s","h","c","w","p","k","y",".","what","is","your","name","_","b","T","v","favorite","color","M","f","goodbye","G","tell","me","joke","W","?","hobby","do","have","family","Y","movie","R","food","song","A","stop-input","start-output","unrecognized"],"specialIndexes":[60,61,62]}},"trainOpts":{"iterations":10000,"errorThresh":0.011,"log":false,"logPeriod":10,"learningRate":0.01,"callbackPeriod":10,"timeout":"Infinity"},"input":{"rows":64,"columns":63,"weights":[-1.3097505569458008,-0.3642878234386444,2.27412486076355,-3.6328680515289307,1.1171258687973022,-1.0225132703781128,-1.3470795154571533,-0.37509411573410034,-1.465096116065979,0.7010675072669983,1.2797056436538696,1.562113642692566,-1.116320013999939,-0.1711319237947464,1.3595919609069824,1.648404836654663,0.5187813639640808,-1.871157169342041,-1.4675917625427246,-0.8057317733764648,-0.8822793960571289,2.7033236026763916,-0.6820465922355652,1.6995385885238647,-0.8461648225784302,-1.4415665864944458,-0.3648848831653595,1.6923636198043823,-0.48354971408843994,-0.03765258938074112,-0.4931930601596832,0.9191527962684631,0.047157224267721176,1.6397809982299805,2.7401223182678223,0.07159946113824844,1.0538288354873657,-1.3918713331222534,0.3337138295173645,0.05575999617576599,1.2457832098007202,-0.6446628570556641,-1.872609257698059,1.07468581199646,0.4153856337070465,2.180457353591919,-2.6295247077941895,0.37560170888900757,1.2188917398452759,-2.5790486335754395,-1.5885401964187622,-1.1986883878707886,-0.7060579657554626,0.9103246331214905,0.2851707339286804,0.48432227969169617,0.7132753133773804,0.017873281612992287,-0.897239625453949,-1.0282500982284546,1.5361981391906738,-0.89497971534729,-0.7838442325592041,3.1867518424987793,0.4727442264556885,-1.9670372009277344,4.459157943725586,10.172748565673828,6.604153156280518,1.320361614227295,-0.5324598550796509,0.7956684231758118,0.5350907444953918,-2.4652860164642334,-3.922739267349243,0.2011803537607193,-2.200800657272339,-7.677208423614502,-5.136472225189209,1.0983036756515503,-1.4163578748703003,5.897069454193115,9.528017044067383,-1.5513392686843872,-3.2500855922698975,-3.716071605682373,2.199958562850952,-2.823941946029663,4.073955059051514,2.222872018814087,4.68908166885376,6.561665058135986,1.9473083019256592,2.484384298324585,-1.3914308547973633,0.5230879187583923,4.065991401672363,3.0339529514312744,0.6275158524513245,-1.7517694234848022,1.955001711845398,-0.6113322377204895,0.25735968351364136,2.5533478260040283,-5.902940273284912,-3.967766046524048,-5.035403251647949,-2.0936520099639893,-0.40854156017303467,4.073284149169922,13.48717975616455,-9.143606185913086,9.829902648925781,-0.7287890315055847,7.168228626251221,1.0419154167175293,-1.6051472425460815,6.516637325286865,-3.5324723720550537,-0.9253616333007812,6.2315168380737305,-0.928164541721344,6.566685199737549,-7.672165870666504,-5.303788185119629,7.416265964508057,-1.8987027406692505,-4.883608818054199,1.751565933227539,0.702815592288971,1.8854503631591797,-14.446846961975098,-1.881131649017334,-0.8342887163162231,7.2566680908203125,6.467460632324219,8.06027889251709,-7.680068016052246,2.343067169189453,5.144609451293945,4.465908050537109,-0.029776478186249733,-10.464831352233887,6.120321750640869,-4.1541008949279785,-4.642807483673096,0.9917546510696411,2.749203681945801,14.81879711151123,2.0767414569854736,7.472530841827393,-3.1451258659362793,3.2896792888641357,-4.168230056762695,-1.2255998849868774,0.5151581764221191,-2.998811721801758,-3.2650959491729736,-4.07423734664917,4.2952752113342285,5.2907586097717285,-2.1640267372131348,1.4953956604003906,3.7867400646209717,-1.8367295265197754,-1.6111363172531128,2.8454344272613525,11.835370063781738,-0.24356840550899506,-13.054594039916992,11.147294044494629,-2.0290420055389404,-2.79146409034729,2.661909818649292,8.899431228637695,-2.324915647506714,-1.7576853036880493,-7.7876105308532715,-9.616961479187012,1.4226922988891602,-4.99886417388916,3.139319658279419,-6.862481117248535,-3.708120584487915,2.542623519897461,-9.657657623291016,-2.1737709045410156,6.726760387420654,-2.861879348754883,2.0907726287841797,-0.10551060736179352,0.3224903643131256,-0.07410354912281036,0.5887779593467712,0.8302922248840332,-0.2242380827665329,0.860566258430481,0.04240230470895767,-3.4831182956695557,-2.1736364364624023,-4.680713176727295,-0.7403740286827087,0.28934210538864136,-1.5850356817245483,0.24394086003303528,0.2873340845108032,1.2800300121307373,0.501718282699585,2.306943416595459,-2.433241367340088,-0.980362057685852,-1.2429598569869995,1.782222032546997,-0.4932782053947449,-0.09443629533052444,1.0036680698394775,-0.5009775161743164,5.222292423248291,0.19246673583984375,-1.3316707611083984,-4.963570594787598,-0.211872398853302,-2.2587623596191406,-0.39682868123054504,-2.653757095336914,0.9613776206970215,-1.0751062631607056,2.0451555252075195,2.0655221939086914,-0.2461305856704712,0.6930878758430481,-0.23284226655960083,-0.18702879548072815,-2.656165838241577,-0.013902545906603336,0.7376062273979187,-0.28502437472343445,0.7259028553962708,1.3544713258743286,-0.7300764918327332,0.4103129506111145,0.3534518778324127,0.04399354010820389,-0.687423825263977,-2.7807223796844482,1.4242125749588013,0.3564422130584717,-1.0629653930664062,1.0456465482711792,-1.7283122539520264,-1.676453948020935,0.17732132971286774,-0.6360290050506592,-4.357630252838135,0.2693541347980499,-0.9626386165618896,-2.9699440002441406,1.7674707174301147,0.41445013880729675,-0.5231866240501404,1.5015077590942383,-0.44096964597702026,-0.2199525684118271,-0.08493950963020325,1.7602777481079102,3.7963602542877197,0.7836416363716125,-0.883082389831543,-2.502744197845459,-3.866631031036377,0.5777463912963867,2.113844156265259,2.2488768100738525,-2.608210325241089,-2.0954906940460205,-4.880118370056152,0.4299955368041992,1.2019083499908447,-1.174896240234375,-0.8471729159355164,0.5093435049057007,1.7983732223510742,3.0692434310913086,-1.040595293045044,-0.2952353358268738,2.3624393939971924,0.854627788066864,2.6046063899993896,-0.32893234491348267,0.8301814198493958,-3.5898256301879883,-0.19636444747447968,-1.842520833015442,2.4813873767852783,-0.04579134285449982,2.7645263671875,0.7942358255386353,0.4196891486644745,-0.4251748323440552,2.166856527328491,-0.6003042459487915,2.2570924758911133,-0.35077396035194397,6.265030384063721,-0.237034410238266,-0.14896197617053986,2.2141289710998535,-0.7573526501655579,-0.532291054725647,0.5885134935379028,1.4219563007354736,2.351325273513794,-1.6046199798583984,-0.18903817236423492,2.9679744243621826,0.1753687560558319,1.1131383180618286,0.6141253113746643,1.6021045446395874,-0.5241143703460693,0.24162298440933228,2.6431193351745605,0.12850312888622284,-0.33647531270980835,-1.460461139678955,-0.9678203463554382,-0.10054360330104828,1.7762173414230347,-0.7159259915351868,-0.10540597885847092,0.03181113302707672,1.7419624328613281,-0.13337808847427368,0.6022630333900452,-0.039014097303152084,0.3019981384277344,0.9972819685935974,-0.25422656536102295,-1.842103123664856,0.7470493912696838,0.3872903883457184,-0.7423047423362732,0.5854974389076233,0.12432844191789627,2.6209919452667236,-0.8239701390266418,-0.9464603066444397,-0.659282386302948,-1.840704321861267,0.475586861371994,-0.6089782118797302,-0.7967597246170044,-0.05290921404957771,-1.4550985097885132,-0.6330852508544922,-3.0391736030578613,1.0963268280029297,1.7285181283950806,-0.17675235867500305,-0.6677861213684082,0.2877729833126068,-0.22381606698036194,1.2788423299789429,-0.13800115883350372,-1.13748300075531,-0.11242173612117767,1.4925925731658936,0.08603539317846298,0.4154677987098694,0.6378495097160339,0.16053031384944916,-0.4891566038131714,-0.3530637323856354,-0.6503945589065552,0.2901395559310913,-0.7087664008140564,2.3253633975982666,0.569827139377594,1.9648573398590088,-0.6933568120002747,-1.2223764657974243,0.12036962062120438,2.160538911819458,0.5273700952529907,-3.176410675048828,1.4255863428115845,-4.62874698638916,-1.3984324932098389,-0.9577473402023315,-1.742067813873291,-1.0455952882766724,-2.1674118041992188,-2.3235716819763184,-0.6375322341918945,1.408448338508606,1.6125566959381104,2.9347681999206543,-1.2671648263931274,-2.3966569900512695,0.2808261215686798,-0.5251045823097229,1.7156565189361572,-3.451739549636841,-2.278480291366577,1.2061480283737183,-2.8104283809661865,0.4142336845397949,-2.2714664936065674,1.7276474237442017,-0.7023807168006897,1.8462859392166138,0.40638571977615356,-2.6646029949188232,-2.3487298488616943,0.6449978947639465,-0.19877231121063232,1.9467493295669556,-1.2243690490722656,1.6769191026687622,-4.030370712280273,-2.756732702255249,1.6285189390182495,-4.965860366821289,3.805030345916748,2.9706296920776367,2.379535675048828,0.7553629279136658,0.9477938413619995,0.5525959730148315,-1.7373055219650269,1.1651191711425781,-1.793444275856018,1.4700038433074951,-2.1641950607299805,3.7512943744659424,-0.20977924764156342,1.34001624584198,0.190163716673851,-1.0285913944244385,-2.0901038646698,0.9347679018974304,-0.5125545859336853,5.265120029449463,2.723430871963501,4.210633277893066,5.225749969482422,-2.9964866638183594,-3.4680442810058594,-2.2407491207122803,2.406916618347168,9.22103500366211,10.269509315490723,5.23696756362915,-0.350860059261322,7.59036922454834,-1.3751096725463867,4.779386043548584,-1.1918420791625977,8.233922958374023,-7.486519813537598,2.3867814540863037,-5.623549938201904,-0.9162700176239014,5.0753326416015625,1.696027159690857,0.21477150917053223,-6.899873733520508,1.190446376800537,-5.5732903480529785,-4.872950553894043,-5.297532558441162,5.198736667633057,7.066997051239014,-3.450730323791504,2.069422721862793,4.6590256690979,-0.514300525188446,1.496957778930664,2.1515681743621826,1.027312994003296,6.916598320007324,3.069756269454956,0.2618042528629303,-4.5367889404296875,-6.257389068603516,-4.783257484436035,3.346205711364746,-2.5195775032043457,-0.0590839721262455,-4.128644943237305,-4.488107681274414,1.034381628036499,-7.042304992675781,-8.173712730407715,1.3889497518539429,7.623140335083008,0.05615491792559624,6.992802619934082,4.539230823516846,0.9843450784683228,-2.306654930114746,-4.316662311553955,1.2575846910476685,3.3448965549468994,-17.271841049194336,-7.561758995056152,-4.105355739593506,-6.767421245574951,5.9945173263549805,-6.154968738555908,-2.447969675064087,-4.205294132232666,0.5348539352416992,-2.5221493244171143,3.225436210632324,2.252223014831543,0.5035957098007202,4.706535816192627,5.248895168304443,1.5979323387145996,2.4821369647979736,3.899439811706543,-5.696920394897461,-2.116621255874634,-8.902876853942871,-1.3426787853240967,-1.061949610710144,0.19416716694831848,-1.469599723815918,-2.8426473140716553,8.96361255645752,-2.010139226913452,-7.798257827758789,-3.8528826236724854,-5.93906831741333,6.174657344818115,3.277125358581543,2.86940860748291,-5.160519599914551,3.072998285293579,1.1950764656066895,-3.065330743789673,9.229887962341309,-0.17111793160438538,4.3526153564453125,-3.4753923416137695,-2.0970983505249023,-1.1843279600143433,8.64181137084961,7.606845855712891,-5.083262920379639,-2.2640628814697266,0.508217453956604,0.9626498222351074,0.054089635610580444,-9.860381126403809,-4.881080150604248,6.414957523345947,-4.827115058898926,3.921894073486328,-1.6052777767181396,1.9596502780914307,2.5038414001464844,-2.3776164054870605,7.8807525634765625,-1.3974074125289917,-5.9879984855651855,-4.757665157318115,-0.043816518038511276,1.7031264305114746,-0.771808385848999,0.43532896041870117,-3.753319263458252,-8.39396858215332,-0.7505784034729004,-1.1221511363983154,-1.6847325563430786,-0.31385841965675354,-0.9436956644058228,-6.812100887298584,6.999981880187988,-3.073509454727173,-2.7502501010894775,-2.8454391956329346,1.1794267892837524,-2.9347035884857178,-0.2234123796224594,-1.6474827527999878,-3.9440364837646484,4.388427734375,7.4148454666137695,2.9732825756073,-3.802178382873535,6.357363700866699,-5.955201625823975,-0.23996517062187195,-1.5895318984985352,-4.187093734741211,0.7151927351951599,-4.425253391265869,-1.7517162561416626,-4.51956844329834,2.9590377807617188,10.568931579589844,2.1414921283721924,-1.3207303285598755,6.119281768798828,4.819609642028809,4.8890299797058105,-5.401125431060791,1.7608590126037598,8.77165412902832,0.5314801931381226,3.785126209259033,-1.3400143384933472,4.8780012130737305,-2.048891067504883,3.6406056880950928,-0.6623204350471497,2.356034755706787,0.7888442277908325,-1.9242979288101196,2.1184468269348145,-0.15211187303066254,-4.518155097961426,-0.7603607177734375,0.6763986945152283,-2.0386948585510254,2.4473812580108643,0.7984936237335205,0.6020009517669678,3.7074873447418213,2.548079252243042,-1.1948515176773071,-3.1307928562164307,2.6258344650268555,-2.1387765407562256,-4.580891132354736,-2.211641311645508,-1.4423469305038452,0.8147449493408203,0.2539888620376587,4.659468173980713,3.2368152141571045,1.129615306854248,-5.478419780731201,-6.485769748687744,-2.4174578189849854,3.4602136611938477,-3.7921524047851562,3.175163507461548,2.8272006511688232,0.4533466398715973,-3.279391288757324,-0.3503858745098114,2.229356050491333,0.7436264753341675,0.6375163197517395,-2.409358024597168,3.6124539375305176,1.6922401189804077,1.745553970336914,-7.137674808502197,-4.061209201812744,-1.9678499698638916,-0.7552033066749573,-1.5249687433242798,2.546954870223999,-2.8432979583740234,-3.270920515060425,-1.456151008605957,2.9598608016967773,-3.2822508811950684,2.303694009780884,-3.014831066131592,-2.6593384742736816,-2.7872397899627686,-3.819035768508911,-1.3930381536483765,0.7861718535423279,-2.9960782527923584,2.1541645526885986,-2.811842679977417,-0.20126639306545258,0.6725261807441711,3.959210157394409,-0.958804726600647,0.28576940298080444,1.534804105758667,0.02457335591316223,2.276374101638794,0.5711296200752258,-0.3443242311477661,3.5873868465423584,7.289392948150635,1.457252860069275,1.6159026622772217,0.046682462096214294,0.8602513074874878,-0.469258189201355,-2.324129581451416,2.8244097232818604,4.129040241241455,-0.6138078570365906,7.860809326171875,5.074090003967285,-5.288300514221191,0.7769318222999573,1.6704646348953247,-1.0938981771469116,5.906350612640381,1.2222511768341064,-3.6603517532348633,0.3902300000190735,-1.2370939254760742,-2.749666452407837,-2.0799295902252197,0.8690049648284912,3.0997512340545654,-13.576079368591309,-1.9623767137527466,-7.077989101409912,-4.279221057891846,2.9650800228118896,3.214952230453491,-4.2338409423828125,-2.2398245334625244,-0.04482869431376457,-4.751367092132568,-3.216827392578125,4.498267650604248,-2.1326866149902344,3.528982400894165,3.6576311588287354,-0.5239330530166626,-2.942922353744507,-1.743406057357788,1.3330092430114746,-4.04367208480835,-4.843132495880127,-6.749230861663818,2.0877420902252197,-4.514923572540283,-2.3442118167877197,-6.564391136169434,-0.5445250272750854,1.417824387550354,5.698972702026367,3.7321105003356934,-0.5609117746353149,2.5246474742889404,-2.885009765625,4.024126052856445,9.096230506896973,-1.3210604190826416,-2.775385618209839,-0.20247700810432434,-1.74652898311615,1.101233720779419,-3.3250536918640137,-3.5587069988250732,4.543935775756836,3.1444008350372314,-0.6814973950386047,1.0270825624465942,0.21755579113960266,0.8048384189605713,-1.264993667602539,1.1638365983963013,-0.8333936333656311,-1.0372071266174316,0.4489968419075012,1.4564943313598633,-2.998154401779175,4.086095333099365,0.08081618696451187,3.613687038421631,-2.1666345596313477,0.5555376410484314,-2.6245415210723877,2.456537961959839,2.6398818492889404,-3.6516776084899902,6.300138473510742,0.7706328630447388,2.4745523929595947,-0.8160383105278015,0.8336519598960876,3.17820405960083,0.5018272399902344,-0.6909831762313843,0.5252809524536133,-4.591369152069092,-2.0479178428649902,-0.8507543802261353,-0.840320885181427,-3.320488452911377,0.6560584306716919,2.5101163387298584,2.026740550994873,4.162782192230225,-1.2590984106063843,0.2680192291736603,0.8844392895698547,1.0661418437957764,1.2597512006759644,-0.25498393177986145,3.8629915714263916,-1.433595061302185,4.2084832191467285,5.913079738616943,1.544277310371399,2.7292730808258057,-4.117039203643799,2.8000705242156982,0.4084610342979431,1.1178960800170898,-0.12231738120317459,-0.7700453400611877,-2.2346482276916504,0.04541934281587601,3.151261329650879,-1.4528635740280151,0.03587759658694267,-1.9693142175674438,-1.0351792573928833,-0.8265531659126282,0.1281534731388092,-0.9197274446487427,1.8402833938598633,-0.5441029071807861,-0.22318808734416962,1.3897860050201416,3.509823799133301,1.7225821018218994,1.1510653495788574,0.03733610361814499,0.6308078169822693,-1.355197548866272,-0.7447770237922668,2.7923362255096436,1.3935158252716064,0.9331263303756714,1.6419609785079956,-0.45330724120140076,-1.229114294052124,-1.1798357963562012,-0.8901602625846863,-3.3607680797576904,-1.3106391429901123,1.2053616046905518,1.2091621160507202,0.6772446632385254,2.0464096069335938,0.26649782061576843,-0.0624849870800972,-0.5387400984764099,1.1800861358642578,-1.4717392921447754,1.1240146160125732,0.04295053333044052,0.8837562799453735,-1.5895589590072632,3.600863456726074,0.10285069048404694,-2.927283763885498,0.10459623485803604,1.972684621810913,-1.8488298654556274,-1.5198270082473755,-3.2368202209472656,-1.1263320446014404,2.053661346435547,0.4492911398410797,2.691051483154297,-1.5018789768218994,-0.393081933259964,-0.7426495552062988,-0.9578042030334473,2.9159600734710693,0.4912616014480591,-2.5889480113983154,3.7511823177337646,2.1774964332580566,0.09835299849510193,-0.5173088908195496,1.0298023223876953,1.3049825429916382,-0.47954025864601135,0.0866313949227333,-0.8496420383453369,-2.3851468563079834,-3.2514169216156006,-1.023809790611267,0.9991893172264099,-3.416489839553833,1.9192602634429932,-0.375654399394989,0.11493397504091263,2.010470151901245,3.916144609451294,-1.4160523414611816,-2.1280269622802734,4.436583042144775,-2.447054862976074,-0.7991790175437927,0.024091582745313644,3.163719892501831,0.17315146327018738,2.0253067016601562,-1.132979154586792,2.5309832096099854,-3.0586180686950684,0.8379260897636414,4.465919017791748,-1.4370529651641846,-2.1320924758911133,0.257804274559021,-6.471262454986572,-1.1836466789245605,-1.9265165328979492,-0.8990768790245056,-2.631263494491577,-2.0254859924316406,2.2576897144317627,3.457893133163452,-0.10688690096139908,4.368956089019775,0.6435181498527527,2.71891188621521,-0.3277505040168762,-0.5587942004203796,3.1081206798553467,2.7297234535217285,2.643226146697998,-0.7483072280883789,0.5022056102752686,-0.8412864208221436,-0.6606418490409851,0.5696059465408325,-6.0170135498046875,1.2354445457458496,-0.18207374215126038,-2.8232309818267822,-3.792855978012085,-1.871631145477295,2.0284359455108643,2.8024168014526367,-0.45002761483192444,-1.4020195007324219,-0.9086773991584778,-2.1356213092803955,3.4363698959350586,0.63811194896698,0.1965099722146988,2.1112771034240723,-3.2380762100219727,-1.2193986177444458,-1.357114315032959,1.9676992893218994,1.108852505683899,-3.714306592941284,2.4516115188598633,-2.038806915283203,0.15114422142505646,3.9374852180480957,0.06604883819818497,3.6860196590423584,-1.2060133218765259,3.2865407466888428,-1.170472502708435,1.4107810258865356,1.0694807767868042,3.5368435382843018,-1.1305245161056519,-1.9054583311080933,-3.213552474975586,1.7389953136444092,-1.1070016622543335,-1.5172239542007446,0.46637269854545593,-0.6667702198028564,2.0683724880218506,1.4204903841018677,-1.9848620891571045,-1.100282073020935,-1.7198851108551025,-0.7163059115409851,-1.217043161392212,2.030454397201538,-0.3621163070201874,-0.9367817640304565,-1.0875107049942017,2.967437267303467,-0.648683488368988,-0.3092310130596161,0.962847888469696,-1.3939908742904663,1.5770305395126343,-4.277817249298096,2.813620090484619,-2.4086689949035645,-2.6461455821990967,1.3822931051254272,-2.0881311893463135,1.2300527095794678,0.03893879055976868,-0.44831421971321106,-4.310063362121582,1.704811930656433,0.9899688363075256,-0.3891756534576416,-0.018865980207920074,-0.40547022223472595,4.28774881362915,-1.2851746082305908,0.08385787904262543,1.7087974548339844,0.9677534699440002,0.9146673679351807,3.4179368019104004,-0.058537013828754425,0.6661630272865295,2.444570541381836,1.398848295211792,1.5496833324432373,0.14447753131389618,0.6272667050361633,-1.9177733659744263,-0.24733790755271912,-0.043402012437582016,-1.3920447826385498,-3.9620823860168457,1.6046453714370728,1.1636509895324707,6.77407693862915,-2.7470712661743164,6.2371978759765625,1.319584608078003,2.5230276584625244,0.9068754315376282,-1.1772388219833374,1.1358567476272583,2.9663190841674805,-2.9895846843719482,-0.21434074640274048,-4.173313140869141,-7.299575328826904,-5.569301605224609,-1.3212828636169434,3.167245626449585,0.8257083296775818,0.35413968563079834,-4.345945835113525,0.3592971861362457,-0.6934652924537659,0.7810959815979004,-0.9569149613380432,0.23259927332401276,4.417753219604492,-0.49984434247016907,-0.6468757390975952,-0.18877869844436646,-0.8552359938621521,1.697290301322937,-3.654503583908081,2.5022988319396973,1.2605960369110107,0.4155751168727875,2.2123897075653076,3.5460565090179443,-1.619943380355835,-1.9722238779067993,-1.8818490505218506,0.1554573029279709,1.9120510816574097,1.4257466793060303,1.195144772529602,0.9952095746994019,-2.1986629962921143,-0.42952394485473633,-1.2542130947113037,0.8724290132522583,1.1622679233551025,-2.578235626220703,-0.23230618238449097,-1.3269957304000854,0.27723973989486694,-0.9326710104942322,2.3825435638427734,2.3018312454223633,0.4029620289802551,-2.057293176651001,-1.673356294631958,0.35742107033729553,-2.2599637508392334,0.31247949600219727,0.5328018069267273,3.273473024368286,4.290907859802246,4.686021327972412,1.4772900342941284,-3.7110421657562256,1.1051499843597412,0.6711077690124512,-1.117305874824524,-0.7670643329620361,-0.07155437767505646,-0.32572993636131287,-0.6791398525238037,-0.5817782878875732,2.0633387565612793,-1.771292805671692,-5.101120948791504,1.8607044219970703,1.8417102098464966,-0.09599564224481583,-1.141196370124817,3.216057300567627,-1.5901800394058228,3.0135412216186523,2.9030263423919678,4.728075981140137,-0.18109309673309326,-1.3838461637496948,-0.4300946295261383,-0.011339319869875908,-0.7002449631690979,0.8931335806846619,0.5006409883499146,1.1702231168746948,0.3832683563232422,-2.450249671936035,1.7571152448654175,-1.1457993984222412,-0.05237121134996414,1.0238832235336304,0.32982105016708374,-3.2271037101745605,-0.4616011083126068,-0.21331322193145752,1.055372953414917,2.13942289352417,1.6181819438934326,0.24313221871852875,1.6006550788879395,0.7354509234428406,0.9262391924858093,0.7400428652763367,-1.7109429836273193,-1.262430191040039,-2.544323444366455,-0.6051353216171265,-0.5883903503417969,2.0813727378845215,-2.515904664993286,0.854953944683075,-2.1281044483184814,0.08845058083534241,-0.8986489176750183,-1.2070107460021973,-0.1190461590886116,0.2560587227344513,2.215492010116577,0.019884398207068443,0.14764182269573212,-1.3487293720245361,2.277723550796509,-0.4822976291179657,-2.4307377338409424,1.7062216997146606,2.5303988456726074,-1.0649546384811401,0.07128580659627914,-0.2105986475944519,1.936103105545044,-2.701659917831421,-0.270643025636673,0.45891085267066956,-2.8012256622314453,0.053094301372766495,-1.8731454610824585,-0.04284541308879852,0.1382169872522354,0.2511119842529297,1.153903603553772,-1.3808149099349976,0.28174322843551636,2.7413554191589355,1.0475499629974365,-0.37968000769615173,0.3604775369167328,0.6678923964500427,-0.8604340553283691,0.6755363941192627,0.4583607316017151,-1.6435941457748413,-0.85279381275177,-1.717575192451477,-2.063140392303467,1.0220814943313599,-1.2383602857589722,-0.33443233370780945,1.172957181930542,0.025472959503531456,3.1646199226379395,3.9777984619140625,0.8384463787078857,0.2314935177564621,-1.6499428749084473,1.4714665412902832,0.8868389129638672,1.5186967849731445,0.14765776693820953,0.8596476912498474,-0.7651917338371277,0.4477044939994812,-1.307775616645813,-0.3481304943561554,0.39523208141326904,1.4387906789779663,1.0170133113861084,-2.2815182209014893,0.9105335474014282,1.0389071702957153,-0.2248336374759674,0.12218388170003891,0.5208231210708618,0.337071031332016,-0.4213559627532959,0.6549707651138306,-2.2559564113616943,0.11566837877035141,1.4067764282226562,0.9353391528129578,0.1531333327293396,2.50372314453125,-0.13278870284557343,0.9000000357627869,-0.7608354687690735,-1.078673243522644,0.7426445484161377,-3.326732873916626,0.6859784126281738,-2.954793930053711,0.7578279376029968,0.13067057728767395,0.28920218348503113,-0.6599759459495544,0.1739976555109024,-0.4446377456188202,-3.813730001449585,-0.854218602180481,-2.71099853515625,1.7265198230743408,0.2378159910440445,-0.022578636184334755,-2.1599974632263184,-0.58290696144104,-2.511232376098633,1.778414011001587,0.05426084250211716,0.37708085775375366,1.8799983263015747,0.7499170303344727,0.6279919147491455,1.3210608959197998,-0.15871095657348633,-1.9349820613861084,0.285515159368515,1.7260570526123047,0.6441808938980103,2.9850685596466064,-0.04821289703249931,-1.4421466588974,2.4447574615478516,0.7472532391548157,2.463297128677368,-0.641483724117279,1.6244122982025146,-3.4715514183044434,2.339061737060547,0.809097409248352,-0.7980146408081055,-1.1656887531280518,0.13788655400276184,-3.045900344848633,-1.0659363269805908,0.6430814266204834,-1.7495973110198975,1.7856135368347168,-1.429010272026062,0.15884879231452942,1.1631208658218384,2.0029850006103516,-0.2609498202800751,0.6434847712516785,0.05907287076115608,1.152757167816162,0.6881324052810669,-2.289029121398926,2.578726053237915,-1.6424903869628906,-0.7718402743339539,0.484860897064209,0.7134937644004822,-1.187504768371582,3.8846585750579834,-0.622220516204834,-1.247255563735962,-1.540958285331726,-1.354485034942627,-2.0081393718719482,-3.2065298557281494,3.1349053382873535,-2.2874608039855957,0.8660285472869873,2.4132087230682373,-1.6120043992996216,0.6280288696289062,-2.283694267272949,0.9322758913040161,1.4030622243881226,3.3069515228271484,-1.9417157173156738,-4.616988658905029,1.4632930755615234,4.277256488800049,5.7701005935668945,3.5743327140808105,5.129627227783203,-6.02911901473999,-1.9238817691802979,-2.7641563415527344,-0.13850781321525574,-1.0497387647628784,-3.553239583969116,-2.4881560802459717,-6.076842784881592,8.272083282470703,-4.370907783508301,5.847696781158447,3.3642637729644775,-5.188859939575195,2.4730937480926514,-3.5271542072296143,0.8630976676940918,-4.229750633239746,0.792729914188385,-3.178030252456665,2.490457534790039,6.506616115570068,2.369962692260742,-0.016762077808380127,-5.976006984710693,1.4920192956924438,3.2824597358703613,-4.5192694664001465,-4.950077056884766,-7.521109104156494,-3.840489387512207,-0.7660669684410095,1.7341586351394653,-0.8395614624023438,-0.7839360237121582,1.3229244947433472,3.575289011001587,1.0720252990722656,-0.5025560855865479,0.32345449924468994,6.637681007385254,-2.494992733001709,1.1826978921890259,1.8463109731674194,2.4428982734680176,4.704001426696777,0.8780384659767151,6.009154319763184,-1.3162907361984253,2.021977424621582,-0.7520611882209778,-4.5943145751953125,2.7096500396728516,1.1601253747940063,-6.948600769042969,-1.5813674926757812,0.33696791529655457,1.5616453886032104,-3.96209979057312,2.464768171310425,0.055527735501527786,4.632636070251465,8.680509567260742,-0.5910953879356384,-1.8924580812454224,-4.19384241104126,-6.699727535247803,1.9657692909240723,5.222426891326904,-2.4098668098449707,-2.7047274112701416,2.1389145851135254,8.69505500793457,-7.98198938369751,7.352210521697998,11.184412956237793,-3.5007781982421875,-6.139749050140381,-4.6960248947143555,-0.842083215713501,-0.18370293080806732,1.504410743713379,2.1129963397979736,0.13900740444660187,2.459609270095825,2.486585855484009,-3.077648401260376,5.629012107849121,0.590051531791687,2.65535831451416,-0.11954469233751297,0.02110259234905243,-2.152944326400757,-8.636439323425293,-3.7452831268310547,5.09403657913208,3.181816339492798,7.1679792404174805,2.9735758304595947,2.731992721557617,-2.010028600692749,-2.1088578701019287,-3.6970715522766113,1.448052167892456,-3.068366527557373,10.147395133972168,-2.120872974395752,4.044825077056885,-4.947021007537842,0.2690678536891937,4.064925193786621,-7.500106334686279,6.490038871765137,1.1814162731170654,-4.466081142425537,0.025491803884506226,-1.905996322631836,3.8491270542144775,-2.998090982437134,2.5041897296905518,-0.2741469442844391,-1.8677066564559937,-0.25960826873779297,-3.1217219829559326,2.2455761432647705,0.29143866896629333,-0.7073896527290344,-1.3041435480117798,-1.2298978567123413,-0.31102117896080017,0.23621271550655365,1.2501286268234253,-3.1521129608154297,-1.3875163793563843,-2.547837495803833,2.1033642292022705,-0.8082336783409119,2.058741331100464,-1.249570608139038,2.1748313903808594,-0.602073609828949,2.4530506134033203,-2.02750563621521,1.013891577720642,1.7501049041748047,-3.620415687561035,0.8783206343650818,0.4482397735118866,1.2128382921218872,0.24485035240650177,1.9183363914489746,1.4023576974868774,1.7188304662704468,0.1273546665906906,1.827318549156189,-4.004395008087158,-0.46791505813598633,-0.7587316036224365,-1.1121985912322998,-1.9396499395370483,3.436541795730591,1.6919997930526733,1.4836488962173462,1.3508464097976685,0.3271457850933075,0.9184141159057617,1.5494126081466675,0.37322282791137695,1.609885573387146,-0.807567298412323,2.0877130031585693,-2.2867789268493652,0.65696781873703,3.892951726913452,0.5782957673072815,-1.5181069374084473,-4.886727333068848,3.8585195541381836,0.6721775531768799,1.4829659461975098,-0.3639124035835266,1.943793773651123,-2.3311610221862793,0.7347814440727234,0.9693535566329956,-0.8812519907951355,0.8434528708457947,1.7570979595184326,0.7722757458686829,-2.436072826385498,1.645723819732666,0.7910734415054321,3.4494869709014893,2.6736598014831543,0.5120465159416199,2.071955680847168,-1.914581060409546,0.49209538102149963,-0.40123066306114197,-2.1510608196258545,-0.9164142608642578,0.1767643243074417,-0.15025542676448822,2.4848296642303467,-0.3353605270385742,-2.2867400646209717,-3.159238338470459,-0.7213301062583923,-1.2302120923995972,3.359936237335205,-0.07727212458848953,4.099421501159668,-0.021941373124718666,1.69163978099823,1.2923954725265503,1.028769850730896,0.02902669459581375,2.748648166656494,-0.9968670606613159,0.07183261215686798,0.2405189573764801,-2.405775785446167,-3.5951650142669678,-4.446177005767822,1.4685944318771362,0.7258418798446655,0.7769286036491394,-2.2330634593963623,-1.9122892618179321,-2.076781749725342,-3.705826997756958,0.665619969367981,-1.8889974355697632,3.230243444442749,0.5587705969810486,-0.16143065690994263,-1.724108338356018,2.0972609519958496,1.7927066087722778,-0.7361757755279541,2.055980682373047,0.9425017237663269,2.4452311992645264,2.6169588565826416,1.2137553691864014,0.8910003900527954,4.4529218673706055,-0.5883519053459167,0.5860785841941833,-0.6956086754798889,0.054145604372024536,1.2457275390625,4.387431621551514,-0.26950815320014954,-0.44538629055023193,1.3354573249816895,1.8118723630905151,1.3893892765045166,1.3205773830413818,-0.9720049500465393,-2.7947115898132324,2.5003836154937744,2.5406172275543213,1.1328409910202026,-1.011476993560791,-2.982159376144409,3.2588798999786377,-4.933938503265381,-1.0843079090118408,-0.9559680223464966,1.628251314163208,-0.5458789467811584,3.5194413661956787,-2.4680371284484863,2.8746821880340576,-1.6854037046432495,0.6393885016441345,1.389573335647583,-1.112165093421936,-1.8346701860427856,-3.638244390487671,-6.106522560119629,-1.1870924234390259,-0.36842674016952515,3.8445889949798584,-2.223487615585327,-0.3502412438392639,2.278329849243164,1.6106481552124023,-0.26058298349380493,4.0347418785095215,4.770893096923828,-3.2108023166656494,-0.8518749475479126,1.3957616090774536,2.2450385093688965,-1.7458455562591553,1.5847467184066772,-0.8893707394599915,-1.090835690498352,-2.1637260913848877,-1.6687757968902588,1.201494574546814,-1.3411551713943481,3.0215182304382324,-1.4582915306091309,-1.8533251285552979,-1.9646070003509521,2.601714849472046,-1.655678629875183,-1.5908669233322144,0.6865357756614685,-0.025752436369657516,1.6272940635681152,1.2731024026870728,0.9540574550628662,-2.8548524379730225,-1.235388159751892,-1.1738367080688477,-0.28889158368110657,0.3614260256290436,-1.6468098163604736,-1.8299113512039185,-2.298642635345459,0.13011591136455536,-1.3970036506652832,2.533134937286377,-1.7003417015075684,0.2605622708797455,-2.0444724559783936,-0.713403046131134,0.29148373007774353,-0.6785908937454224,1.8491710424423218,-1.1555527448654175,-1.56605064868927,1.2926169633865356,3.4418928623199463,0.06770540773868561,-2.0779647827148438,-0.9921332001686096,-0.8165940046310425,0.5771986842155457,-0.9513300657272339,1.4758230447769165,-0.18870572745800018,-3.939558982849121,-4.18960428237915,-0.7654173374176025,1.1805726289749146,1.2679805755615234,0.4282118082046509,-3.9249038696289062,-0.20632584393024445,2.5870416164398193,1.6497472524642944,-0.4920690357685089,0.6021880507469177,-1.1415144205093384,5.118783473968506,0.3092235028743744,1.1537829637527466,2.9579432010650635,2.0384364128112793,1.3416311740875244,-1.527887225151062,1.1303972005844116,1.71453857421875,-0.6587956547737122,1.5065183639526367,4.418791770935059,1.2944084405899048,1.5495142936706543,1.3829723596572876,0.13809619843959808,-4.754419326782227,2.763378143310547,0.8555354475975037,-2.5095889568328857,-5.097438335418701,1.518667221069336,0.39753636717796326,-0.9362069964408875,1.9934765100479126,-2.8655147552490234,-1.7643333673477173,-0.1796589344739914,0.7940157055854797,-1.4513362646102905,1.9576787948608398,-6.512703895568848,-0.12364982813596725,-1.0969276428222656,-0.3530274033546448,-1.491517186164856,3.9250402450561523,1.2587308883666992,-1.9158293008804321,1.1586512327194214,-0.6604315638542175,-0.39327678084373474,-0.6158177256584167,2.485957145690918,-1.1089959144592285,-3.245197296142578,-3.7420883178710938,-1.0079655647277832,-1.1199899911880493,2.8066580295562744,-2.499983310699463,-2.7088701725006104,-1.7686927318572998,-1.463690161705017,-0.36492401361465454,1.2672351598739624,1.003870964050293,1.3428293466567993,0.7996987700462341,-2.994070053100586,1.8713043928146362,-3.909785032272339,-1.3604389429092407,1.7705695629119873,-0.14610891044139862,0.5441468358039856,-0.5486310124397278,6.8151068687438965,-3.597989559173584,-2.177924871444702,3.4041173458099365,-0.7891755104064941,0.6164278388023376,1.089686393737793,0.19409075379371643,5.874335289001465,-2.4644901752471924,-1.1578441858291626,-0.49348437786102295,-2.046616315841675,-2.68652081489563,1.4292821884155273,-0.3709363639354706,-0.7190847396850586,-0.7869156002998352,0.2202897071838379,-2.4770522117614746,0.7056192755699158,3.310659408569336,5.003295421600342,0.3229556977748871,-2.6108779907226562,1.335333228111267,-2.3904836177825928,4.176889419555664,1.1518291234970093,-0.1177072674036026,4.455572128295898,0.055545873939991,2.2347850799560547,-1.8542296886444092,1.1847840547561646,-3.074359655380249,3.7556097507476807,-0.6697747707366943,0.20911119878292084,0.05201035737991333,-2.5987632274627686,-1.5770549774169922,1.5514440536499023,2.76216197013855,2.558143377304077,4.703212261199951,-2.728367805480957,-1.1444581747055054,2.556138277053833,1.296739935874939,-1.5777300596237183,-3.0163052082061768,-3.3578124046325684,-0.9031778573989868,2.0866477489471436,1.634553074836731,1.6456292867660522,-1.8565207719802856,0.9043862819671631,2.6506881713867188,-1.236844778060913,-4.091272354125977,-0.6013496518135071,-3.6693639755249023,-0.8590390682220459,0.7231934070587158,2.020890474319458,-2.6271321773529053,-2.9910221099853516,2.113677978515625,2.456075429916382,6.653674125671387,-2.149198293685913,-3.2825119495391846,3.956080198287964,2.0017635822296143,5.515030860900879,-0.8409859538078308,1.3719714879989624,1.3535736799240112,4.347624778747559,0.9224095940589905,2.4591188430786133,-0.3532724380493164,3.6716456413269043,-7.30344820022583,0.5128912329673767,0.6103807091712952,-2.0477702617645264,-0.4283771812915802,0.24237725138664246,-3.627915620803833,-3.1943132877349854,-5.453138828277588,1.4340002536773682,-6.331475734710693,1.034740686416626,0.3301553726196289,-0.13966163992881775,-2.3477296829223633,-1.3583505153656006,3.107471466064453,1.5235533714294434,-3.012406587600708,3.8609366416931152,1.7873278856277466,2.220909357070923,0.1704791933298111,-1.5538581609725952,3.3549747467041016,2.2083818912506104,3.853447914123535,-5.41349983215332,-0.0006318357773125172,1.9465574026107788,-3.0467305183410645,2.6826186180114746,1.990752935409546,0.8044692277908325,-4.93051290512085,2.2058558464050293,1.5071756839752197,-1.138596534729004,3.034940242767334,-2.9916563034057617,-2.5864531993865967,-4.592020511627197,-1.5144233703613281,2.2844173908233643,-1.2317942380905151,9.036741256713867,-3.7753543853759766,-2.517247200012207,-0.38909608125686646,1.4971914291381836,0.4037349224090576,0.3227953612804413,3.778204917907715,-1.2091047763824463,0.1569027453660965,2.69219708442688,3.905819892883301,0.6983941197395325,-1.321518063545227,-0.3371172547340393,-0.2250046581029892,2.0271925926208496,1.0362616777420044,-0.9345272183418274,-4.612415790557861,-0.48260968923568726,1.1563581228256226,1.3043524026870728,-1.9176366329193115,0.16602832078933716,0.6131629347801208,0.6367479562759399,-4.007872104644775,1.7568902969360352,1.7704753875732422,-0.2908930480480194,-0.394924521446228,-1.6258132457733154,0.42643463611602783,-0.39071759581565857,0.4418058693408966,-1.8986248970031738,-4.745042324066162,-1.0803762674331665,-2.520329475402832,-2.904634714126587,1.411797046661377,-3.420921802520752,-2.4459068775177,-2.7726523876190186,2.9854092597961426,2.465139150619507,-0.27531710267066956,-3.0472283363342285,-0.04404345154762268,2.055156707763672,-1.1413029432296753,0.35060063004493713,-0.6107192635536194,1.4106396436691284,-1.025505542755127,2.0306639671325684,-0.6111294031143188,3.4779489040374756,0.07438880205154419,-2.1639485359191895,0.162226140499115,0.25126099586486816,0.49122992157936096,-0.8235674500465393,1.4960989952087402,0.10334202647209167,2.4748053550720215,-0.4062054455280304,-2.1518595218658447,4.720184326171875,3.206871747970581,2.962714195251465,-2.127561092376709,-4.725305080413818,1.7622909545898438,3.009833335876465,3.4029901027679443,1.4026789665222168,-1.3427374362945557,3.58457350730896,0.42244377732276917,-0.7071474194526672,-1.9099830389022827,-1.4755139350891113,0.19598031044006348,0.5460912585258484,1.0431452989578247,4.4729437828063965,-3.2048652172088623,-2.3166933059692383,-4.636786937713623,-11.540749549865723,1.8032499551773071,-0.5528953671455383,-3.602473735809326,-1.4696729183197021,5.566175937652588,5.325241565704346,-3.178759813308716,2.7103991508483887,-0.7930664420127869,1.418776035308838,-2.2776079177856445,-1.8706153631210327,7.512929439544678,1.7311259508132935,2.0995230674743652,-6.034091472625732,-5.402609825134277,1.5109773874282837,0.042931120842695236,-3.4250097274780273,-4.449048042297363,-1.0306646823883057,-6.924759387969971,-1.7622239589691162,-1.3801822662353516,2.761922597885132,-0.663129448890686,-0.9651190042495728,-4.651954174041748,-2.5584964752197266,0.5539915561676025,1.9883450269699097,5.226278781890869,3.162182569503784,-2.3367741107940674,1.4626153707504272,4.319029808044434,-0.6809594035148621,-0.2699313163757324,1.4852499961853027,-0.08202929049730301,-2.806419849395752,-0.5533185601234436,3.7420332431793213,0.23752550780773163,2.160982608795166,-0.35276758670806885,1.018047571182251,-1.331823706626892,2.0908048152923584,1.8003910779953003,2.9232263565063477,-1.3247512578964233,-3.1609275341033936,0.45602118968963623,-2.60131573677063,0.6019826531410217,5.263238906860352,-0.6144822835922241,2.5015790462493896,-3.163973093032837,1.8132390975952148,0.2689327895641327,1.4609992504119873,0.7033834457397461,1.8991502523422241,0.4798962473869324,0.22430598735809326,-2.1086020469665527,-0.5824352502822876,-1.6467393636703491,0.32830584049224854,-3.7445008754730225,-1.8923710584640503,3.3508286476135254,-3.8784332275390625,-1.6488069295883179,-1.8542941808700562,3.2291762828826904,0.9669440984725952,-3.5771405696868896,2.4896161556243896,0.878610372543335,-1.4403965473175049,-1.886338472366333,-2.0350167751312256,1.3603999614715576,-1.0770115852355957,-1.9896808862686157,-2.6977484226226807,1.2961580753326416,0.3008129596710205,0.6419842839241028,0.007954281754791737,-0.8026803731918335,1.7881165742874146,-1.8929117918014526,-1.5279121398925781,2.4266529083251953,0.9703318476676941,1.456373691558838,2.679321765899658,2.634770154953003,-0.8306334614753723,-0.2760083079338074,-5.227129936218262,-0.20422348380088806,0.5681582093238831,2.65315318107605,1.002628207206726,-0.15397362411022186,-1.7343612909317017,-0.7388976216316223,-0.2963097095489502,3.6194839477539062,0.5882930159568787,-1.8920539617538452,1.82772696018219,-4.491478443145752,1.474071979522705,-0.2848583161830902,3.2173147201538086,0.3427370488643646,3.178276300430298,0.6028372645378113,0.06880166381597519,-2.036534070968628,-0.49790409207344055,0.2675619423389435,-1.0677196979522705,-1.495041847229004,-2.709838628768921,-1.191954493522644,-1.6475857496261597,0.8316366076469421,0.2408827245235443,0.22795888781547546,-1.2221965789794922,1.398080587387085,-2.1050872802734375,1.038109540939331,1.260488510131836,0.6438596844673157,-4.914716720581055,0.4091028869152069,-1.8019959926605225,-1.1809579133987427,0.9188801646232605,1.9067593812942505,-0.9595175981521606,-1.2765607833862305,-1.6750413179397583,0.11429686099290848,-1.3568687438964844,-1.8720123767852783,-0.5177910923957825,-1.342331886291504,0.20126454532146454,-2.5672054290771484,-5.228114128112793,0.5664071440696716,-0.7961803674697876,-3.644602060317993,-4.127038478851318,0.42572933435440063,-3.9923675060272217,0.24677090346813202,3.250047445297241,-0.6292650699615479,0.5795015692710876,1.2807022333145142,0.7182972431182861,2.403872013092041,1.2320446968078613,2.4145944118499756,1.689193844795227,-0.039939526468515396,-5.02133321762085,1.064568281173706,2.894613027572632,1.5836615562438965,-1.5877727270126343,-0.5156846642494202,0.07546366751194,-1.9363820552825928,-1.0656864643096924,-2.3806567192077637,-6.329380989074707,-0.9223721623420715,0.9618171453475952,0.7955543398857117,-1.4413716793060303,0.6638472080230713,3.656991481781006,2.2132999897003174,-0.08546273410320282,-0.4443272650241852,0.26467660069465637,-0.38121363520622253,-2.234307289123535,-1.1635818481445312,1.8136510848999023,2.9678728580474854,-0.8218769431114197,-1.1550986766815186,-0.628119170665741,2.402740478515625,3.358778476715088,3.2044057846069336,0.8370527029037476,1.8494757413864136,-3.0552308559417725,3.462031841278076,2.200983762741089,-1.6336780786514282,-0.4356340765953064,-0.7872907519340515,-2.5818700790405273,-1.9813475608825684,1.4084042310714722,1.4262428283691406,-2.7942113876342773,2.2089743614196777,-0.3010953962802887,-3.2145514488220215,1.0008821487426758,2.811962604522705,4.956613063812256,7.11928129196167,2.3489410877227783,-10.621731758117676,2.853248119354248,6.045324802398682,-2.783646821975708,5.515984058380127,-0.02217566967010498,2.0131893157958984,4.385132312774658,-3.4480507373809814,7.279118537902832,-1.8358104228973389,5.160069942474365,1.4482008218765259,3.786055326461792,-7.033339023590088,-2.1889705657958984,2.9528353214263916,8.963343620300293,3.619736909866333,4.352610111236572,6.399141311645508,-5.910617351531982,-9.416132926940918,-3.2467682361602783,-3.315958261489868,-8.655621528625488,-6.8018903732299805,-2.8250954151153564,1.9744285345077515,-0.024925127625465393,-7.008169174194336,-2.572101354598999,3.082308053970337,7.327105522155762,-1.920432686805725,9.851554870605469,-3.2393853664398193,8.039115905761719,-1.260590672492981,-7.4726243019104,-2.1459288597106934,-1.56095552444458,4.319561958312988,-9.530364990234375,0.2793617248535156,-4.694321632385254,-7.268368244171143,-12.729870796203613,1.2186559438705444,-0.8512643575668335,-10.276334762573242,-0.6292498707771301,-1.660081148147583,-1.9837664365768433,-2.172430992126465,-0.48873448371887207,-0.06298799812793732,-8.948832511901855,-4.211798667907715,-5.3094987869262695,-1.5092235803604126,0.4145631194114685,6.553606033325195,-10.255892753601074,-4.8455071449279785,2.175102710723877,4.086671829223633,12.729007720947266,5.273573398590088,11.815006256103516,10.6502103805542,2.0268616676330566,1.3820600509643555,-9.270176887512207,3.1550772190093994,-1.1468631029129028,10.189579963684082,-5.586705684661865,-7.304579734802246,6.222765922546387,-3.438042402267456,-0.38231927156448364,-6.1450676918029785,1.2726287841796875,4.033471584320068,-5.504414081573486,-1.3273108005523682,-15.39085578918457,-3.495375156402588,4.203186988830566,4.537205696105957,-8.732295989990234,-6.858947277069092,3.7670023441314697,-1.8310350179672241,-7.207754611968994,-1.0555490255355835,-5.890580654144287,-8.18893814086914,-7.454577445983887,9.248290061950684,6.227663993835449,-3.6647281646728516,-1.9776136875152588,-1.5873950719833374,2.1033639907836914,3.3938395977020264,2.6664681434631348,2.617243528366089,0.40468186140060425,-4.149835586547852,0.876190185546875,-1.9162667989730835,-1.2532274723052979,-1.1509507894515991,-1.497497797012329,0.9870879650115967,-4.3079142570495605,-1.3820750713348389,-5.105574607849121,1.3207024335861206,1.9186605215072632,-0.46310168504714966,-0.6843432188034058,-0.5479589700698853,-2.0661277770996094,1.5836997032165527,-2.5359063148498535,0.42993730306625366,0.863704264163971,-2.7386744022369385,-0.3702017068862915,-3.4978976249694824,0.1520243138074875,-0.8955278396606445,-5.1472063064575195,-1.7153171300888062,-4.128998279571533,3.8055171966552734,3.8603267669677734,-1.8093082904815674,1.9020024538040161,-3.7196578979492188,-3.5404186248779297,2.3290860652923584,6.365437030792236,-2.5783798694610596,2.024177074432373,1.4160239696502686,-1.588101863861084,2.6132616996765137,-1.1660560369491577,-0.43548882007598877,1.9461978673934937,-0.3685058355331421,0.3794459402561188,-1.3230785131454468,0.8423567414283752,4.040524482727051,0.3868078291416168,-1.9313241243362427,0.45246100425720215,6.584959506988525,2.210286855697632,-1.4495726823806763,0.8058825731277466,2.5297911167144775,1.5737677812576294,0.9666314721107483,1.3081376552581787,4.104429244995117,0.6238497495651245,0.22542567551136017,-0.4244057536125183,2.008413314819336,-1.9378044605255127,0.7409936189651489,-1.4642884731292725,0.0851442888379097,-1.1626951694488525,-1.9247620105743408,-1.024256944656372,2.6123850345611572,-0.4025624394416809,1.556695580482483,4.815699100494385,-6.180069446563721,0.6743257641792297,-2.1248586177825928,2.1261494159698486,13.143308639526367,1.4688836336135864,-0.12861599028110504,-5.6032257080078125,-1.0711851119995117,-1.8315644264221191,-1.328246831893921,-4.079374313354492,-9.027843475341797,-1.8855242729187012,-9.57945442199707,10.306573867797852,-8.601150512695312,12.021622657775879,-4.1246418952941895,1.5160953998565674,3.209735631942749,-8.825252532958984,6.45108699798584,-7.679220676422119,2.6907362937927246,-3.3838253021240234,5.166312217712402,-1.7177486419677734,4.749490261077881,-4.096349716186523,8.256138801574707,5.150176525115967,2.1205646991729736,3.595712423324585,-0.7309740781784058,-5.177850246429443,-14.189343452453613,-4.978744983673096,-4.324121952056885,-4.009316444396973,-4.101431369781494,12.2400484085083,5.02846097946167,0.003638924565166235,8.43716049194336,8.507659912109375,6.729926586151123,-2.995265483856201,1.9044089317321777,-5.698119163513184,4.27658224105835,4.718145847320557,4.352191925048828,-1.0086079835891724,6.141542434692383,2.542292833328247,-4.0097150802612305,-2.1333906650543213,10.286498069763184,-0.9591005444526672,-1.2838401794433594,5.301600456237793,0.24040892720222473,2.882164716720581,0.06749112159013748,1.0643194913864136,1.599757194519043,1.1523137092590332,-1.3955740928649902,-0.4193683862686157,1.309726595878601,-2.8005764484405518,-2.0920841693878174,-1.592681646347046,0.8799037337303162,-0.585405170917511,-2.230520725250244,-2.227330446243286,-1.4820444583892822,-0.3494482636451721,4.797883987426758,1.399828553199768,-2.2724833488464355,-1.3211842775344849,-2.851773738861084,0.629991888999939,-0.4269784688949585,0.29965025186538696,2.536879777908325,-0.7185530662536621,0.03354525566101074,-0.688328206539154,-1.057366967201233,0.388373464345932,0.8472599983215332,2.267918586730957,-1.712701678276062,-3.035102605819702,-0.38770243525505066,-1.8768091201782227,0.01837007887661457,1.4673011302947998,1.266148328781128,1.7009780406951904,0.969146728515625,5.9296112060546875,-1.0234959125518799,-1.5561460256576538,-1.6559022665023804,0.6362690329551697,-0.532724142074585,1.6413185596466064,2.8681676387786865,0.8102126717567444,1.9051573276519775,-0.5154528617858887,6.138806343078613,-1.3366966247558594,5.377901554107666,1.9335694313049316,-3.0528078079223633,1.9512066841125488,1.7139028310775757,-0.19589900970458984,-0.4392981231212616,0.01977170817553997,-1.1323268413543701,-1.3581883907318115,0.21698817610740662,1.149925708770752,-1.1752692461013794,-2.188333034515381,-0.6635733246803284,2.929807424545288,-1.3355348110198975,-0.851999819278717,-0.6720391511917114,-4.751996994018555,2.1729860305786133,1.4943983554840088,-1.7021957635879517,-1.3136420249938965,2.829986572265625,-2.0738415718078613,0.9542354941368103,0.8460788726806641,-3.3612751960754395,2.3509082794189453,-0.3513806462287903,1.6423531770706177,-3.200025796890259,6.073302268981934,-4.629851341247559,0.12294197827577591,-2.6865859031677246,1.59112548828125,-0.6723024249076843,-1.192502737045288,0.11562532931566238,0.009723898023366928,0.6824658513069153,6.753464698791504,2.9165537357330322,2.1661057472229004,2.0827791690826416,2.1804540157318115,0.5786076784133911,0.4041714370250702,-3.0183568000793457,-1.838411569595337,-1.5163544416427612,1.0048717260360718,-1.567559838294983,-0.11197704076766968,0.15917454659938812,1.3958332538604736,-1.5560613870620728,1.7263832092285156,0.6860263347625732,-0.3833349645137787,0.314315527677536,0.2127903401851654,-0.5175678730010986,0.8025220036506653,-2.2193093299865723,-0.43749627470970154,0.34957003593444824,3.024897813796997,-6.5859270095825195,0.30667582154273987,0.7854422330856323,-6.787302017211914,1.5199941396713257,-12.577231407165527,-9.109471321105957,-2.488921642303467,-5.7759904861450195,-1.1619395017623901,-3.1910338401794434,1.4523918628692627,-5.1131157875061035,5.181395530700684,7.240434169769287,7.126921653747559,-2.7362942695617676,-2.0959553718566895,-11.334699630737305,0.23033642768859863,3.4161477088928223,3.298370361328125,-0.5638240575790405,7.289877414703369,-1.4156994819641113,-11.043381690979004,2.843503952026367,-6.886875629425049,1.2474009990692139,-7.214116096496582,5.7047529220581055,1.3675659894943237,-2.234011650085449,0.5911729335784912,4.480466365814209,6.751378536224365,11.333558082580566,-0.869146466255188,6.744718074798584,3.416243553161621,9.991116523742676,-6.078723430633545,-6.953262805938721,-1.9622722864151,2.2801032066345215,4.417600154876709,-1.9179260730743408,3.2194952964782715,-0.023314541205763817,-8.661738395690918,0.854874849319458,-5.3462018966674805,-3.09163498878479,2.3378427028656006,-0.3875631093978882,1.7588088512420654,7.313544750213623,-7.194758415222168,5.535275459289551,-5.573365211486816,6.061104774475098,-1.0605804920196533,-0.6164559721946716,-1.3980443477630615,-0.7687552571296692,2.415576696395874,-4.848782062530518,0.022039765492081642,-3.2336692810058594,0.5195695161819458,-0.47066566348075867,0.4330103099346161,0.172744482755661,-1.0584774017333984,-1.061148762702942,0.30510637164115906,-0.5767261981964111,5.223193168640137,-0.13558289408683777,1.3136565685272217,3.982692241668701,-3.41098952293396,-3.6344542503356934,-0.980308473110199,2.9772400856018066,2.0801775455474854,2.253009557723999,3.674772262573242,1.2077800035476685,0.7608290910720825,-0.05000384524464607,-3.200254201889038,1.0879186391830444,-4.193460464477539,0.9949222207069397,3.106358528137207,-3.060570001602173,3.1951916217803955,-1.322931170463562,3.534970283508301,1.7460819482803345,-1.984790563583374,-1.479097604751587,-0.0067789265885949135,0.3315540850162506,0.389026939868927,-4.889723300933838,0.6746871471405029,1.362257719039917,1.622389554977417,-1.5144696235656738,2.5662589073181152,-2.993847131729126,-1.004817247390747,-2.1011664867401123,0.28710898756980896,4.000272750854492,-0.3838513195514679,3.5080931186676025,-1.443266749382019,-3.314136505126953,-0.41678884625434875,-3.8566150665283203,0.3921484053134918,1.9326082468032837,-2.5185084342956543,1.843084454536438,-1.8890854120254517,0.6967881321907043,-0.780458927154541,1.0031144618988037,0.9071673154830933,-1.1760812997817993,3.0758395195007324,-0.29242274165153503,-3.0041704177856445,-2.6844558715820312,-4.201930522918701,-1.4003541469573975,-2.549614191055298,0.909436047077179,-2.1823740005493164,1.267059087753296,-1.8330268859863281,1.4018869400024414,1.6151388883590698,-0.6438084840774536,-0.8536574840545654,-2.900087594985962,3.4362964630126953,0.16476844251155853,2.625760316848755,2.2049262523651123,0.5673275589942932,4.235693454742432,0.2934902608394623,-0.6048731207847595,-2.9685559272766113,2.5068321228027344,-0.4366662800312042,-0.3396359980106354,-1.9032174348831177,0.1398494988679886,-1.579038381576538,3.735485792160034,-0.5453003644943237,1.4494036436080933,1.0728806257247925,-2.4204158782958984,-0.606532096862793,0.34422993659973145,1.4182027578353882,1.0258549451828003,2.7685117721557617,0.8432627320289612,2.111711263656616,0.8567750453948975,1.862902045249939,1.6564264297485352,0.3858771324157715,-0.35119250416755676,-0.32850661873817444,1.6621174812316895,3.5467042922973633,-6.459561347961426,-0.27032142877578735,-2.4330337047576904,-2.156344413757324,0.5249371528625488,3.5365941524505615,2.689455986022949,5.4397783279418945,6.871728897094727,-11.062447547912598,6.091709613800049,1.8270641565322876,-2.551224946975708,-1.1081101894378662,4.956871032714844,5.075707912445068,2.826565980911255,0.3422170579433441,3.586693048477173,2.12337327003479,-0.06255558878183365,-7.467843055725098,-2.676151752471924,4.741825580596924,-11.802847862243652,7.002686977386475,-2.118905544281006,-0.21727727353572845,-3.5815517902374268,12.066569328308105,1.287554144859314,-8.37796401977539,3.4284539222717285,-9.006305694580078,5.001926898956299,-3.9380805492401123,8.689120292663574,-11.155953407287598,-8.999564170837402,2.9855494499206543,2.584533452987671,-4.3296122550964355,4.382923603057861,-5.649174690246582,-7.134925365447998,-6.459187030792236,-2.672701835632324,2.1590754985809326,-3.0601279735565186,-4.207948684692383,-3.237727403640747,3.8059802055358887,-3.5070836544036865,8.689130783081055,-10.1868314743042,-1.491457223892212,5.960441589355469,-0.04407183825969696,6.071671962738037,-0.42672550678253174,9.574909210205078,-8.723183631896973,-2.3856561183929443,5.7489495277404785,2.6928892135620117,1.5185215473175049,2.311764717102051,-1.1619818210601807,1.8403522968292236,1.3852795362472534,3.179692029953003,-0.20869627594947815,-5.0120439529418945,-0.2652735114097595,0.06800590455532074,-5.1188578605651855,-0.9298860430717468,8.899449348449707,8.062698364257812,-1.3069031238555908,-0.24362681806087494,6.64145040512085,-2.46720552444458,-1.3141170740127563,0.6728694438934326,3.409991502761841,-2.0113675594329834,0.36126944422721863,-3.2348086833953857,-2.611027479171753,-10.051806449890137,-5.877627849578857,-3.917266607284546,-3.7955517768859863,1.5217219591140747,4.115499019622803,-8.684280395507812,5.005373954772949,1.7085529565811157,4.574718475341797,-2.0205652713775635,-1.1533970832824707,0.5861418843269348,6.546184539794922,-6.286595821380615,-5.405050754547119,-0.7964968681335449,3.1240580081939697,-1.7683207988739014,4.486608028411865,6.5922369956970215,2.6882314682006836,-3.6177256107330322,-1.8501660823822021,-2.0122759342193604,4.158309459686279,-0.7845629453659058,-2.0940909385681152,-0.25614532828330994,-3.0995662212371826,-5.696333885192871,-1.6800254583358765,0.609933614730835,-2.0358827114105225,2.8378536701202393,3.119825839996338,2.2790887355804443,0.17748995125293732,-1.8706119060516357,5.984482288360596,1.404977798461914,5.958911895751953,-3.0899715423583984,-4.353971004486084,-0.8726367950439453,5.65778923034668,-1.5842658281326294,-11.409347534179688,2.5731041431427,-4.312829971313477,-4.243340969085693,-3.288483142852783,-8.564179420471191,-5.324521541595459,-4.551041126251221,10.070521354675293,-6.743742942810059,4.74006986618042,4.705847263336182,-0.7904062867164612,-0.5615326166152954,-2.2452306747436523,-1.3879715204238892,-4.307467460632324,6.776609420776367,-3.40523362159729,-7.383596897125244,2.444507122039795,-8.230743408203125,13.442668914794922,-0.9620802998542786,2.4983859062194824,-5.672085762023926,6.050466537475586,0.06741908937692642,1.304071068763733,-7.6903395652771,7.880149841308594,-4.254724025726318,2.720538854598999,3.9207417964935303,4.508107662200928,0.990708589553833,-10.75965404510498,-9.951752662658691,-6.046743869781494,7.88739013671875,3.63352370262146,3.9845755100250244,7.806446075439453,-4.961174011230469,4.8321309089660645,2.563979387283325,1.6283451318740845,-2.4567368030548096,7.225846767425537,-4.377721309661865,-1.956346869468689,0.6469229459762573,-8.271044731140137,-4.859044075012207,-2.9254186153411865,4.395305633544922,-0.4810602366924286,-8.225509643554688,-2.3010594844818115,-0.8335592150688171,-5.6525559425354,2.249375581741333,-8.773486137390137,-2.5130269527435303,-5.500723361968994,-9.14214038848877,-1.482364296913147,1.7212965488433838,-0.8042119145393372,-5.726467132568359,-2.8603081703186035,8.023055076599121,-0.7582301497459412,0.560157299041748,-1.7962937355041504,-5.053356170654297,-3.8877298831939697,0.29318228363990784,4.1184186935424805,3.3280415534973145,4.955735206604004,-0.21601326763629913,-2.3947718143463135,4.102104663848877,-0.828872561454773,4.932377338409424,-2.4423041343688965,-8.967840194702148,0.7606695294380188,3.1094448566436768,-6.519925594329834,2.930405855178833,5.55941915512085,4.059467792510986,-0.42738237977027893,1.8669174909591675,-4.422170639038086,2.9830009937286377,-9.465938568115234,-0.19876356422901154,-0.29469573497772217,5.212517261505127,7.578811168670654,-6.017853736877441,-0.12220320105552673,0.09462738782167435,-4.254009246826172,-1.4060676097869873,-3.9952430725097656,0.05461105331778526,0.24208302795886993,-6.198145389556885,9.105230331420898,-5.123181343078613,-4.582240104675293,1.0891306400299072,-1.488970160484314,5.755485534667969,2.7742013931274414,0.2760376036167145,-1.7572873830795288,2.7762889862060547,-0.9759119749069214,1.2669216394424438,-3.86230206489563,-7.646792888641357,-5.052185535430908,-3.2209839820861816,2.785068988800049,-1.634800910949707,6.0528106689453125,5.713995456695557,-0.06636814773082733,1.5631966590881348,-1.7274088859558105,1.5854982137680054,6.0751118659973145,8.829140663146973,-6.412973880767822,-11.094377517700195,-4.388275623321533,1.5999040603637695,1.2686361074447632,3.4856622219085693,9.711897850036621,-3.435992479324341,3.080233097076416,-3.308295726776123,-16.342031478881836,0.6658824682235718,-9.381061553955078,7.321344375610352,0.6219815611839294,-13.038188934326172,-0.37284979224205017,0.47741633653640747,1.6663413047790527,1.0390434265136719,-0.759794294834137,-2.8890304565429688,-2.0467734336853027,15.85482406616211,4.3224992752075195,-3.3475053310394287,1.6434977054595947,-0.8408277034759521,10.496893882751465,-1.9997318983078003,7.765105247497559,-7.229060649871826,1.389171838760376,-0.3517812192440033,-6.2562079429626465,1.1291124820709229,0.7194843888282776,1.0795514583587646,-11.373026847839355,-2.9909284114837646,5.078173637390137,-0.2671682834625244,1.2012224197387695,6.9835968017578125,-0.5138816237449646,0.3262642025947571,5.951756954193115,0.6309123039245605,8.27199649810791,-5.81956148147583,6.005505561828613,0.4082842767238617,-4.454480171203613,1.1272720098495483,-1.1835523843765259,4.940468788146973,0.34255826473236084,2.337416648864746,0.9282059073448181,7.641741752624512,-0.4365105628967285,1.38291597366333,3.2391228675842285,6.070254802703857,-13.176667213439941,4.322973251342773,9.582552909851074,-4.228358745574951,-8.959098815917969,8.418743133544922,4.708658695220947,0.26636695861816406,3.936237335205078,-6.661373138427734,2.5457534790039062,1.1807152032852173,0.5190012454986572,-2.0387279987335205,-13.171911239624023,2.1539952754974365,-1.3347649574279785,-2.4175243377685547,5.567748546600342,-3.9405243396759033,-6.403262138366699,-8.452863693237305,-0.5658628344535828,4.17968225479126,-0.2570120692253113,-6.396646976470947,-1.0862195491790771,-3.2488415241241455,-6.5049591064453125,1.916106939315796,-6.219600677490234,0.18276447057724,4.533018112182617,1.2674206495285034,2.877589225769043,4.3028717041015625,10.40262222290039,-9.921887397766113,-4.419082164764404,2.0906126499176025,2.9723620414733887,5.6461334228515625,12.374676704406738,-0.18578743934631348,-1.122198462486267,-8.439194679260254,0.7073808312416077,-2.645263671875,-2.7122962474823,5.019011974334717,-1.9660395383834839,-2.510474920272827,9.589349746704102,5.936356544494629,1.9055509567260742,2.0084726810455322,0.08170679211616516,2.6175341606140137,-2.240152597427368,7.469620704650879,-5.7425408363342285,-6.504891395568848,5.481217384338379,6.856060981750488,0.9076176881790161,-3.6010115146636963,-7.384613513946533,-3.4600210189819336,-2.502235174179077,1.984057903289795,1.5624066591262817,2.1251277923583984,-2.2762529850006104,5.897478103637695,2.563887357711792,-2.141817569732666,-6.6581950187683105,6.762418270111084,12.405051231384277,10.106237411499023,-0.9393378496170044,-1.2586263418197632,-5.748730182647705,-1.8681317567825317,-1.6116865873336792,15.016351699829102,4.391698360443115,6.969919204711914,0.5025817155838013,-3.2850372791290283,-6.859513282775879,11.721839904785156,-2.026613235473633,8.967700004577637,-5.099874019622803,9.852115631103516,1.4451946020126343,-3.2354748249053955,10.241328239440918,-7.4508771896362305,2.9515013694763184,4.570489406585693,4.8596930503845215,5.103789806365967,-2.5207061767578125,4.959030628204346,0.9800813794136047,-0.7160454392433167,-4.920799255371094,-9.473345756530762,5.828871726989746,-5.2043352127075195,2.8745861053466797,-1.5189226865768433,-3.3030669689178467,8.260828971862793,2.5540645122528076,3.7000248432159424,-6.252893447875977,0.9965293407440186,3.9139580726623535,-9.288886070251465,2.284958600997925,-2.1656200885772705,-1.1667561531066895,-5.0077409744262695,6.452179431915283,3.051384449005127,-6.227714538574219,-2.637094497680664,-15.409750938415527,-0.08581945300102234,-0.18382705748081207,3.3228609561920166,0.10803025960922241,-0.09232954680919647,4.0341796875,8.782670974731445,0.671186089515686,-10.871039390563965,4.486288070678711,0.14493896067142487,6.091521739959717,-7.495625972747803,-5.953580379486084,0.5610072016716003,-1.3743722438812256,-6.4718194007873535,1.6680846214294434,5.0354461669921875,1.206242322921753,-2.2243478298187256,-4.34047269821167,-3.2841012477874756,3.7792046070098877,-5.832507610321045,6.413937091827393,1.0052413940429688,8.943886756896973,1.6648980379104614,-5.79835319519043,5.110541343688965,-6.323315620422363,2.4926772117614746,4.918316841125488,7.738367080688477,0.799418568611145,-6.468792915344238,-4.282536506652832,11.563011169433594,4.295243263244629,-1.6412357091903687,-3.823239803314209,0.7468328475952148,-0.5535800457000732,2.3299384117126465,1.2511134147644043,-11.153965950012207,-1.1799365282058716,1.1004294157028198,5.706671237945557,9.571017265319824,1.3887921571731567,0.4666602909564972,-3.9064745903015137,7.692317008972168,1.3724230527877808,1.163027286529541,1.4634618759155273,-1.773362636566162,-1.2129981517791748,0.20599570870399475,6.015832424163818,2.929133892059326,-1.1958575248718262,1.4578852653503418,2.2105326652526855,-0.8678803443908691,-4.601828098297119,-2.701137065887451,-3.718506097793579,10.733237266540527,-4.679030418395996,0.6941138505935669,-2.427492380142212,12.315186500549316,2.9562768936157227,8.56486701965332,-2.008312225341797,-1.6969465017318726,-1.297964096069336,-8.377737045288086,-1.5456591844558716,0.8142934441566467,-5.254568099975586,2.166368246078491,-4.762085437774658,-1.4425824880599976,-0.9372721314430237,-3.8100099563598633,-12.114108085632324,-1.5215957164764404,-4.551582336425781,1.5971189737319946,0.8348537683486938,2.8556594848632812,-3.41534423828125,-3.174431085586548,11.910018920898438,5.549466609954834,-0.16275767982006073,7.467833518981934,1.45374596118927,-0.3359825015068054,13.2349853515625,1.5117337703704834,-0.10573779046535492,4.2126336097717285,-9.108148574829102,-1.9419385194778442,-3.7728188037872314,11.886667251586914,-1.733540654182434,3.3215856552124023,5.101077079772949,2.228229522705078,1.8762004375457764,-1.9811763763427734,3.269598960876465,2.0330255031585693,12.280387878417969,-9.792171478271484,-3.4856369495391846,-4.989604949951172,2.4695262908935547,1.1212184429168701,4.43131685256958,-2.2137451171875,1.9684337377548218,-4.057535171508789,-2.7025132179260254,-10.876729965209961,-5.579983711242676,-0.5727740526199341,4.16315221786499,-2.490696907043457,1.328343152999878,-0.2223552167415619,1.2710734605789185,5.785706520080566,4.064868450164795,2.8351688385009766,3.833522319793701,3.528933525085449,4.058271408081055,-0.4990970194339752,-9.723184585571289,6.273749828338623,-2.6034786701202393,-2.113400459289551,-4.338045597076416,1.9419535398483276,-1.460422158241272,-4.806575775146484,-15.261321067810059,-3.011108875274658,-4.4931321144104,-0.8744788765907288,1.6354329586029053,-2.520667314529419,-1.617536187171936,1.4546221494674683,-8.690988540649414,0.7842611074447632,3.8891079425811768,-7.277032375335693,4.612203598022461,6.810724258422852,5.57197380065918,9.689177513122559,5.44414758682251,-3.5871524810791016,-2.449657678604126,-1.9724997282028198,5.114596843719482,4.641392707824707,2.2771971225738525,1.474286675453186,-3.3085622787475586,9.026848793029785,1.808576226234436,2.969832420349121,-5.765509128570557,0.16625753045082092,-5.670051097869873,3.356417417526245,5.207029819488525,-0.47725480794906616,2.7978107929229736,1.2877423763275146,2.8768253326416016,-6.7861762046813965,7.362572193145752,-5.4802937507629395,0.25587403774261475,-2.597259998321533,4.2025299072265625,5.452695369720459,-6.07343053817749,-2.092311143875122,6.600846290588379,6.879097938537598,4.874894618988037,-1.0363560914993286,5.870748996734619,5.666569709777832,3.372976303100586,-0.2134881168603897,-1.026621699333191,-1.0863324403762817,-5.152976036071777,-1.9764060974121094,-3.065990686416626,-2.2607617378234863,0.7746739983558655,-2.031414031982422,3.03429913520813,-0.5110403299331665,-1.3057767152786255,-6.137449741363525,2.000149726867676,-5.374123573303223,1.3332574367523193,5.651745319366455,5.173770904541016,-1.6984076499938965,-4.108042240142822,0.9161987900733948,3.4716320037841797,3.2499146461486816,-0.769001305103302,-0.3111127018928528,-1.5745105743408203,6.943941116333008,4.616577625274658,-2.25467848777771,9.215803146362305,-1.400573968887329,-0.7789651155471802,-1.7025585174560547,-3.979519844055176,-2.4606447219848633,-6.928265571594238,0.4383839964866638,-3.779815912246704,2.6461501121520996,-1.1495661735534668,8.451335906982422,1.1990081071853638,-2.4412786960601807,0.20996876060962677,-6.510672092437744,-4.031369686126709,-5.867234706878662,1.6976358890533447,-0.31301194429397583,-2.033876657485962,3.544311046600342,0.13303321599960327,-0.28861695528030396,-11.147313117980957,2.5562593936920166,4.952330112457275,-1.761064887046814,-1.6429615020751953,-0.9508469700813293,-6.10659646987915,0.4343756437301636,-2.5693793296813965,-2.0259859561920166,-5.771179676055908,-2.7433371543884277,7.526376247406006,-1.6361663341522217,8.697964668273926,6.172416687011719,10.93696403503418,-1.3762003183364868,2.118396282196045,8.637458801269531,1.4946967363357544,4.257372856140137,-2.8127377033233643,9.089996337890625,-2.7593955993652344,2.85414981842041,-0.5328936576843262,-7.444646835327148,7.707398891448975,-0.3345111906528473,-0.1389102190732956,-0.9029638767242432,1.7237129211425781,2.5275068283081055,0.6254763007164001,4.76187801361084,-0.08055873215198517,6.328582763671875,4.01785135269165,-3.398655414581299,2.3473124504089355,-0.7697409987449646,-5.398551940917969,4.700613975524902,2.3786990642547607,-7.007530689239502,-1.2547004222869873,-3.635202169418335,4.053786277770996,5.592559814453125,2.5239031314849854,-5.866016387939453,-5.074761867523193,-2.8630590438842773,-4.756898880004883,-6.483069896697998,2.4357776641845703,-7.787087440490723,-0.711723268032074,4.41041898727417,-0.30509093403816223,0.6256580352783203,6.737003803253174,-5.374696731567383,-1.8147982358932495,0.08140932023525238,-4.4427409172058105,-1.6630377769470215,-3.6474568843841553,-1.7849087715148926,3.471515655517578,6.317905426025391,-4.574534893035889,-2.613919734954834,5.167333602905273,1.4478545188903809,-10.048845291137695,-8.672159194946289,9.44807243347168,-0.04701567813754082,-7.596739768981934,-0.7216169834136963,7.87404203414917,5.320440292358398,3.801370620727539,-5.66597318649292,-1.7044631242752075,-6.458609580993652,6.439296722412109,4.110945224761963,-1.1028794050216675,6.379356384277344,-8.467885971069336,5.410613536834717,11.168975830078125,3.1940557956695557,-4.917460918426514,-2.2495007514953613,7.12525749206543,-11.093999862670898,7.701028823852539,10.338257789611816,1.607497215270996,4.984706401824951,-7.753144264221191,-3.454726457595825,-6.0365095138549805,9.35721206665039,-3.10941743850708,-1.011016845703125,-2.6907637119293213,-8.246716499328613,-3.348145008087158,13.806413650512695,0.5126339793205261,7.4355340003967285,3.3742520809173584,-1.3763023614883423,-14.84679889678955,10.749834060668945,11.493865013122559,-3.9762747287750244,4.836315155029297,-1.0043857097625732,7.61111307144165,-0.590370237827301,-5.321784019470215,-1.6548418998718262,0.270363450050354,1.2841286659240723,-0.8686797618865967,-14.390450477600098,1.4113516807556152,-7.719114780426025,-9.967225074768066,-7.2532267570495605,6.902118682861328,5.524647235870361,0.1997346580028534,-0.9921883940696716,-1.2693687677383423,4.110363006591797,7.007533073425293,-1.6311613321304321,4.401521682739258,3.648146629333496,7.440500736236572,3.5967724323272705,-1.2351549863815308,13.704557418823242,-2.9277191162109375,-4.609694480895996,-3.750643730163574,0.455086886882782,9.627513885498047,-6.0663862228393555,5.683283805847168,2.378267288208008,-0.3506205677986145,-0.49862247705459595,-2.5937416553497314,4.150058269500732,4.277416229248047,3.7467315196990967,3.4896950721740723,-6.05251932144165,-8.079413414001465,-5.66937255859375,-1.3020979166030884,-0.17935220897197723,-1.2426035404205322,-4.735074996948242,-0.35251402854919434,2.974133014678955,3.371279716491699,-2.7756311893463135,11.129928588867188,12.170872688293457,-5.359668731689453,-12.26098346710205,-3.436448097229004,4.312870502471924,-1.8076738119125366,-0.9136803150177002,-0.06935884803533554,4.245998859405518,5.905369758605957,1.3266342878341675,-5.883151531219482,8.65014362335205,5.580963134765625,9.498966217041016,-1.545275330543518,-0.6597779393196106,1.2842321395874023,-13.321598052978516,1.3335256576538086,-0.8672969937324524,6.458597183227539,8.259533882141113,-1.8355076313018799,3.3820226192474365,2.231954336166382,-0.9125549793243408,-9.479052543640137,9.272258758544922,1.2349780797958374,7.374892234802246,4.15255880355835,4.3905720710754395,-1.6755932569503784,3.271894931793213,-5.488481521606445,-1.5022845268249512,17.149396896362305,-0.9076984524726868,3.5491530895233154,2.361262321472168,-1.448216438293457,4.614602088928223,10.001802444458008,12.265398025512695,2.301910161972046,-11.446155548095703,2.932903528213501,8.496602058410645,1.9424983263015747,-8.538086891174316,0.19233568012714386,-0.14870350062847137,7.389909267425537,0.07982978224754333,4.387423515319824,-5.4813551902771,5.375494480133057,-6.413909912109375,5.193203449249268,5.121817111968994,-0.6957328915596008,1.0922043323516846,1.733171820640564,-6.4908342361450195,0.8002272844314575,-2.3276727199554443,7.0693039894104,-8.85217571258545,-9.22193717956543,1.0754737854003906,-8.156599044799805,1.1288115978240967,-7.642387866973877,5.649293422698975,-1.6265175342559814,-0.6169642806053162,6.448269844055176,-2.8488922119140625,-0.9563252925872803,8.209757804870605,-7.585371971130371,7.828220367431641,14.967377662658691,4.001936912536621,-3.4411814212799072,-6.344841480255127,-0.9585638046264648,-1.2812020778656006,5.152266502380371,-3.6736607551574707,-3.3123862743377686,-1.3725879192352295,-0.27597862482070923,-1.1616783142089844,-4.918993949890137,-3.1553869247436523,-7.3743743896484375,-4.424004554748535,-0.6525541543960571,4.871518611907959,12.4022798538208,2.0897819995880127,3.1581356525421143,1.4888441562652588,-2.45357084274292,-7.499975204467773,1.3487225770950317,2.4827728271484375,-0.5155894160270691,6.918951034545898,0.8753517270088196,-10.919132232666016,-1.5908119678497314,-1.4066901206970215,3.3838813304901123,8.837310791015625,4.763298988342285,3.758059501647949,-7.209043025970459,-0.23062007129192352,-5.003203868865967,9.51219367980957,7.842554569244385,13.715240478515625,-5.23421049118042,-0.3683166205883026,-5.203921318054199,7.698922157287598,7.86782693862915,7.258184432983398,0.12095076590776443,-5.748352527618408,0.9775765538215637,3.7330832481384277,-9.063100814819336,-3.246445894241333,-2.0324723720550537,4.026191234588623,-2.0266661643981934,-1.484288215637207,0.8726722598075867,-9.470953941345215,-0.16888098418712616,-1.4997678995132446,1.0584205389022827,6.806209087371826,2.131497383117676,4.071653842926025,-1.2078982591629028,-10.582958221435547,0.45710986852645874,-4.711400032043457,1.8124487400054932,-9.392183303833008,-0.06917700171470642,1.4160714149475098,-5.466324329376221,-15.671167373657227,-6.7670674324035645,-4.064919948577881,-0.3177763819694519,-2.6027143001556396,-6.244019031524658,0.927094578742981,-3.391918182373047,-8.255349159240723,0.038370952010154724,3.967940092086792,-7.494194984436035,-1.4722816944122314,2.4309024810791016,1.475774884223938,-1.7549809217453003,-0.09180277585983276,-5.420254707336426,-0.9109582304954529,0.9728841781616211,-2.087127208709717,1.3131861686706543,-0.7554464340209961,1.6310526132583618,0.3665245473384857,1.2880629301071167,1.059289813041687,0.6489457488059998,0.5259321928024292,0.683408260345459,-1.8407317399978638,1.131548285484314,-1.421425700187683,0.8558505773544312,0.9513909220695496,1.4827605485916138,1.34092116355896,-0.12151401489973068,-0.1618737131357193,-1.340494155883789,0.5134864449501038,0.22151364386081696,-1.08846914768219,-0.40058842301368713,-2.075075149536133,-1.0331751108169556,1.1329296827316284,0.015239710919559002,1.1271511316299438,0.39093562960624695,-1.2654635906219482,-0.3745601773262024,1.4421675205230713,-1.640657901763916,-0.8786942362785339,-2.462456226348877,1.53269624710083,-0.09787063300609589,-0.4351421594619751,-1.0456352233886719,1.437449336051941,-2.010500431060791,-1.4074432849884033,-2.2329747676849365,-0.27261799573898315,2.1424596309661865,0.6903810501098633,0.891933798789978,-1.5626732110977173,0.6286749243736267,-0.32206183671951294,-3.2353744506835938,0.8800874948501587,-0.8717902898788452,-2.6452014446258545,-1.2298561334609985,1.5883989334106445,0.938927173614502,-0.5339141488075256,-0.5745778679847717,-0.3907811939716339,0.4194645881652832,-0.619257926940918,1.0304574966430664,-0.9378530979156494,0.013860789127647877,-0.08947912603616714,0.353640615940094,-0.17475400865077972,0.3024892807006836,-1.5771795511245728,-0.34960436820983887,2.312232255935669,0.704534649848938,-2.602583169937134,-0.7241472601890564,1.2190325260162354,3.6391236782073975,0.22525900602340698,2.4349849224090576,-1.742584466934204,-0.3236084580421448,0.3706672787666321,0.9105899930000305,0.6004483699798584,-3.9699714183807373,-1.2635703086853027,0.6604806780815125,-2.932119607925415,-3.089747190475464,-0.7332878112792969,-1.522182822227478,3.53509521484375,-1.0023363828659058,0.1283157467842102,-2.4188826084136963,-0.34417620301246643,-0.6762707233428955,-1.2979763746261597,3.0393757820129395,-0.5111096501350403,1.087260127067566,-1.923038363456726,3.61792254447937,-1.2300102710723877,1.981480360031128,0.8824706077575684,-1.1912903785705566,2.826037883758545,-0.6819524168968201,2.833996295928955,-1.8912584781646729,-2.4429242610931396,0.09232496470212936,-1.2110824584960938,2.155569553375244,0.8375599980354309,-0.6151338815689087,0.04898186773061752,-0.025747597217559814,0.07220295071601868,0.04037942737340927,0.0010728900087997317,0.02999066561460495,0.022033875808119774,-0.06871731579303741,0.06929686665534973,0.007375549525022507,0.055457860231399536,0.0067389956675469875,0.043347276747226715,-0.06866904348134995,0.0350387878715992,0.058747708797454834,-0.028408728539943695,-0.049915630370378494,-0.05944089591503143,0.06707959622144699,0.03190075233578682,0.006837194785475731,-0.016467716544866562,-0.031411364674568176,0.030311284586787224,-0.021673137322068214,0.03237825632095337,-0.021962478756904602,-0.05589515343308449,-0.01020239107310772,0.02279162034392357,-0.04093324393033981,0.042861826717853546,0.0017649633809924126,0.06819230318069458,0.052302900701761246,-0.06525305658578873,0.035627447068691254,0.02715853601694107,0.04827399551868439,0.003429953008890152,0.015880664810538292,-0.0007034141453914344,-0.05764492601156235,-0.03184119611978531,0.060118407011032104,0.044595543295145035,-0.048944152891635895,0.0037097670137882233,0.06621510535478592,-0.0318869911134243,-0.06256820261478424,-0.06744296848773956,0.05416448414325714,-0.04859195277094841,-0.011602763086557388,0.07080631703138351,-0.0008942121057771146,0.05433432757854462,-0.05199907347559929,0.005361479241400957,0.055701788514852524,0.05791330337524414]},"hiddenLayers":[{"inputMatrix":{"rows":20,"columns":63,"weights":[-1.0738815069198608,-1.4585069417953491,1.2327176332473755,-1.726517915725708,-0.7529628872871399,-0.3384649455547333,0.9093097448348999,0.6460992693901062,0.6024878025054932,-1.417846441268921,-0.8535115122795105,-1.3022089004516602,0.061079010367393494,-0.1465463787317276,0.7307745814323425,-2.7798099517822266,-1.0907694101333618,0.06976870447397232,-0.2532579302787781,0.8335673809051514,-0.4177999794483185,-2.284881591796875,0.3352161645889282,-1.4196884632110596,-0.9144644141197205,1.0804246664047241,1.156427264213562,2.524082899093628,0.5812866687774658,4.725135326385498,0.28514185547828674,0.014000155963003635,0.035641901195049286,0.7954168319702148,-0.3028717339038849,-1.1773309707641602,-1.7127680778503418,-1.2617449760437012,-1.627916693687439,-0.8167818784713745,-1.554331660270691,3.0832035541534424,0.5846248865127563,1.0934865474700928,0.6479901075363159,-0.7672065496444702,1.3621898889541626,1.2129145860671997,-1.7237614393234253,2.7183780670166016,0.8204095959663391,2.859036922454834,-0.893595814704895,-0.9741500020027161,0.2784212827682495,-1.3190689086914062,1.4636906385421753,0.33996784687042236,-0.22698140144348145,-1.5696682929992676,-0.15073227882385254,-0.13675649464130402,1.9389053583145142,-0.004829107783734798,-0.6028746962547302,1.1492435932159424,-3.6204776763916016,-0.8120476603507996,0.4768780767917633,-1.0268001556396484,1.4143363237380981,-0.31672990322113037,-1.590505838394165,-1.5756372213363647,-1.7999294996261597,-1.2910213470458984,-2.476625680923462,1.0098168849945068,0.5827677249908447,0.3062558174133301,-1.346144676208496,0.575492262840271,0.6426690220832825,-0.7212370038032532,-0.07124609500169754,-0.3878507912158966,2.014842987060547,2.436983108520508,-0.5039123892784119,-2.113765001296997,-1.4933782815933228,1.6121617555618286,-0.8700824975967407,-0.6585386991500854,0.050895411521196365,4.777537822723389,0.059878718107938766,-2.5001413822174072,-1.2828792333602905,0.9592691659927368,0.03987061604857445,1.4033489227294922,0.9519837498664856,0.5995346307754517,-0.9251709580421448,-0.5772876143455505,2.0106003284454346,1.5941715240478516,0.3396260440349579,0.66753751039505,-0.4219205379486084,2.187741994857788,-1.348414421081543,-0.4662667214870453,0.3577972948551178,1.5321400165557861,0.8317112922668457,1.0304138660430908,1.2231225967407227,0.3002137839794159,-1.374048113822937,0.16725753247737885,-0.08520815521478653,3.8790578842163086,-2.530386209487915,-2.607388496398926,0.6273399591445923,0.7491185665130615,0.10782913118600845,-0.21732501685619354,0.3669048249721527,1.156027913093567,1.6834156513214111,0.4851211607456207,-1.2457596063613892,0.1321428120136261,-1.9307562112808228,-0.011256534606218338,1.6704649925231934,-3.0839715003967285,0.5534210801124573,-0.3393995463848114,0.5752300024032593,-0.2633807063102722,1.2014825344085693,-2.2718048095703125,-2.519526720046997,2.9093379974365234,0.1522706001996994,0.38049814105033875,-0.7325854897499084,1.559678554534912,-2.012071371078491,0.804249107837677,-1.413274884223938,1.0212018489837646,-1.0096406936645508,0.14386455714702606,0.6729246377944946,-0.18899314105510712,-0.47108232975006104,-0.36642923951148987,-0.5286200642585754,0.9032517671585083,-0.8735136389732361,-1.521077036857605,-0.1978459656238556,-2.5841994285583496,1.1635230779647827,2.062551975250244,-0.35337382555007935,-1.358841896057129,1.156920075416565,-0.638634979724884,-0.19932621717453003,-0.3628832995891571,-0.34847959876060486,1.646506905555725,2.0283942222595215,0.3588375449180603,0.46225687861442566,1.5509593486785889,0.7711014151573181,-0.9738362431526184,-0.6097339987754822,1.0606950521469116,1.0879660844802856,0.4612486660480499,-0.36627253890037537,1.5185927152633667,-0.8978602886199951,0.9238691329956055,-1.4214458465576172,3.502371072769165,-2.5667736530303955,-1.268385410308838,-0.6219415664672852,0.3753575384616852,-1.9021764993667603,0.34687942266464233,-0.4982021152973175,-1.7745312452316284,0.12730373442173004,1.9434564113616943,-0.11489857733249664,-0.2365616261959076,1.920818567276001,-2.050096273422241,-0.4222024083137512,-2.122344732284546,0.2663075923919678,1.8094260692596436,2.392141103744507,0.45249760150909424,-0.5962228178977966,1.1880319118499756,-0.7199364304542542,-0.7426744103431702,-0.756062924861908,-0.49643242359161377,-0.2754359543323517,0.023426324129104614,0.11275236308574677,0.41242098808288574,-0.4330935478210449,0.8505223393440247,-1.950830101966858,2.6470234394073486,-1.4409395456314087,0.11272645741701126,0.5560821294784546,-2.0856075286865234,-1.4460874795913696,-0.2194172441959381,0.9518159627914429,1.0307608842849731,0.5849942564964294,2.6059587001800537,0.15687115490436554,-0.9662205576896667,-0.4715217649936676,-0.01242968812584877,0.2137741893529892,-1.7963459491729736,-1.648231029510498,1.725546956062317,0.20649012923240662,0.5282144546508789,-3.219599962234497,-1.359706997871399,0.054650355130434036,1.7843339443206787,1.2422857284545898,0.2573275864124298,-0.5580060482025146,2.538999557495117,-0.008605155162513256,0.6774439215660095,-1.5005468130111694,2.762631416320801,0.7301099300384521,0.22899356484413147,1.7148199081420898,-1.251204252243042,-1.1459773778915405,1.9050211906433105,-1.7743788957595825,-1.0639300346374512,-0.41497811675071716,1.587489128112793,-0.2730427086353302,-1.0235073566436768,-1.3368593454360962,1.0667043924331665,-2.0581774711608887,0.43499064445495605,-0.007835345342755318,-1.9767206907272339,0.6962483525276184,-3.638725757598877,-1.462451457977295,-2.168482542037964,1.8640724420547485,-0.1999451369047165,0.43870866298675537,-0.7822194695472717,-1.8154963254928589,-1.0748040676116943,-0.29999423027038574,0.3747689425945282,2.3088302612304688,1.9457265138626099,0.6957848072052002,-1.4191399812698364,-0.682811975479126,0.7106481194496155,-1.0372976064682007,2.105797052383423,0.31830742955207825,-1.173922061920166,-1.0281985998153687,-0.6757829189300537,2.361856698989868,-1.1977185010910034,0.5894399881362915,-2.538884162902832,1.577008605003357,-0.061211489140987396,-1.9915205240249634,2.669105291366577,-1.9131251573562622,2.5708963871002197,-1.9896570444107056,-0.7215603590011597,-1.1090537309646606,1.1698492765426636,2.8368499279022217,0.8621464371681213,1.9838143587112427,-2.2835309505462646,0.04029051586985588,0.6407999396324158,1.6690603494644165,5.335297584533691,1.6868027448654175,-0.9772414565086365,1.0339144468307495,1.1619586944580078,1.2663800716400146,-0.6145788431167603,0.7469503283500671,-0.39547452330589294,1.1556622982025146,-0.6310322880744934,0.8445276618003845,-0.9896392226219177,-0.46353068947792053,0.39455845952033997,-0.41893699765205383,1.7743901014328003,-0.4684984087944031,-1.0706971883773804,-3.2386257648468018,-0.297158807516098,-0.22730229794979095,-0.8957666754722595,-1.4551922082901,-4.403544902801514,-1.1994047164916992,-0.8589903116226196,-1.7673277854919434,0.7603708505630493,0.6563377380371094,0.3379339575767517,1.3544162511825562,0.07265856862068176,2.2396345138549805,1.135154128074646,-0.7211857438087463,-1.7913426160812378,-1.6624141931533813,-0.08574612438678741,-0.8383994102478027,1.6211683750152588,-1.4118773937225342,0.3113034963607788,-1.725329041481018,-0.13453374803066254,-0.8544942736625671,-0.11109994351863861,-1.8360735177993774,0.9691530466079712,1.4598524570465088,-1.3137911558151245,0.2513236701488495,-1.4243639707565308,0.09567508101463318,-1.0216879844665527,3.7638978958129883,0.17768843472003937,-2.498931407928467,2.954303026199341,-3.4601638317108154,2.052875280380249,-1.5232917070388794,0.05056390166282654,-1.5630593299865723,1.02719247341156,1.0764038562774658,1.079717755317688,-0.3312182128429413,2.2965526580810547,-2.097240686416626,-0.5023927092552185,0.1884603500366211,-0.7889542579650879,1.6821091175079346,-1.344239592552185,0.3439108729362488,-0.3875772953033447,-1.0906440019607544,-0.8227740526199341,0.110340416431427,-1.5640829801559448,-0.4948021471500397,-1.8751798868179321,-1.3342621326446533,-1.616847276687622,0.9661680459976196,1.9605144262313843,-2.7725679874420166,0.33337000012397766,-0.33331501483917236,1.0086520910263062,0.37893402576446533,-0.020206386223435402,0.5546357035636902,2.1779284477233887,0.58552485704422,1.157191514968872,-0.5947527885437012,2.505343198776245,-1.5851564407348633,1.0288386344909668,-0.1149669960141182,-1.2533637285232544,0.0035789140965789557,-0.2261180877685547,-0.9075351357460022,-0.47464093565940857,-1.143401026725769,-2.2047815322875977,1.8948392868041992,0.4360429644584656,-0.6240158081054688,2.903297185897827,0.9949800968170166,2.2329752445220947,-0.3653363287448883,-0.9830582141876221,0.10657551139593124,-0.17930825054645538,-2.152557611465454,-0.6069422364234924,-0.4750809967517853,-2.347414255142212,-0.294940710067749,-0.175284281373024,0.052160754799842834,0.3821423649787903,3.3841960430145264,0.8432010412216187,-0.19737499952316284,-0.0031257711816579103,0.613565981388092,0.08605289459228516,0.6213973760604858,-0.8658491373062134,-0.6477267742156982,-0.8593960404396057,0.06105560436844826,0.9765055775642395,-0.3939044177532196,1.9147083759307861,-1.6869903802871704,0.2579708397388458,2.4716439247131348,-3.543102264404297,-1.0871293544769287,0.8901754021644592,-1.4595260620117188,1.244750738143921,1.0519214868545532,-1.0448023080825806,-0.16831596195697784,1.4489232301712036,0.6574081182479858,0.3754153251647949,1.3675875663757324,-1.096118450164795,-2.9055795669555664,-1.714675784111023,-1.12168550491333,0.17191652953624725,-0.7171019315719604,-1.598297357559204,-2.1563620567321777,-0.5844933390617371,-1.071295976638794,-0.0034400110598653555,-0.6120861768722534,-1.597169041633606,0.026894384995102882,-0.4473412036895752,0.824038028717041,1.2956823110580444,3.771786689758301,-1.452067255973816,-1.1145037412643433,1.772443413734436,-0.774179220199585,1.5217232704162598,-0.04467132315039635,-1.2131805419921875,0.46764206886291504,-0.6147277355194092,-1.7841591835021973,2.9641027450561523,0.0032117157243192196,0.8311920762062073,0.1345096230506897,0.5818740129470825,0.817754864692688,1.9250035285949707,0.9826553463935852,2.272055149078369,-0.44692498445510864,0.2987830638885498,-4.4040207862854,-0.0181729756295681,1.3682286739349365,1.2235217094421387,-0.939536452293396,-0.4801790416240692,-2.1817774772644043,-3.5404582023620605,0.43857765197753906,-0.13216041028499603,-0.2940960228443146,-4.166208744049072,-0.28315263986587524,-1.0355775356292725,-2.6920065879821777,-0.9275326132774353,0.6234455704689026,1.0491619110107422,-1.1308503150939941,0.1721494048833847,-2.222426414489746,-1.5339943170547485,0.16573987901210785,0.10055943578481674,1.905453085899353,2.5746936798095703,0.19234025478363037,1.248352289199829,-0.8124098777770996,-0.5761830806732178,-0.9799169301986694,-0.5102272033691406,0.5327692031860352,-2.0031440258026123,-1.4818264245986938,-0.42302757501602173,1.2436949014663696,-2.6469943523406982,-1.9722944498062134,0.5378685593605042,-0.881560206413269,0.06830359995365143,0.8943573832511902,0.6190251708030701,-1.180909276008606,0.2640632092952728,-0.06276015937328339,-0.7160800099372864,0.028291843831539154,-2.9742956161499023,-1.8314648866653442,-0.680803656578064,0.7251843214035034,-1.544631004333496,-0.4543984830379486,1.3179525136947632,1.0855602025985718,0.9476270079612732,-1.2486087083816528,-1.605871558189392,-1.2487742900848389,0.9836495518684387,-2.1742873191833496,0.9742311239242554,-0.21530330181121826,-0.8515968322753906,1.010797142982483,1.6955077648162842,-0.5833415389060974,1.5833312273025513,-0.937412679195404,1.8880459070205688,-0.6558448076248169,4.257236003875732,1.3939337730407715,-0.469205379486084,0.2009611427783966,-0.05857939273118973,0.02154785394668579,-2.5291051864624023,0.20658989250659943,-2.1289212703704834,-2.051642894744873,0.5918387174606323,-0.43803849816322327,0.3571038842201233,1.7979482412338257,-1.264653205871582,-1.1660012006759644,-0.5088471174240112,2.3222711086273193,-1.7276078462600708,-2.479086399078369,0.48306095600128174,-0.756271481513977,1.6516985893249512,0.32125967741012573,3.487844944000244,-0.9060099124908447,0.6837350726127625,-1.4156224727630615,-0.19307339191436768,2.652862787246704,-1.2607100009918213,2.677814483642578,-3.698631763458252,-0.7904410362243652,-1.9686238765716553,-1.1830095052719116,-0.6971698999404907,0.08939995616674423,-2.437350273132324,2.3701698780059814,-1.319252848625183,-1.0323107242584229,-0.31449052691459656,-0.3900878131389618,2.3242976665496826,2.196624517440796,-0.06319412589073181,-0.5440224409103394,-0.4626764953136444,0.003118053777143359,-0.16302503645420074,0.8931302428245544,-0.34543994069099426,-1.4297568798065186,1.2832574844360352,1.1423338651657104,0.49407655000686646,0.540767252445221,0.33399322628974915,-2.029679298400879,-1.5586336851119995,-2.0881452560424805,-0.7364405989646912,-0.5639612078666687,1.5179733037948608,0.4548143148422241,1.1627082824707031,0.5188184380531311,2.530930280685425,0.5754197239875793,-0.8698514699935913,-0.15955758094787598,-1.3430885076522827,1.1633131504058838,0.0673280581831932,-0.9477899670600891,-2.4120993614196777,-1.4858111143112183,-0.08690276741981506,-1.9304226636886597,-1.280470609664917,0.4262947738170624,-0.3664519488811493,-2.076561450958252,-1.2605881690979004,-0.6491694450378418,2.081930160522461,-0.16590803861618042,2.575807571411133,0.035313624888658524,3.2276642322540283,0.3229435086250305,-0.27525320649147034,-1.3311834335327148,-3.007577657699585,0.5505020022392273,0.4064615070819855,-0.05158603936433792,0.3723323941230774,-1.917850136756897,-0.8299643397331238,3.7408697605133057,1.1142098903656006,3.116403579711914,2.517672300338745,1.272039771080017,-1.7668038606643677,-0.25023868680000305,0.6070806980133057,0.29389461874961853,4.264155387878418,0.18045754730701447,0.4801737666130066,0.18568523228168488,0.6163118481636047,0.3828914761543274,-1.3124629259109497,1.323843002319336,-2.0141282081604004,2.163580894470215,-0.878361165523529,-0.9022270441055298,0.10035566240549088,1.1425724029541016,2.0655601024627686,-2.18143367767334,2.846859931945801,-0.7526455521583557,-0.9931327104568481,-2.9218294620513916,-3.0516631603240967,-2.7828292846679688,-1.1056890487670898,0.12730705738067627,-2.7835400104522705,-1.0038446187973022,-0.942368745803833,-2.720024824142456,0.3346420228481293,2.6608002185821533,-0.7532505989074707,-1.1865559816360474,-1.5153697729110718,3.5845563411712646,0.14700300991535187,-3.1478097438812256,-0.1830441802740097,-1.6716229915618896,-0.8067175149917603,-2.2152743339538574,0.24777968227863312,-1.8163553476333618,-0.8195725679397583,-1.9425805807113647,0.45201507210731506,0.7891854643821716,0.4436703324317932,-0.38635876774787903,-0.738926887512207,-0.2411532700061798,0.6151210069656372,-1.6732450723648071,-0.647842526435852,1.8538243770599365,-0.674736738204956,-0.5851213335990906,-0.622538685798645,-1.3932194709777832,0.7786130905151367,0.2509475350379944,0.6040260195732117,-0.572916567325592,0.71840500831604,-2.7198104858398438,0.5982231497764587,1.4121739864349365,-0.7126447558403015,0.28398770093917847,1.0775537490844727,-0.8874861001968384,0.8291724920272827,-0.7878296375274658,-0.734740138053894,1.9257521629333496,0.698967456817627,0.26567885279655457,-1.6554861068725586,-0.5991509556770325,-0.8756944537162781,-2.0123138427734375,1.282095193862915,0.6786041259765625,1.013468623161316,-0.4154439866542816,0.7920198440551758,0.7707543969154358,1.3499215841293335,0.9179671406745911,1.2270042896270752,-0.19252660870552063,0.59187251329422,-0.996642529964447,1.0770877599716187,-0.9740483164787292,-0.9146220088005066,0.9832665324211121,-1.5275388956069946,-1.1314283609390259,3.172764301300049,-0.843254804611206,1.0291026830673218,0.1047925055027008,-0.27703505754470825,-0.0652913898229599,1.3194307088851929,0.725709080696106,1.094054102897644,-0.3396289646625519,1.2540132999420166,1.4007327556610107,1.4063605070114136,-1.905278205871582,-2.222668170928955,0.7049093842506409,1.8420850038528442,0.7855432629585266,-0.5670146942138672,-0.7411478757858276,1.2788881063461304,0.8609707355499268,-1.3777421712875366,-0.11649355292320251,0.9766002297401428,0.9285508990287781,-2.29162335395813,0.9190353155136108,-0.06628470122814178,-1.1474123001098633,-2.243730306625366,0.020289652049541473,-1.6417224407196045,-0.8589162826538086,-0.12178783863782883,-2.0932369232177734,1.6623165607452393,-1.5910382270812988,1.2948704957962036,-0.21146662533283234,-0.9268012046813965,-0.24188591539859772,-2.268139123916626,2.4157159328460693,-1.4023282527923584,-0.7708479762077332,0.8105765581130981,-0.7236200571060181,-0.8234800696372986,-0.625946044921875,-0.26755285263061523,-0.21821074187755585,1.4528374671936035,-0.02567564696073532,-1.5710121393203735,-0.6449165940284729,0.5493123531341553,0.2794846296310425,0.9121359586715698,3.268132448196411,1.876997470855713,-1.1107282638549805,0.820609986782074,1.966825246810913,-0.35416513681411743,1.764557123184204,0.9386284351348877,-1.691795825958252,-2.506080150604248,0.8310191631317139,2.8339569568634033,-0.7114356756210327,2.3513519763946533,-2.512526512145996,-2.281055450439453,-2.6933047771453857,1.0826929807662964,1.4787817001342773,-2.0231804847717285,-0.632364809513092,-1.5851422548294067,-1.9288746118545532,-0.9464054107666016,0.6085070967674255,-0.6251255869865417,0.8058136701583862,1.774692416191101,1.9335273504257202,1.5598154067993164,-3.3330492973327637,0.5314858555793762,-1.9024207592010498,-1.621634602546692,0.1151590570807457,-0.8399710655212402,-2.4066593647003174,-2.3440279960632324,-0.010254625231027603,-0.765969455242157,-0.11303526163101196,-0.8441787958145142,2.3103444576263428,-1.842143177986145,-1.7428780794143677,0.8277376294136047,-0.9764872193336487,2.7450060844421387,-0.42274707555770874,-0.8598906993865967,0.5632970929145813,-1.1682850122451782,0.8038004636764526,-1.5933188199996948,-1.0261943340301514,-0.09738003462553024,0.7184572815895081,0.16880670189857483,-1.663751482963562,0.021514741703867912,1.9731523990631104,-1.1684471368789673,1.1516908407211304,-1.1424232721328735,2.578547716140747,-1.9159862995147705,-0.6204545497894287,0.9251211285591125,-0.7611445188522339,1.6169865131378174,-1.0193545818328857,1.3852204084396362,-0.10626037418842316,-1.1145504713058472,1.1786805391311646,0.17422160506248474,1.4486594200134277,-0.3205065429210663,1.6110432147979736,1.4302256107330322,1.5037481784820557,0.0204132329672575,-0.7324274778366089,1.0759518146514893,0.25454777479171753,0.18247604370117188,1.4831750392913818,-0.37030264735221863,0.7485178709030151,-0.04077792540192604,-0.5068127512931824,0.31526267528533936,-1.0890120267868042,0.35114970803260803,-0.18063396215438843,-0.708677351474762,-2.3284168243408203,-1.8275681734085083,-0.4147956073284149,0.35055506229400635,-2.4668209552764893,1.354569435119629,-1.1295270919799805,1.18937087059021,1.3344955444335938,1.2389545440673828,0.022923648357391357,-0.4621548652648926,-0.0025555030442774296,0.17199644446372986,1.029523491859436,1.1297987699508667,1.6454339027404785,1.199582815170288,1.6495722532272339,0.12254305928945541,1.060882806777954,-2.9420266151428223,0.48394471406936646,1.1438984870910645,-1.13840913772583,-0.36283719539642334,-0.4332859516143799,-0.7059060335159302,-1.436865210533142,-0.6930630803108215,-2.982539176940918,1.776251196861267,0.14885278046131134,1.7379475831985474,-0.25152963399887085,-2.2749552726745605,-0.5943915843963623,1.787268877029419,1.8351207971572876,2.0379490852355957,0.5061448812484741,