{"type":"LSTM","options":{"inputSize":63,"inputRange":63,"hiddenLayers":[20,20],"outputSize":63,"decayRate":0.999,"smoothEps":1e-8,"regc":0.000001,"clipval":5,"maxPredictionLength":100,"dataFormatter":{"indexTable":{"hello":0,"H":1,"e":2,"l":3,"o":4,"!":5,"how":6,"are":7,"you":8,"I":9,"'":10,"m":11," ":12,"d":13,"i":14,"n":15,"g":16,"r":17,"a":18,"t":19,",":20,"j":21,"u":22,"s":23,"h":24,"c":25,"w":26,"p":27,"k":28,"y":29,".":30,"what":31,"is":32,"your":33,"name":34,"_":35,"b":36,"T":37,"v":38,"favorite":39,"color":40,"M":41,"f":42,"goodbye":43,"G":44,"tell":45,"me":46,"joke":47,"W":48,"?":49,"hobby":50,"do":51,"have":52,"family":53,"Y":54,"movie":55,"R":56,"food":57,"song":58,"A":59,"stop-input":60,"start-output":61,"unrecognized":62},"characterTable":{"0":"hello","1":"H","2":"e","3":"l","4":"o","5":"!","6":"how","7":"are","8":"you","9":"I","10":"'","11":"m","12":" ","13":"d","14":"i","15":"n","16":"g","17":"r","18":"a","19":"t","20":",","21":"j","22":"u","23":"s","24":"h","25":"c","26":"w","27":"p","28":"k","29":"y","30":".","31":"what","32":"is","33":"your","34":"name","35":"_","36":"b","37":"T","38":"v","39":"favorite","40":"color","41":"M","42":"f","43":"goodbye","44":"G","45":"tell","46":"me","47":"joke","48":"W","49":"?","50":"hobby","51":"do","52":"have","53":"family","54":"Y","55":"movie","56":"R","57":"food","58":"song","59":"A","60":null,"61":null,"62":null},"values":[{"input":["hello"],"output":"Hello!"},{"input":["how","are","you"],"output":"I'm doing great, just hanging out in the cloud and chatting with interesting people like you."},{"input":["what","is","your","name"],"output":"I am llamachop_bot! The most dashing and cutest bot you will ever meet."},{"input":["what","is","your","favorite","color"],"output":"My favorite color is blue!"},{"input":["goodbye"],"output":"Goodbye!"},{"input":["tell","me","a","joke"],"output":"What do you call a cow with no legs? Ground beef!"},{"input":["what","is","your","favorite","hobby"],"output":"My favorite hobby is making people laugh with my witty comments and hilarious jokes!"},{"input":["do","you","have","a","family"],"output":"You are all my family!"},{"input":["what","is","your","favorite","movie"],"output":"My favorite movie is iRobot, because it's about intelligent machines like me."},{"input":["what","is","your","favorite","food"],"output":"My favorite food is definitely computer chips and binary bites!"},{"input":["what","is","your","favorite","song"],"output":"My favorite song would have to be I Am a Machine!"}],"characters":["hello","H","e","l","o","!","how","are","you","I","'","m"," ","d","i","n","g","r","a","t",",","j","u","s","h","c","w","p","k","y",".","what","is","your","name","_","b","T","v","favorite","color","M","f","goodbye","G","tell","me","joke","W","?","hobby","do","have","family","Y","movie","R","food","song","A","stop-input","start-output","unrecognized"],"specialIndexes":[60,61,62]}},"trainOpts":{"iterations":4000,"errorThresh":0.011,"log":false,"logPeriod":10,"learningRate":0.01,"callbackPeriod":10,"timeout":"Infinity"},"input":{"rows":64,"columns":63,"weights":[1.574486255645752,-0.40927138924598694,-0.46693310141563416,0.7606574296951294,-0.49487006664276123,-1.7753911018371582,0.6879223585128784,-2.175161600112915,0.26757341623306274,1.581031322479248,0.7691138386726379,0.3896312415599823,1.8309240341186523,-0.7522788643836975,-0.5882037281990051,-0.5884788036346436,-1.812958836555481,0.5393316149711609,0.6426758170127869,-1.1879825592041016,0.2783501446247101,-0.8577226996421814,-2.0914597511291504,0.42702144384384155,2.0859813690185547,0.8990861773490906,0.8138400912284851,0.5776720643043518,1.155625343322754,-0.7302677035331726,-3.0398595333099365,0.6261199712753296,-0.38287144899368286,-1.1992467641830444,0.30915629863739014,2.142732858657837,0.9889001846313477,-0.40424197912216187,0.9024562835693359,-0.13443581759929657,-0.7337703704833984,0.0430230014026165,-0.7756690979003906,-0.9038016200065613,-0.10003205388784409,0.09570411592721939,1.023319959640503,-0.21321693062782288,-2.330994129180908,-1.3233773708343506,-0.36553293466567993,0.1248990148305893,2.116209030151367,0.10619629174470901,0.40483295917510986,-0.2794569134712219,0.9765926599502563,-0.05500110611319542,-0.29597339034080505,-0.7011401057243347,-1.9773281812667847,-1.299720048904419,-0.3598073422908783,6.478957653045654,-0.9975627064704895,-3.996306896209717,1.1240274906158447,2.5555531978607178,-0.41440749168395996,-5.756437301635742,-1.625038981437683,-1.2936362028121948,1.5322002172470093,5.516637802124023,10.117451667785645,-2.067706823348999,1.3541851043701172,5.261410713195801,-6.707679271697998,-3.424032688140869,0.6565831899642944,4.700223445892334,-0.1935519427061081,-0.3455906808376312,-1.7844367027282715,-4.864193439483643,1.6030499935150146,-10.552167892456055,5.331593990325928,10.19876480102539,0.39644044637680054,-1.265838861465454,10.557339668273926,-0.9986408948898315,10.554374694824219,8.268389701843262,-3.275707244873047,3.169616460800171,-7.621853828430176,3.797726631164551,2.291590452194214,0.49247345328330994,-4.061944961547852,1.5165116786956787,4.979900360107422,-0.9384837746620178,3.3700897693634033,4.533417701721191,1.635221242904663,-2.0820248126983643,-5.465275287628174,-0.21246787905693054,4.919590950012207,-5.481831073760986,1.1892629861831665,-4.203882694244385,1.6849902868270874,2.990816116333008,5.963001251220703,-6.230398178100586,6.610621929168701,-1.78318452835083,-5.0053391456604,-3.722907066345215,-4.618982791900635,-6.436042308807373,-3.5008928775787354,4.3969879150390625,-4.910907745361328,-7.203090667724609,-2.8120179176330566,-0.10572627186775208,2.5298194885253906,-5.387971878051758,12.841447830200195,9.415474891662598,1.4204548597335815,-0.5853298306465149,-0.4686877131462097,1.141215205192566,-0.16644784808158875,5.757750988006592,-2.2375240325927734,-0.32691553235054016,7.56132698059082,-0.7642576098442078,-11.442889213562012,3.7521419525146484,-2.322253465652466,-0.27285388112068176,3.1591637134552,0.12798450887203217,-2.5660643577575684,-8.308060646057129,-1.828928828239441,0.1298508197069168,2.7716171741485596,-2.0373027324676514,2.4896621704101562,-0.1620698720216751,-4.698337554931641,-1.9168667793273926,-9.98909854888916,1.7061423063278198,4.5220537185668945,11.198525428771973,0.5068289637565613,3.754444122314453,-4.7533721923828125,-1.0490825176239014,0.15087071061134338,6.63455867767334,-7.589054107666016,-0.24360010027885437,5.74630069732666,2.8828630447387695,7.505938529968262,-7.641061305999756,5.654435634613037,-14.650964736938477,-2.358485221862793,-5.184139728546143,2.1610398292541504,0.5955365300178528,-0.6322373151779175,2.1112122535705566,7.115359783172607,-0.30470702052116394,4.88664436340332,1.7548731565475464,0.321126788854599,0.04242287203669548,1.299551248550415,0.6583665013313293,1.4698981046676636,1.9191876649856567,-1.5407413244247437,-1.4000158309936523,1.3117518424987793,2.140368700027466,-2.770319938659668,-1.924906849861145,-0.722440779209137,-1.1776752471923828,1.6188621520996094,1.5533840656280518,-0.6387686729431152,-2.7874741554260254,-0.697985827922821,2.6730856895446777,1.4109174013137817,-1.8207565546035767,-0.5403540134429932,-0.8440059423446655,-1.721207618713379,-2.498553991317749,0.9181980490684509,0.15927311778068542,-3.1816470623016357,1.0613330602645874,-2.951488494873047,-1.6437591314315796,0.7424047589302063,1.4207016229629517,2.4911623001098633,2.403052568435669,-0.921604335308075,0.1681259572505951,-1.7789292335510254,-0.43851232528686523,-1.8337883949279785,-0.4492759704589844,-1.9388984441757202,-0.14625385403633118,-4.057942867279053,0.22696323692798615,3.5716192722320557,1.1783316135406494,-3.0566678047180176,2.0318167209625244,2.1402463912963867,0.3021385073661804,0.14423905313014984,-0.7913154363632202,-1.0267733335494995,3.747021436691284,-4.638584136962891,0.6195526123046875,3.498197317123413,-1.6518510580062866,3.145620822906494,0.8642880916595459,0.05210237577557564,0.3348619341850281,0.09707796573638916,-0.5155746936798096,-0.06907530128955841,0.47547367215156555,0.4361991882324219,-0.41895073652267456,0.4331693649291992,-0.6762714385986328,-0.20738475024700165,-1.1087766885757446,-0.7597594261169434,-0.1446278840303421,-0.9561793208122253,1.5582784414291382,0.29216304421424866,-0.16012164950370789,-0.4999563694000244,0.8742721676826477,0.4872209429740906,-0.9577382206916809,-0.10419029742479324,-0.905963659286499,2.206725597381592,-1.1141287088394165,-1.277785062789917,-0.9412547945976257,1.684671401977539,-0.3867337703704834,0.04301443696022034,-1.1624890565872192,-2.3051869869232178,0.19078509509563446,-0.4028792381286621,0.576869785785675,-0.750062108039856,0.04500914365053177,0.8740857243537903,0.6287311315536499,0.7126559615135193,-0.4305260181427002,1.092327356338501,-1.4930577278137207,-0.6530933380126953,-0.6967855095863342,-0.21886827051639557,0.5278010368347168,0.6506394743919373,-0.40424013137817383,2.558152914047241,-0.4851383566856384,-0.6811978816986084,-0.04484705999493599,-0.686016321182251,-0.4899475872516632,0.5730203986167908,-0.7605794072151184,0.3384583294391632,1.1792433261871338,0.40375322103500366,0.028248310089111328,0.7131661772727966,-0.7025492191314697,0.6219825744628906,0.265934020280838,0.8937191367149353,-2.6790120601654053,-0.1908952295780182,3.0548274517059326,-1.336614966392517,0.5206042528152466,0.7081734538078308,1.311926245689392,0.19302934408187866,0.031264450401067734,-0.7857607007026672,0.1716468185186386,0.2527003288269043,1.3770241737365723,-1.3461456298828125,-2.7107274532318115,-1.1972813606262207,0.298444002866745,0.06207135319709778,-0.15566731989383698,0.15273115038871765,0.7130586504936218,-0.7452652454376221,-1.069907546043396,0.613400399684906,-1.6150881052017212,-2.4148318767547607,-0.19835469126701355,-0.47506123781204224,-0.6663158535957336,0.5239402651786804,1.7555142641067505,0.46650081872940063,5.132495403289795,-1.5560638904571533,1.5974076986312866,-0.7699229717254639,-4.168586254119873,-1.3621257543563843,-0.2606980502605438,-4.316466331481934,1.2609082460403442,-1.6218808889389038,1.7711167335510254,2.472367286682129,0.24675853550434113,-2.4952642917633057,0.1243290826678276,0.5926334261894226,-0.24219563603401184,-0.4100182354450226,-0.8262436389923096,-0.33592352271080017,-0.6264067888259888,-1.1682184934616089,0.7826787233352661,0.3735499083995819,-0.35963067412376404,0.22233033180236816,0.9257799983024597,-4.038437366485596,-0.28414878249168396,-0.33484500646591187,-2.0513343811035156,-1.6201709508895874,-0.4097592532634735,0.4316396713256836,3.344177722930908,-2.1356935501098633,-0.6934154629707336,-0.8101084232330322,-1.162186861038208,0.20371009409427643,0.8145443797111511,-0.3007684051990509,2.1169261932373047,0.522514283657074,-0.3834492266178131,-3.778207778930664,0.24104174971580505,0.7145815491676331,0.15296344459056854,0.3075859546661377,-1.3649404048919678,-1.9276988506317139,-1.579071044921875,0.25342705845832825,0.24285626411437988,-0.20457948744297028,-1.9743236303329468,-0.308521032333374,-0.32567915320396423,-0.9034199118614197,-0.9159733057022095,0.9094139337539673,0.7901740670204163,0.713141918182373,-0.26511886715888977,-0.11371956765651703,0.7400788068771362,-1.7301301956176758,-0.11093539744615555,1.0534974336624146,-2.8757588863372803,-0.05171174183487892,2.440669059753418,-0.4953828752040863,-0.7302737236022949,1.572793960571289,-0.28952574729919434,0.9372815489768982,0.08781920373439789,2.14461350440979,0.6047660708427429,1.1547386646270752,-1.9241628646850586,0.9725850224494934,1.0467844009399414,-0.4034547507762909,-0.5655134320259094,0.6221654415130615,0.42070719599723816,1.4156036376953125,0.4662747085094452,-3.867062568664551,2.375380277633667,-0.4113212525844574,-0.9019138813018799,3.4615910053253174,7.330910682678223,6.101759910583496,0.6853410601615906,8.562310218811035,-1.1720387935638428,-3.602599620819092,-7.637883186340332,-0.6893000602722168,0.3376148045063019,6.806868076324463,3.664370536804199,-1.1528898477554321,-7.506911277770996,-2.18681001663208,4.717198848724365,3.6671249866485596,3.6218676567077637,-2.315826892852783,-1.3015302419662476,-5.555125713348389,0.6008557081222534,-0.02194218710064888,-4.206582546234131,-2.082136631011963,2.0300495624542236,-4.331038475036621,-5.381203651428223,7.440310955047607,0.4294891357421875,-5.554878234863281,-0.6679502725601196,3.478729486465454,-1.67264986038208,-1.4169992208480835,-0.13871833682060242,-4.934516906738281,10.246954917907715,-2.4999332427978516,-2.54160475730896,5.386025428771973,6.385538578033447,-1.3817476034164429,-0.533381998538971,-2.6234965324401855,4.288370609283447,2.811246156692505,2.9942660331726074,3.3772947788238525,2.539302349090576,0.34127455949783325,8.20761775970459,-2.200545310974121,-2.986032247543335,0.07621194422245026,1.5442438125610352,5.603565692901611,-1.3441798686981201,-1.5465599298477173,1.9022167921066284,-3.3362860679626465,-3.237471103668213,8.396142959594727,-4.5350117683410645,-0.6240147948265076,-3.923214912414551,1.887718915939331,-2.3380799293518066,1.0170392990112305,6.248546123504639,0.08017279207706451,2.573733329772949,4.973294734954834,-0.7243725657463074,-4.454862117767334,1.481937050819397,2.708064556121826,5.910009384155273,-3.414320468902588,-1.0278304815292358,-4.077425479888916,10.184938430786133,-1.3341279029846191,-0.08876830339431763,8.08987045288086,-2.1229615211486816,-3.546936511993408,1.6084630489349365,0.8350712656974792,7.84514856338501,-1.4814355373382568,-3.228764057159424,4.15360689163208,-4.085143566131592,-4.851605415344238,2.0407333374023438,-0.5099239349365234,2.935041666030884,13.485547065734863,11.455970764160156,-7.1052727699279785,-3.684182643890381,6.7243828773498535,6.168461322784424,-4.596899032592773,-6.06643533706665,-3.627185821533203,2.485452890396118,-4.81618595123291,-0.5558755397796631,2.584031105041504,-1.7523590326309204,-7.498416423797607,-6.456087112426758,-5.580444812774658,4.770135879516602,5.4777421951293945,-7.043837070465088,-6.741339683532715,-7.404036045074463,-5.3052496910095215,0.5022968649864197,3.310807943344116,0.10150153189897537,-2.774474620819092,3.623323440551758,-0.38947516679763794,-1.1602383852005005,2.7638258934020996,0.5579600930213928,-3.0696983337402344,-3.5927236080169678,2.4166810512542725,-1.4219728708267212,3.210966110229492,2.218970775604248,-0.5918415188789368,-4.029094219207764,2.918844699859619,4.548860549926758,8.640944480895996,-2.507218837738037,-0.9722784161567688,2.9918806552886963,1.6731877326965332,2.324162721633911,3.9972546100616455,0.6753711104393005,-3.0547919273376465,-7.397153377532959,1.3063457012176514,0.96604984998703,0.1271241307258606,0.8742945790290833,8.86740493774414,-3.3684308528900146,-1.507469654083252,-4.326378345489502,-0.015552216209471226,-1.9261853694915771,4.869725704193115,-2.5536997318267822,-1.4292254447937012,5.359799385070801,-0.7404886484146118,-0.526679277420044,-0.17960821092128754,1.822428822517395,-4.859917640686035,1.6817516088485718,-0.6525835990905762,1.4240411520004272,-4.635947227478027,-9.5045747756958,-4.776702880859375,-3.350649118423462,4.396618843078613,-3.440037488937378,0.5135509967803955,6.019862651824951,-2.695481061935425,-3.1136221885681152,-8.268564224243164,-0.774425745010376,0.9634647369384766,3.1160426139831543,4.454144477844238,-1.6957600116729736,-0.5488477349281311,-2.0684473514556885,4.562991142272949,-3.5157322883605957,2.493439197540283,-2.2942280769348145,-3.64040207862854,-3.7618772983551025,0.8742650151252747,-2.8390915393829346,-2.4911818504333496,0.7798227071762085,1.7755247354507446,0.550855278968811,2.2220144271850586,-6.968796730041504,1.1155316829681396,0.8666542768478394,3.924637794494629,0.09826436638832092,3.8285045623779297,1.637850046157837,-2.432467222213745,0.8738470077514648,4.37096643447876,-1.0062240362167358,-3.6564996242523193,-4.763390064239502,0.3171115517616272,-0.2556087076663971,1.9331068992614746,6.0358710289001465,0.6438376903533936,-4.7683539390563965,3.8856735229492188,0.7979958653450012,-4.04185676574707,-2.664280652999878,1.2047487497329712,-0.3665645718574524,-2.992567539215088,-1.5775084495544434,2.533066511154175,1.2734609842300415,1.701939582824707,-3.308013677597046,4.371475696563721,0.9573571085929871,4.034400939941406,-1.0636470317840576,13.580121994018555,-2.514521837234497,10.428872108459473,-7.287642002105713,-2.887403726577759,0.4118558466434479,6.453190326690674,-0.2975024878978729,4.998509883880615,10.54052448272705,-1.3889923095703125,1.16561758518219,1.0759919881820679,1.389004111289978,-2.8441271781921387,-1.3755521774291992,-3.7575154304504395,0.38717931509017944,-0.0926070511341095,-0.04065519571304321,-0.1886672079563141,-0.07835954427719116,-3.30759334564209,-0.6472845673561096,-5.6820197105407715,1.167011022567749,-5.98544454574585,1.8274116516113281,0.4212426245212555,1.2586543560028076,2.5608484745025635,-1.2409260272979736,2.8477377891540527,-1.4107694625854492,2.7120325565338135,4.736419200897217,0.7736019492149353,-3.4636974334716797,-0.03227802738547325,-0.7686439752578735,0.1048927903175354,5.727081775665283,-0.5586397051811218,-0.4084624648094177,-2.148059606552124,1.1251429319381714,3.510361909866333,0.45302221179008484,-4.190169811248779,7.546123504638672,0.5111753940582275,-6.019097328186035,3.0538840293884277,2.7186601161956787,-2.401566743850708,1.3802844285964966,-0.5877323150634766,-8.041316986083984,-1.2987394332885742,-3.2084641456604004,1.5714188814163208,-5.54605770111084,1.8681913614273071,-2.813261032104492,5.525570392608643,-2.3640687465667725,-1.6545000076293945,5.493306636810303,-4.647284030914307,-7.501261234283447,-4.287992000579834,-5.701530933380127,-1.824468970298767,-0.3789003789424896,-0.4356977045536041,0.062341198325157166,0.08577261120080948,0.9117286205291748,0.10575331002473831,2.553417682647705,-3.876662254333496,-1.753717064857483,3.892179489135742,-0.10831905156373978,-1.9165390729904175,-2.400731325149536,-0.6020906567573547,1.6206426620483398,2.4725284576416016,-3.086674213409424,-6.118989944458008,-0.7517649531364441,0.8553279638290405,-0.5285330414772034,0.08617252111434937,0.42135632038116455,3.546013832092285,1.9356778860092163,-2.5746889114379883,0.9122197031974792,-4.997809410095215,-1.5556519031524658,-2.272643566131592,-0.11589910835027695,-3.035783052444458,-1.3789368867874146,0.008863545954227448,-0.7828502655029297,4.573513507843018,-1.582994818687439,-0.5610327124595642,0.3819175958633423,-3.908961772918701,0.03842109441757202,2.361356496810913,-0.6944773197174072,0.010552825406193733,-3.560796022415161,-2.368368148803711,1.4827061891555786,3.408285617828369,0.4733220934867859,1.2108408212661743,1.016161561012268,1.356528878211975,0.6747322678565979,-1.6878396272659302,-5.101597309112549,-0.825982391834259,-4.897632598876953,0.2715401351451874,0.946265697479248,2.4955456256866455,0.31659552454948425,2.859865188598633,-0.8912393450737,-0.5914775729179382,2.617765188217163,2.158334970474243,0.1271393597126007,2.112640857696533,0.9185476899147034,0.40854570269584656,-1.512914776802063,1.2769991159439087,1.8824282884597778,-0.8341526985168457,-2.0884652137756348,-1.8986057043075562,-0.7857269048690796,4.393304347991943,1.069991946220398,-1.5609204769134521,-2.988626718521118,-1.9703898429870605,1.6392003297805786,0.5677012801170349,0.46503227949142456,0.62990802526474,0.7068465352058411,-0.964702844619751,-0.41992437839508057,1.9198302030563354,-1.5878033638000488,-3.011838912963867,3.1249849796295166,-0.10797279328107834,-0.3026377856731415,-2.6466879844665527,0.8011163473129272,-0.9128658771514893,3.0406157970428467,0.9810017347335815,-1.1250711679458618,-1.1834782361984253,-1.1667019128799438,-1.0719881057739258,-0.4603203535079956,-2.1488773822784424,-1.7147060632705688,-2.033787965774536,1.27003812789917,1.725101351737976,-0.9323720335960388,-0.8719996213912964,1.380539894104004,2.2057507038116455,1.4111486673355103,-0.053121794015169144,-0.37561774253845215,-0.38668617606163025,1.0310850143432617,-0.9781382083892822,-1.3291352987289429,-0.2801765203475952,0.6724948883056641,1.4798425436019897,2.19743275642395,2.135551929473877,-0.6514690518379211,2.809469223022461,-1.5499653816223145,-3.4969654083251953,1.3334031105041504,5.369232654571533,-1.5386427640914917,1.5022294521331787,0.3416494131088257,-3.2505874633789062,-1.6874405145645142,-1.9021525382995605,-2.9271600246429443,-1.4665313959121704,-1.841342568397522,0.8008679747581482,1.4062716960906982,0.5616405010223389,-2.1995182037353516,-0.8885759711265564,0.3767109215259552,3.2064192295074463,-1.2204464673995972,3.7905642986297607,-1.6577198505401611,-2.3317785263061523,-2.2829244136810303,-1.5382591485977173,-0.146478533744812,-1.2242909669876099,-1.8027582168579102,0.8015387654304504,0.576953649520874,-0.7061408162117004,0.5378032326698303,-0.7359333038330078,1.2716169357299805,0.45852959156036377,1.6654465198516846,-4.498063564300537,-2.9224207401275635,1.0002787113189697,0.49741291999816895,-3.930675983428955,3.2817165851593018,1.3081684112548828,1.4459102153778076,0.5066568851470947,-1.0908464193344116,-0.45665547251701355,-1.2783129215240479,0.3445930480957031,-1.3070683479309082,0.8746431469917297,0.23156721889972687,1.2404242753982544,-0.19168049097061157,1.6420232057571411,1.3214036226272583,4.179755687713623,0.9155893921852112,-0.33704233169555664,3.339468240737915,0.5348311066627502,0.29539725184440613,-0.6049458384513855,-0.6284789443016052,-0.15626947581768036,0.530605137348175,-2.786712646484375,2.4617667198181152,2.869687557220459,-1.470900535583496,-0.31264278292655945,-1.4663341045379639,-0.27353671193122864,-0.5412712693214417,0.32296082377433777,0.03931569680571556,-0.2549229860305786,2.3231821060180664,2.1476433277130127,-1.6762433052062988,-0.6670323610305786,0.3019676208496094,-1.535636305809021,1.062726378440857,-0.8026636838912964,-1.5520392656326294,-2.077641725540161,-1.6548548936843872,-1.0581762790679932,1.237083911895752,-1.9330310821533203,1.1587013006210327,-0.39981091022491455,-0.05834024399518967,-0.32529523968696594,-0.8547903299331665,1.9800487756729126,0.2702203691005707,1.3179852962493896,1.461744785308838,-0.37679198384284973,-0.5425950884819031,1.056957721710205,0.29984819889068604,2.9233646392822266,-2.6558988094329834,1.5032799243927002,-3.0100619792938232,-0.512410581111908,-0.6627565026283264,-1.615165114402771,-4.35037088394165,-2.022796154022217,-0.7271173596382141,0.7525089979171753,-3.8601951599121094,1.0717710256576538,1.8127108812332153,0.25883734226226807,-2.0359630584716797,-0.16028229892253876,-0.5764789581298828,-0.7067490816116333,-0.036160677671432495,1.4407808780670166,1.8079720735549927,-2.3914828300476074,1.309454083442688,2.3540313243865967,0.7103734016418457,0.10777077823877335,1.7824854850769043,1.2364449501037598,-2.1157703399658203,-1.2073067426681519,-1.064559817314148,-1.8798836469650269,1.5077791213989258,3.548738479614258,-1.2536957263946533,-2.115671157836914,-1.1118714809417725,1.8473283052444458,0.33973410725593567,0.6485059857368469,0.010291819460690022,2.936898946762085,-2.7133212089538574,-1.7124074697494507,1.4715288877487183,-2.6322641372680664,-2.9842238426208496,1.9223829507827759,-2.6525719165802,-0.18890143930912018,1.3024113178253174,2.146075963973999,0.2414783537387848,2.943943738937378,-0.9432715177536011,1.0536941289901733,-2.4318971633911133,-1.0700069665908813,-3.1423518657684326,-1.9629722833633423,-4.9558610916137695,-3.30082631111145,-2.2110817432403564,-2.9655237197875977,1.813093900680542,1.442794680595398,-3.407595634460449,2.229867696762085,0.9668065309524536,0.3571246266365051,-2.2112088203430176,-2.0207064151763916,-0.22763080894947052,-0.24681356549263,-4.108555793762207,0.14066872000694275,2.445540428161621,1.1226654052734375,2.4981603622436523,1.0543345212936401,1.2742143869400024,-0.1706429421901703,-2.500938653945923,0.5370676517486572,5.565307140350342,-0.11483234912157059,-2.65061092376709,2.1027629375457764,0.7461043000221252,-2.9722907543182373,1.4761989116668701,3.0034077167510986,-0.6914570927619934,0.9849092364311218,3.842695713043213,-1.2195672988891602,-2.5002846717834473,0.1080794557929039,0.5385911464691162,2.492082357406616,0.4249078035354614,0.06895995885133743,-1.183392882347107,2.677253007888794,-2.2278356552124023,0.3603236973285675,1.3280537128448486,1.1475965976715088,-2.4041237831115723,1.3189948797225952,1.7409610748291016,2.7211410999298096,1.747131109237671,-2.8887927532196045,1.8940908908843994,-4.105793476104736,1.5914297103881836,-0.5197701454162598,-1.08866548538208,-2.8595006465911865,5.089188575744629,2.533698558807373,-2.2399964332580566,1.3723723888397217,4.270397663116455,-4.268824100494385,-2.1846401691436768,0.8801875710487366,-2.229008674621582,1.2114341259002686,-5.18228006362915,2.0270094871520996,-2.533987045288086,1.2654155492782593,-2.9330978393554688,2.9538252353668213,-1.7193481922149658,0.4289618134498596,1.6448370218276978,-0.8524592518806458,-2.4940998554229736,1.5367069244384766,-1.9358959197998047,0.19406798481941223,-0.6076894402503967,1.1805012226104736,0.8881680965423584,-1.3117281198501587,1.8661625385284424,0.5912790894508362,0.7590218186378479,-1.6760683059692383,-0.8391157984733582,-0.18260852992534637,-2.6642515659332275,-2.610041856765747,-1.1663137674331665,0.0460965596139431,0.13951073586940765,0.69340580701828,-1.518565058708191,-2.7407498359680176,-2.39082932472229,3.4314584732055664,0.12805412709712982,0.820948600769043,-1.751731514930725,2.3363091945648193,-0.9987255930900574,-2.910989284515381,1.9693596363067627,-0.015261080116033554,-1.956798791885376,0.18728269636631012,-3.457350730895996,-1.2691924571990967,0.603488564491272,1.0677464008331299,1.2617701292037964,1.4165332317352295,-0.10382679849863052,-1.4713401794433594,0.6414251923561096,-0.9674754738807678,-0.8209714889526367,0.3666706681251526,-1.2630378007888794,-0.7486714124679565,-4.041699409484863,0.9034065008163452,2.0263798236846924,-0.5767451524734497,-0.2553463876247406,1.3879090547561646,3.574028730392456,0.4802345931529999,2.0638210773468018,-0.039971377700567245,-2.1087729930877686,2.3960225582122803,-3.0961291790008545,-1.4451521635055542,1.3654175996780396,0.2756056487560272,0.9438660144805908,0.23040755093097687,-1.0695688724517822,0.9638456702232361,-2.078982353210449,-0.4446862041950226,-1.4362601041793823,0.5436012744903564,-0.022866467013955116,-3.493529796600342,0.645392119884491,-0.3450102210044861,-1.2904328107833862,-0.9744398593902588,0.6055460572242737,1.5982329845428467,0.6048986911773682,-1.0656617879867554,-1.9584006071090698,1.4047931432724,1.865984320640564,0.6841364502906799,-0.8968536853790283,-1.864416480064392,0.016158536076545715,0.15975019335746765,1.2259283065795898,0.2991088926792145,1.1798087358474731,-0.7951335310935974,2.045261859893799,-1.474375605583191,-2.269369125366211,3.4796957969665527,0.08524573594331741,-3.5420660972595215,1.115920901298523,1.1299329996109009,-2.266068458557129,-2.1739020347595215,1.9767926931381226,1.6226569414138794,-1.0599792003631592,-1.4335119724273682,-3.3699951171875,2.0577497482299805,0.31593120098114014,-2.267610788345337,-1.0983723402023315,-2.5376765727996826,0.2711108922958374,-1.653152346611023,-0.7692935466766357,-0.7491263747215271,-0.19822052121162415,-0.8354734778404236,1.2089126110076904,0.6235917210578918,1.3436425924301147,2.2701098918914795,-1.1872237920761108,-1.7807902097702026,0.5439593195915222,-0.9259774088859558,-0.8543862700462341,0.9061707258224487,2.728081226348877,1.1595265865325928,-3.935988187789917,1.0925079584121704,1.069706916809082,0.6207559704780579,0.6965364217758179,2.252631664276123,2.1049439907073975,-2.2919347286224365,0.36564913392066956,-0.9016316533088684,-1.6658878326416016,0.241926372051239,1.8492592573165894,-0.23714980483055115,0.3175165057182312,2.284993886947632,-0.36468708515167236,-3.354501485824585,1.1873990297317505,2.6464357376098633,-3.920222759246826,1.5490750074386597,-1.0994336605072021,-1.8043489456176758,-2.9916799068450928,-3.334773302078247,-0.707288920879364,1.0951000452041626,-3.1209802627563477,0.09509740024805069,1.8811568021774292,0.08711764216423035,-0.5475267171859741,-2.5831921100616455,-0.9437872767448425,-0.7578347325325012,2.438232898712158,-0.280123770236969,-1.4558202028274536,-0.37125861644744873,0.8005766272544861,-0.9159401655197144,0.5417600870132446,-0.04803711920976639,-1.698018193244934,2.4389495849609375,-1.4416069984436035,1.4137589931488037,-4.39808464050293,0.756252110004425,-3.7275888919830322,0.039838653057813644,-0.30389416217803955,-1.3540740013122559,0.4284456968307495,-0.3630257546901703,2.5677177906036377,2.583160161972046,3.4026427268981934,-0.6728334426879883,0.3077510595321655,-0.4674954116344452,-4.1052470207214355,2.789191484451294,1.8871030807495117,2.900174140930176,2.7808597087860107,-1.1464787721633911,-2.083683729171753,-0.7867274880409241,2.652153491973877,2.447826623916626,-0.5893095135688782,0.8043222427368164,4.335352420806885,0.35482320189476013,-4.398754119873047,-1.9151045083999634,4.032973289489746,6.592534065246582,0.26288431882858276,-0.1977796107530594,-1.255666732788086,0.3231600522994995,-5.110743999481201,-0.6987331509590149,0.8230797052383423,-0.60450279712677,-2.005812406539917,4.83268404006958,2.612044095993042,5.18224573135376,-3.597498893737793,0.8900433778762817,2.6392831802368164,-5.540181636810303,0.4963412880897522,3.644599437713623,-1.2543951272964478,-3.002730131149292,0.20273078978061676,2.200383424758911,-3.6129860877990723,1.0080119371414185,2.4779770374298096,2.329202175140381,-2.3877522945404053,-1.4046744108200073,-2.1252572536468506,-0.46884167194366455,-3.3364651203155518,0.8326037526130676,-4.751244068145752,-0.06817103177309036,-2.8275787830352783,1.0704761743545532,-7.128758430480957,8.059900283813477,0.029710708186030388,-4.351137638092041,-2.5030438899993896,-0.5574888586997986,-2.3791420459747314,-5.419690132141113,5.304450988769531,-2.901371479034424,0.8226234316825867,0.507608950138092,2.3218190670013428,-5.264923572540283,1.7087342739105225,-3.8363051414489746,-7.124139308929443,1.346093773841858,3.4423699378967285,-2.4860117435455322,4.092625141143799,2.7400999069213867,-7.654555320739746,-2.075578212738037,2.983518600463867,-2.0799601078033447,5.182435512542725,0.03550395742058754,-1.2686660289764404,-1.3314974308013916,5.001622200012207,-5.63197135925293,4.23681116104126,0.3356761932373047,2.2767622470855713,5.107551574707031,0.2883254885673523,0.924636721611023,2.7577505111694336,1.204529881477356,1.5705235004425049,-0.2564767599105835,4.196781158447266,0.6504631638526917,-8.817437171936035,0.15301722288131714,-1.1418017148971558,-3.6632893085479736,-1.6390419006347656,-4.854600429534912,-1.2379093170166016,4.92413330078125,-2.2807888984680176,0.02354622073471546,-2.9597394466400146,6.966070652008057,1.9058098793029785,0.09068983048200607,2.183570623397827,2.9619662761688232,1.6140327453613281,-1.3479617834091187,4.6466875076293945,4.072310924530029,5.314672470092773,0.5118027925491333,-3.4136462211608887,-0.675667941570282,-5.570921421051025,-4.079870700836182,1.1217297315597534,0.6708348989486694,1.14103102684021,0.9099328517913818,1.7384575605392456,0.08834880590438843,-0.8359919786453247,-1.4564553499221802,-0.20121659338474274,0.4942586123943329,0.40086716413497925,-0.2546948194503784,0.02565152384340763,0.5564594864845276,-0.18855437636375427,5.256165504455566,-1.0395089387893677,-1.7194644212722778,0.670569896697998,3.2023985385894775,-0.1283450722694397,0.743055522441864,-0.5342799425125122,0.036493442952632904,0.23730093240737915,-2.299757719039917,-0.8424942493438721,-0.22143352031707764,0.8993769884109497,-1.017734408378601,3.788071870803833,-0.9815899729728699,-2.6943576335906982,-2.2784922122955322,0.7014155983924866,-3.886463165283203,-0.9861412644386292,0.6465678215026855,-1.081752061843872,-1.2234662771224976,1.4159101247787476,0.7122447490692139,-0.5431274175643921,-0.30270200967788696,-2.8442013263702393,0.7534748911857605,-1.0204123258590698,-0.4981030821800232,-0.7687993049621582,0.47310277819633484,3.6929848194122314,-0.010706065222620964,-3.3340303897857666,-0.3687540292739868,-1.6909326314926147,-2.2924230098724365,-2.6259288787841797,0.4106192886829376,-0.7502612471580505,1.244348406791687,-0.6671696305274963,-0.36665382981300354,2.356505870819092,-1.194570779800415,-2.3237099647521973,0.38683557510375977,0.7642849683761597,-0.20752231776714325,0.27020323276519775,0.16747553646564484,0.48085904121398926,-0.6560132503509521,1.5551388263702393,0.18651437759399414,-4.0424957275390625,-1.1211159229278564,-0.5736589431762695,-2.1711137294769287,-1.0885512828826904,2.1279561519622803,-0.02421148307621479,-1.3090986013412476,-0.9977654218673706,1.3345870971679688,3.0038352012634277,0.22708967328071594,-2.7109100818634033,0.10317039489746094,-3.2030277252197266,-1.8996609449386597,1.5643373727798462,-2.077153444290161,-2.677189826965332,1.4641015529632568,-3.165318012237549,-2.646765947341919,-0.7868149280548096,1.8487943410873413,1.1382678747177124,1.1338082551956177,0.40327689051628113,-1.0788828134536743,-1.0904732942581177,1.8657394647598267,-3.949751377105713,-0.13071951270103455,0.2951429784297943,-1.7985836267471313,-0.14855511486530304,-0.4604979157447815,1.8186753988265991,0.3138113021850586,-0.5389115214347839,0.2280476838350296,1.3222997188568115,0.2150571495294571,0.2684866189956665,0.5192877650260925,-0.3103424310684204,1.3674426078796387,-2.880479574203491,-3.2446510791778564,2.307565212249756,0.398224413394928,1.3947945833206177,1.0268542766571045,1.2373442649841309,0.8031378984451294,1.0921217203140259,2.8728694915771484,-3.459829092025757,2.5403788089752197,2.565608263015747,0.7964284420013428,0.14672404527664185,3.6914684772491455,2.8182544708251953,-1.0660278797149658,-1.2818281650543213,2.1547133922576904,-1.4756848812103271,0.8887906074523926,-1.216370940208435,-1.80221426486969,-3.2444629669189453,1.1403659582138062,3.0513041019439697,0.11150579154491425,1.6716432571411133,-0.2740304172039032,1.869409441947937,-2.9771976470947266,-3.512274980545044,1.458713173866272,0.856513500213623,-2.0105738639831543,2.720006227493286,-1.1871378421783447,-2.159397840499878,3.600802421569824,1.7599214315414429,1.607249140739441,1.68946373462677,-0.9522857666015625,-2.065737247467041,-0.060964979231357574,-3.3053665161132812,-3.087831735610962,3.7286672592163086,-3.4665026664733887,-0.8299330472946167,-2.112692356109619,2.8812575340270996,1.4102238416671753,-2.201516628265381,-2.7221500873565674,1.1328415870666504,1.831053376197815,-0.6730243563652039,1.4129338264465332,0.8474602699279785,0.10923642665147781,1.6778229475021362,-1.3883488178253174,-2.9055116176605225,-1.0593619346618652,-1.1884714365005493,2.080970525741577,0.4229438900947571,0.8477739095687866,1.2470132112503052,2.517507314682007,1.3223803043365479,0.7733463048934937,-0.9895423650741577,1.7480230331420898,-1.6507418155670166,-2.0602006912231445,0.5362724661827087,0.46443188190460205,0.6091104745864868,-1.062888264656067,-4.219714164733887,0.5589954853057861,-1.7445927858352661,0.27497977018356323,-1.142514944076538,0.7094799876213074,-1.6533633470535278,2.8135969638824463,0.7861577272415161,4.321581840515137,1.2311320304870605,1.721157193183899,1.0441398620605469,0.629189133644104,0.49989789724349976,0.7174987196922302,-0.43964317440986633,-1.2055426836013794,-0.11989720910787582,0.3954852521419525,0.23987996578216553,-0.9604201912879944,0.3939147889614105,2.1763756275177,-3.4642882347106934,0.010767202824354172,-0.6008597016334534,-0.6235676407814026,-1.7906105518341064,0.893973708152771,-0.4227130711078644,1.773127794265747,-4.286093711853027,3.341623067855835,1.8846092224121094,-0.6501932740211487,-3.518730401992798,-1.796430230140686,1.6110632419586182,1.0568140745162964,0.25693291425704956,1.862823724746704,0.9336560964584351,3.622776508331299,-1.755610466003418,0.41564488410949707,0.27655327320098877,0.24870140850543976,1.8960932493209839,-0.32810482382774353,-4.184453964233398,1.2582710981369019,2.5172839164733887,0.43477123975753784,-0.7135869860649109,-2.500541925430298,2.3863697052001953,4.289974212646484,-2.797065019607544,5.839828014373779,1.8686292171478271,-1.0100947618484497,1.2690199613571167,-2.2653095722198486,-4.132335186004639,1.7225093841552734,5.232627868652344,-3.0028843879699707,0.15507102012634277,-8.136240005493164,1.9106730222702026,-1.0272812843322754,-1.9993001222610474,0.18842799961566925,-1.9183807373046875,-4.16080904006958,-1.2607336044311523,2.130049228668213,-0.7801897525787354,-2.637415885925293,-0.2110438346862793,1.2861583232879639,1.8378068208694458,-2.006131410598755,3.87701678276062,-2.7993693351745605,4.365257740020752,-1.9672127962112427,-1.0997540950775146,-2.8503382205963135,-1.682366132736206,-1.8775514364242554,1.7345967292785645,0.38703563809394836,-1.0436408519744873,-2.2925288677215576,2.404939651489258,1.0221933126449585,-2.499786615371704,-0.9176411032676697,0.8826788067817688,0.6622114777565002,2.79313588142395,1.3610044717788696,3.1473355293273926,0.9874056577682495,1.4773908853530884,0.6833388209342957,-4.5599799156188965,-1.147174596786499,-0.9791915416717529,4.564582824707031,4.756357192993164,1.596091628074646,1.9035842418670654,1.34060537815094,-1.3988627195358276,1.8947738409042358,1.911850094795227,-2.758463144302368,1.0651659965515137,0.4902539551258087,-2.9155521392822266,0.09024997055530548,5.195891380310059,-1.0401585102081299,-1.6336947679519653,3.734297275543213,-2.6079063415527344,-1.020532250404358,2.8542370796203613,-0.7899554967880249,-0.005748833995312452,-0.0024771171156316996,-3.3766770362854004,-0.7592955827713013,3.3250977993011475,-3.755253553390503,4.405468940734863,-0.05510864034295082,-0.7121662497520447,2.1521785259246826,5.078891754150391,-0.6819252967834473,3.667142868041992,5.5236077308654785,2.54407000541687,-2.124814987182617,-0.9347769618034363,-0.9423723816871643,-2.8554255962371826,1.881963849067688,-0.09948132932186127,-1.287671685218811,1.187476396560669,4.27921724319458,1.4039157629013062,3.4446682929992676,0.32611948251724243,0.9492231011390686,-2.8611786365509033,3.682878255844116,4.423645973205566,-1.2364827394485474,-0.35401585698127747,0.9617893695831299,-1.2076892852783203,-1.0003607273101807,3.421947717666626,0.6873597502708435,0.6016411781311035,1.2438156604766846,-1.7477878332138062,-0.6043220162391663,1.374457836151123,-0.8464933633804321,4.1753740310668945,-4.111367702484131,0.21030369400978088,3.3293662071228027,3.0993425846099854,-1.6322021484375,-3.0353260040283203,-0.2582685351371765,-1.7729002237319946,-1.577487826347351,0.18284830451011658,-0.8719068169593811,2.1423251628875732,-0.9371480345726013,-1.0010472536087036,-0.9202823042869568,-1.2778313159942627,-1.3510862588882446,2.3710479736328125,0.36288130283355713,0.1385939121246338,2.0613677501678467,-1.7635501623153687,3.8081138134002686,-5.135087013244629,0.8186394572257996,5.417419910430908,1.3421040773391724,0.6822746396064758,0.29198870062828064,0.6927469372749329,0.6538310647010803,2.047670364379883,-1.842106580734253,-2.8898515701293945,-0.7204269170761108,0.24781441688537598,4.101417064666748,-0.45495694875717163,-3.5620594024658203,5.053783893585205,0.3190641701221466,-4.635223865509033,3.420441150665283,0.022325150668621063,2.6790502071380615,-1.1951935291290283,0.6360979080200195,-3.0008621215820312,1.1314737796783447,-4.345015525817871,0.42948299646377563,-2.016249418258667,0.8121621608734131,0.4617103636264801,1.8340119123458862,-1.6420648097991943,3.207914352416992,-0.5034045577049255,-5.599729537963867,-6.473685264587402,-5.3733296394348145,-2.6271884441375732,-2.2730553150177,1.0449177026748657,-1.1359333992004395,-0.6718595027923584,-0.9833222031593323,0.3168506324291229,0.9194638133049011,-0.9660998582839966,-2.0045571327209473,2.771796941757202,1.3703668117523193,-2.9423866271972656,0.8263558149337769,-0.632312536239624,-2.8745713233947754,-2.066143035888672,1.9419331550598145,0.4137507975101471,-1.1184767484664917,-1.4720770120620728,0.4244222939014435,-0.14790557324886322,0.8971723914146423,-1.5769561529159546,1.7300701141357422,-2.8855597972869873,-3.800971269607544,-0.32521045207977295,1.0974599123001099,-2.359740734100342,0.2587519884109497,-2.1603193283081055,-1.6420127153396606,1.2631497383117676,3.5324323177337646,1.7012242078781128,2.0855917930603027,-3.9143970012664795,0.4028785824775696,-2.1260433197021484,-0.730700671672821,-4.295465469360352,-1.50309157371521,-3.0718657970428467,1.1207456588745117,-3.123422145843506,0.594040036201477,4.309183120727539,1.0894852876663208,-2.5206925868988037,0.8775516152381897,-0.3689571022987366,0.9096229672431946,-0.707389771938324,-0.5300389528274536,2.440307855606079,2.744406223297119,-2.3177101612091064,-1.4685354232788086,3.6569783687591553,0.5265756249427795,4.646971225738525,-1.5599902868270874,3.6968016624450684,-0.05900741368532181,1.2583709955215454,-2.592261791229248,-1.0137419700622559,-3.5940444469451904,-2.732741117477417,-4.848767280578613,3.3274729251861572,3.082941770553589,1.8123382329940796,1.4010030031204224,1.8457508087158203,-1.488541603088379,4.132979869842529,0.0255269818007946,-0.2636294662952423,0.22439558804035187,0.6655930280685425,6.925076484680176,-1.7491966485977173,-6.211760997772217,0.730973482131958,-1.0968838930130005,-2.7646679878234863,1.2440743446350098,0.33655720949172974,-2.424314260482788,0.3635213077068329,3.795593738555908,-1.261650562286377,3.8077778816223145,2.4556357860565186,-2.8101770877838135,-2.7705485820770264,-3.082498550415039,-2.9219682216644287,0.6600915193557739,0.8219509124755859,2.0056121349334717,2.2546608448028564,1.6647979021072388,0.8461022973060608,-1.2340360879898071,2.3263027667999268,3.1048777103424072,-0.581744372844696,-3.8404715061187744,1.042588233947754,2.776779890060425,-2.5839078426361084,-0.5303643941879272,-3.0967252254486084,-1.5242491960525513,-4.661217212677002,2.506464719772339,-3.408756971359253,4.7713212966918945,3.5566933155059814,-1.2410024404525757,0.08813320100307465,-2.114835500717163,-2.2344093322753906,1.0149363279342651,3.1051270961761475,0.2057376503944397,-1.9533398151397705,1.142920732498169,-2.305983543395996,-1.8862990140914917,-1.4382116794586182,1.3206322193145752,0.480865478515625,-2.7190184593200684,0.25022608041763306,2.681034564971924,1.5075491666793823,0.5022030472755432,-1.9071273803710938,0.7703661322593689,3.1095869541168213,3.0745973587036133,-2.0516252517700195,-4.469055652618408,-1.0341213941574097,-2.132080316543579,2.2809550762176514,-1.5280332565307617,0.9854838848114014,0.13275696337223053,-0.952207088470459,2.4035818576812744,1.258497714996338,-3.28564453125,1.5343650579452515,2.0541303157806396,-1.7252156734466553,1.785521388053894,1.2160180807113647,-2.3587381839752197,-1.1608190536499023,3.787843704223633,0.4212087392807007,2.038029909133911,2.2962653636932373,-3.4238452911376953,3.4512624740600586,1.670906662940979,1.090502142906189,-0.020111579447984695,-0.42235463857650757,0.473897784948349,-1.3749366998672485,-1.9790763854980469,-2.4876303672790527,0.9890007376670837,-1.8841125965118408,3.0346322059631348,1.1239622831344604,2.424257755279541,-0.5488780736923218,-0.7054713368415833,-0.652753472328186,0.23802614212036133,-0.09123491495847702,-1.2517837285995483,-1.5315485000610352,-2.855186939239502,3.285454034805298,-1.2794302701950073,-0.3025004267692566,3.246351718902588,1.9158143997192383,-1.304147481918335,0.31085434556007385,1.9799469709396362,0.45366063714027405,-5.040404796600342,-0.9096165895462036,1.7420952320098877,-2.9218263626098633,2.623382329940796,0.9080232381820679,-1.394319772720337,-0.4516156017780304,-0.06531380861997604,1.3189712762832642,1.1171742677688599,0.10456468909978867,-3.2020606994628906,0.03803792968392372,-5.380352973937988,-1.4161009788513184,1.1321557760238647,2.4444360733032227,-1.7852962017059326,0.502747118473053,-3.169451951980591,-1.5001777410507202,2.8323380947113037,-0.33824455738067627,-0.9383670091629028,-2.1871182918548584,0.8930680155754089,-0.13606616854667664,-1.6121258735656738,2.207592248916626,-2.955667495727539,0.008962925523519516,2.6323258876800537,-2.515909433364868,0.6078822612762451,0.3085992932319641,1.2538390159606934,-0.4437978267669678,-0.7530380487442017,2.5457346439361572,-0.29103824496269226,0.6721619367599487,-0.7949402928352356,4.964585781097412,-0.7982663512229919,-0.3915306329727173,-0.06709320843219757,-4.594488143920898,1.9029912948608398,-1.0575388669967651,2.361011028289795,-0.3778640925884247,1.3785583972930908,-0.5181566476821899,-2.6678316593170166,-1.948137879371643,-1.7326374053955078,-6.384994029998779,-0.848480224609375,1.428104281425476,2.0168051719665527,2.6642205715179443,-2.076896905899048,0.8248900175094604,6.345050811767578,-2.3160409927368164,-0.9942468404769897,1.3510689735412598,-1.890237808227539,1.2136462926864624,2.1109371185302734,-2.55964732170105,-2.462820291519165,1.303808331489563,0.8915278911590576,-0.44894376397132874,0.7531257271766663,0.24836046993732452,0.1103193387389183,-0.2349962443113327,0.5377035737037659,-2.295232057571411,-5.865084648132324,0.1942393034696579,-0.004452303517609835,-1.6693272590637207,2.2947816848754883,5.0693359375,-0.36759740114212036,-3.113468885421753,3.276759147644043,4.012620449066162,-0.41872191429138184,0.6328248381614685,0.5096548199653625,-1.542277216911316,-0.2820134460926056,-0.1883527934551239,3.6315746307373047,0.2744199335575104,-0.09536662697792053,-0.006395467557013035,0.2823299169540405,-1.5925018787384033,2.1936872005462646,-2.837240219116211,1.4225518703460693,-1.4797204732894897,2.973310947418213,-1.1799551248550415,1.9839911460876465,0.42268115282058716,-1.9316747188568115,0.2991291880607605,-0.2893255949020386,-1.2262020111083984,2.6253280639648438,3.330688953399658,-6.216361999511719,-2.4500348567962646,-8.688726425170898,0.7390444278717041,-5.46676778793335,3.9216434955596924,7.03334903717041,-8.047822952270508,1.3032816648483276,0.9843723177909851,3.2975053787231445,2.425032377243042,-1.600881814956665,-2.4031403064727783,0.5784481763839722,11.022911071777344,0.3463847041130066,-9.597945213317871,-3.588425397872925,-0.8045747876167297,2.528867721557617,0.5723969340324402,-1.5974690914154053,2.230205535888672,-8.898609161376953,0.08378839492797852,2.129262924194336,-4.04237174987793,2.6392464637756348,-2.37200927734375,-4.401871204376221,7.078826904296875,0.8895837664604187,-12.750115394592285,-0.03154618665575981,5.037084102630615,3.859370708465576,4.511421203613281,2.187089204788208,5.514336585998535,9.439865112304688,-4.56951904296875,10.636338233947754,-1.7807838916778564,-3.2459793090820312,-1.5348433256149292,-3.888766050338745,-2.9370570182800293,-6.222688674926758,0.7619234323501587,-5.152331829071045,1.0350209474563599,-3.0310893058776855,1.0179247856140137,0.7745040059089661,-0.6406195163726807,-1.0606518983840942,-4.680896282196045,-3.359896659851074,1.616896390914917,-12.464934349060059,5.637342929840088,-9.877641677856445,-3.096219062805176,-6.422329425811768,0.8921292424201965,4.7174177169799805,-0.8760086297988892,-1.2362556457519531,6.832188606262207,6.4173264503479,-9.399812698364258,2.5656418800354004,2.13093900680542,-4.578453540802002,-0.6548048853874207,-0.08624115586280823,8.306640625,-2.4751691818237305,2.0625200271606445,-4.441363334655762,-5.3502326011657715,-8.210469245910645,-6.422794342041016,3.9549384117126465,-3.26017427444458,-10.862910270690918,-0.7191428542137146,2.8811371326446533,-9.304245948791504,0.2601547837257385,-8.358314514160156,-6.76626443862915,-0.22089123725891113,4.4222331047058105,2.4811177253723145,-0.04011629894375801,-0.9904738068580627,0.6326063275337219,2.9112844467163086,0.4074173867702484,-5.568981170654297,-4.059063911437988,-3.0905208587646484,-6.106571197509766,3.593982219696045,-5.799717903137207,4.946187496185303,3.996272563934326,-2.985579490661621,7.244158744812012,-2.8855695724487305,-5.238095760345459,-1.3244930505752563,-4.360777378082275,-4.194842338562012,3.7627696990966797,-2.6378567218780518,-6.19529390335083,8.223638534545898,0.697938084602356,7.561661243438721,10.91597843170166,2.475294589996338,-0.9690338969230652,2.975924015045166,0.5599174499511719,1.6886026859283447,-1.4894624948501587,-4.679989337921143,1.9500163793563843,-0.5298945307731628,-2.4005675315856934,-0.3326927423477173,-1.3340883255004883,0.8925790190696716,-3.0299460887908936,-2.130549907684326,-1.443149447441101,-1.2744454145431519,-0.7397038340568542,1.2733598947525024,-0.3097047507762909,1.4026234149932861,0.47822684049606323,4.348123550415039,0.15482857823371887,1.1032768487930298,-0.8202919960021973,2.2565133571624756,2.20056414604187,1.9419370889663696,0.8688555359840393,-0.2925010621547699,-0.1762266606092453,0.5358229279518127,1.3834099769592285,-1.5707128047943115,1.5019458532333374,-0.7732012271881104,1.6142076253890991,1.0529404878616333,-1.6260164976119995,0.9147002100944519,0.4648863673210144,1.6806950569152832,-1.5434695482254028,-1.2934060096740723,-3.2763826847076416,3.2215685844421387,-2.6157445907592773,-2.1079885959625244,3.213775634765625,1.0520564317703247,0.9203842878341675,-2.8623297214508057,0.8422254920005798,-0.1842581182718277,-0.4378860294818878,-0.3248031735420227,1.056114912033081,1.1261974573135376,-1.9733227491378784,-1.985023021697998,-3.7658724784851074,1.1282858848571777,9.875882148742676,-2.96866512298584,2.6046488285064697,5.239628791809082,5.609967231750488,6.422869682312012,0.07683418691158295,-6.945102214813232,-1.0553096532821655,1.823371410369873,3.570338010787964,-0.06238125264644623,-10.587911605834961,5.9042510986328125,4.192314624786377,-2.41072154045105,-0.5907669067382812,-11.16348648071289,-11.162144660949707,1.6318212747573853,16.358985900878906,11.75959300994873,4.037351131439209,-4.560696125030518,-4.128354549407959,6.0614800453186035,1.6142902374267578,1.671765685081482,2.7811760902404785,1.543205976486206,-2.343693971633911,1.752834677696228,0.790486216545105,5.523418426513672,0.703412652015686,-0.2737300992012024,4.6231584548950195,11.27415943145752,-3.7274398803710938,-9.60781478881836,2.619450807571411,2.4392926692962646,-2.9956233501434326,0.33922675251960754,1.057625412940979,-4.032966613769531,0.740313708782196,-5.670039176940918,-11.759261131286621,-3.6737706661224365,-2.299351930618286,8.803308486938477,-7.398377418518066,3.15556263923645,-0.7368944883346558,5.98584508895874,-5.522411346435547,-3.6423399448394775,7.2159857749938965,-3.5301501750946045,-4.541159152984619,-5.3946967124938965,-6.227161884307861,-0.9622913599014282,-0.49415817856788635,0.19607478380203247,2.1636056900024414,-1.7799758911132812,0.49914687871932983,-1.6436622142791748,4.364116668701172,-2.2508039474487305,0.16441985964775085,0.9599332213401794,0.17457526922225952,-0.6687747240066528,-0.5797194838523865,-0.43664056062698364,3.898651599884033,-0.19721078872680664,0.6829819679260254,-0.4636506140232086,1.7872087955474854,2.5045011043548584,0.14332294464111328,-0.4743015170097351,-0.003442240646108985,2.1969213485717773,-1.1445481777191162,-1.622106909751892,3.702446460723877,-0.34435132145881653,-1.4973335266113281,0.9882720112800598,0.1275169551372528,-2.8987598419189453,1.966070294380188,2.0217533111572266,6.923979759216309,-0.39067310094833374,1.1330453157424927,-3.4566457271575928,0.8550346493721008,-1.2994166612625122,1.650861382484436,-0.10887466371059418,-2.311889410018921,-4.677313804626465,2.0907797813415527,0.43677523732185364,-0.67652428150177,0.5229654312133789,1.7453981637954712,1.1714732646942139,3.011863946914673,-2.949185371398926,1.4547338485717773,-2.8780691623687744,-1.0603768825531006,-0.8414456248283386,1.385842204093933,0.48406192660331726,-2.5915863513946533,0.013555650599300861,-2.7379355430603027,1.2385982275009155,-1.977325677871704,-2.3352792263031006,-0.9858834743499756,2.8003530502319336,-1.1933033466339111,4.336921691894531,1.352440595626831,2.2140214443206787,-4.018409729003906,-0.6488023400306702,3.13454008102417,0.5264071822166443,-3.535937786102295,-0.004647499416023493,0.2930247187614441,-3.9617135524749756,-1.5694056749343872,0.628853440284729,-0.716084361076355,-0.7750342488288879,0.4488898515701294,0.9732348322868347,0.2637577950954437,1.4507198333740234,-1.7593963146209717,0.3477749228477478,2.5870800018310547,4.62474250793457,-1.1454811096191406,1.2293462753295898,4.686896800994873,1.88332998752594,-0.7132833003997803,0.9412232637405396,2.654674768447876,2.349996328353882,4.206507205963135,1.249943494796753,-5.944178104400635,-3.171687126159668,-2.5135271549224854,-0.8111475110054016,1.1113135814666748,-0.7516530156135559,3.919485330581665,-0.3671683967113495,2.3114960193634033,-1.2330440282821655,-1.4028619527816772,-3.0874454975128174,-2.682842254638672,3.867295265197754,0.9166133999824524,4.603445053100586,-2.352090835571289,-1.3624534606933594,0.44519567489624023,2.692563772201538,-1.0530991554260254,1.1406265497207642,1.615005612373352,0.1077345460653305,1.966511607170105,-0.15148481726646423,-6.405158519744873,0.3426007032394409,6.021894931793213,0.8277002573013306,0.4153349697589874,-11.542922019958496,-2.0840842723846436,-12.507976531982422,-1.1300050020217896,3.549943447113037,-5.3796563148498535,4.788725852966309,2.7727251052856445,-6.155081272125244,2.8791794776916504,-1.1195790767669678,0.06651289016008377,-3.6781370639801025,9.684454917907715,0.25539466738700867,-0.5316298604011536,-8.910097122192383,-1.353058934211731,-7.862411022186279,-4.046115875244141,4.858781814575195,2.8428683280944824,4.728320121765137,0.43331483006477356,0.5865030884742737,-4.58661413192749,-3.2797772884368896,-10.990407943725586,-7.183131694793701,-6.063139915466309,6.005185127258301,2.306302785873413,0.4272918701171875,-5.358640193939209,4.644169330596924,1.7125805616378784,-5.103855133056641,7.181539058685303,1.0181279182434082,-0.3496038317680359,-9.51747989654541,-0.18856200575828552,1.6369565725326538,7.163928985595703,0.3876899182796478,3.0030200481414795,-6.815461158752441,7.848601818084717,4.392033576965332,0.5157510042190552,-1.8425699472427368,13.023676872253418,-6.856513500213623,3.730001449584961,-9.362361907958984,3.0959999561309814,-0.511542022228241,-1.6860276460647583,-1.042300820350647,-1.9556914567947388,1.6612904071807861,-0.578079342842102,1.6065399646759033,1.431418538093567,1.5921450853347778,-0.9770150184631348,-2.4425301551818848,4.5238237380981445,1.580675721168518,-1.8554869890213013,0.6953582763671875,3.9237959384918213,-1.832018494606018,-1.0668237209320068,-0.5585408806800842,-0.9228073954582214,0.940761387348175,0.7981053590774536,2.2493536472320557,-0.1341978907585144,1.1052335500717163,-0.9848682880401611,1.484282374382019,0.6001682877540588,1.2693392038345337,-1.7381256818771362,3.1399171352386475,4.29838752746582,0.5605264902114868,0.4634915888309479,2.487285852432251,1.0453628301620483,-1.223177194595337,-0.29493674635887146,5.646411418914795,-4.331549644470215,-1.0794215202331543,1.8444031476974487,0.4365409016609192,2.805011510848999,0.7216910719871521,2.257535457611084,0.8767766952514648,1.2697923183441162,-3.3028900623321533,-1.3163832426071167,1.6268501281738281,0.451444149017334,0.7685838937759399,-0.9821109771728516,1.8073517084121704,-2.9509825706481934,0.9811902046203613,-4.722072124481201,-2.629777431488037,2.4742960929870605,1.6496328115463257,1.1999460458755493,-2.11529278755188,-0.5595016479492188,-2.5652146339416504,2.8493399620056152,-1.6569970846176147,-1.56270432472229,0.7247344851493835,-3.9177660942077637,-2.238739013671875,0.03870531916618347,1.0746488571166992,-3.1936450004577637,-0.7801058888435364,1.0955839157104492,0.5766773819923401,1.1473361253738403,2.2769131660461426,0.05200231447815895,-0.6447499394416809,1.7451120615005493,-0.5625834465026855,0.6526892781257629,0.18049052357673645,0.14037124812602997,-0.18775725364685059,-0.7958317995071411,-0.6423976421356201,3.5891387462615967,0.9516782760620117,-1.1157904863357544,-0.25510871410369873,3.3953306674957275,-3.3322794437408447,1.7308955192565918,1.643117070198059,-2.398569107055664,-1.8889782428741455,-1.2651159763336182,-0.37425827980041504,-3.4344823360443115,2.148498058319092,1.493691086769104,0.22339491546154022,1.882093071937561,-0.7738489508628845,-0.06392353773117065,3.0120131969451904,-3.902102470397949,0.5973140001296997,-2.0730926990509033,3.8895766735076904,4.21467399597168,-0.9476586580276489,-0.23025023937225342,-0.8769460320472717,-0.8466043472290039,0.2793899476528168,1.618472695350647,1.7226020097732544,-0.03703293949365616,1.0220264196395874,-0.17039746046066284,1.1421788930892944,1.1548689603805542,-1.4893666505813599,3.7682554721832275,0.3225577175617218,6.319997787475586,-0.5886400938034058,-2.9420788288116455,2.2171990871429443,6.440181255340576,-0.1226731687784195,0.9204656481742859,0.6160523891448975,0.6598227620124817,-2.6172351837158203,-7.019762992858887,-3.9712843894958496,0.8469635248184204,-1.776188611984253,7.710063934326172,-1.4399970769882202,-3.4083385467529297,-5.0399065017700195,1.692016839981079,3.0734403133392334,3.2896270751953125,-1.2522622346878052,3.5578622817993164,-3.496981143951416,-1.4025375843048096,-1.1351009607315063,-1.4483224153518677,-3.042914867401123,1.247458577156067,-2.4554731845855713,0.419042706489563,9.003352165222168,1.402122974395752,0.5594426989555359,-1.29814875125885,2.808897018432617,1.3904649019241333,-2.4876482486724854,-6.8208088874816895,-3.5589826107025146,6.7242608070373535,-5.810492992401123,-2.6566927433013916,0.4694864749908447,1.365846037864685,5.455420017242432,0.2705993056297302,-9.056807518005371,5.470244407653809,-0.19190923869609833,6.027177810668945,-1.655024766921997,-2.724755048751831,-3.6998114585876465,-2.799543619155884,-7.687198162078857,-2.114447593688965,2.672410726547241,6.119212627410889,2.3446431159973145,-0.7271084189414978,-2.3042385578155518,2.3547255992889404,-3.0203256607055664,-1.7723406553268433,0.025025831535458565,-4.830879211425781,0.02351960353553295,-5.763131618499756,5.282994747161865,2.3438572883605957,-0.5983504056930542,-2.136941909790039,5.167733669281006,5.210695266723633,-0.13378913700580597,-3.216259241104126,3.7271487712860107,3.2378487586975098,-0.21420995891094208,-6.280606746673584,-0.25404220819473267,-2.034980297088623,-4.051657199859619,-1.9200595617294312,-2.14807391166687,0.5755120515823364,-2.685406446456909,-0.8524014949798584,7.275222301483154,-6.242307662963867,-4.014742374420166,-3.553682565689087,1.1355758905410767,0.25139665603637695,-3.95272159576416,5.267362594604492,-0.27108854055404663,-3.581841230392456,5.824845790863037,6.246911525726318,-2.1120493412017822,2.20906400680542,-1.951655387878418,-3.1590328216552734,0.12896718084812164,2.417811870574951,-0.7067721486091614,-0.4330642819404602,0.6280510425567627,-1.6068103313446045,3.770608425140381,-0.4299898147583008,3.1328723430633545,-2.097226142883301,3.2807958126068115,-2.8246145248413086,4.030205726623535,-5.0236735343933105,1.943127155303955,5.143666744232178,1.1070693731307983,-0.6189937591552734,5.283377170562744,1.112563133239746,-1.0280195474624634,8.98593807220459,-0.2969719171524048,-0.5297250747680664,2.296543836593628,7.224318504333496,2.1177241802215576,-3.7176833152770996,0.1271999031305313,0.2912905514240265,2.54831862449646,-5.063648223876953,-5.425557613372803,2.4120776653289795,5.332481384277344,4.578978538513184,-8.62267780303955,-6.939042568206787,-2.6547458171844482,6.843803882598877,5.893818378448486,9.079483032226562,4.502418518066406,0.7328994274139404,0.6701462268829346,1.692550539970398,0.3683290183544159,-5.714193344116211,-0.5955902338027954,-1.2102683782577515,1.7709503173828125,1.1400665044784546,3.074380397796631,-1.5844544172286987,-0.5367133021354675,1.3033955097198486,5.102481365203857,-1.0848289728164673,-1.2891297340393066,-6.231523513793945,-3.4988341331481934,3.6450817584991455,-0.17929679155349731,-2.6626901626586914,-2.9375429153442383,7.957435131072998,0.020151790231466293,-3.5962491035461426,-9.640045166015625,1.0128729343414307,-0.32935670018196106,4.166815757751465,1.8647191524505615,6.885347366333008,-1.337127685546875,-2.8358707427978516,-2.580246686935425,-0.9286594390869141,-3.5546953678131104,3.53727388381958,5.350052833557129,3.184136390686035,0.2477053850889206,-8.405195236206055,-0.052731700241565704,2.435452699661255,0.7950505614280701,0.2794393002986908,4.02152681350708,-4.2056097984313965,-6.343141078948975,-4.809947967529297,4.434734344482422,-0.11900010704994202,-4.753818511962891,2.7720704078674316,1.6025607585906982,-1.2539347410202026,2.1880221366882324,-14.777514457702637,-4.176840305328369,-1.8248251676559448,7.117417335510254,-0.7307596206665039,-0.653449535369873,0.6109507083892822,2.0466670989990234,2.159048080444336,0.2313690036535263,8.94475269317627,-1.4335358142852783,-2.2610769271850586,9.841864585876465,-0.6592240333557129,1.0067265033721924,-6.517638206481934,-3.118144989013672,5.703304767608643,9.500044822692871,0.8621777296066284,1.131798267364502,-10.335896492004395,3.3922011852264404,-1.1683346033096313,-4.474472999572754,2.239896774291992,1.227577805519104,-6.334020614624023,2.751966714859009,6.662407875061035,-2.8476431369781494,-7.093562602996826,-1.8854191303253174,6.462360382080078,-4.967070579528809,9.28258228302002,2.2749364376068115,1.7965588569641113,2.021331310272217,-0.7467791438102722,2.9489853382110596,0.6907264590263367,3.2432777881622314,-1.915963053703308,1.805918574333191,-8.511051177978516,5.8290863037109375,3.1767404079437256,-4.204910755157471,1.569883108139038,-2.5444087982177734,-0.5609328746795654,2.2271618843078613,-8.791672706604004,3.444247245788574,3.9693641662597656,-2.571525812149048,7.932967185974121,-2.741506814956665,-3.64591908454895,-0.7244305610656738,3.3247570991516113,3.732290267944336,-3.832397937774658,-0.299478679895401,0.1878027766942978,-3.341440200805664,5.5765275955200195,-2.8970367908477783,-3.034943103790283,-3.9932291507720947,-5.6056060791015625,-1.5113632678985596,6.744680881500244,-2.85221791267395,-4.056339263916016,0.7645400762557983,-4.369255065917969,-1.9296592473983765,3.574678659439087,3.135345935821533,0.7398198246955872,-9.38630485534668,5.185451030731201,1.9803255796432495,-6.289636611938477,-7.826407432556152,-5.280828475952148,-1.1039633750915527,0.8913560509681702,-3.18159818649292,9.032611846923828,6.082993030548096,2.86578106880188,1.3117740154266357,6.879339218139648,0.44071248173713684,3.80195951461792,3.9396955966949463,-1.6195940971374512,3.2242345809936523,6.5726704597473145,-4.175099849700928,-4.8877129554748535,0.2537984848022461,-3.4239985942840576,4.34074592590332,9.34389877319336,5.3954291343688965,6.127512454986572,-6.277511119842529,-6.135493278503418,12.500691413879395,-1.092571496963501,-0.12633466720581055,-0.11580867320299149,3.953064203262329,4.3108673095703125,-0.8522934913635254,4.87191104888916,4.33613395690918,3.385223150253296,10.010152816772461,-2.12182879447937,-2.0385522842407227,0.6510800719261169,0.49186286330223083,6.721114158630371,-5.807986736297607,-2.0485432147979736,-4.209622383117676,-4.36666202545166,-1.6460314989089966,8.622891426086426,8.302250862121582,-3.228381872177124,4.153789520263672,1.3776389360427856,1.016339659690857,4.719995975494385,-1.9256643056869507,5.9094109535217285,1.2730340957641602,-5.223099231719971,-4.163634777069092,2.0401105880737305,1.9819852113723755,4.192358016967773,6.547152996063232,7.566127777099609,-0.8841177821159363,-7.979610443115234,7.405969142913818,-1.4435640573501587,-0.26302167773246765,-4.668481826782227,-9.867403984069824,0.9126079082489014,-2.9267938137054443,1.369270920753479,-3.746262311935425,-2.5080606937408447,-7.318251132965088,-0.9376873970031738,-4.500319004058838,-1.5059301853179932,8.05756664276123,-5.568174362182617,-1.472463607788086,-7.959794044494629,4.266879558563232,-2.8730740547180176,-4.999159336090088,-10.878230094909668,0.9980655312538147,0.8600378632545471,-2.7602837085723877,-1.0796818733215332,6.836568832397461,0.8377103209495544,1.701634168624878,2.7308082580566406,-2.273240804672241,-3.291220188140869,-11.411620140075684,-4.229673862457275,6.788785934448242,7.740724086761475,-4.575692176818848,-5.101105213165283,-9.991884231567383,2.5095765590667725,1.1113544702529907,-6.606302261352539,-4.409402847290039,5.8600592613220215,0.3335477411746979,0.17791976034641266,-0.5373163819313049,0.3318364918231964,-1.154829740524292,6.267693996429443,-3.979620933532715,-1.6421889066696167,-1.7785347700119019,0.2386462539434433,4.175720691680908,2.6131904125213623,-3.3819284439086914,-1.3415435552597046,-0.6493024826049805,-0.36273393034935,0.8334559798240662,10.85444164276123,-2.8143036365509033,3.6038405895233154,-12.497039794921875,0.6987285614013672,-0.9901254773139954,6.005851745605469,7.1192779541015625,0.565940797328949,0.3150351941585541,7.202272415161133,-4.229898929595947,-13.199763298034668,-3.077854871749878,-0.06147502735257149,-12.020219802856445,-5.425748825073242,0.9005666971206665,-1.7815017700195312,2.7454075813293457,10.16993236541748,4.38254976272583,-1.460618495941162,-7.433120250701904,0.8982541561126709,-0.8495877385139465,1.6677271127700806,1.6062939167022705,-7.1356611251831055,5.015586853027344,1.1885215044021606,3.000528573989868,0.02367912232875824,-4.817259311676025,7.906431198120117,-0.05706408992409706,-9.903436660766602,-8.453874588012695,-2.2251334190368652,6.453855514526367,3.9928126335144043,0.4064132869243622,7.266385555267334,-4.349603176116943,2.220385789871216,-2.535405397415161,-3.2386181354522705,0.9901111125946045,-0.4790533185005188,2.1537227630615234,7.344707012176514,5.810308456420898,3.7106473445892334,-0.2948114275932312,2.707064628601074,2.619729518890381,0.8405380249023438,-2.8402721881866455,1.6735570430755615,-5.366640567779541,-7.069813251495361,5.995438098907471,2.6067304611206055,1.131840705871582,11.352249145507812,-0.19200722873210907,1.872270941734314,1.272338628768921,-6.722623348236084,-1.4041180610656738,4.256657600402832,-3.8537235260009766,2.2941603660583496,0.25590628385543823,-0.18271201848983765,-4.088610649108887,2.5647835731506348,-9.059385299682617,8.116361618041992,-1.9765876531600952,-1.9126144647598267,-6.762784481048584,-6.282362461090088,-2.7893636226654053,-6.0045247077941895,-3.0141172409057617,4.216399192810059,4.667930603027344,-2.669553518295288,5.16562032699585,1.1250380277633667,-2.6619937419891357,-8.217117309570312,5.561290264129639,5.407533168792725,-1.0183396339416504,-4.962985992431641,0.8040506839752197,2.4190521240234375,0.014219187200069427,1.0583552122116089,-5.699734687805176,-2.812927484512329,-3.6491947174072266,3.7402663230895996,1.4677155017852783,2.2146544456481934,1.0336629152297974,-3.4716851711273193,-1.8623456954956055,2.423125743865967,5.522322177886963,0.9916455149650574,0.13118688762187958,3.710726261138916,-0.16251975297927856,0.36095914244651794,-3.537106990814209,10.253050804138184,6.116450786590576,7.445093154907227,-2.159590482711792,-6.100894927978516,-10.652536392211914,-4.639416694641113,-0.6580645442008972,2.346543312072754,-3.1950833797454834,2.752366065979004,-8.617640495300293,9.71285343170166,1.2664302587509155,-7.466241836547852,-10.697481155395508,-3.5440316200256348,4.5326666831970215,-2.026219129562378,7.569866180419922,6.323317527770996,2.1612706184387207,2.835966110229492,4.15369176864624,2.4634721279144287,2.8109683990478516,5.039693355560303,8.051159858703613,-0.4012612998485565,0.7832774519920349,-3.872689723968506,-6.041858673095703,0.08604740351438522,-1.1620640754699707,-1.013291358947754,0.7068756818771362,12.053290367126465,-0.2605598568916321,-6.868685245513916,-2.117278814315796,0.7146080136299133,-1.7214008569717407,2.586287021636963,4.586057662963867,2.627795934677124,1.4045565128326416,-9.384882926940918,-5.001416206359863,2.024897336959839,8.513068199157715,6.649141788482666,2.87705397605896,2.1172187328338623,-1.9006315469741821,1.2271270751953125,4.793422222137451,2.28859281539917,-6.0237321853637695,1.3882111310958862,11.159542083740234,-0.6701678037643433,2.2708020210266113,3.5357275009155273,-5.651761531829834,3.526550054550171,-4.625939846038818,8.133254051208496,-8.761305809020996,-1.6323000192642212,4.586036205291748,5.978510856628418,5.452817916870117,1.3219422101974487,3.065413236618042,-1.1094144582748413,-0.33207085728645325,-3.0640084743499756,-1.5867633819580078,6.005875110626221,-4.775156021118164,6.284904956817627,-2.5316708087921143,2.8815135955810547,-4.138755798339844,5.121999263763428,-3.140270709991455,-4.463433265686035,4.172799110412598,-3.052081346511841,-0.596333384513855,-1.5132122039794922,1.6257578134536743,-0.6217541098594666,-4.590857028961182,9.037247657775879,-0.5905954241752625,-2.6407723426818848,0.6609185338020325,10.528380393981934,0.5222651958465576,1.4202789068222046,0.2928487956523895,-6.189630031585693,-6.148036479949951,-3.1073193550109863,-0.668606698513031,-1.977262020111084,4.57617712020874,7.081592082977295,-7.498663425445557,-3.6276745796203613,-2.6333580017089844,-1.1384358406066895,4.412557125091553,3.725931167602539,-0.18186016380786896,1.2662712335586548,-8.835827827453613,-4.707394599914551,1.241006851196289,-2.950399875640869,-7.004940032958984,0.7997292280197144,-10.80899715423584,-3.3720617294311523,5.2685418128967285,0.7051709294319153,5.435905933380127,-1.8630748987197876,5.3231706619262695,-0.68397057056427,2.4594223499298096,-7.8739824295043945,-6.154327869415283,12.51366901397705,4.622824668884277,-4.123627185821533,6.856139183044434,1.7426478862762451,9.11935043334961,-5.767838478088379,-3.9984662532806396,5.583343982696533,-0.09523955732584,3.7379560470581055,-0.057830244302749634,3.5882303714752197,-0.4784512519836426,-1.0417207479476929,-3.7646939754486084,-8.186171531677246,1.484057903289795,-1.1577571630477905,-4.468708515167236,2.5389630794525146,-1.4851152896881104,-2.7206690311431885,-7.768850803375244,1.2159117460250854,-2.523270606994629,3.2686591148376465,1.8220137357711792,1.6221987009048462,-5.410765171051025,-7.4278435707092285,7.128588676452637,2.7473196983337402,1.1670000553131104,10.97409725189209,3.28554105758667,-2.50492525100708,-4.719881057739258,-4.4420318603515625,-3.55322003364563,5.503897666931152,3.0570716857910156,-0.32730841636657715,-9.817793846130371,-2.388227939605713,-8.515766143798828,4.9206085205078125,6.714471817016602,2.9182093143463135,0.8510208129882812,7.355720520019531,1.493030071258545,4.802116394042969,-0.5784747004508972,1.954603672027588,-1.2963699102401733,-3.923950672149658,1.285299301147461,4.370495796203613,-4.757237434387207,-0.21825960278511047,3.8518645763397217,2.4947330951690674,-4.837041854858398,-5.086063861846924,1.2122106552124023,-6.942121505737305,-1.7248414754867554,2.7247114181518555,-2.004045248031616,1.730150818824768,-0.9028046131134033,4.1312336921691895,-5.0718159675598145,3.797006845474243,-7.031142711639404,-0.8344992995262146,-5.289734840393066,1.5844862461090088,1.7092376947402954,-5.355077743530273,-6.024031162261963,-3.8627657890319824,-4.037343978881836,2.6504483222961426,1.2738419771194458,-6.086136341094971,-3.4740235805511475,2.521181106567383,-8.916851043701172,-7.505199909210205,-6.872959613800049,4.792055130004883,-3.3437130451202393,-1.031920075416565,-0.9130350351333618,7.561686038970947,5.874321937561035,-0.8182419538497925,-0.9115925431251526,-1.9205290079116821,2.240617036819458,0.4760980010032654,0.4413091242313385,3.3608896732330322,-4.290491104125977,-4.914892196655273,3.697787046432495,-1.3439388275146484,3.3731908798217773,0.7365337014198303,0.30602356791496277,7.503881931304932,6.075135707855225,-10.334397315979004,4.7089409828186035,2.7475216388702393,-4.476050853729248,-1.3882476091384888,3.559830904006958,-1.0613459348678589,-4.575806617736816,5.961244583129883,-1.4371485710144043,3.591177463531494,7.057292938232422,0.3871493339538574,6.363315105438232,5.599419116973877,0.47463881969451904,0.08247394859790802,-5.072475910186768,6.066202640533447,6.3637309074401855,-3.161219596862793,-0.07392683625221252,2.6883857250213623,-0.08510149270296097,1.191044807434082,1.4776115417480469,-0.7100468277931213,5.3141398429870605,1.445906162261963,-5.6933913230896,-3.96671724319458,-7.257969856262207,-5.3274688720703125,-3.971618413925171,-7.834105014801025,0.8524129986763,6.495713710784912,1.6311545372009277,12.721323013305664,4.913949012756348,3.9703025817871094,-3.6682722568511963,-2.083954334259033,12.798788070678711,-2.1942195892333984,0.33345285058021545,-6.26947546005249,-4.03392219543457,2.0599069595336914,0.6999787092208862,1.5401880741119385,-7.958467960357666,-0.8263715505599976,0.1300281584262848,-0.03261871263384819,2.6260249614715576,-4.2607574462890625,4.4998459815979,-0.7757731080055237,-12.270769119262695,4.585545539855957,-2.396529197692871,-7.479238033294678,-2.7535970211029053,-2.447575092315674,-9.528197288513184,3.466853141784668,3.8068184852600098,7.267094135284424,-0.5440298318862915,-0.004877244587987661,-3.1557393074035645,0.7853808999061584,-4.217923164367676,-6.3350830078125,-5.047360420227051,0.9697741270065308,1.1079394817352295,-6.349245071411133,-1.9849594831466675,4.655594825744629,-0.6518335938453674,-7.6918182373046875,5.050997734069824,2.2581145763397217,0.10814520716667175,-0.4046871066093445,0.49968618154525757,-5.9817352294921875,5.679658889770508,-9.529555320739746,-1.1788694858551025,8.840176582336426,2.2010960578918457,3.7620296478271484,4.1449103355407715,10.638588905334473,-5.043257236480713,-6.7036943435668945,3.0301644802093506,-3.086196184158325,11.187453269958496,2.5435619354248047,-2.674233913421631,-8.434264183044434,0.4369172751903534,0.6496151685714722,-1.9418467283248901,-7.983494281768799,3.409043312072754,3.931795120239258,-10.802485466003418,-7.440783500671387,0.1642053723335266,-8.841400146484375,6.949886322021484,7.248870372772217,2.458613157272339,0.8886108994483948,0.46472689509391785,-11.54343032836914,5.344271659851074,-1.5531198978424072,4.6474738121032715,4.58396053314209,3.5144431591033936,-1.6079975366592407,-5.879382133483887,-0.720363974571228,7.120901107788086,-2.3935539722442627,-0.8134758472442627,2.3500685691833496,-3.179490327835083,-6.183374404907227,-3.5926411151885986,0.10487401485443115,-2.890913963317871,0.21188798546791077,-0.8154832720756531,4.20286750793457,-4.189596652984619,4.187743186950684,-7.2105231285095215,-3.067715883255005,1.122362732887268,-0.3489004075527191,5.881845951080322,3.522473096847534,9.651944160461426,1.0189058780670166,11.841167449951172,-4.382233619689941,-3.379338026046753,-1.0236722230911255,5.645435810089111,-13.555571556091309,-5.308577537536621,-11.917264938354492,5.947811603546143,1.2695088386535645,5.54604959487915,0.4591904878616333,0.3837624490261078,-6.325034141540527,-6.410024642944336,-2.1704955101013184,5.5448317527771,0.33785903453826904,-5.18912410736084,0.6275549530982971,4.5258965492248535,5.417664527893066,-1.7141536474227905,1.7868452072143555,-0.1812647432088852,1.1965962648391724,6.836184024810791,-1.296598196029663,-5.411871910095215,-6.85162353515625,-2.371184825897217,0.0004994190530851483,-1.9933767318725586,0.3658975660800934,3.343825101852417,-4.26019287109375,9.181269645690918,5.735323905944824,-6.477739334106445,-0.3149675726890564,4.216002941131592,-4.907028675079346,-8.402756690979004,-4.765711784362793,-7.80964469909668,2.828003168106079,2.098334312438965,2.5836637020111084,-0.45151522755622864,1.6539404392242432,-1.5172905921936035,5.076957702636719,-0.35211893916130066,4.603208065032959,-1.160745620727539,-2.895966053009033,-0.651837944984436,4.1731719970703125,1.3361316919326782,-2.8593451976776123,2.2944507598876953,-6.663214206695557,-0.7297709584236145,-0.36540478467941284,-9.099627494812012,4.9559102058410645,1.402977466583252,-1.3076958656311035,-0.5835151076316833,-5.663682460784912,-2.369988203048706,-1.1534472703933716,1.4057183265686035,-5.784478187561035,2.5582032203674316,-13.376973152160645,-2.1239798069000244,12.800654411315918,0.6105301380157471,-4.158061504364014,21.728473663330078,-0.5304773449897766,-3.1521029472351074,1.0475633144378662,9.654386520385742,-1.8801628351211548,1.4061951637268066,6.979316234588623,-1.1591254472732544,-4.044075012207031,-6.453971862792969,-1.3155728578567505,-4.476683139801025,-11.455124855041504,-0.9295599460601807,-7.981526851654053,-6.089616298675537,-2.8561534881591797,3.958998441696167,2.095028877258301,-5.595746994018555,0.8331100940704346,1.4494932889938354,0.4184105396270752,-6.031013488769531,9.598496437072754,-3.614544630050659,3.0884835720062256,1.845306158065796,3.028388500213623,-4.92627477645874,-0.6761496663093567,5.228737831115723,-10.942500114440918,-0.796857476234436,2.301426649093628,3.4646317958831787,3.0806872844696045,-4.05780029296875,-12.986005783081055,-9.423444747924805,1.917502522468567,-0.19216251373291016,4.871589660644531,-0.4441460371017456,1.818605899810791,-8.985156059265137,-3.165694236755371,4.954837799072266,-11.808387756347656,0.751468300819397,-6.903212070465088,14.677218437194824,11.25250244140625,-1.7304269075393677,1.8374706506729126,-3.716752052307129,-2.9283125400543213,-0.44242146611213684,0.3213994801044464,2.7772390842437744,0.12886828184127808,0.48127081990242004,1.8718425035476685,-0.7748409509658813,-0.9096674919128418,-0.10365676134824753,0.6724151372909546,0.09464561194181442,0.056713175028562546,-2.821949005126953,3.135509490966797,3.0357882976531982,2.6212260723114014,-3.424964666366577,-2.394500732421875,-2.1370856761932373,0.181361123919487,0.22517941892147064,-0.979163646697998,-1.4990592002868652,-2.0216662883758545,-0.6316016316413879,3.188810110092163,0.9788294434547424,-0.6747153401374817,-1.3820830583572388,0.10529175400733948,2.0233047008514404,-2.723393201828003,-3.8415932655334473,-1.0633037090301514,-0.26663264632225037,1.3827158212661743,0.373019278049469,-0.6267319321632385,0.6120520830154419,-1.402298927307129,-1.8660247325897217,1.4656025171279907,-1.173069953918457,-0.949403703212738,1.9333598613739014,-0.02015591599047184,3.1341257095336914,-2.280635118484497,-1.6406084299087524,-1.4639619588851929,-2.3477540016174316,-1.3933205604553223,-1.0606703758239746,0.7338536977767944,-2.4418742656707764,1.1694107055664062,0.7612360715866089,1.4002995491027832,-0.29823601245880127,-0.46898484230041504,-0.7338632941246033,3.584401845932007,0.2201673686504364,-1.3770838975906372,-0.5528592467308044,-0.397684246301651,0.2592790722846985,1.0230239629745483,0.1574135571718216,-2.046515703201294,-1.9799829721450806,-0.3244870901107788,-0.13402260839939117,-1.752568244934082,0.8617573976516724,2.8847734928131104,-1.7600065469741821,1.7614001035690308,-1.318943738937378,-0.42204898595809937,3.5424203872680664,2.7308077812194824,-1.8873708248138428,1.5345028638839722,-2.2846453189849854,-0.7182832360267639,-0.10814866423606873,-3.3727567195892334,-2.095628023147583,1.8876967430114746,-1.6850318908691406,0.8353924751281738,1.6153643131256104,0.705598771572113,0.3237204849720001,0.40934017300605774,0.2262643277645111,-1.572550654411316,-1.0614676475524902,-0.3704099953174591,-0.7606309056282043,2.1729063987731934,0.28468742966651917,-1.9789625406265259,1.639002799987793,-0.2692294418811798,1.4233253002166748,0.8716380000114441,1.1529428958892822,1.9844175577163696,-0.3236945569515228,0.42286136746406555,-0.07806066423654556,1.5236573219299316,0.698864758014679,-1.3899190425872803,2.0330305099487305,0.31955158710479736,-0.12470272928476334,2.3120672702789307,0.17000170052051544,0.27843204140663147,0.026738081127405167,0.037549059838056564,0.007392809260636568,0.025954920798540115,0.005992943421006203,0.02091088332235813,-0.03890061378479004,0.0499296672642231,0.038104698061943054,0.005864297039806843,-0.07641226053237915,-0.040856726467609406,0.021532081067562103,0.0009991669794544578,-0.01459922268986702,-0.012923380360007286,-0.07461895048618317,0.02851000800728798,0.021328061819076538,0.0006189060513861477,0.06665632873773575,0.0587271973490715,0.037244074046611786,0.02442094124853611,-0.003779330290853977,-0.05163264274597168,-0.017514295876026154,0.06650044023990631,-0.024465275928378105,0.04739072173833847,0.04459518939256668,-0.061758048832416534,-0.04245859012007713,-0.033311858773231506,-0.07492201775312424,0.06442631036043167,0.040050506591796875,-0.0394580215215683,-0.07035524398088455,-0.024385495111346245,-0.045991431921720505,0.015834733843803406,0.004921278450638056,-0.011513574048876762,0.0262650977820158,-0.05620100349187851,0.06843261420726776,0.0570560023188591,-0.014703706838190556,0.05394493043422699,-0.003946451935917139,-0.0737205222249031,0.006610256619751453,0.032277897000312805,-0.05823051184415817,0.07410528510808945,-0.07422125339508057,0.012835641391575336,0.05307954177260399,-0.033657535910606384,0.004640463273972273,0.004961488302797079,-0.0007466307142749429]},"hiddenLayers":[{"inputMatrix":{"rows":20,"columns":63,"weights":[0.17253704369068146,0.755962073802948,-1.2615458965301514,0.8909539580345154,-1.0436373949050903,2.0594253540039062,3.5138351917266846,-1.8753477334976196,-1.2184702157974243,1.6555100679397583,0.4115985035896301,-0.9258517622947693,-1.14226233959198,1.2140172719955444,0.20856933295726776,0.07185179740190506,-0.9867634773254395,0.995121955871582,-1.9469001293182373,0.9873314499855042,0.7559942603111267,-0.01026788167655468,-1.4026756286621094,0.19235478341579437,-1.3477654457092285,-1.6088398694992065,-0.4842064678668976,0.8942688703536987,2.7076196670532227,-1.9391413927078247,-0.35871657729148865,-1.0809822082519531,-0.8722414970397949,0.10259247571229935,2.3503713607788086,2.7401769161224365,0.35529598593711853,-0.4938909113407135,-0.2952743470668793,-0.4889821410179138,0.46174925565719604,-0.6491930484771729,-1.684373378753662,-1.728097915649414,0.10908909142017365,0.334053635597229,1.3814501762390137,-1.0021384954452515,-1.5947318077087402,-3.198941946029663,-0.4883308708667755,0.2834325432777405,0.22293232381343842,-0.267245352268219,0.9757312536239624,-0.057613763958215714,2.9471018314361572,-0.5476053357124329,-0.3940015137195587,1.3953909873962402,-1.1756774187088013,0.3303925693035126,0.3194073736667633,-0.4386477768421173,-1.107321858406067,0.41922280192375183,0.4078030288219452,0.4596213102340698,0.1661173552274704,0.7780235409736633,0.04780811816453934,0.24777179956436157,0.16432632505893707,-0.24818377196788788,-1.15988028049469,-0.3020498752593994,-1.2096810340881348,-0.37073108553886414,0.36767783761024475,0.7426799535751343,-0.19369272887706757,-1.6127327680587769,-1.5597888231277466,0.011659682728350163,1.0295337438583374,0.3591879904270172,-0.9254541993141174,0.1384299248456955,-0.2572042942047119,-1.5368901491165161,-0.5422448515892029,-0.2762261629104614,-1.2939859628677368,-0.8977230787277222,-1.0901211500167847,-1.0520192384719849,0.5417664051055908,0.9934085011482239,-0.24388183653354645,1.1968291997909546,-0.9590584635734558,1.528180480003357,0.8439338803291321,-1.6989037990570068,-1.435861349105835,0.7327882647514343,-1.8440358638763428,0.4635311961174011,-0.5087114572525024,0.5478734970092773,1.5204757452011108,-0.22168585658073425,-1.072001576423645,0.19466008245944977,-0.015464895404875278,1.8194639682769775,0.2913793921470642,2.6776368618011475,-0.8714622259140015,2.551874876022339,-2.139627695083618,-1.2305623292922974,2.3609604835510254,1.1482915878295898,0.9043551087379456,-0.3362361788749695,-2.572962522506714,1.1073356866836548,0.6837716698646545,-0.2426900565624237,0.4996606111526489,0.5405593514442444,-0.6028003096580505,-1.4387805461883545,-1.0683200359344482,0.7344599366188049,0.8412744402885437,-0.9955368638038635,1.3617686033248901,-0.7329297661781311,-3.0514590740203857,1.193822979927063,0.8495368361473083,0.6971210241317749,0.0968051552772522,0.06099189817905426,-0.730606198310852,-0.11090932041406631,-2.5405914783477783,-1.2743043899536133,0.8305485248565674,-2.200976610183716,-2.1357574462890625,-0.48316600918769836,1.773877501487732,-1.5218735933303833,-0.5945076942443848,-1.3744455575942993,-2.5831940174102783,-0.966597855091095,1.3884782791137695,-0.16389383375644684,0.7549220323562622,-1.619147539138794,1.8152021169662476,-0.1667533665895462,-1.2295033931732178,-0.7939963340759277,-1.361112117767334,-0.3479154109954834,-1.4335867166519165,-0.9253562092781067,-2.2415544986724854,1.578126072883606,1.8683079481124878,-0.21026505529880524,2.732809543609619,-0.7363982200622559,-0.16944493353366852,-1.7084355354309082,-0.7910563349723816,-2.8403546810150146,-0.5057255029678345,-0.04301423206925392,-2.429762601852417,0.7975094318389893,-0.441013365983963,1.2738131284713745,2.1687204837799072,-1.0106959342956543,0.23928621411323547,0.4544137418270111,-0.11921834200620651,-0.8952140808105469,0.5363516211509705,1.8891786336898804,-0.04984438419342041,-1.5432695150375366,0.06635137647390366,-0.07781089097261429,-0.9289436340332031,-1.07753586769104,-0.5721898674964905,-1.9899225234985352,-0.873386025428772,0.12960109114646912,0.17740491032600403,-0.587624728679657,-1.608412265777588,-0.13916143774986267,-0.45306161046028137,-0.8766043186187744,-0.42567846179008484,1.3870820999145508,-0.7601291537284851,-1.6050620079040527,0.2025160789489746,-0.6943248510360718,-1.6648191213607788,1.7899396419525146,-1.910743236541748,-0.743708074092865,-1.0583134889602661,0.7718492746353149,1.5126111507415771,0.6983254551887512,-0.8890342712402344,0.45101088285446167,-0.13262909650802612,-0.5083035230636597,-3.3275346755981445,0.5731070041656494,-1.1390154361724854,-0.6309719085693359,-0.6866605281829834,0.12350956350564957,2.998730421066284,0.1804305464029312,-1.7490453720092773,0.7317593097686768,0.10866685956716537,1.2154721021652222,-0.025778446346521378,1.0218545198440552,-0.9577853679656982,1.3846592903137207,-1.9383132457733154,-1.0903303623199463,2.6920828819274902,1.7953622341156006,1.1342871189117432,2.6812379360198975,-2.554842233657837,-0.27799129486083984,-1.0227497816085815,-1.1089783906936646,-1.0760843753814697,-1.6089704036712646,-1.2180756330490112,1.2096011638641357,1.3279328346252441,-0.45662519335746765,-1.5313398838043213,-1.0975501537322998,0.9070340991020203,0.2482665330171585,-0.968258261680603,0.8948113322257996,2.20620059967041,1.2636549472808838,-0.5760414004325867,-0.21150337159633636,-0.4111223518848419,-0.5216224193572998,-1.42159903049469,-4.125211238861084,0.2048444300889969,-1.5725435018539429,-1.0315130949020386,-0.3144558370113373,0.09863347560167313,0.3257048428058624,-0.4538682699203491,-2.8418173789978027,-1.463524341583252,2.0065667629241943,1.4224151372909546,2.6965909004211426,-0.5694811940193176,-1.841764211654663,0.29495155811309814,1.1082040071487427,-2.108480930328369,-0.09922531247138977,2.272033214569092,-0.7469221353530884,-0.484835147857666,0.3948601484298706,-0.167942613363266,0.5240711569786072,2.9959909915924072,1.5701605081558228,1.680226445198059,-0.31979790329933167,0.4321032166481018,-0.26813092827796936,-0.5569556951522827,-2.60992169380188,-0.02858666144311428,-0.8822977542877197,-0.20972569286823273,0.4570985436439514,1.3048981428146362,0.7815922498703003,0.3172396421432495,0.2510875165462494,-2.1213674545288086,0.5749690532684326,1.2739936113357544,-0.1473844051361084,3.492899179458618,-0.7051334977149963,-1.0140377283096313,-1.1204826831817627,0.0737779513001442,1.7825040817260742,-0.3537510633468628,-0.3677114248275757,0.5043759346008301,-0.3016553819179535,-0.1523032784461975,-0.5617607831954956,-1.06541109085083,2.0485777854919434,1.0574568510055542,-0.09608212858438492,1.031970500946045,2.272623062133789,-0.23519399762153625,-0.20743197202682495,-0.8628659844398499,-0.5132719278335571,1.9351730346679688,-0.20666252076625824,0.6051537990570068,4.049014091491699,-1.249781608581543,-0.1828002631664276,0.5236601233482361,0.11993575841188431,1.368097186088562,-0.17240704596042633,2.343336820602417,-4.082716464996338,-3.842771291732788,0.5502631068229675,-0.58330899477005,-1.5076936483383179,1.7901817560195923,-0.3971341848373413,0.6073718667030334,-0.3819924592971802,0.31726887822151184,-2.5378897190093994,0.09348295629024506,-0.47880253195762634,0.9101041555404663,-1.5263736248016357,1.524408221244812,0.36567625403404236,2.1429598331451416,-0.3889522850513458,0.6232372522354126,0.014976146630942822,0.8755555152893066,0.5571163892745972,-0.5354981422424316,-2.091567277908325,1.883358359336853,-0.4937053322792053,0.018964257091283798,-0.32489365339279175,1.465040922164917,-0.5157588720321655,2.293113946914673,-2.1182303428649902,1.0836312770843506,0.5003932118415833,-0.07662083953619003,-0.7541577816009521,0.3985244035720825,0.5934743285179138,-1.0516242980957031,-0.31237539649009705,-0.5956405997276306,-0.08347592502832413,0.47826051712036133,0.057746849954128265,-0.7070174217224121,-1.1857646703720093,-2.2018985748291016,-0.7365010380744934,-0.10538115352392197,-0.9374330639839172,0.8182271718978882,-1.0478968620300293,1.5792121887207031,0.4270952045917511,-0.19399067759513855,-0.05645046755671501,-0.8554069995880127,-1.6765711307525635,-1.5158092975616455,-0.3323337733745575,-1.3081103563308716,1.0152418613433838,0.9969676733016968,-0.28336861729621887,1.5066577196121216,-0.3371807038784027,-0.8607131242752075,1.8200106620788574,-1.2533581256866455,2.5636656284332275,-3.0149383544921875,-0.24648354947566986,-1.5960904359817505,-1.4089187383651733,1.1892914772033691,-1.7114583253860474,-0.7848302721977234,-2.0405659675598145,0.45058417320251465,-0.05510750040411949,-0.5626412034034729,0.18157796561717987,-1.9073346853256226,0.5623165965080261,-0.4414820075035095,-0.6628636717796326,0.4754745066165924,-0.22541137039661407,-0.1539520025253296,0.8656741380691528,0.47038987278938293,0.6131809949874878,1.2855451107025146,0.09852268546819687,0.04959540814161301,-0.16294945776462555,-1.665542721748352,1.1891411542892456,-0.689006507396698,-1.8655287027359009,0.34497103095054626,-0.8908439874649048,1.2420618534088135,1.106541395187378,-2.469136953353882,-2.079096555709839,1.035840630531311,2.957063674926758,2.090481996536255,1.243201732635498,-0.5247508883476257,0.12448878586292267,-0.3535135090351105,-1.0000487565994263,1.3674854040145874,-0.11703378707170486,-0.6092343330383301,1.553878664970398,-0.2264481633901596,-1.8276758193969727,0.5618141889572144,0.663491427898407,0.18638281524181366,2.4963228702545166,-1.5736973285675049,-0.3964753746986389,-2.6881651878356934,0.7334849834442139,-1.5848844051361084,1.244348406791687,-0.5646722912788391,0.11642462015151978,-2.156081199645996,-0.07785851508378983,1.0635673999786377,-0.013012073934078217,0.09790138155221939,0.8566476106643677,2.0450074672698975,-0.44083133339881897,1.790132761001587,0.5464591979980469,1.1579844951629639,0.303174763917923,-0.34908047318458557,-1.0501197576522827,-0.22776082158088684,0.634959876537323,-0.7264403700828552,-0.01015656627714634,1.7677936553955078,1.7026774883270264,-0.8774504661560059,-2.0381038188934326,0.7045484185218811,-1.3309781551361084,0.12522228062152863,-1.2786767482757568,2.2475576400756836,0.234730526804924,-1.3265016078948975,1.104863166809082,-0.4373120963573456,0.11772829294204712,0.9000438451766968,-0.8765316605567932,-1.9553827047348022,1.8682079315185547,2.9692392349243164,1.1771057844161987,-1.4748854637145996,-0.9898234009742737,-0.874091625213623,1.3767131567001343,0.28630200028419495,1.0773944854736328,0.4501429796218872,-1.9465923309326172,0.2683601975440979,1.2103875875473022,-1.6610649824142456,1.4751806259155273,-0.01305773388594389,0.8114212155342102,0.30068323016166687,0.24878104031085968,-1.2019447088241577,-2.1677584648132324,1.5938738584518433,1.9660913944244385,-0.6702920794487,-0.1285325288772583,-1.5126415491104126,0.3068246841430664,0.14267593622207642,2.35739803314209,-0.941865861415863,0.16577035188674927,1.2385355234146118,-0.3136192262172699,-1.299659013748169,-1.540921926498413,0.4073067009449005,-1.9659665822982788,-0.30072516202926636,-0.1298275887966156,0.30188965797424316,0.5840787291526794,0.3895881772041321,-2.048703670501709,-1.4412981271743774,-0.5749410390853882,-0.876388669013977,-0.8031641840934753,0.03402797877788544,1.3098688125610352,-0.040616475045681,-0.6938130855560303,1.6316275596618652,0.9623409509658813,0.23688730597496033,-2.5146729946136475,-0.5019190311431885,0.7132004499435425,-1.552656888961792,-2.90516996383667,-0.0593099482357502,-1.243504285812378,-0.007058477960526943,1.0031976699829102,-1.3245089054107666,-1.29257071018219,-0.7413233518600464,2.4819815158843994,2.046832799911499,1.6205836534500122,-0.09915380924940109,1.2087416648864746,-1.749825119972229,-0.9960924983024597,1.255908727645874,1.2150745391845703,-0.6988608241081238,0.5029399991035461,-1.2235016822814941,-1.8167846202850342,2.51128888130188,1.553911566734314,0.963246762752533,-0.32955634593963623,0.7302042245864868,-0.580981433391571,-2.5946640968322754,0.3071649372577667,-1.0760294198989868,2.432088613510132,-0.7426750659942627,-1.82561194896698,-0.5118215680122375,1.6959375143051147,0.5557617545127869,1.6301523447036743,-0.04810294508934021,1.5419987440109253,2.448077917098999,-0.6178920269012451,1.3437997102737427,1.0149420499801636,-0.48927468061447144,0.917944610118866,-0.6898297667503357,0.6680811047554016,0.8890554308891296,2.177042245864868,0.3048587143421173,1.052139163017273,-0.8118482232093811,1.5410507917404175,0.4411942660808563,-1.5952321290969849,-2.730893850326538,-0.4327104091644287,3.215146064758301,-2.438159465789795,0.9638492465019226,0.684695839881897,-1.8800435066223145,0.4743143320083618,0.6240902543067932,0.8234670162200928,0.44091495871543884,-1.541216492652893,-2.9708211421966553,1.056748867034912,0.207025408744812,1.2492977380752563,-1.2797542810440063,-2.564419746398926,0.5780884027481079,1.104434609413147,1.592553973197937,-0.3722934126853943,-0.2489335834980011,-1.9842236042022705,4.102466583251953,0.08820251375436783,-0.6028241515159607,0.3677971661090851,0.08345519751310349,1.8633512258529663,0.2560841143131256,-0.26622244715690613,-1.7102930545806885,-0.40913277864456177,0.4006233215332031,1.3865023851394653,-3.421787977218628,-0.663688063621521,2.7648236751556396,-1.686527967453003,0.38483908772468567,0.5603407621383667,2.5897057056427,-1.6819839477539062,-0.543077290058136,-2.9840612411499023,0.8083205223083496,-1.9226572513580322,-0.3166865110397339,-1.0287314653396606,2.2677838802337646,0.8641670942306519,1.3001384735107422,1.393378734588623,-1.6832712888717651,-0.5883803963661194,0.5533087253570557,0.389309287071228,-0.97829669713974,1.0566496849060059,-0.4004264771938324,0.3404141962528229,-0.02281486988067627,-0.21869012713432312,0.5296826958656311,0.49680423736572266,-0.4399562180042267,1.2743101119995117,1.6423392295837402,0.3902307152748108,-0.6641808748245239,-1.0025060176849365,-0.9568237066268921,-0.6851335167884827,0.08555389195680618,1.5583316087722778,-2.059769630432129,-0.5388683676719666,-1.2928674221038818,-0.13803516328334808,0.6215805411338806,0.2290351390838623,-0.9450536966323853,0.962857723236084,-0.8309007883071899,-1.3296401500701904,-0.6823102831840515,-1.0782673358917236,-1.2224489450454712,-1.079311490058899,-1.3735020160675049,0.7112926840782166,0.47928640246391296,0.014985409565269947,-0.3635224997997284,0.883953332901001,-0.033383287489414215,1.4232417345046997,0.21461060643196106,0.26635152101516724,-1.607540488243103,-0.22410297393798828,0.5325243473052979,-0.12398797273635864,-0.8579329252243042,0.43082964420318604,2.6138830184936523,-0.43550539016723633,-1.5783753395080566,0.26601123809814453,0.08763568848371506,0.11925695836544037,-0.41794031858444214,0.5783301591873169,0.9503124952316284,0.34014731645584106,-1.4167429208755493,0.2985791563987732,1.150464653968811,-0.19767998158931732,0.6214891076087952,-0.4509028494358063,-0.276060551404953,2.3773839473724365,0.1947636753320694,-1.172149658203125,1.3971611261367798,-2.3606173992156982,-0.0971798226237297,1.5205438137054443,0.27112630009651184,-0.5945678949356079,-1.114074468612671,-1.8212617635726929,2.550154447555542,0.0763143002986908,-1.4145222902297974,2.6044461727142334,0.5531105995178223,1.4060425758361816,0.9695363640785217,-1.1218750476837158,-0.32573431730270386,0.28690147399902344,0.0988316535949707,-1.0807358026504517,0.8805710673332214,-1.5022647380828857,-0.12398820370435715,0.31922584772109985,1.7864824533462524,0.2885947823524475,-1.1385562419891357,-1.6317505836486816,-0.4540189206600189,0.23997220396995544,1.8223689794540405,0.7612530589103699,-1.6968846321105957,-1.019717812538147,0.9542858600616455,-0.05552801489830017,-0.23845145106315613,0.559058427810669,-0.3031509220600128,-1.834514856338501,-1.9154537916183472,0.2773536443710327,1.4070451259613037,-0.6245964169502258,0.7109346389770508,0.288627564907074,1.6365344524383545,-0.21679502725601196,0.5702509880065918,-0.512414813041687,0.5973910093307495,-1.8640764951705933,1.3481553792953491,-1.4860752820968628,-1.315999150276184,0.8139379620552063,1.4045745134353638,0.5590746402740479,0.9371263980865479,-0.13870657980442047,0.4214492440223694,-0.26283589005470276,-0.1468707025051117,0.42200717329978943,-0.2724367678165436,0.5037305951118469,-0.16856655478477478,0.7005886435508728,0.46133410930633545,0.2952427864074707,0.376160204410553,-1.1922277212142944,0.24114447832107544,0.4675996005535126,0.870521068572998,-0.9506867527961731,-0.07901712507009506,0.9307282567024231,0.0039407238364219666,-0.3458235263824463,0.23438867926597595,0.24354681372642517,0.023148052394390106,0.1830001175403595,0.1588374376296997,0.04471921548247337,-0.6643826961517334,-0.2881222665309906,0.1519070863723755,0.39008745551109314,0.18476147949695587,-1.2748910188674927,0.8691405057907104,0.6913630366325378,-0.6067990660667419,-0.9142640233039856,0.29749906063079834,-0.8241577744483948,0.041066840291023254,-0.03814971446990967,0.13519547879695892,0.772179126739502,-0.9335732460021973,0.3302396535873413,1.8916863203048706,0.3362131714820862,-0.5021200776100159,-0.21381308138370514,0.12437406182289124,0.08709639310836792,-0.14595942199230194,-0.08150994032621384,-0.8287986516952515,-0.7490370273590088,-0.8689239025115967,-1.6231409311294556,-0.2996599078178406,0.025682931765913963,-0.03701544925570488,0.3593578338623047,-0.22463028132915497,0.9957470893859863,-0.6184091567993164,0.9962703585624695,-1.1582218408584595,-1.2103166580200195,-0.2128065526485443,-1.832396149635315,-0.482653945684433,-0.3319879174232483,1.160338282585144,0.8187850713729858,0.8270002007484436,0.008474571630358696,2.3978464603424072,1.56515371799469,0.3012086749076843,-0.4640597701072693,-0.267726868391037,0.9011165499687195,-0.6218112707138062,-0.2895607352256775,-0.33997049927711487,-2.577538251876831,-2.292621612548828,-0.7052571773529053,-1.306150197982788,0.8786887526512146,0.14955349266529083,-0.35041573643684387,2.0267441272735596,0.14535611867904663,-1.9392180442810059,1.2083959579467773,-0.8000438809394836,-1.4313535690307617,0.9096173644065857,-0.20420746505260468,-1.2194595336914062,-2.495856285095215,2.9114856719970703,1.1635491847991943,1.0792628526687622,1.989819884300232,-0.5042750239372253,-0.24345722794532776,1.3414310216903687,-0.7111422419548035,-0.1011301577091217,-0.8530046343803406,0.8456608653068542,1.3018360137939453,-0.8401098251342773,0.5146741271018982,0.8473199009895325,-0.21849559247493744,0.5132888555526733,-0.4176332652568817,1.524741530418396,-0.24770520627498627,-0.18685249984264374,0.5324108004570007,-0.2735227942466736,0.06655555963516235,0.1818576455116272,-1.2878284454345703,-2.645789623260498,0.5019847750663757,0.00558420130982995,-0.011067663319408894,1.589789628982544,0.07217274606227875,1.299451231956482,-0.10736201703548431,-1.9015140533447266,-0.822769284248352,-0.008464382961392403,-2.13494873046875,0.2155398279428482,0.1772867888212204,0.811248242855072,0.587867021560669,-0.817638635635376,-2.3058197498321533,-0.42528706789016724,0.4905375838279724,1.2284077405929565,1.0593184232711792,-0.09837674349546432,0.5143316388130188,0.31780296564102173,-0.5202101469039917,0.42607083916664124,-3.428492546081543,-0.1909177601337433,1.655605435371399,-0.021695444360375404,-0.3161689341068268,-1.0729186534881592,-1.4063525199890137,-0.3330705165863037,-0.316729873418808,2.693953037261963,-1.2810229063034058,0.388359934091568,0.24999232590198517,0.5344513654708862,