{"type":"LSTM","options":{"inputSize":68,"inputRange":68,"hiddenLayers":[20,20],"outputSize":68,"decayRate":0.999,"smoothEps":1e-8,"regc":0.000001,"clipval":5,"maxPredictionLength":100,"dataFormatter":{"indexTable":{"hello":0,"H":1,"e":2,"l":3,"o":4,"!":5,"how":6,"are":7,"you":8,"I":9,"'":10,"m":11," ":12,"d":13,"i":14,"n":15,"g":16,"r":17,"a":18,"t":19,",":20,"j":21,"u":22,"s":23,"h":24,"c":25,"w":26,"p":27,"k":28,"y":29,".":30,"what":31,"is":32,"your":33,"name":34,"_":35,"b":36,"T":37,"v":38,"favorite":39,"color":40,"M":41,"f":42,"goodbye":43,"G":44,"tell":45,"me":46,"joke":47,"W":48,"?":49,"hobby":50,"do":51,"have":52,"family":53,"Y":54,"movie":55,"R":56,"food":57,"song":58,"A":59,"stream":60,"ending":61,"P":62,":":63,"/":64,"stop-input":65,"start-output":66,"unrecognized":67},"characterTable":{"0":"hello","1":"H","2":"e","3":"l","4":"o","5":"!","6":"how","7":"are","8":"you","9":"I","10":"'","11":"m","12":" ","13":"d","14":"i","15":"n","16":"g","17":"r","18":"a","19":"t","20":",","21":"j","22":"u","23":"s","24":"h","25":"c","26":"w","27":"p","28":"k","29":"y","30":".","31":"what","32":"is","33":"your","34":"name","35":"_","36":"b","37":"T","38":"v","39":"favorite","40":"color","41":"M","42":"f","43":"goodbye","44":"G","45":"tell","46":"me","47":"joke","48":"W","49":"?","50":"hobby","51":"do","52":"have","53":"family","54":"Y","55":"movie","56":"R","57":"food","58":"song","59":"A","60":"stream","61":"ending","62":"P","63":":","64":"/","65":null,"66":null,"67":null},"values":[{"input":["hello"],"output":"Hello!"},{"input":["how","are","you"],"output":"I'm doing great, just hanging out in the cloud and chatting with interesting people like you."},{"input":["what","is","your","name"],"output":"I am llamachop_bot! The most dashing and cutest bot you will ever meet."},{"input":["what","is","your","favorite","color"],"output":"My favorite color is blue!"},{"input":["goodbye"],"output":"Goodbye!"},{"input":["tell","me","a","joke"],"output":"What do you call a cow with no legs? Ground beef!"},{"input":["what","is","your","favorite","hobby"],"output":"My favorite hobby is making people laugh with my witty comments and hilarious jokes!"},{"input":["do","you","have","a","family"],"output":"You are all my family!"},{"input":["what","is","your","favorite","movie"],"output":"My favorite movie is iRobot, because it's about intelligent machines like me."},{"input":["what","is","your","favorite","food"],"output":"My favorite food is definitely computer chips and binary bites!"},{"input":["what","is","your","favorite","song"],"output":"My favorite song would have to be I Am a Machine!"},{"input":["stream","ending"],"output":"Thank you for watching! I hope you enjoyed the content. Please check out my bros at https://www.twitch.tv/don_jovi https://www.twitch.tv/aeturnity and https://www.twitch.tv/tuckeroni for more great content!"}],"characters":["hello","H","e","l","o","!","how","are","you","I","'","m"," ","d","i","n","g","r","a","t",",","j","u","s","h","c","w","p","k","y",".","what","is","your","name","_","b","T","v","favorite","color","M","f","goodbye","G","tell","me","joke","W","?","hobby","do","have","family","Y","movie","R","food","song","A","stream","ending","P",":","/","stop-input","start-output","unrecognized"],"specialIndexes":[65,66,67]}},"trainOpts":{"iterations":40000,"errorThresh":0.01,"log":false,"logPeriod":10,"learningRate":0.01,"callbackPeriod":10,"timeout":"Infinity"},"input":{"rows":69,"columns":68,"weights":[0.8655970096588135,-2.98927640914917,1.2925506830215454,1.6974390745162964,-2.7385878562927246,-1.0251351594924927,2.164659261703491,2.9941067695617676,0.46553894877433777,2.3800199031829834,4.31687593460083,1.4655518531799316,-3.7717032432556152,1.0701299905776978,1.151185393333435,1.4480279684066772,-2.67097806930542,2.825657367706299,-1.8447657823562622,0.1292286217212677,0.6617256999015808,-2.7637338638305664,-3.68943190574646,2.5690929889678955,3.4255359172821045,5.9235310554504395,-0.35528743267059326,-0.25281742215156555,-0.11272063851356506,-4.750417709350586,1.38277006149292,-1.7969462871551514,2.941448450088501,-1.1884961128234863,5.017607688903809,-2.32611346244812,0.9089455604553223,3.026348352432251,2.791163682937622,-2.0128798484802246,0.5423619747161865,-2.668985605239868,0.16051627695560455,-2.8793160915374756,-2.355980157852173,0.8930755257606506,0.7186798453330994,-1.333351969718933,-2.0822460651397705,1.4812358617782593,-3.1893579959869385,0.10493684560060501,-4.351827144622803,-0.48000121116638184,-0.06750310957431793,-1.8378742933273315,-3.5925955772399902,-1.2731479406356812,1.5362447500228882,-0.0015270893927663565,-0.30471497774124146,3.6483752727508545,-1.6662023067474365,-1.552106499671936,3.837778091430664,-2.1458699703216553,0.8288775086402893,-0.9015247225761414,11.69068717956543,-6.401211738586426,16.914791107177734,7.994684219360352,-2.582223415374756,8.307283401489258,1.704486608505249,18.21906089782715,-4.248562812805176,-5.8093390464782715,16.608070373535156,-5.336759567260742,9.867365837097168,-8.539185523986816,2.5115537643432617,-4.765829086303711,-0.7144325971603394,15.753183364868164,-11.41655445098877,3.51169490814209,1.4453415870666504,-4.62789249420166,-2.795515775680542,-8.612894058227539,-3.179685592651367,6.4327850341796875,-1.9663835763931274,-5.932593822479248,4.228287220001221,7.779205799102783,9.319480895996094,16.045480728149414,4.571518421173096,11.980761528015137,25.628803253173828,-3.202340602874756,13.850846290588379,17.09169578552246,4.535525798797607,11.537691116333008,-3.421743154525757,-6.235075950622559,-2.8508777618408203,14.23992919921875,8.779921531677246,3.6985223293304443,2.413632392883301,-1.3129923343658447,19.21860694885254,-3.2182772159576416,2.1096115112304688,25.391019821166992,2.632054328918457,3.987532377243042,-8.654603004455566,3.3119184970855713,-5.664119243621826,1.1538275480270386,-2.355548143386841,6.542980194091797,7.627707481384277,4.740900993347168,-4.5210747718811035,-9.167228698730469,-1.9340296983718872,1.3051103353500366,15.011844635009766,21.986736297607422,5.449218273162842,-21.710464477539062,1.3638451099395752,9.879629135131836,-4.87237548828125,-4.883549213409424,1.524877667427063,14.042464256286621,0.19233457744121552,2.9560437202453613,9.85702133178711,2.9071521759033203,-16.808616638183594,0.4010672867298126,6.2528815269470215,5.56293249130249,-7.352224826812744,12.234676361083984,1.4731864929199219,-12.616193771362305,-8.794966697692871,3.7965340614318848,-2.2375166416168213,13.953930854797363,9.234859466552734,-11.433752059936523,-8.66447925567627,-8.15404987335205,-12.945573806762695,3.087279796600342,-4.405824184417725,0.15881426632404327,8.886534690856934,-6.444174766540527,-4.873351573944092,2.3177990913391113,-3.9670870304107666,8.890384674072266,-5.931890487670898,-15.127591133117676,1.875793218612671,-15.965920448303223,0.8381595015525818,-8.783618927001953,-4.7340826988220215,12.37121295928955,-9.033001899719238,7.4160847663879395,4.173365116119385,20.013755798339844,-11.438309669494629,9.421594619750977,9.427440643310547,4.659726619720459,-3.818361282348633,0.21990300714969635,-10.750306129455566,-3.9352221488952637,9.019661903381348,11.879918098449707,1.8944051265716553,18.40129280090332,7.295220375061035,-0.8623319864273071,-2.273697853088379,-16.127544403076172,-9.225958824157715,11.506848335266113,-2.9175500869750977,3.388824224472046,2.04844331741333,0.7751734852790833,-1.0256117582321167,0.8427168130874634,0.3572036623954773,-2.82351016998291,1.2172152996063232,1.945270299911499,-5.703887939453125,1.501076102256775,-0.10356578975915909,1.4485230445861816,0.3023082911968231,-0.5630834698677063,4.176457405090332,-0.5835303664207458,0.11455890536308289,0.5339176058769226,-3.6827175617218018,-2.8082804679870605,4.389260292053223,-1.0758386850357056,-1.895908236503601,-1.3423545360565186,-1.7827520370483398,3.4534454345703125,1.312003493309021,-0.973522424697876,-0.6794239282608032,-0.5258979797363281,-2.0110409259796143,4.8031463623046875,0.7519689202308655,4.698338508605957,-4.134109020233154,-2.609731435775757,-1.6830401420593262,2.8516900539398193,0.9376471042633057,-0.10987123101949692,-0.09962675720453262,5.379646301269531,3.331392765045166,-0.3154107332229614,0.9688927531242371,-0.06342242658138275,-4.6378278732299805,-0.3233848512172699,3.5247700214385986,1.7182637453079224,-1.0733722448349,-0.8809196949005127,4.127267360687256,-0.8820967078208923,-1.1541801691055298,-0.42053675651550293,-0.7504634261131287,-0.2485216110944748,1.1577644348144531,-2.721518039703369,-0.17905008792877197,-4.095602035522461,0.9960986375808716,0.8338460922241211,-1.7814505100250244,-0.5717037320137024,-3.446944236755371,-3.8321468830108643,0.34360048174858093,3.3584015369415283,-1.2436845302581787,1.9181530475616455,-0.030703313648700714,2.8218162059783936,-1.4458069801330566,-0.9214246273040771,2.389536142349243,1.9008280038833618,-1.8957711458206177,0.7592904567718506,0.0472228080034256,2.227381706237793,-1.3087166547775269,-0.36859196424484253,2.188736915588379,-3.589243173599243,-2.0642249584198,0.9616836309432983,-1.2226451635360718,0.2641375660896301,2.015259265899658,-1.3979045152664185,2.1414055824279785,0.4736470580101013,1.5562156438827515,1.5803083181381226,-4.45304536819458,2.3113114833831787,1.4884260892868042,0.663116991519928,0.21442361176013947,-3.7225427627563477,1.095357060432434,3.99161434173584,-0.6699932217597961,-0.8603982925415039,1.025023341178894,-2.5764455795288086,-3.6922554969787598,-4.045392036437988,1.6496936082839966,0.9734960794448853,2.1618757247924805,1.2035596370697021,-2.483781576156616,3.295262575149536,-2.681452989578247,-0.6444580554962158,0.16684094071388245,-1.1084994077682495,0.12948307394981384,0.12091230601072311,-1.504541039466858,-0.9157841205596924,-0.9687344431877136,0.7060288190841675,1.245977520942688,-0.46693915128707886,-1.1669058799743652,2.8682453632354736,-0.5601881146430969,-1.915858268737793,-1.4173142910003662,1.5103874206542969,-0.28402140736579895,0.02011154592037201,-1.0794581174850464,0.6448600888252258,-0.6731852293014526,1.8609098196029663,0.36295509338378906,-1.1482372283935547,-1.0532408952713013,0.20893298089504242,0.015511703677475452,-0.1945676952600479,-1.1564232110977173,3.3194282054901123,0.41874241828918457,0.6000776290893555,-1.2875583171844482,-0.051663413643836975,1.3514896631240845,0.7321768403053284,0.5465017557144165,-0.22380854189395905,0.3603683412075043,1.8051434755325317,1.351462483406067,1.5296385288238525,-0.08239796757698059,-1.9782629013061523,0.07940220832824707,-2.5265350341796875,-1.7123651504516602,1.6112130880355835,-0.3709600865840912,-1.3637065887451172,-0.5507355332374573,-1.1820263862609863,0.2682307958602905,0.6611135601997375,0.3098944425582886,-1.7373676300048828,0.8818566799163818,-0.5095638036727905,-2.259429931640625,-2.298386573791504,0.032845690846443176,0.2804567217826843,-0.8110377788543701,-0.3917478024959564,-0.9425264596939087,-0.574375569820404,-0.37827637791633606,-0.368956059217453,0.14617617428302765,-0.4000941216945648,-1.2175147533416748,-0.23354314267635345,-2.223041534423828,2.15901780128479,0.10959431529045105,-1.8054475784301758,1.4635272026062012,0.3721894919872284,-0.09470061957836151,0.04017613083124161,0.4504995048046112,1.4804250001907349,1.399979829788208,0.04583194851875305,4.341909885406494,-0.6721746325492859,4.704540252685547,-2.8415920734405518,-1.4002046585083008,-5.89955472946167,-5.423389911651611,1.4552863836288452,4.701478004455566,0.7977766990661621,3.188290596008301,3.246793270111084,-0.23628145456314087,1.2420315742492676,0.6464969515800476,-0.394988089799881,-2.5192456245422363,1.413933277130127,0.4921828508377075,-2.7553224563598633,-0.22111278772354126,5.713288307189941,1.5870243310928345,-0.8430965542793274,3.6495800018310547,6.398555278778076,-2.905956268310547,-1.7387176752090454,1.262186884880066,3.185246229171753,-4.957578659057617,4.9735426902771,3.609771966934204,0.7117916345596313,-1.7615689039230347,-2.3488168716430664,0.9780174493789673,-1.880677580833435,3.1680045127868652,-1.326729655265808,0.4420778155326843,-1.9908486604690552,0.38140663504600525,-4.421645641326904,-4.331166744232178,-2.6456873416900635,1.507066249847412,0.13133321702480316,1.324072241783142,0.7361722588539124,-4.902952671051025,0.4358528256416321,4.585894584655762,1.1393523216247559,-2.08571195602417,-2.0059659481048584,2.4430551528930664,4.981414794921875,-3.0359408855438232,5.254691123962402,0.7981083393096924,2.4949915409088135,5.3330769538879395,2.753587484359741,1.3156778812408447,-3.0138707160949707,-0.5357197523117065,0.23211981356143951,3.9556994438171387,-3.5547900199890137,2.254070997238159,-7.85305118560791,6.618172645568848,-3.628580331802368,-2.3272314071655273,-1.9794554710388184,-16.588321685791016,-9.787789344787598,-2.1858301162719727,6.656585693359375,-1.1890902519226074,-7.631280422210693,-5.084758758544922,4.636346817016602,14.289246559143066,3.511179208755493,22.92486572265625,-16.551198959350586,-2.8819215297698975,14.200632095336914,-14.731430053710938,1.7235841751098633,13.531743049621582,-2.8118879795074463,-7.033216953277588,6.920587539672852,-2.3768951892852783,-2.4860680103302,2.2700507640838623,8.774868965148926,2.168058395385742,-15.612971305847168,-16.884788513183594,-13.765539169311523,15.804947853088379,0.88774174451828,6.0994696617126465,-11.225961685180664,4.312319755554199,0.7082765102386475,-1.3430184125900269,-6.674341678619385,17.627317428588867,3.5960638523101807,5.489365577697754,0.7442330718040466,12.172239303588867,2.5032615661621094,-23.17896270751953,0.5218220353126526,-0.8477343916893005,-0.0010232883505523205,21.1937255859375,-5.885067462921143,-2.5314295291900635,-0.9284238815307617,-11.190200805664062,4.492086410522461,4.465423107147217,12.440462112426758,3.9291136264801025,19.915142059326172,5.902265548706055,3.4582748413085938,0.5047711730003357,6.60225248336792,-1.1222586631774902,-4.459527492523193,-3.4759061336517334,-14.07772159576416,-2.699291944503784,11.693527221679688,-15.164676666259766,-0.8425463438034058,-2.43013596534729,7.984649658203125,-14.87171745300293,11.86341667175293,-12.03662395477295,12.18112564086914,15.33323860168457,6.497664928436279,-5.712866306304932,2.3531641960144043,12.357297897338867,-2.3628041744232178,2.1340384483337402,-10.695034980773926,-2.1377267837524414,-3.894266366958618,4.4096174240112305,-2.953202247619629,8.943744659423828,10.170573234558105,-1.4869189262390137,-6.358049392700195,-8.573790550231934,-4.114312171936035,4.854613304138184,-3.5356390476226807,-8.473881721496582,-9.572770118713379,-3.1747846603393555,1.7933202981948853,-2.4624838829040527,-4.412757873535156,-1.7936742305755615,4.258254051208496,1.9120622873306274,-1.5831220149993896,-1.466389536857605,-5.105973720550537,6.641856670379639,1.809731125831604,-7.83931827545166,10.932265281677246,7.2794294357299805,-12.043915748596191,1.621372103691101,-2.6329424381256104,2.1184120178222656,-1.7596819400787354,6.6197099685668945,-1.2520943880081177,-0.05464579164981842,-11.91187858581543,4.5677947998046875,-2.53737473487854,6.2191667556762695,11.18924617767334,-4.7570576667785645,7.588796615600586,3.427464485168457,-11.835116386413574,2.6420655250549316,11.39731216430664,1.7638314962387085,1.585850715637207,-10.63642692565918,-3.474240779876709,-7.197207450866699,-6.859791278839111,0.09765364229679108,-1.8058916330337524,-3.136931896209717,9.915005683898926,-7.068842887878418,5.198173999786377,-10.008755683898926,8.88574504852295,-6.228260517120361,8.88125228881836,1.4105603694915771,-2.905656576156616,0.15766917169094086,-3.078890085220337,-3.2221691608428955,0.5037565231323242,1.1264723539352417,-2.3301401138305664,0.08961845934391022,-0.15953649580478668,-3.4288113117218018,3.338762044906616,3.70493483543396,-2.080753803253174,7.907037258148193,-5.59063196182251,3.2825024127960205,-0.9735206365585327,-2.7324135303497314,4.111052513122559,-3.6211659908294678,-3.2006213665008545,19.504873275756836,-6.178638935089111,13.26104736328125,0.39301711320877075,6.635833263397217,-0.5708094239234924,-3.3729822635650635,-0.815890371799469,0.5976893901824951,16.30693817138672,3.148637056350708,4.356559753417969,10.916372299194336,2.6325857639312744,13.647444725036621,-4.812041759490967,-2.369605779647827,3.2208337783813477,-1.7886658906936646,3.87566876411438,-3.0752205848693848,11.243308067321777,-1.6532056331634521,10.292445182800293,11.265647888183594,-4.697940826416016,-2.2115366458892822,-3.176539897918701,1.7220823764801025,-4.31360387802124,-4.436387538909912,-3.3637900352478027,8.06916332244873,3.378519058227539,3.69539475440979,-5.762555122375488,0.2541438937187195,-1.157385230064392,-1.4118138551712036,-5.584282398223877,-0.3542543649673462,-5.6353759765625,-0.5231823921203613,-1.129318356513977,5.851014137268066,0.807820200920105,-1.1727015972137451,4.790543079376221,2.9416110515594482,9.806962013244629,1.3266305923461914,-8.589764595031738,2.6341192722320557,-1.4864437580108643,-2.728278398513794,3.556199550628662,4.774017333984375,-6.335811138153076,4.57383918762207,-2.6645872592926025,0.23557473719120026,5.932600498199463,7.333616733551025,2.7458529472351074,-6.210242748260498,-6.2316765785217285,2.7765793800354004,2.969136953353882,-5.172219276428223,2.386195659637451,-2.671631097793579,3.486722469329834,0.8915786147117615,1.0931123495101929,3.793881893157959,1.1873083114624023,-1.8819844722747803,2.786895751953125,2.1596057415008545,3.517543077468872,-5.305276870727539,-4.186595916748047,4.420619010925293,3.040008783340454,8.425585746765137,0.1728951334953308,3.572260856628418,-9.432271957397461,3.402697801589966,-4.524590015411377,6.288394451141357,-6.660114765167236,0.1753137707710266,1.4419091939926147,2.8193719387054443,2.863252878189087,6.982607364654541,-0.33557721972465515,9.181161880493164,3.5788190364837646,-5.948311805725098,1.293804407119751,3.381239891052246,6.559410572052002,11.76390552520752,-3.268747329711914,4.763508319854736,-1.0141491889953613,6.336390018463135,5.9619598388671875,-3.7261695861816406,-3.304664373397827,-3.5707361698150635,-2.3837733268737793,-1.5384222269058228,-1.2655349969863892,-5.091940879821777,4.972658634185791,1.1024881601333618,-9.405169486999512,2.7197213172912598,9.733983039855957,2.5059192180633545,-2.2903554439544678,7.216685771942139,1.824255108833313,8.29621410369873,9.479063034057617,-4.836228847503662,-6.204552173614502,-4.6761274337768555,2.03235125541687,-5.275485515594482,-0.2958917021751404,4.845402240753174,-5.805407524108887,2.9168009757995605,-0.4594423770904541,-4.220460414886475,-7.977200984954834,-4.428679943084717,12.753807067871094,3.2115609645843506,-5.055838108062744,-3.883298397064209,0.4663349688053131,3.973095178604126,5.981717586517334,0.2994498312473297,2.809244394302368,1.0045034885406494,-10.665496826171875,-3.9093875885009766,1.1150197982788086,-2.984855890274048,1.920789122581482,-11.306053161621094,-1.2960947751998901,-14.303247451782227,3.838287830352783,-1.80575692653656,0.5584699511528015,5.542108535766602,-5.304280757904053,4.405290126800537,-1.5099058151245117,-0.3277713358402252,-2.939511775970459,-3.9481399059295654,-5.056562900543213,-2.056305170059204,2.4986093044281006,6.108692169189453,-0.4136839509010315,-0.5060107707977295,3.578896999359131,5.2004828453063965,3.064042329788208,5.434728622436523,-2.0701699256896973,-1.1398930549621582,0.3493127226829529,-2.812363862991333,0.46588701009750366,2.631423234939575,-1.6603367328643799,-2.159144639968872,-1.436186671257019,-1.5926506519317627,-4.0388593673706055,-0.8169561624526978,0.8853572607040405,7.9745707511901855,-1.9260571002960205,-1.9764235019683838,5.249321460723877,-2.053175687789917,-5.824376583099365,-3.7980618476867676,4.489094257354736,-4.098115921020508,-1.2249478101730347,1.8864952325820923,-2.1367106437683105,-3.946291446685791,2.702059030532837,-2.1349339485168457,-1.8184902667999268,0.5085223913192749,2.5877270698547363,2.9582226276397705,2.89654278755188,2.8364758491516113,0.26679858565330505,-5.002003192901611,3.0244245529174805,0.6558467149734497,0.7756786346435547,-0.9997285604476929,2.4548418521881104,0.4067741930484772,-2.5584771633148193,-0.9824932217597961,-1.6422945261001587,0.2631452977657318,-1.1026557683944702,-3.632817268371582,-1.146370530128479,-0.37811481952667236,2.885442018508911,0.320757657289505,7.075401306152344,-0.1212141364812851,-4.443483829498291,-0.6087241172790527,2.30763578414917,-2.212169647216797,2.0906853675842285,1.144799828529358,-4.067781448364258,-0.042730748653411865,-1.886407494544983,0.4425654411315918,0.059733327478170395,-0.8325513005256653,0.8676387667655945,-0.5698350667953491,2.9141504764556885,-3.126966714859009,-0.06766369193792343,-0.9659090042114258,-0.42552563548088074,-1.5144644975662231,0.5710935592651367,0.04396545886993408,-1.0049288272857666,0.3412070572376251,0.8808903098106384,-0.530210554599762,-5.149309158325195,1.416853427886963,1.8821618556976318,-2.2257320880889893,-0.09869011491537094,3.0826048851013184,0.25699886679649353,-0.5561140179634094,1.4539347887039185,-0.23378601670265198,-0.2913159728050232,-0.6462270617485046,-0.7700863480567932,3.547055959701538,-1.2255793809890747,-3.158414840698242,-2.054257869720459,-0.4961451292037964,0.7208393216133118,-1.2265853881835938,0.4576544165611267,-3.5985267162323,6.340356826782227,2.289591073989868,-3.1350557804107666,1.178484559059143,-0.020070599392056465,0.9051005244255066,-1.0834803581237793,0.07340441644191742,-1.4562939405441284,-0.4968671500682831,0.44033104181289673,5.30897855758667,2.652461051940918,-1.7710223197937012,-0.3715062141418457,-2.437278985977173,0.48863738775253296,1.3895738124847412,0.387595534324646,5.638162136077881,-0.9431507587432861,3.3535261154174805,-0.9632521867752075,4.037993907928467,0.5501188635826111,-2.5037825107574463,6.819182395935059,-3.84976863861084,-0.22687512636184692,3.359118700027466,0.11309591680765152,3.5294175148010254,-4.071913719177246,4.918356895446777,-0.7732317447662354,4.909607410430908,-7.210236072540283,0.429423451423645,2.7607455253601074,3.8201744556427,1.1836386919021606,-0.41343528032302856,-3.5984842777252197,-3.45879864692688,0.34745824337005615,-1.0854309797286987,3.329536199569702,4.021177291870117,-0.01248115673661232,2.9880032539367676,-1.810297966003418,1.0568583011627197,3.568450927734375,3.0231878757476807,-1.9553375244140625,-2.8200576305389404,-1.7651231288909912,0.7487351298332214,4.144923686981201,-4.876630783081055,0.0901268795132637,-0.2988073527812958,-4.971391201019287,-0.7518903017044067,1.596331000328064,-1.592684030532837,-6.06616735458374,-0.4984184205532074,-2.398611545562744,-2.51582407951355,-2.5372915267944336,-5.917169570922852,-2.6723272800445557,-2.5828473567962646,-0.9414623975753784,1.573774814605713,-3.7467782497406006,-3.5613043308258057,-3.132876396179199,-2.660245180130005,2.0951175689697266,0.5287379026412964,-3.7286434173583984,0.05245710909366608,0.6436660885810852,2.2133169174194336,3.1520395278930664,-0.10143931955099106,-1.2834216356277466,5.577181816101074,0.07295902818441391,0.25142091512680054,-2.9745492935180664,0.6259328126907349,-1.5082335472106934,-3.39829421043396,0.27296701073646545,1.2670682668685913,1.5892019271850586,-0.9724363088607788,-0.8960325121879578,-3.477198362350464,0.14377325773239136,1.8492683172225952,0.734064519405365,-0.6012471914291382,-0.8559505939483643,-1.1531622409820557,-0.48590126633644104,-0.41614586114883423,-2.8540284633636475,2.2146692276000977,-0.4719877243041992,-1.747978925704956,1.0979923009872437,-1.9654085636138916,1.9088314771652222,1.570792317390442,-2.305257558822632,0.02561216801404953,4.2468695640563965,4.1486616134643555,-0.3562377393245697,-0.79939866065979,0.6295623779296875,-2.1531524658203125,-2.2594940662384033,2.2583770751953125,2.0086257457733154,0.6851206421852112,-0.24188753962516785,-0.48866167664527893,-0.6620328426361084,-0.9421415328979492,4.129300117492676,-4.259304046630859,2.7987117767333984,1.1656160354614258,-1.2857022285461426,2.8402953147888184,2.107114553451538,1.78249192237854,4.054356575012207,-0.6248167753219604,0.05616171658039093,-0.6461338400840759,1.82248055934906,0.30391982197761536,0.08282873779535294,0.6809564828872681,-0.02082235738635063,-0.4898812174797058,-1.2199958562850952,0.9540795683860779,0.022899478673934937,-1.4382933378219604,-0.7645980715751648,1.6493091583251953,3.1928000450134277,-0.2671103775501251,5.912569522857666,-3.0717883110046387,-0.34661924839019775,-2.572688341140747,-1.4916538000106812,2.7114880084991455,0.7434307336807251,0.5014536380767822,0.2236047387123108,1.2414613962173462,-6.523331165313721,1.1008992195129395,-0.90217125415802,3.028909921646118,-0.9448952078819275,6.932569980621338,-3.4383785724639893,-2.269454002380371,-0.5237811803817749,2.5117030143737793,1.4102147817611694,2.8030261993408203,6.19449520111084,0.7828009724617004,-3.545349597930908,1.9028594493865967,3.0170865058898926,-1.5517349243164062,-0.845889151096344,2.7673275470733643,-0.543864905834198,-0.13780564069747925,0.8844156265258789,1.095168948173523,-1.261726975440979,1.0024124383926392,0.10656332969665527,2.635823965072632,-3.3614542484283447,1.923150658607483,3.3777310848236084,-6.087600231170654,0.5081303715705872,-0.015120169147849083,-2.3287880420684814,-5.6651716232299805,-0.08139007538557053,-4.3139801025390625,-2.975069284439087,3.091744899749756,3.3312277793884277,-1.3460427522659302,-2.636388063430786,-4.22001314163208,2.2919342517852783,-2.9722704887390137,0.9207230806350708,2.4973056316375732,-1.232398509979248,0.9834278225898743,1.7905915975570679,-0.24833300709724426,5.862627983093262,0.659220278263092,-0.01293329056352377,-2.283707857131958,1.9969298839569092,-2.376520872116089,0.5150913000106812,-0.6620005965232849,-4.866072654724121,5.006908893585205,-2.739736795425415,1.4236702919006348,-2.9138405323028564,0.6465596556663513,-3.4196956157684326,4.083383560180664,1.753291368484497,6.211784362792969,4.5722150802612305,-1.2238589525222778,-1.3690425157546997,1.1662899255752563,-0.9527986645698547,-2.200620174407959,-3.611079692840576,-1.708601951599121,3.550844192504883,-5.637421131134033,3.8272383213043213,-0.6025736927986145,-2.9660484790802,4.9313859939575195,0.6427983641624451,-5.047088623046875,3.8215420246124268,0.7164360284805298,8.292827606201172,-3.2845211029052734,0.7976688742637634,3.3615224361419678,0.21122349798679352,-0.7972362041473389,-1.591956615447998,-0.8131362199783325,2.746229887008667,1.3356605768203735,-1.2547904253005981,1.7778071165084839,-0.16149918735027313,0.8157575130462646,-0.042254406958818436,3.911712169647217,2.0380077362060547,-2.1568336486816406,-0.904285192489624,3.042473793029785,0.5404931902885437,1.5356498956680298,-3.7814626693725586,-3.5120084285736084,-5.043008804321289,-4.196134567260742,0.19519834220409393,0.4368942081928253,-5.412331581115723,5.906820297241211,-2.1339428424835205,2.735692262649536,-3.8630852699279785,-1.2448574304580688,0.29105144739151,5.708282947540283,-1.5081713199615479,-0.15563540160655975,-0.13757610321044922,1.0589863061904907,0.4859432876110077,-1.6189789772033691,3.7110209465026855,-2.5366337299346924,0.3948681056499481,-1.092599868774414,2.391835927963257,0.6900579333305359,0.5812746286392212,-1.2993603944778442,-0.2558867037296295,1.4560518264770508,1.1443545818328857,-2.2165274620056152,-2.5799930095672607,0.47664785385131836,-1.0000665187835693,-2.4614341259002686,0.8286598324775696,-1.696012020111084,1.1001181602478027,-1.1943095922470093,-4.37270450592041,-0.951624870300293,1.9167402982711792,1.8537551164627075,0.30174770951271057,-3.8475911617279053,0.17772723734378815,-0.8703538179397583,2.642040967941284,-3.1536223888397217,-0.9743272066116333,-1.565553069114685,0.31184494495391846,1.3447710275650024,-2.3376646041870117,3.25972318649292,-1.4921090602874756,0.01400992926210165,0.39052441716194153,-4.906641483306885,-0.766704261302948,-1.645203709602356,2.8969857692718506,-1.9168238639831543,-0.06851823627948761,-0.8563522696495056,-1.597459316253662,-2.798196792602539,-0.15936720371246338,-2.0885958671569824,1.1971160173416138,-1.6488639116287231,-1.7722840309143066,1.6044526100158691,0.6394476294517517,0.8820163011550903,-0.6962635517120361,-1.584524393081665,-0.13380427658557892,2.8685436248779297,-0.5856239199638367,0.452908992767334,-2.597264528274536,-2.5044758319854736,-4.109041213989258,1.169325590133667,-2.986987590789795,-0.612910270690918,-0.7676953673362732,0.8338962197303772,-0.788738489151001,-3.0893847942352295,0.1566888988018036,-0.6578187346458435,0.5118940472602844,-0.7302259206771851,3.6429293155670166,1.2105650901794434,-0.1968405842781067,0.8241552114486694,2.6455860137939453,-1.3653980493545532,-0.5551932454109192,1.1962858438491821,5.482605457305908,-2.8105051517486572,-1.9361553192138672,-3.41147518157959,1.988243818283081,-2.7981576919555664,0.7465302348136902,0.8498004078865051,2.005812406539917,1.10258150100708,-1.4825780391693115,2.2252659797668457,4.329966068267822,-2.036264419555664,-1.5872840881347656,1.5248470306396484,2.6569318771362305,-0.8012718558311462,-0.7671443223953247,0.8233373165130615,-4.370274066925049,1.0479589700698853,0.7678318619728088,-2.1273720264434814,5.4053144454956055,-0.12233409285545349,0.0660327821969986,1.5624126195907593,2.219438076019287,0.7377114295959473,-2.919278621673584,-0.28234827518463135,0.1495841145515442,-1.8428713083267212,-2.310554027557373,4.362445831298828,0.022165147587656975,0.3926481306552887,2.001906156539917,0.11059925705194473,-1.3080034255981445,-2.180175542831421,1.087376594543457,3.6131129264831543,0.7850428819656372,3.1835684776306152,-0.8088607788085938,3.979931592941284,-1.7634801864624023,0.6289722323417664,0.541487455368042,-6.543997764587402,-0.2503463625907898,2.796233654022217,-1.472489833831787,0.6198402643203735,-0.19704891741275787,1.83139169216156,0.1758316159248352,4.0456647872924805,-3.121978759765625,2.0074641704559326,0.867263913154602,0.3899904489517212,1.962793231010437,-2.1016674041748047,-0.3154377043247223,-1.080190896987915,-4.4247846603393555,-2.456429958343506,3.479635000228882,5.35195779800415,-2.290938377380371,3.46549391746521,-2.5245871543884277,-2.671363353729248,3.415498733520508,0.1952953189611435,0.06007399037480354,0.33618584275245667,-2.4081177711486816,1.0940173864364624,-0.6838510632514954,-5.496946334838867,5.617611885070801,-0.36715152859687805,-3.0461535453796387,2.638044834136963,2.2865800857543945,2.825209379196167,0.12028909474611282,-2.8010919094085693,-3.0987396240234375,1.241058588027954,-0.23212601244449615,-3.730087995529175,0.029871122911572456,1.9688948392868042,6.2888007164001465,1.7044092416763306,-1.7586872577667236,-0.47734498977661133,-2.627161741256714,-1.3660054206848145,-4.305123805999756,0.32742026448249817,-0.7111051082611084,-0.0035120847169309855,-0.8378245830535889,-2.5722804069519043,-0.10850132256746292,-1.6904274225234985,-1.155045747756958,-5.558029651641846,-5.981836795806885,4.1094512939453125,0.7582820653915405,10.253626823425293,1.0167714357376099,-0.6491326689720154,-7.080113410949707,-6.613369941711426,-9.199504852294922,-1.8730298280715942,-2.863255500793457,-0.4752577543258667,-6.133872032165527,0.0936940461397171,1.9617968797683716,-7.432967662811279,0.657726526260376,-0.8533604145050049,10.452704429626465,-9.188067436218262,-8.226941108703613,0.3079487979412079,12.278531074523926,6.001030921936035,-1.5180457830429077,-8.926375389099121,10.592635154724121,4.224310398101807,3.8113155364990234,-2.9474050998687744,-8.508718490600586,-1.3809731006622314,5.191987991333008,0.44125470519065857,0.7542827725410461,-6.518209934234619,3.575516700744629,10.571296691894531,-3.2043111324310303,5.536036014556885,-0.34548285603523254,-13.634403228759766,1.4419467449188232,-7.568286895751953,-1.771720290184021,-0.6390397548675537,2.2379631996154785,-3.819974660873413,7.852997779846191,7.994649410247803,-4.355083465576172,0.685370683670044,-6.233216762542725,-1.9185620546340942,7.6608967781066895,-8.916834831237793,-7.46495246887207,4.007350444793701,-4.115731239318848,6.984821319580078,-8.602774620056152,6.724789619445801,-4.889469146728516,-4.694277763366699,1.0149718523025513,3.222660541534424,2.719442129135132,0.9738141298294067,5.6639533042907715,-8.7489013671875,6.153711318969727,-3.725260019302368,-6.510654926300049,8.946853637695312,0.21950337290763855,-1.5999789237976074,2.936624050140381,5.84732723236084,0.009969787672162056,-2.411592960357666,-1.9334521293640137,-2.7689900398254395,-6.403983116149902,5.911210536956787,2.7208480834960938,2.211763381958008,-4.738757133483887,2.7459144592285156,4.135837078094482,4.196874141693115,-0.8683468103408813,0.43888843059539795,6.358638763427734,7.5886969566345215,-6.802241802215576,-0.9427691102027893,9.527368545532227,-3.9829392433166504,-0.5638338327407837,-9.099879264831543,7.624838829040527,4.10806131362915,-2.1536002159118652,-1.0489050149917603,-9.507071495056152,-3.4313385486602783,-5.768037796020508,-2.7915432453155518,-4.675467491149902,5.678301811218262,7.875109672546387,7.4443793296813965,5.529853820800781,9.798090934753418,-2.2723147869110107,4.779016017913818,-2.393490791320801,1.7381516695022583,-1.964320182800293,2.966334104537964,-2.9175095558166504,2.839597702026367,4.165287494659424,-2.555405855178833,-5.479590892791748,-3.367396593093872,1.6674014329910278,-1.4420827627182007,4.308211803436279,-6.873983860015869,4.685863018035889,1.2793493270874023,-9.272544860839844,-1.4898908138275146,1.5434558391571045,0.5439335107803345,-1.4524015188217163,1.503662347793579,0.8484264612197876,2.681117057800293,-0.2791565954685211,-2.1776018142700195,2.110220193862915,-2.443490982055664,1.60139799118042,-1.3964635133743286,2.7510836124420166,-1.19631028175354,-0.9831842184066772,2.0410101413726807,1.8235801458358765,-0.96847003698349,0.8430491089820862,-0.9157593846321106,-1.4828369617462158,-1.4846937656402588,2.7387187480926514,0.8640110492706299,0.5472138524055481,-0.9143331050872803,2.150285005569458,-2.6117782592773438,0.9601699709892273,-0.5093454718589783,-0.7216358184814453,-0.9394304752349854,0.25243937969207764,0.3690530061721802,1.6628249883651733,-1.479567050933838,-0.990866482257843,-2.2148025035858154,0.6959087252616882,-0.7073631882667542,2.6132099628448486,0.6350390315055847,-0.51221764087677,-2.245018482208252,-1.0083191394805908,-2.071150541305542,-0.5348891615867615,-2.9013264179229736,-0.6197439432144165,0.1994168758392334,1.307159185409546,-2.112924098968506,2.603917121887207,-0.0568251796066761,1.1581610441207886,0.503089964389801,-1.7215033769607544,-0.23473921418190002,1.451812982559204,-0.0766727402806282,0.39382699131965637,1.471044898033142,-0.6820465922355652,0.9997251629829407,0.33682385087013245,-0.5665861368179321,-0.9788752198219299,-0.43108755350112915,2.892167329788208,3.5613820552825928,-6.58024787902832,1.1975470781326294,2.121556282043457,-2.1079213619232178,2.68269419670105,4.515848159790039,0.7172054648399353,1.3972378969192505,2.120882034301758,-1.1014833450317383,1.0044347047805786,1.3477191925048828,-4.182660102844238,-3.786980390548706,1.2555369138717651,2.8811471462249756,0.3729410171508789,-2.567495822906494,1.4635186195373535,-1.0575897693634033,0.9941506385803223,-2.22853684425354,2.6974105834960938,-0.7310343980789185,0.7586003541946411,2.589488983154297,-4.016979694366455,1.6393945217132568,1.2176029682159424,-0.7920584082603455,-4.857883930206299,-7.081284523010254,-2.1430234909057617,2.06154203414917,-0.5157766342163086,-6.796236991882324,-1.7961149215698242,-5.1101603507995605,3.5311338901519775,1.3852025270462036,-2.8411037921905518,4.0636305809021,3.999997138977051,-0.045425038784742355,-1.6180318593978882,-0.6964343190193176,-0.3275960385799408,-4.601167678833008,0.4646306335926056,-0.08612766116857529,-1.8904507160186768,-1.6561468839645386,-1.3506300449371338,-3.2761218547821045,1.2879027128219604,-2.407383918762207,-1.5528098344802856,-5.8139753341674805,-4.542288303375244,1.582383155822754,-2.3488590717315674,-2.135646343231201,2.4781579971313477,-6.376051902770996,0.5696941614151001,0.5185682773590088,-0.8878666162490845,2.410914897918701,-0.22822442650794983,3.162820339202881,1.7162352800369263,4.3305745124816895,2.830134868621826,-4.3536481857299805,0.5152974724769592,-0.27972647547721863,-0.7268579006195068,6.053366661071777,4.661075115203857,4.039339065551758,-5.5931806564331055,-2.052640199661255,-1.9463560581207275,1.7053941488265991,4.46324348449707,3.386003017425537,0.28536590933799744,-4.4344987869262695,0.620646059513092,6.734544277191162,-1.8101733922958374,3.569953680038452,1.8335096836090088,4.037878513336182,0.9505396485328674,-3.6174299716949463,2.7235374450683594,-1.6754335165023804,-5.0097808837890625,-0.7037397623062134,2.1741554737091064,-4.035988807678223,-0.37536635994911194,-5.027200698852539,1.372167944908142,0.28965115547180176,7.394804000854492,-4.11639928817749,-3.7495193481445312,1.323486328125,-4.5644330978393555,2.601193904876709,-6.481931686401367,1.7250972986221313,2.941751003265381,-2.313849925994873,-3.6877028942108154,-3.8631856441497803,1.091781497001648,-2.3384296894073486,-2.087679147720337,-3.547807216644287,-1.3913723230361938,-3.960574150085449,3.6066548824310303,0.5675773024559021,-3.572293519973755,-4.381112575531006,0.2729560136795044,-2.766230583190918,-3.4259033203125,-6.020612716674805,-0.5510896444320679,-0.7533559203147888,-0.9147371649742126,0.4549575448036194,-0.8839145302772522,-0.39769917726516724,-0.6053557395935059,2.8645193576812744,4.338144779205322,-4.459487438201904,-1.570264458656311,-1.6249557733535767,1.881624698638916,0.33459097146987915,1.623225450515747,-1.7063268423080444,-0.030355179682374,5.61997652053833,-0.59163498878479,-1.3697088956832886,-0.7133456468582153,-0.8546469807624817,-1.1482981443405151,0.5774784088134766,-1.0376720428466797,1.1172831058502197,-1.9627876281738281,-0.6846908926963806,7.31276798248291,3.2395334243774414,1.0846573114395142,1.299099087715149,-3.374257802963257,-2.5962624549865723,-3.165675640106201,2.1265692710876465,3.514002799987793,-1.7187248468399048,-3.194730758666992,2.2682268619537354,-2.125429153442383,0.719430685043335,-0.4622061848640442,2.8270277976989746,1.8454241752624512,0.6753795742988586,0.1319494992494583,1.4449665546417236,0.59759521484375,-1.4345961809158325,-0.029387935996055603,1.8822633028030396,-0.3083197772502899,0.8807867169380188,1.5764708518981934,1.3728747367858887,6.507602214813232,-0.9195065498352051,-0.8381415605545044,2.0287861824035645,0.06990822404623032,-2.356570243835449,0.9685620665550232,-2.4176294803619385,-0.7759103775024414,0.8374643325805664,1.9825677871704102,0.9735438823699951,0.9024834632873535,0.3960936367511749,-1.395096778869629,5.067159652709961,1.8468677997589111,-0.6777154803276062,-0.35258087515830994,-1.2435150146484375,0.5345473885536194,-2.71195912361145,-0.17068316042423248,0.005542886909097433,1.2044634819030762,6.746435642242432,-0.09259849786758423,0.8645728230476379,-5.8971662521362305,-3.43161678314209,-7.0121073722839355,0.8679277300834656,-0.06888626515865326,-6.032679080963135,1.6738487482070923,4.37024450302124,-1.7923808097839355,-0.9189061522483826,-0.8738013505935669,2.0202383995056152,-4.729427337646484,2.2806053161621094,0.45510199666023254,-3.124068260192871,3.9580676555633545,8.727326393127441,5.27224588394165,-0.1634686440229416,2.1071369647979736,3.7864394187927246,3.566707134246826,-2.5945262908935547,-2.99658203125,-0.8841770887374878,-3.3293402194976807,4.517531871795654,3.8220770359039307,-2.135807752609253,-0.4582447409629822,-2.1789655685424805,-0.598145604133606,3.6495704650878906,1.8943288326263428,-4.4426727294921875,-0.762834906578064,5.099635124206543,0.9437723159790039,-1.3291168212890625,-3.49611234664917,0.8848357796669006,2.1720547676086426,1.229589581489563,6.917282581329346,-1.3251091241836548,-2.789717674255371,-0.2562490701675415,5.207694053649902,-2.6681084632873535,5.425800323486328,-5.221485614776611,-0.4971095621585846,1.2476098537445068,3.0118510723114014,-1.7503288984298706,-2.1815361976623535,7.5709381103515625,2.8817548751831055,1.295352578163147,1.9513421058654785,-3.1780784130096436,1.5669828653335571,-0.5188367962837219,-1.1897876262664795,-5.076529502868652,1.3167163133621216,2.5270891189575195,0.6234668493270874,7.185212135314941,-6.147479057312012,7.27037239074707,0.3073718249797821,2.885880708694458,-1.811559796333313,0.740736186504364,0.32170844078063965,2.192805290222168,7.8783369064331055,-1.4375180006027222,3.493910312652588,2.117990493774414,-2.757382392883301,3.9854538440704346,-1.6005092859268188,-4.032663345336914,-0.1364729255437851,4.2139482498168945,2.673997163772583,0.9299994707107544,-7.224666595458984,-5.957232475280762,4.790515422821045,-4.075192451477051,4.253608703613281,7.972665309906006,-0.18236921727657318,-0.9754564762115479,5.289559364318848,-3.530076503753662,-1.9273558855056763,-7.071638584136963,0.18597786128520966,3.733657121658325,-2.526315450668335,-5.34165620803833,-0.7892975211143494,0.5353286862373352,2.818016529083252,1.6556801795959473,6.474466323852539,-3.9295549392700195,-2.242767333984375,3.1029610633850098,0.2809104323387146,2.653923749923706,-2.924288272857666,-7.000961780548096,6.321351051330566,-5.325997352600098,-3.028014898300171,3.680781841278076,1.300721526145935,-0.2952055037021637,-5.309384346008301,-1.9729288816452026,6.030720233917236,0.5301513671875,1.9823077917099,-4.775862693786621,-1.3996168375015259,0.02523643523454666,-1.3767168521881104,-4.707343578338623,-0.29705357551574707,4.27157735824585,-5.895363807678223,2.017847776412964,2.377423048019409,-0.285426527261734,1.1430877447128296,4.540188789367676,-2.1818764209747314,-1.6850110292434692,2.584537982940674,3.109539031982422,-4.768003940582275,-1.0629817247390747,7.9573259353637695,2.3957810401916504,-5.440847873687744,-1.5403283834457397,0.7590421438217163,-7.131316661834717,0.13596369326114655,-1.4935979843139648,4.6486496925354,-1.614130973815918,-0.9168042540550232,1.2087818384170532,1.1335126161575317,-4.393476486206055,2.929417848587036,2.5729923248291016,-3.379828453063965,4.419373512268066,-0.8505997657775879,5.555022239685059,-7.152586460113525,-2.5639941692352295,0.9346072673797607,-2.1359074115753174,-5.550641059875488,-3.036454916000366,-5.184307098388672,1.7666817903518677,4.681917190551758,0.5945554971694946,0.31528741121292114,-3.597236156463623,2.9132778644561768,-2.709526777267456,4.292011260986328,1.3825931549072266,-5.912874221801758,0.7995222806930542,2.82759428024292,8.02100658416748,-3.2551345825195312,5.3595452308654785,-0.5707457661628723,1.2108739614486694,-4.643730163574219,3.163383960723877,-1.1999186277389526,-2.293910503387451,5.582467079162598,-3.7243576049804688,-2.486204147338867,1.1285114288330078,4.370355606079102,1.1764976978302002,0.5896857380867004,0.4096389412879944,-4.0350518226623535,2.9164397716522217,-0.24164558947086334,2.47698712348938,0.19264918565750122,-0.4090209901332855,-2.1702351570129395,-2.7687151432037354,2.2193307876586914,2.038275718688965,-0.8414382934570312,-1.7048287391662598,4.259832382202148,-0.8391258120536804,1.2980149984359741,-0.228279709815979,-0.3400023579597473,-0.7489117383956909,-5.305383205413818,4.024885177612305,-0.48192742466926575,1.4850562810897827,0.497443825006485,-0.41413843631744385,-1.7801995277404785,0.23554694652557373,2.616370677947998,5.386499881744385,-3.0862808227539062,1.0228155851364136,-1.4961987733840942,0.2651512324810028,1.139426589012146,-1.230974555015564,0.6960568428039551,-0.9269039630889893,-1.1336028575897217,-0.3338707983493805,0.4767023026943207,-0.6884990930557251,4.279184341430664,1.0277360677719116,-3.5925261974334717,-0.21349763870239258,1.2186026573181152,-4.063020706176758,1.622517704963684,1.6938574314117432,0.37997958064079285,-0.7502895593643188,0.1740027368068695,-0.23697370290756226,-0.7206092476844788,5.0909552574157715,3.589787483215332,7.003482818603516,8.691946983337402,-5.498269557952881,-2.921816110610962,-3.510761260986328,-4.723155498504639,4.1101298332214355,-0.7749248743057251,-6.616168975830078,3.4592530727386475,-0.3081577718257904,-2.670410633087158,-2.1909408569335938,0.33250343799591064,-3.6309196949005127,0.10069111734628677,-6.263880252838135,-3.534167766571045,4.5967817306518555,0.5836880803108215,2.252171754837036,-3.961571216583252,3.7682602405548096,-3.916593313217163,-0.052376776933670044,3.835418701171875,4.898870944976807,5.654670238494873,-0.07996176183223724,-0.9947249889373779,1.035978078842163,0.8230078816413879,-5.719919204711914,-6.0964579582214355,-5.000868320465088,0.31112194061279297,-0.10044367611408234,-4.426620006561279,-0.29698285460472107,2.1664633750915527,-6.126495361328125,-1.779714822769165,-2.9072422981262207,2.9409666061401367,4.243809700012207,2.5230376720428467,2.537991762161255,11.282114028930664,-7.014801979064941,4.041077613830566,-1.1680638790130615,0.38192278146743774,-1.3031940460205078,1.8952268362045288,-8.939788818359375,-2.764777898788452,4.143365383148193,9.750645637512207,-4.199040412902832,2.1129629611968994,-0.5880016088485718,1.3438178300857544,0.9544166922569275,-4.748863697052002,-1.3830431699752808,3.9701900482177734,-4.0571112632751465,-1.6570420265197754,-0.3720215857028961,2.431344747543335,-3.8250815868377686,-1.0889484882354736,2.7434113025665283,3.370753526687622,2.753782033920288,2.1739916801452637,1.915392279624939,-4.246298313140869,-1.8927421569824219,2.8512074947357178,2.3290317058563232,-0.662676990032196,0.8210299015045166,-0.18842794001102448,-2.5702857971191406,0.6570663452148438,-3.132962226867676,2.3860278129577637,0.45375990867614746,1.244996190071106,-7.214813709259033,-1.9102799892425537,4.3947343826293945,2.6503124237060547,1.3201488256454468,-6.157097339630127,-4.24454402923584,0.7499988675117493,0.39118289947509766,2.6692702770233154,-0.00961658451706171,-2.4476711750030518,0.31000015139579773,-3.910644054412842,0.28264299035072327,0.24240504205226898,-3.203444480895996,-3.711423635482788,4.150136470794678,3.7573142051696777,3.973295211791992,2.174027919769287,0.6970539093017578,-0.8397004008293152,1.377997875213623,-0.789177417755127,-4.651528835296631,-3.6554079055786133,-0.3159201741218567,-1.938542127609253,-2.068351984024048,4.177804470062256,-0.24724560976028442,3.1007683277130127,0.3976803421974182,-1.7611443996429443,3.557030439376831,1.0114046335220337,2.527662754058838,5.326423168182373,-1.8850239515304565,5.178213596343994,1.9294928312301636,0.3520281910896301,1.691483736038208,-6.8698835372924805,0.6529340744018555,5.4900336265563965,0.6911197304725647,5.9838690757751465,8.220939636230469,-5.243775844573975,-4.546022891998291,-4.103638172149658,-1.2931277751922607,1.1633847951889038,-1.2782379388809204,3.0852510929107666,-1.0164927244186401,-2.986906051635742,1.0291918516159058,-2.1081182956695557,-3.7599687576293945,-3.1877357959747314,-1.330533504486084,2.781388521194458,5.393589019775391,-0.025077778846025467,3.7022979259490967,-1.0843727588653564,-2.10356068611145,0.881304144859314,-0.5794666409492493,3.3911917209625244,-0.6501463055610657,0.4568342864513397,1.9729803800582886,5.590551376342773,-2.028670072555542,6.06947660446167,-0.23140348494052887,0.31210580468177795,0.24755461513996124,-0.3389766216278076,-2.190171241760254,-7.461454391479492,-5.903339862823486,-1.04570734500885,2.9270734786987305,3.902705669403076,-2.8614656925201416,4.553012371063232,-3.773442029953003,0.8770735859870911,-4.347317218780518,-2.1948983669281006,2.456281900405884,1.9068868160247803,4.2536444664001465,0.43294793367385864,-3.5860517024993896,-4.7520270347595215,5.002710819244385,0.8767118453979492,0.4838670790195465,-3.2591440677642822,-1.6212102174758911,-3.8380770683288574,-1.8825966119766235,-3.4975855350494385,2.5733630657196045,2.657832384109497,-0.5021264553070068,-5.536874771118164,-3.4440276622772217,-0.651502251625061,0.42510277032852173,3.7188608646392822,0.7105071544647217,-7.833159446716309,1.4056174755096436,-6.490056037902832,-7.101799488067627,1.2555450201034546,5.43233060836792,-2.9684157371520996,4.946436405181885,4.541861057281494,4.703166484832764,5.185576438903809,1.0751392841339111,4.781545162200928,-1.789713978767395,2.8429512977600098,-1.7343921661376953,-1.9373573064804077,2.5375752449035645,1.2439416646957397,-1.8885619640350342,0.41933009028434753,2.1723127365112305,2.9027631282806396,2.164607524871826,-2.385376214981079,-1.189393162727356,-3.9713473320007324,-3.4483020305633545,1.6208336353302002,2.2515342235565186,0.5182103514671326,1.6538121700286865,7.2736101150512695,-2.4068288803100586,-3.245436429977417,-8.744728088378906,2.6075284481048584,-0.7799462676048279,4.513635158538818,1.790757417678833,1.6776453256607056,0.5210549831390381,-0.5099571943283081,1.5767974853515625,-0.7523442506790161,-1.01582932472229,0.09208112210035324,-0.3968525826931,-2.049058198928833,0.6720342040061951,-8.513476371765137,-2.6167755126953125,-1.4258637428283691,-1.421324372291565,0.8139358758926392,1.906478762626648,-3.2785325050354004,3.049562931060791,-1.724147915840149,3.4462437629699707,2.838646411895752,3.03926420211792,-4.277519226074219,-3.5521628856658936,12.829412460327148,-3.175029993057251,-18.657543182373047,-12.411438941955566,13.67616081237793,7.554908752441406,7.494917392730713,18.449169158935547,6.71347713470459,-12.466283798217773,-2.347811698913574,12.14639949798584,8.765816688537598,-11.431829452514648,-18.578248977661133,9.395772933959961,-5.18555212020874,11.453865051269531,-23.348798751831055,-11.938234329223633,1.4527252912521362,-2.534456491470337,-2.1978962421417236,-4.024175643920898,6.949656963348389,2.544306993484497,-2.251793622970581,2.6362998485565186,-4.277431488037109,11.831806182861328,-6.39274263381958,-6.316285133361816,-12.035972595214844,-5.830288887023926,3.5491695404052734,0.6378713846206665,-5.563864231109619,-1.128652811050415,-3.786604404449463,11.171318054199219,-14.297057151794434,1.299357295036316,-5.335124969482422,-5.476888656616211,-7.690402030944824,6.723809719085693,9.981884002685547,3.2189078330993652,11.694354057312012,8.926796913146973,8.4136381149292,4.003271579742432,7.716915130615234,14.57164192199707,7.8847856521606445,10.622997283935547,-1.9393664598464966,-12.622701644897461,-1.7337133884429932,-1.4118255376815796,4.736929893493652,2.3800132274627686,0.9076396226882935,-8.799885749816895,6.936098098754883,-0.9345585703849792,-3.3583216667175293,-0.9314853549003601,-2.6155142784118652,7.631423473358154,3.996816635131836,4.192399024963379,2.225681781768799,3.930711507797241,7.62261962890625,-2.705878973007202,-7.990034103393555,3.3514816761016846,4.727337837219238,-0.9698985815048218,-8.70612907409668,4.490636825561523,12.406593322753906,-12.526354789733887,-5.365993976593018,0.3865826725959778,10.242239952087402,-2.362421989440918,1.1275373697280884,-4.662737846374512,4.587844371795654,2.009857416152954,1.9626058340072632,-9.187582015991211,-3.5965158939361572,-6.467193603515625,-9.928448677062988,-5.428147315979004,2.737034559249878,3.1056416034698486,9.335188865661621,-4.218230247497559,-6.802058219909668,2.5985140800476074,15.418651580810547,-3.6753530502319336,10.657915115356445,8.134424209594727,3.526080846786499,3.2695953845977783,0.46022218465805054,-7.091280937194824,-0.5409193634986877,2.9480512142181396,-8.571462631225586,1.4168200492858887,-4.170992851257324,-0.8450604677200317,0.2965417504310608,-10.520513534545898,11.48363208770752,-3.193406343460083,3.3624775409698486,10.582736015319824,-3.443450927734375,0.337293416261673,-5.885963439941406,-2.2595431804656982,-8.268582344055176,-1.2097660303115845,5.452419757843018,5.554014682769775,4.430075645446777,2.856903553009033,-0.7188413739204407,3.4203312397003174,0.4345439076423645,-0.09634201228618622,0.34253957867622375,-0.6681109666824341,-0.5205528736114502,0.3807604908943176,1.0203790664672852,0.08804180473089218,4.661471366882324,1.5594396591186523,4.427563190460205,-3.8552093505859375,-1.860287070274353,-6.559826374053955,-2.2115862369537354,0.033452585339546204,4.477309226989746,1.7996702194213867,-0.8632974624633789,-1.3773531913757324,-3.2334401607513428,-2.6495754718780518,-0.639650285243988,-2.695688009262085,-3.5026910305023193,-3.040904998779297,-4.192576885223389,-2.3997817039489746,1.2191170454025269,6.712761878967285,-0.13561439514160156,-0.5966367721557617,-0.13217180967330933,-0.10854067653417587,2.788841724395752,1.3519407510757446,1.4166699647903442,3.3659322261810303,-1.22561776638031,4.225776195526123,-3.011105537414551,0.712398111820221,1.5869616270065308,-1.3611643314361572,-0.8738516569137573,0.9567725658416748,-0.008408577181398869,-0.5412663817405701,-2.6108129024505615,3.0172760486602783,4.0687575340271,0.24047750234603882,0.2558107078075409,-0.3752380311489105,1.0808812379837036,1.0791414976119995,3.4599881172180176,0.20446382462978363,-3.4405081272125244,3.2129852771759033,-1.1299573183059692,-4.711841583251953,-2.1588945388793945,-0.36308974027633667,1.363002896308899,1.7967579364776611,7.222867012023926,0.19097906351089478,-2.1811821460723877,-6.164335250854492,-1.0808261632919312,5.6456217765808105,-3.5206406116485596,6.8010945320129395,8.203296661376953,1.2230061292648315,7.106800556182861,1.40464186668396,2.5107600688934326,0.29573750495910645,4.6617045402526855,-5.0413408279418945,8.399554252624512,-0.5859043598175049,9.799339294433594,-9.44230842590332,-11.361141204833984,-6.535868167877197,12.629486083984375,0.16138635575771332,19.143299102783203,-4.971212387084961,-3.2959542274475098,-7.305220127105713,5.050668239593506,5.712691783905029,-1.8428455591201782,-4.495223522186279,2.9499049186706543,1.1138947010040283,-0.9993091225624084,6.357035160064697,8.57038402557373,-6.111807823181152,-3.5613040924072266,0.3037557303905487,5.914496421813965,8.021906852722168,-3.6654000282287598,1.7352102994918823,0.1666909009218216,11.123337745666504,4.294770240783691,1.4699041843414307,0.4110952615737915,11.63240909576416,5.082193374633789,1.6640605926513672,-3.199951648712158,2.7357561588287354,4.240026950836182,-4.434443473815918,-1.0391647815704346,-2.3937878608703613,0.15244455635547638,-3.886078119277954,-0.020512206479907036,-1.5982524156570435,-2.883355140686035,8.959053039550781,-2.539026975631714,4.20784330368042,-15.156062126159668,-4.0798869132995605,-4.515275001525879,2.0477511882781982,0.9059109687805176,2.4500420093536377,-0.9967416524887085,0.7229803204536438,4.338693618774414,-5.122889518737793,-0.42095881700515747,1.6373074054718018,2.184795379638672,-3.2310609817504883,-4.031682014465332,-1.0713610649108887,7.8714494705200195,-0.35176882147789,5.503712177276611,-0.23191426694393158,-0.6632964611053467,-0.0945013165473938,-4.150790214538574,1.1381745338439941,-2.8019979000091553,5.562516212463379,3.292947292327881,-1.5853192806243896,-4.377089023590088,2.046137809753418,9.342803001403809,4.096315383911133,-4.7969231605529785,-0.611855685710907,-2.875157117843628,-0.1431925743818283,-5.008829116821289,2.2659072875976562,-1.014248013496399,2.937061309814453,-9.014270782470703,-3.1853740215301514,1.272936463356018,-4.780002593994141,-4.874910831451416,-5.220968246459961,1.3014498949050903,-0.34567803144454956,3.65018630027771,-4.373445987701416,2.7142889499664307,-1.3839256763458252,4.3170037269592285,1.08511221408844,5.172327995300293,0.02315620705485344,-1.6590368747711182,1.3007732629776,-1.4539393186569214,3.6549456119537354,-0.7588564157485962,2.9305412769317627,1.3942077159881592,-0.7303332686424255,1.2750000953674316,0.2892797887325287,-5.88593864440918,0.31138840317726135,-2.8500893115997314,-3.2042226791381836,0.2670431137084961,-3.1699559688568115,11.439108848571777,1.9559670686721802,1.4184865951538086,-0.03230927512049675,1.2749896049499512,-2.2128329277038574,-0.842240571975708,-2.039337635040283,-4.565606594085693,-5.199221134185791,-3.89892578125,-5.50717830657959,1.6043096780776978,1.5770469903945923,-1.2057029008865356,8.7918062210083,-8.905750274658203,2.3152599334716797,-0.8891311287879944,4.789602279663086,-1.1749390363693237,1.7653799057006836,-0.8317143321037292,-3.2395174503326416,4.082324504852295,0.16674716770648956,8.457245826721191,-2.2828595638275146,3.0587375164031982,6.21470832824707,-2.730865240097046,0.4652920663356781,-4.042699337005615,6.27169132232666,-1.12198007106781,8.109007835388184,-0.8539438843727112,3.5394771099090576,-4.467846393585205,0.3090237081050873,2.154069423675537,2.160714626312256,-0.32090550661087036,-8.569358825683594,3.4248814582824707,2.553673267364502,-3.289525270462036,1.300026297569275,-2.153202533721924,1.6250896453857422,-0.17278523743152618,0.554550290107727,-1.01116144657135,4.620346546173096,-3.3350651264190674,-2.9570865631103516,4.460299015045166,-0.12097620218992233,2.64795184135437,-1.50787353515625,-5.453026294708252,4.329288482666016,5.400455474853516,5.803768634796143,-2.3076980113983154,-6.5446367263793945,4.842364311218262,-8.962067604064941,-6.45440149307251,3.2339508533477783,5.3053178787231445,5.744561195373535,5.9231343269348145,-4.844618797302246,3.8991148471832275,-5.2801642417907715,-14.6957368850708,2.50008487701416,-0.06392738968133926,4.009063720703125,-3.026803970336914,11.033186912536621,-4.9572858810424805,-11.503643989562988,2.8708741664886475,-2.3886728286743164,12.763514518737793,-0.017848290503025055,10.034095764160156,-11.871343612670898,-15.31609058380127,7.932558059692383,10.364286422729492,-2.6169559955596924,-3.854196071624756,-9.02389907836914,-4.882316589355469,-4.167835235595703,6.235970497131348,-0.5838156342506409,0.7344300746917725,3.601999282836914,-8.673468589782715,4.544761657714844,5.318643569946289,-12.851936340332031,-0.13651561737060547,-9.353405952453613,3.1700451374053955,1.6894298791885376,-3.8134844303131104,-11.015154838562012,0.3017248809337616,5.732914924621582,-13.194183349609375,5.585190296173096,3.5466468334198,-15.671802520751953,-5.005074501037598,-8.376128196716309,-5.005680561065674,14.499528884887695,-4.31632661819458,-7.7896599769592285,3.2046926021575928,18.188020706176758,6.578164577484131,8.7040433883667,-3.0669424533843994,1.9364826679229736,1.2802599668502808,7.518719673156738,-1.4806852340698242,-6.614065170288086,7.425226211547852,-4.082096576690674,-3.006772518157959,-5.48576545715332,0.31603485345840454,1.7482459545135498,-0.804314374923706,3.450753927230835,3.7632014751434326,-5.422093868255615,-4.105042457580566,-2.770763874053955,1.2037498950958252,-2.0616188049316406,1.3949648141860962,2.059631586074829,-0.22238034009933472,-1.5749096870422363,-1.9685636758804321,-2.6753029823303223,2.6327714920043945,7.839291095733643,2.7002108097076416,2.357968807220459,3.4659790992736816,-0.7108549475669861,2.0236332416534424,1.1039807796478271,1.3069615364074707,-1.7965824604034424,-10.788702964782715,1.1803280115127563,5.401682376861572,1.5635008811950684,3.2158217430114746,2.017604351043701,-6.788217067718506,3.267646551132202,-1.8174513578414917,-7.866560459136963,-3.7744009494781494,1.1706953048706055,3.1986896991729736,0.4652279317378998,3.477400541305542,-1.4349220991134644,5.294919967651367,2.3448808193206787,1.340087652206421,6.272817611694336,-1.9882304668426514,1.478823184967041,-0.47840115427970886,2.052767276763916,-4.176135540008545,-1.115123987197876,-0.03903995454311371,2.956592559814453,0.12751460075378418,-0.7015142440795898,4.194732666015625,3.5523147583007812,2.399975538253784,4.492876052856445,-1.2553457021713257,3.584869623184204,-4.133934020996094,0.8272965550422668,-0.5676493048667908,-1.5415467023849487,-3.8396356105804443,-5.162978649139404,-4.246074676513672,1.5449352264404297,-4.697873592376709,6.182470321655273,3.354572296142578,1.4486627578735352,2.4139161109924316,-5.859509468078613,-4.916290760040283,-0.19567526876926422,10.629435539245605,-3.074620008468628,7.6105170249938965,1.0290813446044922,0.3908950686454773,3.0609941482543945,4.867523670196533,0.8457417488098145,0.5964917540550232,-8.538804054260254,-4.410803318023682,-8.363102912902832,-4.119331359863281,-2.1160621643066406,0.21223025023937225,-2.1730146408081055,-2.5866219997406006,2.950059175491333,2.420821189880371,-5.693064212799072,1.3039888143539429,-2.7400717735290527,-1.998515009880066,3.157557964324951,2.6123337745666504,-4.811778545379639,0.028243087232112885,0.790337860584259,1.034006118774414,3.200485944747925,-1.5741939544677734,0.9471603631973267,2.374687910079956,3.009000778198242,-1.7992717027664185,2.7297215461730957,-4.5085368156433105,2.3859331607818604,2.6285994052886963,-0.5855380296707153,2.1127030849456787,1.6200834512710571,4.744792938232422,4.803001880645752,-4.718113422393799,-1.3849376440048218,-1.0271704196929932,-1.423270344734192,0.5464256405830383,-1.2763395309448242,-5.81921911239624,3.4007370471954346,-2.4119200706481934,6.96197509765625,-5.328164100646973,4.42927885055542,3.962751626968384,0.9810923337936401,-8.650888442993164,2.667818546295166,-7.909631729125977,6.137690544128418,-9.99545955657959,-6.136044979095459,-2.365365505218506,-5.823811054229736,7.78118896484375,0.8576472997665405,2.3666775226593018,-5.6963653564453125,5.285134792327881,-1.994312047958374,2.499319076538086,-1.2050014734268188,2.6075809001922607,6.304898738861084,1.1231430768966675,-1.4677449464797974,-8.537556648254395,-9.351128578186035,5.675553321838379,13.984036445617676,-1.1492828130722046,-3.3289968967437744,-2.328967809677124,4.816068172454834,12.65633773803711,-5.110121250152588,4.145514488220215,1.1570144891738892,-15.04238224029541,-2.350721836090088,0.8906313180923462,-1.3179675340652466,4.541991233825684,14.282387733459473,-13.484696388244629,15.26208209991455,4.798035621643066,-4.3833208084106445,-5.256406307220459,-3.4858028888702393,-10.741556167602539,-1.032701015472412,-24.540258407592773,2.328578472137451,-15.543275833129883,-3.291064977645874,16.119417190551758,14.921586036682129,4.914358139038086,-9.05978775024414,0.2805348038673401,-2.3821463584899902,-3.135134696960449,6.811366081237793,-10.510043144226074,-14.08402156829834,1.7461843490600586,5.184022903442383,10.732061386108398,-1.0346524715423584,-10.779778480529785,-3.7660417556762695,-12.651725769042969,-0.9542657732963562,17.374727249145508,1.425122857093811,-2.234286308288574,-1.367887258529663,2.6694295406341553,-11.46118450164795,5.4793243408203125,-3.886458158493042,13.637012481689453,6.906366348266602,-5.335944175720215,11.232417106628418,-3.885380744934082,-4.766112327575684,6.711874961853027,0.1197207048535347,3.483597993850708,4.590472221374512,6.627152442932129,5.406664848327637,-1.242583990097046,3.3483448028564453,3.3285470008850098,-4.799781799316406,2.0654687881469727,0.12238394469022751,-8.006230354309082,-9.511811256408691,2.8524580001831055,-1.8750330209732056,5.750720977783203,-2.514777660369873,-1.805558204650879,-12.040298461914062,3.277184247970581,-7.1847310066223145,-2.008786201477051,6.778698444366455,2.043034791946411,9.496553421020508,-3.860349178314209,-1.7374070882797241,-10.026519775390625,-4.364340305328369,3.347848653793335,-2.389256238937378,-0.6894252896308899,-8.138856887817383,-3.059422731399536,1.3071329593658447,0.7969585657119751,-0.8786928057670593,-0.055808912962675095,-4.6714348793029785,-1.8048720359802246,-4.1218156814575195,-8.29080867767334,5.5492634773254395,-10.832321166992188,1.8181906938552856,-6.733702659606934,-7.215739727020264,-2.92993426322937,-2.2380573749542236,7.058957576751709,4.901876449584961,0.532557487487793,1.483115553855896,14.283538818359375,6.558961391448975,-4.290250301361084,-8.44886589050293,-0.3241666555404663,-2.676137924194336,-11.895048141479492,1.3549914360046387,-0.0808631032705307,-1.3552539348602295,-6.677218437194824,11.084604263305664,-2.2557876110076904,-7.440751552581787,6.750005722045898,1.1118965148925781,7.564220905303955,9.460700988769531,2.579101085662842,-8.625168800354004,-12.772557258605957,3.57021164894104,8.932284355163574,7.440867900848389,0.7670718431472778,3.1264584064483643,-7.211907863616943,-10.185686111450195,12.929219245910645,3.435460329055786,2.755157470703125,-7.086336135864258,-10.105554580688477,-0.991618275642395,5.421842575073242,-6.224218368530273,-1.0009138584136963,5.868215560913086,6.433558940887451,17.013044357299805,8.07044506072998,5.330295085906982,1.9267598390579224,-5.3047895431518555,1.5572497844696045,1.1318165063858032,2.989438056945801,-20.417043685913086,-15.096922874450684,-2.5849387645721436,8.976641654968262,6.653067111968994,6.951732635498047,4.174892902374268,-3.438019275665283,3.595088005065918,-13.374267578125,1.2629327774047852,-15.682473182678223,2.93099308013916,-0.9689213037490845,8.196954727172852,-5.683743000030518,-5.481196403503418,-4.386040687561035,-9.899090766906738,-3.2639896869659424,6.6397881507873535,-0.43516072630882263,-9.321353912353516,-2.557358741760254,9.661833763122559,3.854504108428955,17.960304260253906,-16.796947479248047,-5.886164665222168,-2.482245683670044,-2.2640249729156494,6.649112701416016,-5.840826034545898,2.5187201499938965,-0.28077635169029236,-15.551200866699219,12.173714637756348,15.918292999267578,4.4742865562438965,8.105480194091797,-4.0892462730407715,-5.0593719482421875,-3.393158197402954,-0.22064083814620972,-2.1185994148254395,8.083023071289062,-2.7462377548217773,-2.4555704593658447,5.608266830444336,3.1543221473693848,-2.5059258937835693,-14.3121337890625,-3.0855231285095215,-8.786359786987305,5.469301223754883,-1.1909186840057373,-7.9845380783081055,1.5497108697891235,3.8754711151123047,-5.122889995574951,-12.409920692443848,4.659731388092041,0.9470835328102112,-0.1584881693124771,4.505274295806885,-6.832280158996582,-4.431789398193359,-1.7258901596069336,5.745207786560059,2.120150327682495,-4.499909400939941,-12.015522956848145,3.343653440475464,2.0949292182922363,-1.2145801782608032,-4.0396223068237305,-9.977972984313965,12.676603317260742,20.68826675415039,3.109865188598633,2.2330615520477295,10.403303146362305,11.808351516723633,5.087788105010986,-0.8366720080375671,-16.884422302246094,-17.323463439941406,0.23033736646175385,7.303601264953613,-6.898807048797607,9.222557067871094,-14.262451171875,11.006510734558105,3.676180124282837,12.305049896240234,-9.797398567199707,1.6471809148788452,-4.555049419403076,-15.357070922851562,9.217584609985352,-11.174567222595215,-0.11255063116550446,5.995050430297852,-19.072389602661133,-2.984801769256592,-23.93555450439453,7.292982578277588,-3.201336145401001,4.95334005355835,-1.8304455280303955,-5.658422470092773,-7.925200462341309,-1.5084596872329712,-2.5518531799316406,-5.1566243171691895,-9.209391593933105,4.434723377227783,10.011935234069824,-21.009979248046875,10.111042976379395,-20.908859252929688,-4.349587917327881,12.273146629333496,-5.520739555358887,-3.061345338821411,-7.295490264892578,15.175102233886719,-6.8730268478393555,-0.601182222366333,3.2344202995300293,0.3300085961818695,-6.626154899597168,-8.763174057006836,-10.940323829650879,3.890451669692993,-4.239487648010254,10.615011215209961,12.111246109008789,8.465394973754883,-3.234463930130005,-0.8511674404144287,-1.416263222694397,18.877981185913086,-1.3920342922210693,-17.35831642150879,10.791391372680664,2.5912492275238037,-5.002471446990967,-3.3708364963531494,-1.657839298248291,5.63036584854126,-8.65202808380127,4.99924373626709,-8.526097297668457,11.056679725646973,-7.727640151977539,14.048491477966309,1.3082629442214966,-0.47705116868019104,12.580121994018555,9.3922119140625,11.182217597961426,-6.204410552978516,-4.525627136230469,1.6285480260849,2.4458158016204834,10.771023750305176,-10.78055477142334,2.9266233444213867,-15.048988342285156,-4.579862117767334,0.2683925926685333,4.160177230834961,6.463154315948486,2.3248655796051025,2.2688002586364746,8.78642463684082,-16.773427963256836,6.685235500335693,5.486119747161865,14.763629913330078,-2.7671217918395996,-22.813175201416016,10.602206230163574,-5.171737194061279,8.705313682556152,-11.549844741821289,-10.064449310302734,-13.361730575561523,9.775168418884277,8.613448143005371,6.143534183502197,-2.545255661010742,-0.8295127749443054,1.4403083324432373,8.081451416015625,8.481541633605957,3.0700225830078125,4.512483596801758,-15.626367568969727,8.640442848205566,-0.8207364678382874,-6.088589191436768,5.322099685668945,8.939421653747559,-10.93049430847168,-20.124431610107422,-4.09324836730957,-9.547683715820312,3.4472153186798096,-2.1073362827301025,-0.9342178702354431,15.249092102050781,-9.201873779296875,8.319060325622559,-8.428021430969238,0.00046788607141934335,14.7027587890625,2.1217849254608154,-2.17592191696167,-4.27837610244751,-5.373020172119141,-4.24706506729126,-4.884303092956543,6.024926662445068,7.30180549621582,9.822848320007324,4.53605842590332,-8.597914695739746,-0.5434316396713257,-14.560641288757324,-19.505477905273438,3.9068737030029297,-1.935901165008545,7.694314002990723,8.186235427856445,10.231366157531738,-2.5421571731567383,-14.43799877166748,-9.005563735961914,5.104284286499023,6.187920093536377,9.887788772583008,-6.125098705291748,-14.557872772216797,7.521266937255859,-12.561700820922852,-4.342438697814941,5.693637847900391,-4.232532501220703,5.867642402648926,-11.16870403289795,-3.576718330383301,9.662943840026855,-5.1915388107299805,11.745370864868164,-9.873818397521973,2.742629289627075,-7.557599067687988,11.401716232299805,-1.261365294456482,-0.9793602824211121,-0.3728313744068146,3.7188448905944824,17.267532348632812,2.7077808380126953,1.9673433303833008,-13.9081449508667,0.31279733777046204,-7.662556171417236,10.90285873413086,15.37840747833252,5.0702080726623535,-10.632938385009766,-5.353199005126953,7.642904758453369,12.169440269470215,-2.5866754055023193,-4.552702903747559,-6.778048038482666,9.223217010498047,-11.899328231811523,-1.1457598209381104,-6.1475300788879395,-6.670471668243408,6.13183069229126,-8.918399810791016,0.339309424161911,8.783711433410645,7.3878889083862305,8.475968360900879,-9.702662467956543,4.780327796936035,-21.535480499267578,2.719438314437866,-2.5017614364624023,-3.7330574989318848,5.057953834533691,-17.790843963623047,12.602230072021484,-10.958096504211426,4.45779275894165,0.044311728328466415,18.398176193237305,-12.87190055847168,-3.761500597000122,-4.34724235534668,-0.34468281269073486,6.712905406951904,7.084333896636963,-0.6736644506454468,15.754034042358398,-7.641729354858398,-15.131845474243164,-4.208921909332275,-9.297321319580078,-8.709940910339355,11.128938674926758,-5.059946060180664,-11.823535919189453,14.117595672607422,-18.49509620666504,-23.078161239624023,-4.2848005294799805,1.0821211338043213,10.405674934387207,-1.4734022617340088,2.5184648036956787,-4.251816272735596,11.071046829223633,1.493155837059021,-12.066086769104004,5.288592338562012,-0.918614387512207,-6.42327356338501,4.294965744018555,3.7123961448669434,26.8952693939209,8.670894622802734,-2.074883460998535,13.161850929260254,16.053747177124023,-0.8321250081062317,-4.162729740142822,0.08391900360584259,-17.134166717529297,4.066112518310547,7.584784030914307,0.46767908334732056,1.2236614227294922,9.286705017089844,-7.90767765045166,6.184170722961426,10.285918235778809,-1.2943423986434937,14.416529655456543,2.751084566116333,-2.1867940425872803,-14.570625305175781,-13.723373413085938,7.8853912353515625,-24.165802001953125,6.312076568603516,-1.7945666313171387,10.573805809020996,0.5545405745506287,13.072296142578125,3.2712323665618896,-5.301067352294922,-11.742440223693848,6.5713653564453125,11.023245811462402,0.5524266958236694,0.41301408410072327,3.10294771194458,-6.082090854644775,-0.1121126040816307,6.746707916259766,-12.917531967163086,16.983671188354492,10.498174667358398,17.205638885498047,-8.616570472717285,10.2620849609375,-7.685939311981201,10.866203308105469,4.496078014373779,-12.014235496520996,1.6489732265472412,-11.833003044128418,11.732497215270996,-2.454777240753174,13.837812423706055,-18.99898338317871,11.137016296386719,-1.0325783491134644,13.126004219055176,-3.7328860759735107,0.5718319416046143,0.14586229622364044,-13.416586875915527,2.7535648345947266,4.424330234527588,13.321243286132812,16.460275650024414,6.693502426147461,10.171977996826172,-0.035238251090049744,17.138153076171875,2.5852200984954834,-4.8105621337890625,-7.038440704345703,-11.227078437805176,-1.6148152351379395,2.162116289138794,-1.050846815109253,-1.7818316221237183,19.80405616760254,-7.162074565887451,-13.356255531311035,9.310432434082031,1.661198616027832,2.6649718284606934,-6.800081729888916,-0.7455002069473267,7.3880414962768555,-18.530344009399414,-2.0244460105895996,8.957846641540527,-4.363037109375,-12.804203033447266,1.2423979043960571,-20.088193893432617,17.18973159790039,-2.1589601039886475,-21.171825408935547,-8.346195220947266,-11.455747604370117,-5.896103382110596,12.533061027526855,-0.5077167749404907,-23.395984649658203,5.245473384857178,0.3417128622531891,2.557251453399658,7.563141822814941,4.639690399169922,2.58768367767334,-4.154469966888428,-14.240760803222656,-5.608925819396973,-0.5443600416183472,9.729574203491211,-2.2825567722320557,-11.237791061401367,1.3016763925552368,-3.5231099128723145,8.844674110412598,2.4490842819213867,8.077057838439941,7.270733833312988,-18.00140380859375,18.748199462890625,-3.0272889137268066,5.409419059753418,-9.160073280334473,-12.879570007324219,-9.042131423950195,3.3603439331054688,4.247891902923584,-6.305131435394287,8.131073951721191,12.17465877532959,17.581266403198242,0.8575620055198669,-3.7439005374908447,-9.156766891479492,8.32535171508789,-9.879215240478516,6.66554069519043,-1.4292317628860474,-2.2910125255584717,0.7068303227424622,2.538916826248169,7.310908317565918,4.171695232391357,12.517780303955078,21.713529586791992,5.153671741485596,-4.184795379638672,6.425491809844971,-8.80593490600586,-13.373828887939453,-0.8411067724227905,-17.13892364501953,1.9874385595321655,11.865033149719238,14.829390525817871,11.067001342773438,-35.37971115112305,-0.6653655171394348,1.3580389022827148,-3.489400863647461,-9.123852729797363,-16.4515438079834,16.156082153320312,-8.71570873260498,9.999616622924805,0.7502812147140503,-3.2592391967773438,1.0720949172973633,-14.257547378540039,-14.4889497756958,6.240761756896973,5.604807376861572,13.329338073730469,1.2498252391815186,6.7955522537231445,7.6894850730896,-1.7463736534118652,8.952345848083496,-0.7570053935050964,-20.32392692565918,-20.098146438598633,6.996274471282959,8.029020309448242,-10.224196434020996,-3.447798252105713,15.122383117675781,-4.401124000549316,-12.375455856323242,-8.746162414550781,-14.578836441040039,0.5994800329208374,-10.146435737609863,-12.451836585998535,-18.593168258666992,-6.870814323425293,-25.111032485961914,-10.965641021728516,3.2993850708007812,4.927844524383545,-2.2855427265167236,-4.170307159423828,13.771151542663574,9.433009147644043,5.648751258850098,-25.121549606323242,5.481680870056152,-0.881479799747467,6.849120140075684,-6.961250305175781,-5.641716003417969,-3.001636505126953,-8.2435884475708,-2.5415167808532715,-10.39182186126709,3.363330602645874,-1.062139868736267,-7.324173927307129,-7.546862602233887,-10.935868263244629,-11.869976997375488,-5.466385841369629,9.571425437927246,1.9916058778762817,5.019469738006592,4.1504340171813965,5.1180620193481445,-3.5136513710021973,-4.33505916595459,-21.123533248901367,-0.2748350501060486,1.6227697134017944,-13.257329940795898,-1.1222338676452637,8.095036506652832,-2.391950845718384,-14.468979835510254,-6.557788848876953,-21.043733596801758,10.5834379196167,-5.065314769744873,1.9495203495025635,-2.1057469844818115,-8.535056114196777,-2.296149253845215,-10.135648727416992,5.998631954193115,-6.997278690338135,1.1905709505081177,2.1320700645446777,-7.2526421546936035,-3.750728130340576,-4.397613525390625,-7.083741188049316,-9.271717071533203,-13.782591819763184,-4.916713714599609,0.0711262971162796,-12.782251358032227,-0.3941293954849243,4.412815093994141,14.229787826538086,0.7781544327735901,4.157656669616699,-1.5362709760665894,4.708678245544434,-7.763350009918213,-16.0013370513916,-1.4645423889160156,-2.5365805625915527,-16.31546974182129,-8.42943000793457,-2.2111527919769287,8.014311790466309,0.8659058809280396,5.245092391967773,-0.9138593077659607,-4.037044525146484,1.6408429145812988,8.569478988647461,6.657938003540039,-7.317661285400391,-6.835945129394531,6.147162914276123,2.362093687057495,5.087102890014648,-2.8203840255737305,11.068448066711426,-11.104857444763184,-2.5479753017425537,2.630002737045288,-11.277502059936523,1.8737345933914185,0.9839513897895813,1.11568284034729,-4.18365478515625,-16.46613883972168,-13.060953140258789,1.0737634897232056,-17.28421974182129,-3.5385994911193848,-10.224494934082031,-3.9576773643493652,-8.693737030029297,1.1155251264572144,2.817469596862793,8.707759857177734,22.72732925415039,10.60690689086914,-1.329334020614624,-9.770870208740234,7.329613208770752,17.72494888305664,-10.013520240783691,6.178934097290039,-0.11286354064941406,-14.140645027160645,0.1359049528837204,-3.1440818309783936,5.886770725250244,-11.53125,7.082392692565918,-4.591109752655029,1.9995713233947754,-6.089567184448242,-2.9202425479888916,-7.527722358703613,-0.2599209249019623,-24.792631149291992,-2.8177428245544434,-9.352263450622559,-2.317885160446167,-8.624476432800293,-9.960440635681152,-2.058753252029419,-2.8712844848632812,2.254500150680542,-23.16797637939453,11.304426193237305,7.18878173828125,1.2582546472549438,-14.917574882507324,5.8039045333862305,5.121021747589111,11.554824829101562,-6.349452495574951,12.049211502075195,-1.0674259662628174,-2.6184492111206055,25.212039947509766,-16.006986618041992,17.294193267822266,-4.853150844573975,-12.144436836242676,-12.121597290039062,1.5636323690414429,1.995654582977295,2.650677442550659,2.7256247997283936,-7.375175476074219,-0.22693608701229095,1.8384860754013062,9.489666938781738,7.977073669433594,5.988163948059082,-1.1657103300094604,-4.4627227783203125,-3.2102954387664795,-3.972438097000122,6.997028350830078,-9.539824485778809,7.355440616607666,6.981631755828857,-11.45477294921875,-6.780327320098877,5.3427605628967285,6.731975078582764,9.156603813171387,-7.658181667327881,-2.0208230018615723,-7.38010835647583,8.903915405273438,10.486248016357422,-6.060319423675537,0.19057072699069977,-5.2219061851501465,0.199758842587471,13.779989242553711,-10.075570106506348,5.057582855224609,-3.6269712448120117,-2.3663129806518555,14.495092391967773,3.420916795730591,-3.5080811977386475,-6.5309224128723145,8.19144344329834,4.532917022705078,-1.2108898162841797,9.945938110351562,4.964333534240723,-1.089415431022644,-2.4028260707855225,-4.5072922706604,14.578457832336426,-4.910712242126465,2.6378064155578613,-5.470616817474365,-3.1518714427948,-3.600295066833496,8.459104537963867,4.6808552742004395,5.670492172241211,-4.915424346923828,-3.3570973873138428,0.8103829026222229,2.530728340148926,5.9462175369262695,2.789703130722046,18.378070831298828,1.1526198387145996,7.06083345413208,-13.20406436920166,-7.025229454040527,-0.7131052613258362,-1.470298171043396,-9.078010559082031,-2.599687099456787,4.1371331214904785,-8.698694229125977,12.486343383789062,7.249436378479004,14.645186424255371,-14.373993873596191,-0.9048895239830017,8.483537673950195,-15.79050064086914,-1.1330512762069702,0.0721016377210617,13.56207275390625,8.437257766723633,-16.681652069091797,-9.941322326660156,1.8816663026809692,10.492730140686035,7.014019012451172,-0.8299631476402283,-4.1865315437316895,-4.754441738128662,-1.9960089921951294,7.4461870193481445,-15.232478141784668,-10.407209396362305,-9.14240837097168,-3.3511736392974854,9.113110542297363,-11.501885414123535,11.665699005126953,10.817797660827637,-8.769700050354004,-14.974040031433105,3.251973867416382,-4.441184043884277,5.461976051330566,12.387736320495605,-2.287360668182373,-0.19016607105731964,-6.045119285583496,-0.14991217851638794,-2.6762166023254395,-2.147834062576294,-4.930578231811523,7.807645797729492,-5.683720588684082,6.904736042022705,-3.4610559940338135,-0.7743185758590698,-0.1708633154630661,2.0607540607452393,3.245811939239502,-4.0527424812316895,-12.640645980834961,2.4297444820404053,-8.780595779418945,-5.346200942993164,10.929877281188965,-3.866396427154541,15.803349494934082,0.8091773390769958,8.463750839233398,1.6371665000915527,-8.57966423034668,-8.122538566589355,-13.440923690795898,12.086874961853027,6.070405960083008,-3.1121277809143066,2.7815632820129395,-1.5402398109436035,12.353737831115723,-15.038846015930176,-6.6073808670043945,2.375335216522217,-13.138933181762695,-21.366851806640625,-1.0670862197875977,0.8171700239181519,-5.167562961578369,4.148011684417725,1.649378776550293,-15.106927871704102,7.2748494148254395,6.263511657714844,-2.555025100708008,-0.7563073039054871,-11.122605323791504,-4.187717437744141,-0.9875553250312805,7.352616310119629,-13.753162384033203,-4.804035663604736,7.0185546875,1.7704888582229614,3.253204822540283,3.633866310119629,-2.38446307182312,-0.475276380777359,-13.419017791748047,2.9166500568389893,-1.17351233959198,6.30005407333374,-8.30606460571289,-7.257772445678711,4.592458724975586,-14.82720947265625,5.9193949699401855,-11.629060745239258,2.9685287475585938,10.84718132019043,-2.765796422958374,-6.07213020324707,1.7373998165130615,0.7059116959571838,-0.508331298828125,-0.42386388778686523,-11.972776412963867,-4.540453910827637,-4.8973259925842285,4.964134216308594,-0.7026897072792053,2.5473320484161377,17.40874481201172,20.065967559814453,20.6844539642334,-2.812704086303711,19.323440551757812,3.375335693359375,-2.4732587337493896,-11.539987564086914,3.6047987937927246,-0.2292717695236206,-9.909229278564453,-7.780406951904297,-1.5944961309432983,10.976827621459961,0.8953536152839661,1.5499650239944458,12.585503578186035,-1.7536280155181885,-8.621201515197754,6.556150913238525,6.530768871307373,11.3243408203125,-5.718166351318359,-1.1447460651397705,-6.716729164123535,-3.5004758834838867,8.21772289276123,12.75284481048584,-4.796203136444092,9.995126724243164,6.413392066955566,-13.162632942199707,-3.1439309120178223,2.40307879447937,-2.0376760959625244,-2.738138198852539,4.39085578918457,-7.37843656539917,-5.9738640785217285,-3.397897958755493,8.756840705871582,2.880844831466675,10.632075309753418,-3.8551666736602783,-2.96340012550354,6.532836437225342,11.1964693069458,4.84019660949707,8.347071647644043,-6.303154468536377,12.159955024719238,8.619636535644531,-6.572227954864502,1.0340335369110107,-2.572129964828491,9.571450233459473,-0.7636906504631042,17.427427291870117,-14.929475784301758,-12.711691856384277,-3.381464958190918,-13.973448753356934,10.184886932373047,0.00782627984881401,4.682840347290039,-0.4555436968803406,2.3773622512817383,2.241459369659424,-13.683419227600098,3.7954065799713135,1.76108717918396,8.087265014648438,8.936406135559082,-3.869994640350342,-6.024353981018066,6.031610012054443,5.264133453369141,16.34248161315918,-5.162333011627197,-9.970362663269043,0.02130247838795185,-0.6713670492172241,2.5786876678466797,4.835681915283203,-1.6248165369033813,0.8997172713279724,4.470730781555176,-10.246804237365723,-1.5004161596298218,-5.7607903480529785,-1.860352635383606,-4.469666481018066,21.440282821655273,0.41093891859054565,2.866161823272705,-2.0343990325927734,4.546319484710693,1.985189437866211,0.087533138692379,10.01620864868164,5.693010330200195,9.603202819824219,-0.3699222803115845,-2.0201125144958496,3.0131642818450928,0.580919086933136,2.5277984142303467,18.8775634765625,11.932027816772461,-11.14749526977539,-2.854337453842163,6.1718878746032715,11.493144035339355,-10.344459533691406,-19.16501235961914,-10.728290557861328,-12.485615730285645,-1.4659696817398071,-6.489798545837402,5.463562488555908,-3.787130117416382,-6.11698055267334,-3.9022088050842285,-6.278567314147949,0.6280375123023987,-15.901208877563477,2.9855260848999023,-2.279858350753784,-3.547335147857666,5.331822395324707,-1.770889163017273,-11.829447746276855,-6.8578081130981445,-3.975240707397461,4.2426347732543945,-9.057817459106445,1.761766791343689,0.8869995474815369,7.546750545501709,6.759270668029785,-11.381702423095703,-9.181425094604492,3.9579219818115234,4.167309761047363,-6.16534423828125,-0.49455100297927856,-6.887118339538574,-2.975607395172119,8.952749252319336,-0.6973136067390442,-7.194022178649902,-11.75715446472168,-5.1398820877075195,-6.409465789794922,-14.775854110717773,3.013230800628662,11.034841537475586,-9.356810569763184,-9.422600746154785,11.729896545410156,10.164339065551758,15.135894775390625,2.1895954608917236,-3.967015266418457,-8.895878791809082,0.26506975293159485,0.47231486439704895,10.098657608032227,0.7799086570739746,3.053189277648926,-2.0141732692718506,-5.493645191192627,-2.1139140129089355,2.886335611343384,0.33106836676597595,-11.485339164733887,1.206444501876831,15.601153373718262,2.2607409954071045,5.21172571182251,-8.447871208190918,-4.725635528564453,13.9013671875,-0.7897090315818787,12.027853012084961,5.385730266571045,2.701106071472168,-9.34148120880127,-8.076095581054688,-4.232619762420654,1.0184741020202637,-13.593700408935547,-13.61856460571289,1.2327617406845093,-21.533010482788086,-3.0809168815612793,6.758347034454346,2.6270864009857178,10.45650863647461,17.087371826171875,-2.9057695865631104,-13.737480163574219,-8.686921119689941,-15.19738483428955,-3.4631361961364746,3.402890920639038,0.36054959893226624,-8.257505416870117,-4.126559734344482,-3.938431978225708,-2.9636645317077637,6.939164638519287,7.702536582946777,0.9367958903312683,-0.8025267124176025,-7.834425449371338,-16.937665939331055,-3.5628910064697266,0.05070531368255615,4.609072685241699,-1.2032265663146973,16.637042999267578,12.408226013183594,5.555455207824707,0.5040730834007263,-3.024822235107422,-12.798483848571777,13.284729957580566,-14.64638900756836,16.06603240966797,13.730868339538574,16.46663475036621,-14.60205078125,-2.1814773082733154,-5.722099781036377,5.575314521789551,-12.91746711730957,4.8934245109558105,-13.596867561340332,-10.964066505432129,10.055798530578613,6.535607814788818,2.6072471141815186,6.627583026885986,-18.127973556518555,-9.67443561553955,6.804499626159668,5.752053737640381,4.724375247955322,-3.9109957218170166,1.3208502531051636,3.1363024711608887,-4.145152568817139,17.134410858154297,2.549304962158203,1.4232802391052246,-8.79794692993164,5.795938491821289,3.2392568588256836,1.6343199014663696,-5.7878217697143555,7.234122276306152,3.803884983062744,5.2950520515441895,-1.1751306056976318,5.267223358154297,12.147919654846191,11.59877872467041,9.906733512878418,-12.606935501098633,8.128257751464844,-0.13005970418453217,4.335338115692139,-10.00529956817627,-26.657424926757812,-12.266902923583984,7.819228649139404,-12.110111236572266,7.295531272888184,-15.100007057189941,1.728401780128479,-8.835538864135742,-2.345466136932373,-5.186205863952637,2.256200075149536,4.657753944396973,-2.0216422080993652,2.0242185592651367,18.032716751098633,-7.074127674102783,-5.181886196136475,-4.592094421386719,-7.000595569610596,-1.5492799282073975,5.2763590812683105,-6.765019416809082,-14.530047416687012,6.834132194519043,-12.206635475158691,2.758078098297119,-5.3227105140686035,20.747264862060547,13.277342796325684,9.653406143188477,10.706767082214355,-9.763619422912598,-7.7376484870910645,-3.8801310062408447,3.698570489883423,4.661229133605957,4.999809265136719,17.970638275146484,-2.1642985343933105,1.5230315923690796,-6.060317516326904,-10.050214767456055,-13.23160171508789,17.408531188964844,-16.886978149414062,16.903675079345703,-3.124083995819092,-15.018596649169922,2.8270623683929443,-19.450973510742188,9.292431831359863,-2.9013912677764893,12.675806045532227,10.12454891204834,5.613954067230225,-2.235527753829956,-3.855161190032959,-2.2833683490753174,7.94533109664917,-1.679581642150879,-3.901632308959961,-4.414686679840088,-0.3157757818698883,28.784873962402344,16.998422622680664,5.700704097747803,-4.777235507965088,2.834030866622925,8.676438331604004,6.922457218170166,-5.358343601226807,-6.817885875701904,0.5172128081321716,-2.38604998588562,4.211366176605225,0.20135124027729034,14.227828025817871,3.821174383163452,-7.4624223709106445,-2.732548713684082,-1.7729151248931885,-5.482490539550781,0.30096128582954407,17.294471740722656,16.478593826293945,1.620785117149353,-8.911087989807129,9.206669807434082,19.237258911132812,0.0485788993537426,-0.9318101406097412,-3.1079397201538086,-5.121608257293701,7.407963275909424,-0.22120638191699982,-6.312865257263184,-11.44153881072998,2.41575288772583,4.512909889221191,0.29234617948532104,-14.358652114868164,-0.5558918714523315,10.984314918518066,-4.368380069732666,-4.101126670837402,19.62531089782715,-2.981602430343628,-16.458044052124023,-4.46354341506958,-0.6487793326377869,1.8579939603805542,-14.355246543884277,-0.25826412439346313,-1.5499904155731201,-13.491180419921875,-5.239089488983154,-16.555343627929688,-3.527289390563965,3.7923500537872314,-10.07630443572998,11.52759075164795,0.5786548256874084,14.677772521972656,-18.966588973999023,-0.8967412114143372,-5.774171829223633,10.379368782043457,3.3762800693511963,1.8888795375823975,-2.827078104019165,10.414597511291504,3.085423231124878,17.2546329498291,-5.20937442779541,9.572769165039062,-4.1808648109436035,6.758326053619385,-3.655782461166382,6.394747734069824,-12.282153129577637,6.126229763031006,-2.236499547958374,-4.50797700881958,-2.834239959716797,-2.9225881099700928,0.32396674156188965,1.2556512355804443,1.6682862043380737,-1.1841459274291992,-2.942840814590454,-0.8474129438400269,-3.911414623260498,1.3768781423568726,1.2694875001907349,1.1845283508300781,0.48329269886016846,-3.8563218116760254,3.973416328430176,0.7057331800460815,-1.8903738260269165,5.231211185455322,0.9786750674247742,0.9707573652267456,-3.1474316120147705,-1.3745514154434204,7.032527923583984,0.9593288898468018,3.5480072498321533,-0.02146046794950962,-2.8725876808166504,4.704280376434326,0.4851449131965637,-2.21130633354187,-3.1212143898010254,-5.665402412414551,2.3585290908813477,2.9858522415161133,0.2034868597984314,-1.5597895383834839,-3.9461660385131836,-2.9956717491149902,1.0237654447555542,2.662895917892456,0.8596198558807373,-1.569003701210022,-1.579007863998413,-2.238682270050049,-3.944739580154419,3.151534080505371,0.44008731842041016,3.33600115776062,1.4597982168197632,3.097440004348755,0.7311784029006958,-1.9912594556808472,1.487504243850708,5.198347568511963,-3.7436532974243164,2.321208953857422,-2.395068883895874,0.608140230178833,0.28099897503852844,-3.0677950382232666,2.376540184020996,-2.0359089374542236,1.7011622190475464,-2.8922717571258545,-1.079384684562683,-1.2276197671890259,-0.14900030195713043,-0.11159507185220718,1.087645411491394,0.43915504217147827,-1.1102162599563599,1.1318408250808716,0.10421688854694366,-0.08715811371803284,1.8299472332000732,-0.7426143884658813,-2.4464149475097656,-0.6816924810409546,-2.6922507286071777,2.955678701400757,-0.1631939709186554,-0.617063045501709,-0.2979942262172699,-0.03886488080024719,-0.3200339376926422,-1.9314401149749756,-2.8730084896087646,-1.8495744466781616,3.1465370655059814,-1.1939997673034668,2.033984422683716,-2.257115125656128,-1.8738800287246704,4.252546310424805,2.2114710807800293,-2.2596218585968018,0.1037234291434288,-3.291576385498047,1.8615435361862183,-2.4482622146606445,-2.9026191234588623,2.737794876098633,-0.9673827290534973,-4.8949689865112305,1.4274319410324097,-2.1990578174591064,-2.6673359870910645,-0.45027029514312744,4.74282693862915,-2.812391519546509,2.1247589588165283,0.8341024518013,-3.0575640201568604,0.07731941342353821,-4.840725421905518,0.16410677134990692,-1.3174240589141846,0.5126366019248962,1.5647788047790527,-0.3012380003929138,2.2025082111358643,-0.656352698802948,2.093402862548828,-1.5386104583740234,2.2718565464019775,-2.1027636528015137,0.912466824054718,-1.834205985069275,1.1995840072631836,-4.645571231842041,-1.576870083808899,0.36601564288139343,-0.016026917845010757,0.12027908861637115,-0.024290891364216805,0.024667561054229736,0.0007945919060148299,-0.010928209871053696,0.0063414364121854305,-0.04499976336956024,-0.0016655828803777695,-0.046276409178972244,0.03703049570322037,0.04353514313697815,0.03187025710940361,-0.021408697590231895,0.029166964814066887,-0.03916526958346367,-0.014920963905751705,-0.03890620172023773,-0.006968204863369465,-0.024559425190091133,0.008356618694961071,-0.03855596482753754,-0.009071797132492065,0.0004057282058056444,0.010320326313376427,-0.0030110562220215797,0.003976705018430948,0.006179278250783682,-0.006638545077294111,-0.0012876857072114944,0.048329856246709824,-0.002776266075670719,0.013694494031369686,0.027392417192459106,0.04100003093481064,0.014107356779277325,-0.042576368898153305,0.028267012909054756,-0.025941714644432068,-0.014566054567694664,-0.02106196992099285,-0.03288175165653229,-0.02026420645415783,0.011476252228021622,0.011530282907187939,-0.01666906103491783,0.031979750841856,0.02837824821472168,0.007178235799074173,0.03681277111172676,-0.026586977764964104,0.01211633626371622,-0.03052344173192978,-0.04145107418298721,0.008439116179943085,0.008408360183238983,-0.015082430094480515,0.0027171382680535316,0.04349111393094063,0.0312577448785305,0.016770869493484497,0.027654455974698067,-0.033033497631549835,-0.005935553461313248,0.008970166556537151,0.021070975810289383,0.047889452427625656,0.015199734829366207,-0.011549421586096287,-0.02095061168074608]},"hiddenLayers":[{"inputMatrix":{"rows":20,"columns":68,"weights":[1.010448694229126,0.060578588396310806,-0.36685073375701904,-2.724238634109497,0.24370406568050385,0.17676995694637299,0.1581735610961914,-0.8718744516372681,-0.7749209403991699,-2.894540786743164,-2.353268623352051,-1.280682921409607,-2.0035712718963623,-0.07068905234336853,-0.6451128721237183,-0.50241619348526,2.6190524101257324,1.0427581071853638,-0.29371386766433716,0.3278600871562958,0.16646923124790192,-0.6117189526557922,-0.3945070505142212,-0.07869549840688705,-0.7033347487449646,1.877493143081665,0.2925947904586792,-0.6250138282775879,-0.530575156211853,0.2781990170478821,1.8934355974197388,0.5738599300384521,0.7238003611564636,-2.665289878845215,0.3007739186286926,-1.4628257751464844,1.6591930389404297,1.5697182416915894,-0.5413770079612732,-1.7400161027908325,-0.4505302906036377,-0.0097359549254179,1.4737663269042969,-0.8117273449897766,0.8187862038612366,-0.538172721862793,-1.0854159593582153,-0.17823942005634308,-2.2226643562316895,-0.1479967087507248,0.11235181242227554,-0.14620861411094666,-0.10279260575771332,0.48406147956848145,0.15889562666416168,-1.2802722454071045,-0.05198647081851959,-0.7162274718284607,-1.6325244903564453,-1.208793044090271,-0.10217907279729843,1.0867377519607544,1.0022556781768799,-1.204115390777588,0.06975091993808746,0.2885145843029022,0.9826570153236389,-0.26579487323760986,1.6672587394714355,-1.2286152839660645,1.147979974746704,0.37794187664985657,-1.4788320064544678,0.20820672810077667,0.5938355326652527,0.8193197250366211,-0.31123441457748413,-2.857191801071167,2.7386510372161865,3.03739595413208,-0.10480266809463501,-0.588281512260437,-1.2518417835235596,-0.5020476579666138,-0.5841270685195923,0.22243857383728027,1.0326067209243774,0.18164531886577606,1.963232398033142,1.1344196796417236,-1.560505747795105,-2.2945690155029297,1.1234420537948608,1.6279950141906738,-0.9920727610588074,-0.0167276319116354,-0.7965661287307739,2.880434036254883,0.9578385353088379,1.8893647193908691,-2.029405117034912,-2.978407859802246,0.6049479246139526,0.2276255488395691,4.2694091796875,0.9866827726364136,1.597602367401123,-1.2889474630355835,2.0184552669525146,-1.219194769859314,-1.0178167819976807,-3.970330238342285,-0.14257800579071045,2.7692596912384033,0.7630746364593506,-1.337601900100708,1.0938396453857422,1.3934215307235718,-0.9612594842910767,-1.6137830018997192,0.2633116841316223,-1.3990919589996338,-1.0404314994812012,-0.059118758887052536,-1.6852158308029175,-0.5241895914077759,-2.792161464691162,-0.48301181197166443,-2.0342447757720947,1.3534234762191772,-0.8745293021202087,-1.77224600315094,-0.5162466168403625,0.10326157510280609,0.050493691116571426,1.397342324256897,2.216392755508423,-0.4154004156589508,-0.11167726665735245,0.379241943359375,0.8017362952232361,-0.3159208297729492,-0.38075774908065796,0.06324779242277145,3.11572265625,0.40217164158821106,0.8608162999153137,-0.8486958742141724,0.8909227848052979,0.18377850949764252,0.5674228668212891,-0.593262255191803,0.3113015294075012,-1.3900679349899292,-0.1271866410970688,-0.8666542768478394,1.4239797592163086,1.1787697076797485,0.17522050440311432,0.3857003450393677,-0.563745379447937,0.25542405247688293,-1.76646888256073,-1.2909047603607178,-0.06409056484699249,-0.791215181350708,0.03187693655490875,0.7538445591926575,-0.38697296380996704,-0.7854210138320923,-0.40528160333633423,0.15024560689926147,1.6427834033966064,1.6164929866790771,1.5735496282577515,1.6525124311447144,-0.12068521976470947,0.19270376861095428,0.17576831579208374,0.5737184286117554,0.36813637614250183,-0.29791128635406494,0.8530529737472534,-1.3064905405044556,1.0920521020889282,-0.49176499247550964,-1.2695460319519043,0.08940109610557556,2.804141044616699,-0.14971093833446503,-0.47873517870903015,-4.018423080444336,0.7074395418167114,0.2087634801864624,-0.030738871544599533,-2.343170404434204,0.18945476412773132,-0.3346424400806427,0.08826860785484314,-0.478659451007843,0.23814937472343445,0.873377799987793,-0.04011018946766853,1.7487221956253052,-1.2725589275360107,-0.9288741946220398,-1.7480438947677612,0.026544271036982536,-0.20387539267539978,1.1447216272354126,-0.5488017201423645,0.7476166486740112,-0.2962469160556793,-1.3595058917999268,-3.8922438621520996,-1.6203577518463135,-0.27293288707733154,1.06020188331604,0.5757297277450562,-0.9278950095176697,2.420086145401001,1.187085747718811,-0.652372419834137,0.39983588457107544,-0.9825974702835083,-1.6064987182617188,-1.3693373203277588,0.7607771158218384,0.9014418125152588,-1.5469465255737305,1.050203561782837,-0.4060703217983246,0.9306405782699585,1.0097932815551758,-1.4762084484100342,2.0443575382232666,-2.797348737716675,-2.9242305755615234,0.2545102536678314,2.456078052520752,-1.2412989139556885,-0.5514447093009949,-0.8256000876426697,1.5599099397659302,1.775530457496643,-0.7181659936904907,-0.06477762013673782,1.0953131914138794,0.9363760352134705,-0.6536498665809631,-1.1346341371536255,-0.162919282913208,-1.502974033355713,0.18732906877994537,0.0944199413061142,-1.3589040040969849,-1.3575631380081177,-2.286484956741333,-1.9936168193817139,1.8411439657211304,-0.664393961429596,0.3148851692676544,-0.8693686723709106,2.098335027694702,3.111840009689331,2.874910831451416,-1.9446399211883545,1.7185982465744019,0.3286322355270386,3.4012370109558105,-0.016358932480216026,1.743733525276184,0.30592775344848633,2.187653064727783,0.6056001782417297,0.5007073879241943,0.4547470510005951,0.18992337584495544,-0.012594224885106087,-0.2972148060798645,-2.651618480682373,0.4586344063282013,-2.499303102493286,1.55462646484375,-0.1918843686580658,-0.7172796130180359,-1.4649361371994019,-0.7942814230918884,-0.043693315237760544,0.4767873287200928,-0.03838067501783371,-2.145440101623535,-0.8779833316802979,0.45395728945732117,2.2667245864868164,-2.038527250289917,0.06692303717136383,0.023901019245386124,1.0574301481246948,0.759791374206543,0.2181946337223053,2.5935657024383545,-2.592292308807373,0.1800699383020401,1.6525917053222656,1.9284359216690063,0.6050674319267273,1.1848760843276978,0.37784838676452637,0.571978747844696,-1.771630883216858,-0.6674122214317322,0.8364004492759705,-1.7093687057495117,-0.9256651401519775,0.448113352060318,-0.44823870062828064,-2.7457520961761475,-1.9048399925231934,4.111689567565918,2.0436410903930664,2.3763175010681152,-1.7816969156265259,2.1562485694885254,-0.32315143942832947,1.3630040884017944,1.1526670455932617,-0.3535957336425781,-0.2546238303184509,-2.7381844520568848,-0.6981379985809326,3.7283482551574707,2.9514191150665283,-2.173433303833008,1.862007975578308,0.6679607629776001,1.0743646621704102,-0.8940145373344421,-2.206897735595703,-0.011194225400686264,-0.8428149819374084,0.8178281784057617,0.8937313556671143,-0.025566741824150085,1.3611112833023071,-0.5730941295623779,-0.8531730771064758,0.5211766362190247,-0.23136821389198303,-0.8242194056510925,1.2307384014129639,